{"layers": [256, 128, 64], "in_features": 14, "num_classes": 5, "activation": "leaky", "lr": 0.01, "W": [[[-0.5060358521363957, 0.3256371995351276, 0.09199207594728968, -0.18230648365611588, 0.29376029480660054, -0.1828673456930637, 0.033116207807809, 0.037958898136144226, -0.1751521957312427, -0.21180288331416022, -0.12985722174999012, -0.30627392753308724, -0.04305218549911294, -0.5063653321598537], [-0.48021906056019387, 0.4967965102791507, -0.10013455381490409, 0.18000050723132435, -0.007742454754828404, 0.30775076659736533, 0.9196378308451353, 0.11858160331772616, 0.08004702953408027, 0.13410661124458298, -0.16712410168634753, -0.14953702937835286, -0.07119371931186008, -0.5386248615263358], [-0.13277982877497313, 0.2459546575122392, 0.15245445797468316, -0.005215305913393276, -0.0840057031834207, 0.042490246830036646, -0.12443424553166259, 0.27645439636463653, 0.5635141876738444, -0.25183425396132597, -0.13066891935602998, 0.0676048090657287, 0.49159812509743145, 0.019551357709950673], [-0.04638468839350942, 0.5033247019562022, 0.2630954874971948, -0.26044338580046333, -0.9112296651355103, 0.7107015268426163, -0.4157244153031111, -0.03615273478849134, 0.48004382253786126, 0.2000174804632462, -0.3059474986813374, 0.7765914669675624, -0.0727017212660734, -0.3491095417374779], [0.2179138219846126, 0.3357635863575683, -0.31454245367347805, 0.17602056772193103, 0.5261761011178878, 0.09004780224098757, -0.15751590848972422, -0.0066353668201188385, -0.14392695522625487, 0.19378757071743113, -0.47825425680367367, 0.22933074279959179, 0.38887035281171756, 0.5375874545607584], [0.3408301217208634, 0.41607416880625536, -0.026042642509164878, -0.024318881517046753, 0.29984048318132184, -0.2711402252344343, 0.4309923871651443, 0.20827819215654053, 0.2743183399353994, 0.025796196031703675, 0.2131962632409061, 0.3582836022975243, 0.38263254120581025, -0.6062919255664876], [0.04923311635073248, -0.38000364225101935, -0.6259593186702803, 0.23656257488975718, 0.5472480583696969, 0.3321190294134768, -0.004952033529309226, -0.5167025598313315, -0.2897074394812703, 0.25204403044876617, 0.5997832610939738, 0.005702544403852161, 0.14121085912398315, -0.22733820971349222], [-0.3382112781414176, 0.5234139114965338, 0.6257425808281529, 0.11985661159008862, 0.0004131691956085605, -0.43843623440898966, -0.27604633794178424, 0.08802649416836765, 0.36660255070042547, -0.3456442859765195, 0.40929463742949457, -0.15301079423627845, -0.7303546263727954, -0.024383653504103278], [0.30076297092462795, 0.0005307265218502551, -0.2946238990015469, 0.22251747866628338, -0.2398298881377653, 0.35936601316081185, 0.4278638082207802, -0.13836254571881923, -0.13400936093406976, 0.4310425021583907, -0.009023858815460042, -0.13383633326139724, 0.23004214817419755, -0.15590585926850373], [-0.6607612732701909, -0.10571416871001668, -0.18734625646063985, 0.626567464716392, -0.514238460083739, 0.2331929557967604, 0.6103932663803201, 0.20009991865160182, 0.27045290654947973, 0.27387569339916906, 0.33597051625750174, 0.04879782771985695, 0.19995512385839867, 0.40971548588674417], [1.1063971541308073, 0.03203087739202056, -0.2395710105552279, 0.3905226749940909, 0.14527067157871293, 0.10787981974405876, 0.0026819078999697097, -0.04633193103305573, 0.283728656026561, 0.001239117207809105, -0.06287053403485711, -0.011200682893666198, -0.10028730173628018, -0.41452124021551356], [-0.3224434523826926, 0.2738184256459542, -0.26872506406490837, -0.18206978383877173, 0.6250203542125161, -0.3004987027490894, -0.030883272327872646, 0.4915291954256669, -0.04536634209468584, -0.16303423998623287, 0.35280295967172515, -0.013513920822101805, -0.02991664605559023, 0.677887694436594], [-0.40614523157201843, -0.0244180412572209, 0.023169053298608376, -0.37386025565993686, -0.48711135799552685, 0.0890080411528188, 0.2759204018857045, 0.38281532844530763, -0.1430776234152174, 0.08460641584235032, -0.5583700621302121, 0.5812171851404024, -0.14257349139402392, 0.1082227121563785], [-0.2706317607782894, 0.36197707295613346, -0.8443225905384959, 0.018888395820976615, 0.12937955801731854, 0.7036498088369803, 0.33541858400472035, 0.09483314899187616, 0.9499277642792135, -0.7464797878396436, -0.058818418903139595, 0.32544306306674675, -0.020983144669293692, 0.10957517402137337], [-0.33452241286196527, -0.4090307893566362, -0.4709820523473078, 0.15979144035402837, -0.021441886807531552, -0.08699259181138361, -0.47451434827652855, -0.09413176788243605, 0.09445092748323507, -0.09699488582601754, -0.3546828019493499, 0.06868648406512702, -0.07432368843724618, -0.06227472216288198], [-0.022045998147075013, 0.028650960436396204, -0.06474228311912764, -0.04010294516464655, 0.011209361274470565, -0.13876186651357933, -0.06995931369205259, -0.43702544316412667, -0.30101465535989513, -0.4200123943653989, 0.4811829718563611, -0.5426031203243004, 0.23298726858498944, 0.25640461707882584], [-0.18551822146474786, -0.3004382116165184, 0.41354580665949403, -0.13416070240666592, -0.21298135988065817, 0.2465393777445761, 0.4156289142843647, -0.4759714301506886, -0.047018343080024456, 0.038901852615456825, -0.8101186945482417, 0.28443617681305977, -0.46824313547286806, 0.059893126469849775], [-0.08515400963921989, 0.01395237942968081, 0.19401610998141391, 0.12549989837820008, -0.8058811972853339, 0.3096892968123761, -0.21961690313334642, -0.5114035471971078, -0.1614743998369423, -0.060662881052022374, -0.18021814014776455, 0.2484395200855936, 0.19943985738242262, -0.25590439223190087], [0.34871297969319653, 0.9369336778113326, 0.08507820631601079, 0.032367866162863974, -0.33136824042433183, -0.29190391041716157, 0.3825741058088861, 0.4878206245611263, 0.15381096267154631, -0.21249716788291187, 0.13556403144212847, -0.21101347356603084, -0.4308148934928348, 0.17514375182590997], [0.20557221007617787, -0.3718644514577339, -0.6749228918529991, 0.23670980361610405, 0.7649284122578237, 0.3085147314869691, 0.04011812081075944, -0.44082466970539524, 0.41584118801940007, 0.20040428842987, 0.6230135200229265, -0.026828184906213755, -0.4587973382519393, 0.06258620263636037], [-0.0572369751952822, -0.43629073416130765, -0.4450173007651647, -0.028682031418638235, 0.20678616210936349, 0.2517632215669184, -0.08416557326814533, 0.42008022844148224, -0.1560039892423363, -0.36062685111329623, -0.324354890614661, -0.15705712959576912, 0.16747874457567663, 0.18068046866185927], [0.3164669481996181, 1.0363910099875862, 0.402716489821828, 0.1221035824803493, -0.49130598034430956, 0.12626824013662777, -0.08593569602228772, 0.4330666109983985, 0.17505061983628803, 0.13535269688652424, -0.4816580695618449, -0.1318689917596273, -0.49629915225789295, 0.5216013719657195], [0.7066511143395905, 0.13931194547819511, -0.2008453309387738, -0.2736957655165069, 0.03064148762700964, 0.5152414670636221, -0.43870995472865937, -0.3413258406178614, 0.14806961949032146, 0.3666448071095919, 0.22276981319956196, 0.3963355055019482, 0.26342329866869596, 0.08934710805409501], [-0.5628126735641306, -0.915203030307011, -0.2635512832043256, -0.11730512442375436, 0.2014609718004112, -0.3333052483771172, -0.42189738176111774, -0.1474076263555592, 0.40147913118318784, -0.09385278712672643, -0.4364868423690762, -0.30208632310607286, -0.48802751582996495, -0.27834111548419116], [0.13171738976578168, 0.14050923736675008, -0.13532047924110535, 0.2710456761105431, -0.555189571983041, 0.14542744285218026, 0.1576033749370284, -0.3757120494324449, 0.35213545452416667, 0.25844949246859633, -0.01962154576315889, 0.01528334003573417, -0.23335390326764857, -0.009830312550537058], [-0.11381827945707743, 0.48659514494100825, 0.22676175891642825, -0.6012647691445021, 0.5640305522838786, -0.646087608105811, 0.04541493871724572, 0.076470256069546, 0.1141049426657093, 0.4813239793386194, -1.1358378283398731, 0.41179598279414337, 0.1558270123111428, 0.4717822920571421], [-0.9493353128645078, 0.1372913693132364, 0.08836672184125431, 0.21834038062382613, 0.46915402386001936, -0.16229838417719059, 0.12031266212442893, -0.021305072489149996, 0.4299952020654274, -0.4879858994160199, 0.2203596967043312, -0.3632441619984421, -0.16092215093404635, 0.40890702834941217], [-0.04475429484347768, -0.29210501352533624, -0.7280723356493617, 0.06354420628829137, -0.09278648152841955, -0.01916245247080944, 0.18528988921898604, -0.2466587657620785, 0.002530099755944437, -0.13968134133100252, -0.19768582174754484, -0.3915160330810836, -0.3007616493812215, 0.02745237209766152], [0.09568220546492752, -0.12728649811559056, 0.27752134574864457, -0.6445198578239346, 0.05806911111403719, 0.056769904788295536, -0.5813387649623258, -0.5950411241060579, 0.5696290982347835, -0.1651346402828823, 0.682374093068737, 0.6123146360335999, 0.8490578543841342, -0.16232291973091037], [0.0448936754425845, 0.31710086030718115, 0.5485331568935089, -0.4197985503396018, 0.09543697310825171, 0.0953623131796591, -0.13013088349294794, 0.28747693218877024, -0.36396997623890576, -0.11291114662082963, -0.08948647545383627, -0.07376368910908081, 0.6787200838231735, 0.36127689448779465], [-0.260073465883489, -0.1365356945926315, 0.19477812100989286, -1.0651704356168772, 0.1262865035281357, -0.5575059441842044, 0.24694757262240835, 0.34030458907754885, -0.0993969860729947, 0.26877688017118734, 0.36663664227416054, -0.26233074831940273, 0.13391218453661316, 0.24966123893863654], [-0.6876441660039573, 0.06385178250912216, 0.3566274059928109, -0.20644371851972101, -0.5748117781439441, 0.04871993592964301, 0.19143982870133275, 0.5727890209415064, 0.1543506221381105, 0.15174638793691164, -0.649717012501295, 0.02084280828488285, -0.35344120485059577, -0.24596496832145842], [-0.6972474981258397, -0.27758771101502433, 0.49491268722088644, -0.14677338589110697, -0.2203027099265914, -0.011853364654212606, 0.007255562963400166, 0.23236285138320095, -0.03466386102973399, -0.16259129769368907, -0.3756336306303861, -0.4742590829539951, 0.10058434382990476, 0.8990074718882183], [-0.16174045252722472, 0.040513051549618054, 0.484672600896281, 0.14627647196203067, -0.23567254274399252, 0.17687409107391552, -0.26709433971183316, 0.6000426238705746, -0.0712088116916311, 0.15888545126620393, -0.3600328976746994, -0.09924474944301342, -0.4300846002486388, -0.4818666771669243], [-0.07848115676920854, 1.1199290879884654, 0.4297469583913903, -0.4330034682278446, -0.32793322350455806, 0.12334690679158017, -0.281767570711833, 0.029689793419335975, -0.27987613291058083, -0.3616749627760935, -0.20323096631414475, -0.8391314399105991, -0.40525346086094594, 1.150817520417279], [0.5185833173478988, 0.04735971449397577, 0.6793516864139898, -0.8381829070069293, -0.3480080535525934, 0.08603214345596523, -0.052489533497219784, -0.14447233028099266, 0.013918196353613627, -0.10355437300141526, -0.03370456447199036, 0.4597824854293531, -0.13368142644329223, 0.1773002177713823], [-0.35290120510614187, 0.3976931131342404, -0.33936368521503635, 0.34505792888547515, -0.33540098236202187, -0.07880280070862222, 0.13041862296793075, 0.2002788538311165, -0.8194417803042393, -0.00016875431236542226, 0.15416503385689576, 0.1516021521720478, -0.318923689164539, 0.07188765875730672], [-0.48925987049963554, -0.6332946827635179, 0.35931324241184986, -0.17076373503711564, -0.5220242806342141, 0.2248349395138514, 0.38603235685055165, -0.33940707475525883, 0.6263490169476296, -0.1681818586117269, 0.8655493116012841, -0.164289054048097, -0.19916048283189755, -0.2100148920759643], [-0.0864139018475944, -0.7038062556104525, -0.13202310246317778, -0.11872107732576744, 0.004554663694742986, -0.041242613321503564, 0.17705576653574026, -0.022656444424978925, -0.35807589415803737, 0.3900511909471036, -0.23618200998320224, -0.23978003647334828, 0.7788421900345112, -0.3200823988084459], [-0.18034022083907458, -0.25329280177605373, 0.004812218414156158, -0.15878811956333197, 0.5833196118638502, 0.5483191168929814, -0.8490810729826666, 0.34034187504880703, -0.07444696842944183, 0.5678650674514186, -0.12598585993453643, 0.4113844986336773, 0.20325516834887838, 0.24861623499557217], [0.3344977537174251, 0.1589355397512273, 0.19927550575360978, -0.12724197996784406, 0.8450062739695406, -0.5427685912945814, 0.02782060839968647, -0.1723748647932477, 0.5350626958583657, 0.06256240867031998, 0.7697710662622047, -0.0506965608945116, 0.3625888668174048, 0.2219700241669948], [1.2496658226670043, -0.20135765128391928, -0.1759905191905234, -0.32180358030004164, -0.10984731126420058, 0.18004226658612274, 0.17944698987134833, 0.08615875567110522, 0.12789834662943214, -0.22839805594297993, -0.5535046766922367, -0.23505825874457817, -0.24354442441619353, -0.14903781749542114], [-0.2755735922128646, -0.1069514210462128, -0.5389730398785569, -0.6526079253995811, -0.04111798991978503, -0.22408364529804517, 0.18877951563570025, -0.250128839539282, 0.4258877139885423, -0.06195596280240186, 0.34702893632049503, -0.6322301060300597, 0.3258999705576434, 0.3854164883029459], [-0.31001701245559504, -0.017033539828397, 0.3150095401676192, -0.14956057882676754, -0.14278299787792953, 0.23202018192972332, 0.22886976498344272, -0.8305284307539236, 0.062153253962012066, 0.35741463277756863, 0.4849741732531812, 0.3098408255338892, 0.46619800692337265, -0.09347714346765473], [-0.015649399128411814, -0.0600629129484872, -0.09620026922019734, -0.33389220860974467, -0.4514694880407702, 0.029679326808371202, -0.007408362485704796, 0.6389614773932129, 0.2462852362565874, 0.34756409504992886, 0.0548246526769894, -0.2672878909881719, -0.15861761977553865, 0.11072348060978618], [-0.5212685307230227, 1.0129218438366283, 0.18745611247305374, -0.7875364120256466, -0.08357874093879802, -0.6925510193178069, 0.29826005253254584, 0.17109088552666132, -0.06309950465561706, -0.14069310090150017, 0.40298193253311954, 0.2292668813672952, 0.4501476510149927, 0.6303739595358303], [-0.047811617383369025, 0.37683028780311795, 0.48989121868796376, -0.3737865801980658, 0.251116360598748, -0.14650227215798894, -0.01949230777341532, 0.027697953586715004, -0.9388480636972389, 0.19500122232608563, 0.31776710856520723, 0.26736987115980076, -0.5986523684344067, -0.1120919138850642], [-0.10252953886230239, -0.05320047003031205, -0.28018882148215846, 0.40453185842756867, 0.08560804763157445, -0.010957579897037968, -0.5661661872047227, 0.5706155925469176, 0.056504651384132645, 0.006282571389126232, -0.04970801468127506, -0.1594608746086352, -0.09319241806002543, -0.19476585055779386], [0.1270207246297641, -0.13705356697536156, 0.3735285184081397, 0.8100716350261384, 0.35811724506205433, -0.12914497138339145, 0.10144230525247126, 0.06061715421829607, 0.2985360400399619, -0.3455505711693065, -0.08959536441759959, 0.4796064657700864, -0.08118558178808681, 0.7242019210827341], [0.5638256008993212, -0.07078284909347572, 0.17490866851267456, -0.39473428838233293, 0.5185675667305669, -0.13462113400887554, 0.5340690463366256, -0.21078610370298373, 0.24325234557046, -0.49194447413093184, -0.8624550692953401, -0.15116023583954455, -0.04021464854538087, -0.17189431722515314], [-0.5335458695821698, -0.5505738806947545, -0.4132881367731943, 0.19180165833849092, -0.30746585549888034, -0.42676737487761196, 0.49792179230683825, 0.41667585880067454, 0.03809581288901738, 0.30873905006799995, -0.5303841266962162, 0.4674047484278782, -0.1644118863732277, -0.7714778588666938], [0.9115332691578955, -0.4364743934533767, 0.022756135292733036, -0.23714887524048753, 0.016705956843339413, 0.17018107544444633, 0.011519310550746726, -0.15416627314402334, 0.26593602425551843, 1.03064523280523, -0.40883620776271107, 0.381923156612648, -0.06860522511505558, 0.23149575279709725], [0.15687859602326015, 0.14463671975659373, -0.04625895938923223, -0.2887748964769811, 0.020084036393855236, 0.17442566489184502, -0.43880512981581093, 0.10701510861419508, -0.06306943615326531, -0.5708973672466328, -0.3615882148255141, 0.09228370942277019, 0.022286410108183347, 0.19245714274998724], [-0.4175918972022983, 0.08285858832744504, 0.45529420125821296, -0.14485865530824688, 0.3221819054829288, -0.4423756053187828, -0.004616987044651073, -0.08117846966668993, 0.01753865268161405, 0.3163331885728938, 0.16519828815745652, 0.2818106379859236, 0.2886953362452209, -0.3855604337558507], [0.4723170670090624, -0.39904518683850637, 0.33612078412739244, -0.3303221121864988, -0.016753349483095547, 0.37544492237563987, -0.5586789378297959, -0.10688999020829694, -0.6035886813521981, -0.1614397486979719, -0.10751444147882215, -0.5218476390061947, 0.02860419390559186, -0.11470235804258505], [-0.21691413941130325, -0.15914431894999193, -0.02931615893774593, 0.03373513976302813, -0.2438488563732371, 0.055017728137764406, -0.40548309055167375, 0.4788893267126449, 0.4205807670144625, 0.5373298799460933, 0.9775212184852005, 0.5128176989205916, -0.4083420252536519, 0.21800051859765185], [-0.1389508329341248, 0.0690688004293989, -0.7057498084066637, -0.875143117615191, 0.3452818779994545, -0.6872826238762574, 0.5828708409408071, 0.20261619788167978, -0.023217118242173738, 0.5182963605033415, 0.12310187000251889, -0.1200361865846314, 0.8929747783866894, -0.0543363540906832], [0.001232987242794682, 0.5919209724659575, 0.21777055569603665, 0.33311990457640483, -0.21462010717713886, -0.3710310232506459, -0.5277082333429808, 0.17734990034037493, -0.891949990291789, 1.003506524580327, -0.21750627980876344, 0.035699379226244075, 0.5648697715116139, -0.12013280664722999], [0.48277065882387576, -0.5172530385482581, -0.22947949201133497, -0.2717317496540279, 0.11389448516106235, 0.28324240683218455, -0.5090911265843174, 0.02579044386631276, -0.3121909945922994, -0.08876745692129118, -0.037005375032476084, -0.06579513361988545, 0.027567747386146327, 0.035128754356657306], [-0.6144731593750877, 0.295903997845519, 0.011573397751123043, -0.4701365150801942, 0.7815737489692649, 0.4822399653059535, 0.15588227274133265, -0.42476645572502386, -0.45582901336453746, 0.37716058848308415, 1.1506599856642938, -0.3222465882443245, 0.3869047954130572, -0.6982763538300406], [0.5563265752163332, -0.5607890491237185, -0.8555847325428465, 0.5612010486958522, -0.885831987125544, 0.5943460028536168, 0.26612588352851324, 0.0052629019005308, 0.17044521640174828, 0.24798835848135048, 0.7377803900805283, -0.24263067427491117, -0.15480413955700406, 0.44249028785900313], [-0.08227547060852777, 0.14815785338184648, 0.15409700327390066, 0.4188075771843232, -0.7905038399901845, -0.01722541131054643, -0.14891086329520162, 0.34648731942350836, 0.16874061161900686, -0.12781091001934985, 0.3352610355581372, 0.545494112161495, -0.485020905185859, 0.4053925934021768], [-0.20315227627365737, -0.32252921507394305, 0.19113692149341846, 0.4032672020432537, 0.2707646739243769, 0.035865147480963346, -0.2008863545118452, -0.29142846110491966, -0.016980646687282913, -0.4649776221422466, 0.9122223150434836, 0.33457612178282475, 0.18727774894908944, 0.059019231448732834], [0.04207855215565424, 0.07281932955667875, 0.19062264838631152, 0.6296205123731734, -0.276476006318159, -0.2746763228210864, 0.6218301237381195, -0.8356343114509506, -0.44009861469273137, -0.04453804696773727, -0.7329958209954732, 0.42292819580682345, 0.5503967982156074, 0.6406479854078498], [-0.09205194875618124, 0.08943135211937006, 0.2821483521230983, 0.09605846191718985, -0.3011357649635842, 0.07133787789092619, 0.5073742702288493, -0.20513051677375338, -0.057689517702780066, 0.5262219488597382, 0.39653271341962554, 0.30834497594964494, -0.9457042403785996, -0.7577168983546894], [-0.05848363999642676, -0.368195430313873, 0.05848473642568561, -0.24739532085599455, 0.47040240735692024, 0.2647812501695173, 0.320319142110146, 0.0481978890644156, 0.21476221040036217, 0.16020912873065846, 0.3055387705562337, 0.20594602001100534, -0.3292283253757084, -0.6667778471371534], [0.7015768855299558, -0.08044950362051968, 0.24989749452301543, 0.7366831993394874, -0.6188137002074835, 0.24679062109866448, -0.10923467379053814, 0.7386183811849952, 0.15502772883194535, -0.9570097755491719, -0.1351541009925305, 0.5674549802405591, 0.08933348968982761, 0.048127697271396166], [-0.3672381442036166, -0.4062461389890325, -0.6860573539099252, 0.5504889411193682, -0.18930194518127283, -0.3166683956343373, 0.03651018497958019, 0.1338452811904748, -0.1903997194317651, -0.4307578688760073, 0.45485179801520137, -0.011905780550371593, -0.1419984377360285, 0.3433352257900648], [0.1346033341583336, 0.1960431818537347, -0.17620657086698735, 0.2538359208599027, 0.3641399045185897, 0.09239867130419001, -0.36511062633402336, 0.22466786680096884, 0.13238799094900652, -0.4744160842631287, -0.6048273367684575, 0.5588612758500905, -0.049041251194194946, 0.9196119071454494], [0.1309119012467724, 0.30127044762616234, -0.6652933691205187, -0.43808181349412234, -0.3608620628138356, 0.8571250160246405, -0.2017579848997616, -0.5829547303995674, -0.11192874041879647, 0.24552068746471611, -0.3122905363904459, -0.4467926735149689, 0.07372564267181204, -1.0751557644195322], [0.037103659876425416, 0.0998818120213642, 0.2742887019855856, 0.10466513443307211, 0.10228821486990451, -0.5697538414977731, 0.3489132259218269, -0.7900020685629966, 0.08826171871506049, 0.4869162083140001, -0.2523614316672635, -0.09562196984499334, -0.39872182249520605, -0.008149156814629771], [-0.24139865488790244, 0.2894319702826708, -0.09351733246834343, 0.3458322415488114, -0.13701506583212952, 0.4017695499539808, -0.19815466398577336, 0.3727974611805604, -0.0024041477121682538, 0.494643670224083, -0.5329663305682139, -0.24059165070356467, -0.0715115152792711, 0.021917412601539243], [-0.14208379225504117, -1.0846785243943686, 0.41076005024467666, -0.0750530371996186, 0.3568092057084471, -0.013151809898741366, -0.3618297748164747, -0.8613350277918314, -0.4509916062998751, 0.2567191007447642, 0.09304826154625077, -0.0593761270977496, -0.19801736591919725, 0.2811637933027769], [0.0877067694141666, 0.0997689790227226, -0.361437651067025, -0.17296940831003388, -0.3884220824593969, 0.6041596924339034, -0.5949706690257671, -0.3759430439181679, 0.1443565280199481, 0.23142457962689675, -0.07153095074277348, -0.49147910798915495, -0.25539517773878434, -0.4579318152247641], [0.06860565385242158, 0.31993439927510453, -0.6064794282838377, -0.2192208986260093, 0.312417476720015, 0.060252254671219814, -0.3004970836001177, 0.9423496823575753, -0.011374649139820836, -0.2520748730913672, 0.27052798198402234, 0.050132939529072905, 0.0006291862898401117, -0.4998689038859826], [0.07873411874571311, 0.36991117118059724, 0.22085761202860357, 0.15832937758146157, -0.17407904719469455, -0.35097664319968247, -0.2635035642564495, 0.5712604383984823, -0.15356235339002486, 0.062442064092721856, 0.025299696361434306, -0.257857658348101, 0.3322572309599082, 0.41586761001032435], [0.0029909042412710925, -0.10991951004169294, 0.24069035996625585, -0.1751244903234482, -0.018838339033890723, -0.1753565793308198, 0.1778022853834202, 0.2624911259070232, -1.0763111630630284, 0.39085874077320654, 0.2076511466104665, 0.5320240510883748, 0.3791430382030015, 0.15883622281430482], [-0.48043726057622255, -0.26205562251612746, -0.16283102270572267, -0.576529738823661, -0.026208683949534003, -0.34842470418624655, -0.437409499798242, -0.07742079980545839, 0.12027626274673694, 0.514052654013661, -0.16683410493592565, 0.5258970894454301, 0.39036942120693446, -0.27656620354612016], [0.8137373811991903, -0.0652195153533677, -0.08197039734985578, 0.4971779171240066, -0.2011536179176185, -0.12023074468194633, -0.467409227559396, -0.04676441472230767, -0.1476985949956752, 0.4725674437967981, -0.7012093295057795, -0.5830957411572514, 0.19923466814323373, -0.31090668833201407], [1.0360530667875394, -0.34569734168300126, 0.3258722588021654, -0.41640433436956453, -0.2263253845101804, -0.036482694804912244, -0.5292870631803658, -0.042248882199252234, 0.2571718700876135, -0.3069662728733088, -0.5058152122692675, -0.23002764966329328, 0.3588158596711874, -0.3827382776377774], [-0.16361471184743617, 0.03810490401466187, 0.5395223722410389, -0.5997664432027708, 0.3778240735517117, 0.015616349421843902, -0.3192480203261197, -0.1260671098933882, 0.4770757260139144, 0.21033643754867498, -0.4047950963753556, 0.03901790401330198, -0.6538570482947481, -0.28307621276086303], [0.38037380611297383, 0.06398585693745108, -0.03777462152804159, 0.34421405940175703, 0.47287793167073633, -0.2474269553369562, 0.20960807395090056, 0.30088108535972596, 0.12831209616998612, 0.2113608925972429, 0.2850898892067132, -0.22592070195191086, 0.7269117424591596, -0.17809069844342731], [0.11574851044432177, 0.21299038765676515, 0.5056344522394738, 0.04908810083459466, -0.17243056948405805, 0.8231637552963086, 0.37948899565310706, -0.5981512494465893, 0.6088370985535615, 0.1418693410227413, 1.053237499310796, -0.6630079262878329, 0.36551969123008865, -0.5450558246044971], [-0.053435448684669935, -0.2023406223370835, 0.2581926148125403, 0.10093463855875434, -0.43270838237528725, -0.3126320569337013, 0.23683086923718769, 0.21861699575359542, -0.35770510781526615, 0.1931829914269, 0.03848374277114431, -0.25510147941783556, -0.29757017874685665, -0.0002270578432172088], [0.38102219927548325, -0.14284826466782424, -0.4279789953268232, -0.535662666296906, -0.0975109278657031, 0.1441670641942768, 0.410601190984183, -1.0612020453230975, 0.32542398400550815, -0.06955108887265161, -0.00803742186385597, -0.7722197663529087, -0.7746679446961624, 0.4100114761485417], [0.5391138588423036, 0.21997357137361478, -0.12046106148962725, 0.08355794406422681, -0.46488532159545476, -0.09309089474246963, -0.03829825653998479, 0.032197025306792984, -0.7280482046676354, 0.39312295350142784, 0.29786130300141606, 0.4588629610688119, -0.15547063283418852, -0.3765461738260249], [-0.23432589262449513, -0.06935828801158621, -0.27062172576723076, 0.22427888897449366, 0.0030580135642130643, -0.398846947003803, 0.3221177679185374, -0.5492654816014391, 0.20619674954725753, 0.21036009508776193, 0.23749536118385922, -0.3420480897576741, 0.28962769845005926, 0.5415255187980317], [0.05658922025310942, -0.38104491903285287, -0.19800753290332673, 0.8450708374646455, -0.21531552705215457, 0.10362106496810464, 0.29501250248109884, 0.07111589378566145, -0.09721257361147481, -0.12741033542247016, 0.04247608280010285, 0.054824720135534986, 0.20421907133281003, -0.16606013004297118], [0.14027497219330076, 0.47994589199482185, 0.2873920419903937, -0.06405046997670391, 0.24847169625919976, -0.24735393919639548, 0.12238328759797966, 0.09763434975348122, -0.023656272436484452, -0.19654089285935253, -0.6210761971022837, 1.0932576195269632, 0.17968307847193452, -0.03982726985431424], [0.6340105004877503, -0.23622337128072585, 0.005329877144942469, -0.6577746223107857, 0.03846724636075146, 0.2537864658920653, 0.02211040304255744, 0.30007268554248245, -0.3420367139026025, 0.6242109141645169, 0.5054027820278154, -0.30194683516366566, -0.11784084136681588, -0.03896050083723292], [0.22013433474705146, 0.1625506014496271, -0.11317782789073809, 0.16819636399259977, -0.0005348106045599641, 0.7144831088029963, 0.1433833326191946, 0.5872542554716413, 0.20467644509561203, -0.05320714864343482, 0.7889424706727015, -0.14261311469576282, -0.15740618272065404, -0.008991513949130983], [0.4651504652706913, -0.049885681527046574, 0.217931140927091, -0.3611580146067731, -0.3602360627921518, -0.19204828293712925, 0.045835978696567865, -0.27690028606335065, 0.6202482703604336, 0.1403746863802761, 0.4751604270002969, -0.00041377909641524967, -0.20736650937527712, -0.8569484780666604], [-0.2881919332171834, 0.2296537685901324, -0.4107671252474052, -0.296404066109295, 0.22666017778797956, -0.8069580399333433, 0.1079628180839432, -0.5345934615266217, 0.03614145693851823, -0.6147517385024727, 0.4648760463377292, 0.43059171769846477, 0.2767358169982774, 0.837133889146545], [-0.6720675605625827, -0.20658865463128304, 0.18864832818447644, -0.18401796671192097, 0.2621142850985015, -0.43151492600842134, 0.2622461323943507, -0.01829454315468953, -0.32826840401245827, 0.21848455519998283, -0.9063303759113546, -0.019725851717085137, -0.2147665994693602, 0.5556262940856811], [-0.27122257731420457, -0.07523379565195923, -0.365398663610066, -0.13457019395331438, 0.12214750758045932, 0.4750946055417653, 0.7131426037095182, -0.01889348903423299, 0.36816589435132974, 0.06488564769507296, 0.5178956805298871, -0.29304670424529694, -0.5081557342647758, -0.22431721265896504], [-0.27461623032674376, 0.19992700608314956, -0.3098136723836981, 0.3028524679769851, -0.33043154718197554, 0.22721542023224434, 0.06772283465703893, -0.28357415495571503, -0.6101787181602359, -0.03689265561792676, -0.22058183542841728, 0.3665765260797228, 1.283039243523946, 0.043098829991780344], [-0.033925506096339826, -0.13195368192847648, -0.15348312622023758, -0.08950443342202577, -0.2635574532746982, 0.3763644180288194, -0.38376105378427006, 0.10100402610145176, -0.05204734443789335, -0.17500466606516524, -0.05141710545999748, 0.725910113193159, 0.0023635436774797577, 0.1214911724684231], [0.1529876217247552, 0.47926749233611854, 0.07326323344064031, 0.1929114487043398, -0.12852439137046395, -0.4847368210409293, 0.080760694381396, 0.18445860516102305, -0.019521085485753834, -0.015179966015527572, 0.1175626687078917, 0.22846471618156636, -0.37110359650289015, 0.293848589945579], [0.25620763530867596, -0.1569906304765948, -0.07171302000757047, 0.27867644371861866, 0.06376703807233552, 0.22337636036871186, 0.10444921377531714, -0.07722832978800079, -0.17201739931230672, -0.12897014227062098, 0.06499921532822314, 0.4436543256504922, -0.09405874524718738, 0.11877000970554893], [0.5369568901526787, -0.3800773332763684, -0.05012737882673961, 0.4353736133035947, 0.32974428336843437, -0.08644133672508043, -0.04446115636299164, 0.07969881570686271, -0.155512999552051, -0.1705846395536904, 0.6490949219466958, 0.43447673584142416, 0.275595660579335, -0.2813897917831925], [0.12209102947340791, -0.458976862586717, 0.3101245856606898, -0.05885982487568036, -0.4289786638043275, 0.48071398769924056, 0.10465365102489753, -0.14251162506280848, 0.18058078673367142, 1.0976483987687382, -0.8169969267894887, 0.0043832628538197395, 0.25892005250785977, 0.02659269976491351], [0.4530440077435828, 0.10480989995331585, 0.012040119629266863, -0.23277166384187134, 0.475657788989344, -0.52926065662023, -0.5786416840125432, 0.5271512909322806, -0.25091375257507376, 0.3986583856656998, 0.029622787045717774, 0.6268871267855294, 0.10059960395534788, -0.06266699918299926], [-0.14553950395497206, 0.00670215487579934, -0.20554987873499622, 0.4705175033549751, 0.18552638619728762, 0.7008966337907243, -0.09525325632276033, 0.3836691381760109, -0.15531756040488237, -0.7557210774208707, 0.07901948177942839, -0.08179186871350892, -0.07830082820080139, -0.13882399185494607], [0.48108688158282004, -0.07254525393994235, 0.9374370390228363, 0.15183383691269847, 0.5031368393949393, -0.011265006379584936, 0.1827096698340908, 0.18521398796943653, -0.34085544293811715, 0.12706866253355278, -0.06084631735265771, 0.022958415285418244, -0.5278322742704021, -0.38332110873384984], [0.38445906921611905, -0.2661958667203679, 0.15644348193842833, 0.31777994769789447, 0.5836125141983817, 0.23576751108035082, -0.7037658561707321, -0.1193460374192323, 0.3261651738267885, 0.4286090562167365, -0.08305499801531152, 0.43259790824940314, 1.0919647983937855, 0.8494100992816481], [0.45299595241978885, -0.320006878979033, -0.41991708304510084, 0.04595907769907142, -0.03298480306261404, -0.17609524145114624, -0.0003187416689568791, -0.493317018472657, -0.1650685569483528, -0.4440055502296158, 0.33707185419061314, -0.21893861411031668, -0.19928791710380678, -0.5915671016982211], [-0.2836799992192867, 0.2572902830357055, 0.22479356175283394, -0.2434078931557151, -0.706288776439725, -0.3934049485220457, 0.20640984858474035, 0.1182374851209532, 0.49124928412953967, 0.6119204223446668, -0.4166078762256016, -0.10701623500787145, -0.40033427643321395, 0.3356834331044455], [-0.47657438414498837, 0.1498267113156731, 0.8103505095331915, 0.6455685618393328, 0.646553273127613, 0.5128826037502513, -0.07196658010199554, 0.5498729064661209, 0.4405048971886542, -0.5277867193661656, -0.05599780772112044, -0.03936250292365834, 0.15033727567069916, -0.4564613525672377], [0.9067146323100915, 0.30497399249032897, -0.241486066256178, -0.09673273648472722, -0.022218853311161454, 0.22251064001060375, -0.22469835708047023, -0.07730537921756718, 0.5595959787862205, 0.6154128289767876, 0.024790930775663057, 0.05115713881362453, 0.20005545079099435, 0.45594358405257795], [-0.0211093371083612, -0.12086681307969106, 0.4062835985482221, 0.34859146634989674, 0.25410086200075566, 0.08087364062051934, 0.40927683320132924, 0.8632975419532766, -0.14889017886844497, 0.558813823435011, -0.8025186991864556, 0.2563132434448808, 0.19616867814719288, 0.6082534376767594], [0.3758409691057807, -0.2930017999591689, 0.6481809135526486, 0.15317417316040338, 0.27849437896634227, -0.27260752421257534, -0.07750117370579251, -0.8166337591061057, -0.2531645225312745, 0.7132565145895265, 0.5283898843033533, 0.045128716920736583, 0.03755038157187107, -0.09948851358142194], [-0.6789912897461435, 0.241523600123961, 0.42661110905153243, 0.2499360021743506, -0.32079961374928806, -0.06059908535567244, -0.2681823005428503, -0.3012965384600702, -0.037982219551441404, -0.4008057536677817, 0.05947960588640112, -0.4480778998647263, 0.6687704642287478, -0.026598230713543454], [-0.20236914798338632, 0.2979542074442671, -0.29628951822731514, 0.15432717546471497, 0.48563163135291015, 0.0557333445025558, -0.19169556959651227, 0.2800623484767316, -0.13260384047975532, 0.11293783444122732, 0.3462251488678084, 0.5477876220942972, 0.3116312263570934, -0.6593345655285325], [-0.6149639020939023, 0.3906316953258082, -0.08246968524184731, 0.4030292764308056, -0.07590639792950558, 0.532221817708333, -0.07130248136236667, -0.17941495044850214, 0.38315593321481295, 0.1732089136112253, -0.23369068147125857, -0.9748025455201622, -0.06864089104340028, -0.45333892099612944], [-0.314298460979905, 0.5085179397391968, -0.1511432407823741, -0.01400596437078454, 0.19700649334942247, 0.33348727822248303, 0.015755599754544703, -0.22450840790225388, -0.026216070967351172, 0.9566912035366106, 0.14512186534220115, 0.7292674809981274, 0.05290849513380288, 1.1206764444061943], [0.227015403485367, 0.026903707537393465, -0.08761838161255411, 0.3291252727373534, -0.8621118997395157, 0.24242762030713016, 0.5519040968765325, -0.10641331597968691, 0.50301975050384, -0.09195402631031227, -0.4852254230333927, -0.2468304999256362, 0.48894147214438705, 0.45661305484661086], [0.10981896063242044, 0.14114260124591985, 0.23947020155105275, -0.29303648788387654, 0.30856917111786153, -0.5547563185600267, 0.32836323032013165, 0.3943953358653721, 0.3127152958873654, -0.20968890870333085, -0.5550423129854536, 0.8320560714725738, 0.16778939526269762, -0.01668523426283602], [0.2347449555359885, 0.10221033542636582, -0.3869585980179847, -0.3636433352501855, -0.4157697563727705, -0.08263217553004606, 0.6306421986630568, -0.11250964854540986, -0.6354895453953614, 0.4099763814616492, 0.3981286961786815, 0.5676750986222034, 0.19530374184199176, 0.3872070625713189], [0.4106729802655407, -0.5170135739896599, -0.31794496308032444, 0.2959067198709298, 0.446539965892205, 0.3963964874198832, 4.25909080416625e-05, -0.08960542313750787, 0.021188216644648077, -0.18396056947167896, -0.43346558453109324, -0.14673066586244715, 0.29332600587372687, -0.2612291660074269], [-0.21444824855961755, -0.3499534178189605, 0.4547127947477976, -0.5747589870393672, -0.13922771401098466, -0.32078954454243186, -0.19287108295106223, 0.02814329788565742, -0.2169010652283065, -0.3686635130575985, 0.2684614185733756, -0.1786882194414222, -0.39024191096153643, -0.37468015459528425], [0.04139633598105786, 0.2542290170126753, 0.40028012659116463, 0.6495339167771652, 0.5529763582688607, -0.7605856752833623, -0.03704476111306548, -0.372364770567487, 0.29599342410813334, 0.21060796468809218, -0.48432852487263944, -0.22134672304972633, -0.23794965912153568, -0.026212439193101723], [-0.4953675227808207, 0.9048007109567298, -0.3554475739275865, 0.5977578654016404, -0.19331501123200173, 0.3702845990171631, 0.4400822469779085, 0.00019011751767126415, -0.4685299401642943, 0.073184297029382, 0.7011836955644197, 0.5800601750372303, 0.06124849009130653, 0.6598960037045398], [-0.34508012909146196, -0.37368855749004437, -0.22160830167613887, -0.20239979884178394, 0.07050495544267366, -0.3794047985112591, -0.11287223448357243, 0.045457854585352786, -0.22893220168797082, 0.6284276489018296, -0.1921204368232006, -0.629811596830393, 0.08711995707605023, -0.3243028713555761], [0.09246775487545894, 0.09123880550146742, -0.08174976884602898, 0.9085861144819269, -0.5530519140838269, 0.6751721363509159, -0.17124060631700003, -0.3385626149444565, -0.28533039726002063, -0.6116036434690162, 0.27344727305165595, 0.052255976836441724, 0.00018146366576466584, -0.10799182226501777], [-0.019544939963519227, 0.7123592671992199, -0.4223740670167845, -0.012000699512254147, -0.024278305471925877, -0.030224568845356837, 0.3599026815426724, -0.3679878185640667, 0.33157313502645647, -0.5303690496301662, 0.27058137412463645, -0.4685902994698789, 0.1283438444131337, -0.14978185135162758], [-0.06782427642510087, -0.23957530044376285, -0.4309569393582327, -0.3986494893613604, 0.3700962799590463, 0.15489707345089623, -0.3567867524307017, 0.8882214978783499, -0.8684961891704122, 0.013295249312642714, -0.6502433063840656, 0.6505648555731166, -0.06623246143227926, 0.4894150804394865], [0.4413602082523836, -0.44712530012906393, -0.5279016944455358, 0.1679220349009769, 0.7840939038473623, 0.19878202683141621, 0.31314915732815307, -0.22000205519308272, -0.358167635056045, 0.3257636305273365, -0.24934750539555048, -0.8688151867103788, 0.10887285712578325, -0.09997737150980959], [-0.5964464091433116, 0.35123005807914315, 0.08782736350563367, 0.1521988379953316, 0.10247694036118374, 0.27910536042949063, -0.6379327811174966, -0.08959402654194956, 0.47218407787896, 0.011067161745030809, -0.5847391246784618, 0.18379458028663723, 0.11969364393005842, -0.040250587854410415], [-0.3939871889567899, -0.10703608826290041, 0.27223673315006647, 0.6769273612068946, 0.3216266576074565, 0.1431943234735132, 0.15984309143035716, 0.24081700105115036, -0.18134145604237342, 0.57516987731334, 0.1788638871624689, 0.023316442675685358, 0.2660409685296299, -0.14411496630298648], [-0.29028780092077733, 0.28510683069880993, -0.516971588710131, 0.0034921254620218713, -0.31908508869583857, -0.3676530958587608, 0.3988837877682481, -0.13365169375841066, 0.10380689059973022, -0.2621548290489756, -0.4738396819821499, 0.28608737419391783, 0.42922521577237477, 0.7721732880932479], [0.06409233456483449, 0.7198400792376627, -0.014841014140204008, 0.4981955438262332, 0.29555541930548945, 0.044741366159699196, 0.25328750120049875, 0.030679587217010716, 0.0978398715033119, 0.0415102593732084, -0.5321905869144307, -0.32576731519153584, -0.6440225824355921, -0.045936371092733165], [0.2447400718862587, -0.1012646801687322, 0.4219111873329299, -0.3779391111606929, 0.151565824842902, -0.061587487260745574, -0.515484138679463, -0.05441717613440811, 0.07799974936646653, 0.26566700886749234, 0.011817904594565587, 0.10062173062185654, -0.28726640169616446, 0.02618648420869821], [0.5270311426022651, 0.2783292092327384, 0.164348122372755, 0.15047899506762122, 0.20726716147366167, -0.5351191470272489, -0.3117066914170972, 0.14897956429293993, 0.5578944207377147, 0.24082971916416276, 0.2561748971051717, 0.3610068681966852, 0.24117260794626452, -0.17932360988624407], [-0.0075753837422339295, 0.279400508153473, -0.22709960206212104, -0.5252780698185876, 0.49513352409212624, -0.4023794699902423, -0.3597586869801153, -1.0957227248767705, -0.46196730081557763, -0.0634277333008662, 0.27933154406589233, -0.07583552322438951, 0.0650606645503718, -0.4500268676657776], [0.5044844906412943, 0.6698687395648119, 0.6162277812527117, 0.439420367721523, 0.41220953116373094, -0.27704306392624733, -0.5114091575127488, -0.1329907432064654, -0.2076688512486989, -0.53740829077177, 0.05065418672995877, -0.05439374550363927, 0.5616281977686182, 0.18260996621341932], [0.21188065140542015, -0.06307593933158677, -0.2640790972524699, -0.16725996569116705, 0.3632725241864725, -0.2357216347179792, -0.4045042087786641, 0.38140248331555066, 0.5832762916519336, -0.5504666751815056, -0.2381535594242407, 0.10322147504602408, -0.7079150202594439, -0.5270524020709966], [0.7277180854335887, 0.4063767391649014, -0.47078105920878877, 0.26385816782627963, 0.20476188195438244, -0.022163316213578095, 0.2944420501472992, 0.006246059293197268, -0.09467692245115185, 0.45470999296319703, -0.11364755985554126, -0.07347954821366054, 0.2061442759990886, -0.19781377824259905], [0.23334784180980742, -0.2386970153378234, -0.2655294604622273, 0.08445917128085292, -0.09942063666584712, 0.15180207888975333, -0.22388440711521848, 0.3930268709362064, 0.13604377117997413, -0.042362283767136376, -0.4624159753223141, 0.2894849745001434, 0.18473192834796442, 0.23154168648174567], [0.14754789492819176, -0.18892438930849456, 0.08519594559768062, 0.1240740474294338, 0.4948975225614864, -0.3542310984308204, 0.3835346289742865, -0.29788418015704593, 0.041664936098265326, 0.6568652339956141, 0.01207064516588117, 0.15424265806275858, -0.36757047107629043, 1.292591637763273], [-0.11557128238860387, 0.10645971862155927, -0.2660654909737082, 0.3758799655412178, -0.3490285226738695, 0.3115742882555182, -0.14529296422523544, 0.3127782731065663, -0.37203911362882663, -0.7051443649365053, 0.18549029297650768, -0.208698774191565, -0.311745359220379, 0.5909161427837044], [0.1679152643103283, 0.030892571153230866, -0.4744159751728673, -0.7389196044296913, -0.12993280470157761, 0.46195250390218934, -0.31154535471332995, -0.3234319432448241, -0.13941059024753333, -0.08382908178159615, -0.07780562684266973, 0.36959744125512756, 0.09692203906052321, 0.16104152041834047], [-0.29388324903764784, -0.5268847300134187, -0.21339795146325632, 0.5133495194539911, 0.4724416793483803, 0.36512827507902057, -0.6684348020387121, 0.19048927401082885, -0.03529435753684505, 0.6067457499390743, -0.0732790563145691, -0.1421316327166464, -0.5544404179395566, -0.29774684727030126], [-0.3776064857276775, 0.4410164762164643, 0.8061603039028368, -0.3811025575690857, 0.07264834908888461, 0.15245648716028648, 0.3513582915883857, -0.015492750649874246, -0.6161957263533674, 0.06369384383443172, 0.40120137440716347, -0.27846709066018255, -0.2248517947700531, -0.4266361454781688], [0.21858402600114213, 0.43871475567565044, 0.04286908007641605, -0.13600121384426844, -0.015171367061554123, 0.1179030545511514, -0.5506538967502376, -0.15208414990150965, 0.4935757801653639, -0.011364798468189137, -0.17703581347361994, 0.5881606576868031, 0.6107064200436654, -0.062469335862000513], [0.48165952303052656, 0.7164504628253224, 0.5415790294676771, -0.0971806096149954, 0.5630592185995305, 0.10102493638753572, 0.07241187819149447, 0.24271836747866654, 0.5835942970276206, -0.09682352300885853, 0.6386310838932745, 0.002068749384821633, -0.362946820607354, 0.3616008094349918], [0.13891649574135467, 0.08471627313590957, 0.5144687584226457, 0.17665486195594254, -0.07932286688643404, 0.19677133356680934, -0.3158643969432117, 0.6399854680821591, -0.3410529065590151, -0.6094073222748734, -0.23441844134902037, 0.288340175614851, -0.3096870566162044, 0.5293087230752196], [0.13632914079949246, 0.11884285115908905, -0.47022944494516244, -0.3685967321413585, 0.21123757954009809, 0.09681970983934661, -0.27767483239585966, 0.32769698698566047, -0.2725411769916282, -0.251224375876003, 0.19035342160992424, 0.2072597433600544, 0.04763575140192446, 0.34977276221449244], [0.12728296786580864, -0.916277993407319, -0.07581836369719708, 0.7748778355592055, 0.17723563654433103, -0.7984079610812755, -0.6160260449763845, 0.7760004618120019, -0.060582937293877405, -0.5214544304249928, -0.6479276325478613, 0.27973580122327707, 0.5482436584083501, 0.21685779965809204], [-0.2831726681102882, -0.12585215549731008, -0.0770283782270896, 0.3390137824454209, 0.003621740799866625, -0.43646944567704904, 0.32694661707594397, -0.08139131317098676, -0.1050322824192395, -0.5100176648543068, -0.33271823391246275, 0.4636394417363094, -0.16508959195839182, -0.20272316117559594], [-0.02901961040488696, -0.046024289783956715, -0.04393268089409078, -0.05256901758462612, 0.008665377968784907, -0.13268186865689277, -0.02681844253042421, -0.1608312244162925, -0.11311959619839261, -0.49213760442047594, 0.12258437197848088, 0.06623070841908982, 0.19416040550035643, -0.5245859948799191], [-0.4746331108959807, 0.05342226504224835, 0.24558614225591546, 0.5802972797697561, -0.08128487321899032, 0.22185160068972604, 0.3939078793612119, -0.28953899248646914, 0.3825136639513233, -0.08682931804835355, 0.030138194426855693, 0.3789806264982417, -0.37867274090533976, 0.44865489769402955], [0.22844360590978371, -0.6001143247673778, -0.09552513025677799, -0.024264978564060156, -0.33301573274495627, 0.06689895641133464, 0.4811436482974182, -0.14273562546531204, -0.32217966137237897, 0.40385448233611365, -0.27670639412202647, -0.5889297675474504, -0.6013226364479198, -0.19018511894241005], [-0.1857166064230732, 1.020375744578197, 0.5686828465546595, -0.4777779492029488, 0.007206157460760043, 0.5259660198993643, -0.04418127588106882, 0.21782528336615736, -0.17942122453452133, -0.4811173598261381, 0.19230626916529192, -0.4497073727935112, 0.28256991737157033, -0.13119982223921242], [-0.578952825188896, 0.5486642830637533, -0.11418115222765822, -0.2280822430726762, -0.23263059032238867, 0.45588554822534827, -0.07061084622863441, -0.16155136303656786, 0.15862431845472222, 0.8402638070074117, -0.07640731847960192, 0.5766822778143254, 0.18495581727797855, 0.13307859434224878], [-0.14153638724179246, -0.18189439690803152, -0.4170558020987452, -0.31302868023698144, 0.48359229373811846, 0.51590565082829, -0.34224114605868405, -0.3275687366752177, -0.2772800994179915, -0.8417722026710883, -0.08497415584543083, -0.2084870296333104, -0.24462306080773014, -0.0829409168646167], [0.09067151318728879, -0.11390437423442544, -0.5912228820915197, 0.18854434158425518, -0.08775704951765947, 0.5914373380520026, 0.2128808571931125, 0.15525315710155385, -0.2839519062991443, 0.5243400600240754, -0.34002753032260813, 0.2828213346306234, 0.21115409250208048, 0.23328555167431192], [-1.0394714919340429, -0.246584364092271, -0.5160497304789302, 0.03166788498107704, -0.4125532408984625, -0.7578461337828363, -0.3217270405464804, -0.4400944609461116, 0.23509835695705755, 0.5295336723451908, -0.5551516721329119, -0.26245475180936306, -0.0194036944667739, -0.6628119031478618], [0.4134265707723635, -0.37927086278662836, 0.16194288337411233, -0.2586877600887322, 0.08964465569232462, -0.2142836314100386, -0.191426825134227, 0.26035446746646496, 0.1874642778806498, 0.030918498771981048, 0.16514990437701696, 0.10221781657837109, 0.3336053364703241, 1.1967879274796958], [0.015863996967841004, -0.614543925304367, -0.46443336838204474, -0.10779198377727806, 0.3964293411283268, 0.011490182197051786, -0.7954822871129306, -0.05245979360203219, -0.15392757919703662, -0.39041652636476126, -0.7961062638212842, -0.471393500324746, -0.5128795594363237, 0.5815697982909197], [-0.10313562388213438, 0.012313662008142967, 0.2931852246165166, 0.16528926575968528, 0.014372622643464143, 0.30573269699297795, 0.11355386325445765, 0.0286648254109762, 0.0343714546192953, -0.44890456398571066, -0.47302230385186894, 0.35548432082015125, 0.10634693746238297, -0.4580586429574277], [0.2166536587829237, 0.34944033997775564, 0.2665204495394054, -0.32558322299576625, 0.15305620302538347, -0.22143619527559133, -0.4975243177616769, -0.024958743930830297, 0.046902241743083564, -0.1661224622602136, 0.34735137082404943, -0.3945459214251976, -0.24278826344820645, 0.09020357428746303], [0.03717153602695055, -0.023052888404092663, -0.10314606117829085, -0.03802973549404633, -0.1404649202850041, 0.21618514441106107, -0.3379801671316918, -0.4431353060410879, 0.05775293819378419, -0.2722928382597836, 0.3403649137792947, -0.46893124576613177, 0.7389237702214139, 0.7051237426994349], [0.3566138536978624, -0.5304014575446971, -0.42275509196150546, -0.1923727995802054, -0.28074700852921286, 0.3796144758616165, -0.037737155005753885, -0.45235718961648447, -0.1538794814494438, -0.1594027561197908, 0.5440681982948856, 0.027722897289957013, -0.1632523816993645, 0.41049949962912907], [0.11130608918643253, -0.4217001590202274, -0.6273945833048387, -0.16623316557766113, 0.3148811805867589, -0.6614168893584039, -0.7739525604161717, 0.015797560948675876, -0.9299202022135524, -0.7041555376143961, 0.25763850751861717, -0.20021675653033724, -0.12674606077258652, 0.5116844760102834], [0.38058080593437804, 0.5848079369650349, 0.40729108655711793, 0.5692698860655112, 0.37706247950329635, -0.26252565821609425, -0.31607643677412034, -0.850359744011111, -0.03538717668078765, -0.35221321917243054, -0.014078463707138038, 0.2783890030043087, 0.5501249993318136, 0.24910875819195186], [0.09064568580099307, -0.5775981204080265, 0.40545035786809996, 0.15364652165115608, 0.08157043842180912, 0.28931883429096067, 0.026108689902036606, -0.3271390009633407, 0.15504863638758082, -0.3916440906572594, -0.08835089137738406, -0.4265488127948736, 0.6625765482219289, 0.39787670781501205], [-0.19228547011834593, 0.24229229122876564, 0.12036656100859396, 0.6916166489710404, -0.23446337468064077, 0.1431280198170277, -0.5503245617541246, 0.3551917842025192, 0.03346588214740093, 0.17581271309482766, -0.2196238523758512, -0.1258961065598717, -0.09224706776587621, 0.0028287784428704895], [0.1520727954492349, -0.4502958411972082, -0.260632795107126, 0.2553423740078772, 0.9546262636621344, 0.5991862848491541, 0.3507112136272137, 0.2725310867091718, -0.2599584680962069, 0.34721827853495535, 0.117571784135713, -0.29279109544225085, 0.8532855058768263, -0.1069015298612465], [0.3229869631272197, -0.6983915779933625, -0.1754125456642754, -0.21020531746518634, 0.7262784729857102, 0.40968013780067514, 0.16152360792723902, -0.053669692874205976, 0.2716775304171537, 0.16439686117449506, 0.5105070595232252, -0.0188344250105779, -0.4407016529258584, 0.5787048435863151], [-0.022449328171400225, 0.07554751910746638, 0.14333953421700407, 0.19516491431817015, 0.6320324430225932, 0.4640383377513429, -0.12845211086747635, -0.18877127004989924, -0.36450118437345774, -0.03985081755264245, -0.28722276562711013, -0.043115944093084994, -0.7498087667986059, -0.12936035765122916], [0.2540224915028264, 0.0649335489882476, -0.6835811158894065, -0.27489898114983286, -0.31974642020278143, -0.2273635184514854, 0.18425434395409382, 0.14435988448627488, 0.3705145669757594, -0.19288722104914155, -0.10396223368029636, 0.01715099229548944, 0.0033506420835839354, -0.5261111315103965], [0.08584499168438062, -0.22633505646705837, 0.1649348345824216, 0.13111563201408877, -0.23140761418592623, 0.11811768664112131, -0.5313237399356697, -0.8215328559547083, 0.1612064150443365, -0.38091421777052675, 0.5523953503380183, 0.4293090325657743, 0.0034236664353455145, -0.09166793098700247], [-0.14678217142900785, -0.591210039649172, 0.09496215417264031, -0.09187904321278109, -0.4108082131030598, 0.3230885928151817, -0.09691472624000891, -0.16293350428393646, 0.011228397207222313, 0.23348636614604648, -0.3188678248427128, 0.6346835327643634, 0.3322061549191162, -0.3353996880515951], [-0.015837447017466786, 0.5189266868302856, -0.298296180117455, -0.1572474932612628, -0.44864318190033503, -0.2007892431358889, -0.3373174967017812, 0.6676362269908632, -0.0026958827146583444, -0.8027364361455234, 0.11092617102928681, 0.1751824630040552, -0.3210649281499008, -0.007768372339777984], [-0.3921646332806015, 0.07905007585280001, 0.45832203131961363, -0.7214629084902222, 0.21408344034680984, 0.8119519561801405, 0.5277322828053312, -0.2073208135958861, 0.23986393744049567, 0.10064569854140372, 0.2680086977453958, -0.6376207252033398, -0.30964233815826503, 0.11084119524242235], [0.0839158593754086, -0.4853810808057662, 0.013266630888367116, -0.275759114924156, 0.40964639302511885, -0.6174089066457411, 0.1097434832466534, 0.43031096987425543, -0.42611555336068757, -0.22050192668985608, -0.37103603736231033, -0.6410543575272913, 0.017823361263123574, -0.6993551920420088], [0.18297815577082344, -0.021085602489349018, -0.3420106263178912, 0.018944189756017582, -0.17654269800271175, -0.08326670215685052, 0.23830864830468568, -0.22887168380400535, 0.652407085669831, 0.5506400217647412, 0.15575850477020228, 0.3273325969122246, -0.4827921061915923, 0.46173998628005186], [-0.13224060824801978, 0.23908537194498114, -0.02821113464144019, -0.6371673608616427, -0.14143124137749127, -0.48130178034713655, 0.09014043874794336, 0.2029277984309221, 0.3544587002256933, -0.5075710948116925, -0.4438191860023171, 0.4305174586673997, 0.07718938184066577, 0.21805795613630943], [-0.45429489653511684, -0.08369284793483144, -0.4405954459932164, 0.20641284966446502, 0.6794407100039159, -0.09911050526520342, -0.4366359169716036, -1.0561822233253455, -0.1937449616455888, -0.8176323842280363, -0.2814342710939413, -0.41208138372747444, -0.4476548352855197, -0.6698012377107376], [0.07182759982479149, -0.08364206163950161, -0.12887962612778084, 0.08653134749684263, 0.02350320956918145, 0.10766258655666615, -0.4036374805199573, 0.234030236669827, -0.17002119901638263, -0.126678350225146, 0.38670196386001254, 0.29123808556154185, -0.4745676805223003, 0.23997737092137053], [0.6571190236222328, 0.08890254954983753, 0.04064439532179295, 0.019652565143622847, -0.17985413551057186, 0.11685508215813097, 0.2259561126971476, 0.6114069630689584, -0.30978567659704465, -0.164501995886147, -0.3063149643919436, -0.5941804652862844, -0.12765857631754698, -0.4251941004462816], [0.4989555000318954, -0.10316071299264909, -0.04227009576235469, -0.12997975491974909, 0.3680874622884771, 0.5262262384487318, 0.06561439028471025, 0.011955999381374762, -0.21271798763511718, -0.043998014127805775, 1.3565331687081188, -0.05529669469311181, -0.7521753613080999, -0.19028586488320476], [0.5287224871612017, -0.07724307918541753, -0.5265213682638639, 0.3627108674240785, 0.07856969378761958, -0.2587429150330557, 0.2471477732034841, 0.6192538044028387, 0.23927551943304154, 0.20868465158724153, -0.8931205377596132, -0.28505872257204135, 0.685215188434246, 0.17816339632944672], [0.038757025341037185, 0.3093920817776223, 0.1367355889688683, -0.19523142690979964, -0.43182889198683205, 0.27966361062314027, 0.07720845826045279, -0.011923329142062431, 0.2787270858907869, -0.09544598839872605, -0.09271361430447198, 0.12361337901283817, -0.027258090787807502, -0.5387406762739427], [0.49297821963385, 0.5226117617222097, 0.044863811041836586, 0.2736843038645805, 0.23536832787364526, 0.27176572221207607, -0.34482859246990794, 0.22590294010249065, 0.5154082330729481, 0.04595932143107476, 0.27352730352480786, 0.3085554297433439, 0.6368896943588132, 0.20954085347034737], [0.0792585306885338, -0.6764329611640013, 0.41884051124038346, 0.28147693482688263, 0.22070786540585505, -0.30618727103141186, 0.4239977059619846, -0.06534225774455792, 0.09404425930023068, -0.8166578151714613, -0.04083952147153122, -0.4219696997375077, 0.2798663043161438, 0.07593305721482503], [-0.342114299383272, -0.07196627972241662, 0.6962859211934742, 0.019440345933345284, -0.07692087285266477, -0.3756246774277747, 0.2943327809580331, -0.32549716085667063, -0.6774448072200704, 0.09564636241532089, -0.2546968999531603, -0.00421461043476028, 0.4017318318339721, 0.140506504225565], [0.38771518928529813, -0.25524319584446664, -0.39960178582774736, -0.2852011749277709, 0.11549697523739678, -0.46101366192126947, -0.09759856252226465, 0.19015250211882115, -0.6728725201094697, -0.7400091036110045, 0.8839274924617547, -0.20627937595779686, 1.0412749857289063, 0.41725657437647706], [-0.2389557225063556, 0.3682542759103234, -0.028020965128482348, -0.17664579134278915, 0.6152839434187108, 0.553859629974479, 0.08234944341078276, -0.05533970693908073, -0.08853270464861908, -0.6944074773245495, -0.38010241885831825, 0.04928915920893512, 0.43368917025193726, -0.335113185240967], [-0.08492352682291221, -0.6432580280958313, 0.6591824474361042, 0.18265767162563196, 0.13695109635297445, -0.4210430558663447, -0.25468575977294594, 0.003958930434845411, -0.11178151196207695, -0.25475261327521526, -0.15154497287263632, 0.5458476587267032, 0.06448720961461071, 0.20505978416970863], [-0.6618717217668019, -0.4416013760325665, 0.49266920359882566, -0.4241484056302258, 0.1760950575351041, 0.6639142402075463, -0.6226895112920467, 0.2679637320930261, -0.12149046185974913, -0.3798370842102371, -0.26262084673051667, -0.009412965531654742, -0.239616077665208, 0.35763222112269866], [-0.07189393831685092, -0.03071870501333384, -0.1165404734150448, -0.167947920982926, 0.32378726018314036, 0.7590567225894516, 0.5088368933023003, 0.14752429163629813, -0.37427607359666404, 0.4866164530739049, 0.2220559833717125, 0.015154242857480888, 0.2128668098224439, -0.1132158351252431], [0.04395625034105582, -0.4826318875372128, 0.8119329553987678, 0.29584035413681226, 0.009177819431693126, 0.14514294410813033, -0.27256916349566895, 1.0149839624374, 0.19208280469998243, 0.23772419752818705, -0.24181538907560424, 0.18653590754941157, 0.573389624598151, 0.4455294890304263], [-0.09199872345278823, -0.4499841363790377, -0.23542149487011169, 0.878596271106866, -0.032003260559855466, 0.2931483927528051, 0.10381934554808794, 0.16647828846302326, 0.030733864618145826, -0.4402116363803126, 0.4032737497822913, -0.0841269773064657, 0.2985671639007578, 0.372518512245052], [-0.2561548936108197, -0.24800757726182265, -0.7230853881369171, 0.7159912552337919, 0.755428725061428, -0.2880286283569861, 0.48253551155848173, 0.38294578502150534, 0.09078190545151985, 0.15213450480054874, -0.5834028784933264, 0.26403947143461093, 0.19190541576154904, 0.7207142822630196], [-0.3193665889233401, 0.15973699594590904, 0.3265304863453534, -0.6014379930246773, -0.22073084616534028, -0.31151252197167206, 0.04977617838113624, -0.16423964600218488, 0.04544795772315507, 0.5907084313694004, -0.28972547350976063, 0.32745167244679935, 0.11655013246424034, 0.521866500948848], [-0.3928738826041058, 0.08092897388823493, -0.12426487506009595, -0.855578864832445, -0.1284372276345994, 0.7837938859512461, 0.021734152373616023, 0.14241092524865603, 0.575638106419054, -0.2571484691566332, -0.57443133731197, -0.3295830257300561, 0.5540065390085461, -0.0086651570010669], [-0.10305163406338261, 0.15721073683047126, -0.11663049084139404, -0.18188149287091962, -0.7405601278664581, 0.7065398992906857, 0.34014108575349056, 0.6158763526764862, -0.16161364877502843, -1.11232671170758, 0.2915758122437482, 0.10536566512829992, -0.3097198917479576, 0.28233776109864156], [-0.32781879081956533, 0.629944298845728, 0.32944545993774516, 0.03535801449181943, 0.5990203629915932, -0.1471500633313212, 0.29567532682252273, 0.024767688062061626, 0.2643358352270511, -0.1543649834888704, -0.6325794043787427, 0.12698121398224158, 0.3211889171348009, -0.6910020815151644], [-0.2610014457636555, 0.04182691074551226, 0.0648983867873391, -0.6605183115585096, -0.22490202402286089, -0.43410389239541736, -0.11111289627900003, 0.36414844874287733, -1.22022610216428, 0.15568717820090333, 0.5385468849055838, -0.34816485557482024, -0.15816975663948624, 0.09446473492675217], [-0.1810104652123855, -0.10479678879824608, -0.009253652076598494, 0.08739552356368388, 0.6090433263885416, -0.31272815667789955, 0.03696722172027002, 0.639117209718656, 0.2626042966939513, -0.2937286040803102, 0.2853194257988894, -0.386793937382926, 0.07150279633935248, 0.24077330202313565], [0.7204541783134575, -0.1979440367507956, 0.3314635277031365, -0.0827686245178158, 0.10787968221725654, 0.616782112107214, 0.3131427913156053, -0.5483742614102166, 0.023719028741682167, -0.38289003265236077, 0.13256737787052125, 0.0711123244085681, -0.05219805002456811, 0.12334065683850208], [0.6076724004840071, 0.21439787447923422, -0.6030058466976004, 0.2542836018201045, 0.17278647562737842, -0.46004694448302474, 0.11614351958083721, -0.7917638626387669, -0.01504085663697882, 0.049074514799171826, -0.16782935859674672, 0.200085448899679, -0.10287126228429135, 0.022088832877177902], [0.34418610148331447, -0.19147996120922406, -0.3286646132251019, -0.012550824117537619, -0.857961037872414, 0.7413589631274718, 0.5413231750110192, -0.13214908226087044, -0.35151054563111944, 0.6674840965159865, -0.21066208128727465, 0.7474007668872222, 0.7505716811995099, -0.43345022886938], [-0.1359385707562579, -0.27888230381019263, 0.369326519579379, -0.5322456381059303, -0.1734763790928475, -0.2422006163854423, -0.21467513587776002, 0.08832543813455455, 0.2718877072307703, -0.356688535311852, 0.47475401652989696, 0.14172355399445932, -0.4544094906027996, -0.4352862031851007], [0.5852168763517487, -0.07673574684924106, 0.3822814637793095, 0.050677764437248446, -0.40384332511363874, -0.22409840171954834, 0.5128474348994086, -0.25534497656508154, 0.28006979418402295, 0.4098573030967309, 0.2578299389863995, 0.727422728821676, -0.5052237413848318, -0.3395622843099352], [0.6669557318271804, 0.2873916779335315, -0.22320242235842186, -0.027471350347695222, 0.022468732384123273, -0.07995759367498348, -0.18044293668154282, 0.4020167340393603, -0.35152160652447473, 0.25282348108210007, -0.45498071233348175, 0.4352040181009676, -0.554456485432758, 0.5548164893748244], [0.16831602903743037, -0.41615831930015457, 0.5424844954778699, 0.07528867388001517, 0.20867493298961923, 0.5002137947165858, 0.9785402766352349, 0.22441275359958893, 0.16788933226117095, -0.27227459385004416, -0.5767407929328453, 0.38307436822697294, -0.009825988146621554, -0.09468841732729012], [0.3605524346776543, -0.06642788471270304, 0.05268696872866236, -0.18945939463007402, -0.44213134514854524, -0.0761970221019143, 0.3956152835405887, 0.6108461006740422, -0.29815847554651564, -0.46693755998426123, -0.07436820847630195, -0.24476570608088571, -0.586847200669606, -0.136513528252108], [-0.8221640769474164, 0.15018103916464684, 0.6021796694470266, -0.2939632313867837, -0.35648538555628945, -0.02060165721093803, 0.08625853081081736, -0.23591953965698834, 0.677813082395436, 0.10600224942262715, -0.37882861691669034, -0.5069926975968349, 0.0636196246131606, -0.20018032310408385], [-0.1526124549636534, -0.20373479576002843, -0.10718773450123405, 0.08748582528978889, -0.03067964281032516, -0.3287479211825297, 0.41957657481365584, -0.7553557114556332, -0.01125196024502568, -0.051284564887313346, -0.827392218409151, -0.01113215751762318, 0.03492739517056462, 0.49454460101245346], [0.11129563612042104, -0.28774453955843565, -0.6839964800342182, 0.07865977337990773, -0.002478456716998817, -0.0025723819775088875, -0.2920162719491633, 0.21727466827384442, -0.3750697672962634, 0.3342843694401363, -0.14348643404203454, 0.09674756950484793, 0.5153002686821229, 0.04389406391289729], [-0.16896918062642716, -0.22218850202175414, 0.5378866033298026, 0.25323366532611646, 0.024653326167654616, 0.30939359920985215, 0.21095831601143367, -0.5372282721660976, 0.04728702081464073, -0.24729527855934477, 0.15427145322024652, -0.12455979150879956, -0.29235896433445246, 0.22695993935806028], [0.5346782250232046, -0.49255555000272677, -0.47981546318125584, -0.20843991799497524, 0.89267298808518, 0.15494262776771486, -0.018511684057161665, -0.04886916687221506, 0.62552017033811, 0.18481952317406106, -0.31479748242758177, -0.13856754363479934, -0.48782442808916765, 0.8780423905970719], [0.0289253737084868, -0.3821527931763279, -0.21961974475804794, -0.5296984648869025, 0.6768463471861181, -0.0843513717795402, -0.5947486100109061, 0.20604775683360213, 0.34855240459590353, 0.5685547480402562, -0.3529138645038483, 0.18445598665704938, -0.31594526403957285, 0.38184006606911636], [-0.2692530462606987, 0.41347742720754893, 0.6614004457546253, -0.5601707070754116, -0.24412581995756755, -0.12897143337452657, -0.3726814595011531, -0.009315989584145862, -0.3618027230213672, -0.618546767573599, 0.12232001263615012, -0.056574676978016734, -0.014774183169313178, -0.19452068389873475], [0.5262691151739405, -0.6246008119849551, 0.01552158807485212, 0.00569416087612442, 0.3003229467488607, 0.24614971000958283, -0.4486575847077954, 0.6239413083073506, 0.7761872658158072, -0.3627060589559683, 0.6021600926820838, 0.4515474936448047, 0.20022441224116563, 0.9241220394741695], [0.06495825666599536, 0.10883274396981583, 0.4076680820793521, -0.124358361267993, -0.3723053560099762, 0.23473672984625718, 0.07622843807206925, 0.6531363077409705, -0.1319050823160012, 0.6307043695516951, 0.22495292052865462, 0.6052854307974371, 0.5855088482768196, -0.1249681385063293], [-0.2828525601879462, 0.39657336907671853, 0.018277695924301486, 0.3115228169782746, -0.01595220104150849, 0.3894455046804722, -0.35257728396674787, -0.15260568289230483, 0.5945047639521, 0.3467085979462192, 0.14313715280891903, -0.14971572252575602, 0.7285805642232018, 0.021423707231727138], [-0.22633887020700177, -0.08404385843962352, 0.6826736010240567, -0.4434909215747144, -0.32201516868233215, 0.08007099833070774, -0.761095686886095, 0.26392284170232577, -0.06639049464563797, 0.22849467312678826, 0.3321801672133245, 0.17619306868829485, -0.01594924818693767, 0.11996468052497496], [0.523344773956294, 0.4169181090577241, -0.12011263444970192, 0.33113241492940665, -0.1521789950666432, 0.15102706578967115, -0.1268637833912286, 0.4373793586525571, -0.11145438907209698, -0.9179813061939407, -0.4334190476222583, 0.346024689334645, 0.13509965547155203, 0.040488304649538356], [0.35952333403933706, -0.14624268509285582, -0.30500943855456875, -0.017888212806442875, -0.13844275567754258, -0.07077505111441412, 0.6608329573952757, 0.3840025898703831, -0.11361178705569638, 0.3091899008708997, -0.29323581167712237, 0.3233625227414428, 0.36476205352705904, -0.2995578246698468], [-0.1925479506292169, -0.23666935995588897, 0.3389908281256425, -0.16078370434850156, 0.04149359409800748, 0.6117408262231335, -0.05926082644394354, 0.061891879462688655, 0.07661393425700735, 0.3011202258809672, 0.19386134913740222, -0.4541015931700361, -0.0706224163748841, 0.5799544841804759], [-0.4296178128551771, -0.3925447953091527, -0.5254090751869464, 0.4424194183005307, -1.0298884731881566, 0.005025681536800374, -0.30993322405600654, 0.4492834222704774, 0.34040280380513555, 0.19730381984982037, 0.12523382219705567, 0.03690406460098263, -0.17287626327710867, -0.14824550721564547], [-0.7275114583402719, 0.1620537558065599, 0.14538451203705247, 0.3645574055706253, -0.05568350277821007, -0.1867879463735031, 0.4137277423264446, 0.07707320484734693, -0.0515132396344988, 0.17804081530279353, -0.414908385700595, -0.23957045366499677, 0.7166004081426266, 0.4450067747822245], [0.5764206651038427, -0.1886371608623932, -0.19344579028444772, 0.032829549946525254, 0.019468420851011106, 0.6852112672418846, -0.30119550298484243, -0.19932112587760775, -0.09964369939910586, -0.03711952787415758, -0.4586725116723288, -0.023388973508719876, 0.14190588122561432, -0.30368682658149737], [0.13252890119603, -0.39419839607757895, 0.3066241096884303, 0.23244396207562024, -0.14478796306972755, 0.08194065320669429, 0.3922285052860827, 0.39609338299595936, -0.15469231658004975, 0.287966803531642, 0.1462446858085506, -0.05074058709926059, -0.5941584813278847, -0.3945255727615183], [0.18452713681077323, 0.26681755170599114, 0.30231066800111894, 0.04374127850392737, -0.37253725019069783, 0.23513951848929426, 0.6366443565006115, 0.002579844150017338, -0.5140815128706558, 0.33631063330814226, -0.42667827388090335, 0.5690055420894785, -0.024879244385704248, -0.2821812426776351], [0.15814626718445293, 0.20958921905470507, 0.45905464986062844, -0.09181897061758883, 0.093512796115951, -0.49137299667251105, -0.23079732151111249, -0.11026897003768917, -0.010098313889842767, -0.0283398609085074, -0.5325466928301724, -0.27012505309585366, 0.07883846499210555, 0.27313019908738784], [-0.14608564419956757, 0.019306158635266024, -0.5776570514384113, 0.31532334545440893, -0.7288184038216762, -0.22693120803300826, -0.6564080970283457, 0.39769371701435186, -0.345397202120104, -0.1542472944288312, 0.2790443131030767, -0.24462946252356407, 0.5853127885561065, 0.04495490833018625], [-0.8182668816240363, 0.4075247862014701, -0.3093086381011572, 0.35017763466552526, 0.1315206631577827, 0.0725441237287144, -0.05345890543293568, 0.06788070265658294, 0.6233559482624234, 0.5542024172249794, -0.5463024667779871, 0.22421523026206863, 0.2306638605747782, 0.14100899595379557], [-0.15592287503262983, -0.3725223505637433, 0.05528073555467047, -0.4143127266215586, 0.615081642216682, -0.031401037951244916, -0.19881097542041135, -0.2859062442640031, -0.5901041193464687, -0.3043760525594074, -0.009225519345592454, 0.2452658965570461, 0.35606888242476686, 0.10758332237233044], [0.3527561036270998, -0.014554275998369755, -0.2120083268079365, -0.08827063076171689, -0.5891904728305715, 0.4068757937442669, 0.2955228914080217, -0.05462564665613745, -0.13951883008348517, -0.001663487740286991, 0.4624253042044823, -0.4927423606578932, 0.40612638983496624, -0.0028249978289828404], [-0.7265351439346215, -0.2549713128717439, 0.048611727218406134, 0.36146998237873507, 0.34361987327378896, 0.07175121646771367, 0.043548379069399706, 0.08702240560662122, 0.3999488676608288, -0.24718245986025722, -0.055790715498737015, -0.17567407671489008, -0.2410508983253167, 0.45929049286413687], [-0.24498498366845803, -0.2059485727921654, 0.3082849278855829, -0.4930700484500005, 0.14432822608215687, 0.6139359088235546, -0.06667811634554498, 0.0709137978879208, -0.05139989004791917, -0.11920764612528766, 0.1502690823361153, 0.3108227231332591, -0.09861495761033437, 1.3526470889294169], [-0.5386306792651451, 0.15264086984265177, 0.678338472046893, 0.1716230187773702, 0.30983457519849644, 0.2791149330501202, -0.013249572995662725, -0.7889228166925635, -0.6450012292796734, -0.13549583506794582, 0.20004991028160954, 0.42889592840343976, -0.2746399192449339, 0.4985805139087278], [0.10905826466298725, 0.3583294086641369, 0.01813995489578852, -0.4402764299303698, -0.09785023241730798, 0.22894223771121716, -0.1714780026403328, -0.4219861024511226, -0.8970323486552916, -1.0020537768391622, -0.11808873330412932, -0.4376882788210987, 0.7954403471519611, 0.2879329112163755], [-0.5246432913700207, -0.018929717206972552, 0.011856610473960352, 0.4271063596195375, -0.4651713833317609, 0.7894374965617024, 0.14732719472263706, -0.803606922070142, -0.1173136578798572, 0.3997433589813659, 0.8545100872027276, 0.2234993841688849, 0.231037934076651, 0.7534494829853968], [-0.11772359469547354, -0.12229402449360102, -0.007408755970925782, 0.03885699833438938, 0.20637232598256028, -0.3408295695293543, 0.21976612298665904, 0.44994948623514963, -0.09038446910871208, 0.15168289618787598, -0.49242487592769607, 0.5155500844294489, -0.14866359235777885, -0.03164481461361275], [0.1203862730800191, 0.2595983528698768, -0.2444662391008673, 0.2771048502438103, 0.24185691537899068, -0.3866990545064608, -0.048296038382692745, -0.07027956341165544, -0.03699442784994918, 0.6665912889603737, -0.18719343931240343, -0.5335240212285177, -0.14709122108908831, 0.35165938243308265], [0.3110046977039452, 0.20096183308439225, 0.2994332929798387, 0.4014232971467702, -0.6501163401387979, -0.07830168825330817, -0.6439290335962643, -0.43240740452825654, 0.556045608941202, -0.12944383696146558, 0.20667822647095, -0.43324913113327446, -0.3496098078487565, 0.12101372269779125], [-0.21875752320860745, -0.0556120425267783, -0.002857834323970376, -0.09769193807778881, -0.2682638581842339, 0.13478472947095183, -0.4228481350813933, 0.3723221288017122, 0.14391689052764575, 0.0238996369022529, 0.024859604096220955, 0.5760052391008197, -0.2534358618874407, 0.8926381672389854], [0.03980604813029713, 0.24426880973854528, 0.3242259538256527, 0.8872064280172377, -0.021769485648261044, -0.1850414938345041, 0.6907444038805115, -0.010770623664702253, -0.12484104108290214, 0.432413467589663, -0.5799904133411298, 0.060045979628169835, 0.3634662599616942, 0.23042383962139124], [0.20461157503872207, -0.1717342475370727, -0.48715127201141745, 0.2996091898572571, -0.31054903961882474, -0.15757217231657927, 0.47138367851628904, 0.23292165705729845, 0.45251599762616707, 0.6741042884258107, -0.6404463310093426, 0.15120144683286454, -0.07845998815239806, -0.07943714784491546], [0.28839456040160055, 0.053972662636147216, 0.49520758063906734, 0.3900897662406757, -0.028950638706808373, -0.16668117560703694, -0.18191617695168671, -0.4520392907364976, -0.7942199907236609, 0.13559420479691744, -0.04517928377795438, -0.13562823078885955, 0.09365356366886225, -0.13472685819136793], [-0.024386690632832515, 0.5817879255561705, 0.2454808574834364, -0.4527522130715067, 0.028979840805992446, 0.028448021984434874, -0.3280882976851831, -0.14725575991333506, -0.03013861408158503, -0.8726809640826653, -0.49401306316237104, -0.12809406170701848, -0.6023771818288907, -0.023605797758516355], [-0.15974051939987802, 0.05080734413651631, 0.39324881332775397, 0.13325277979061056, -0.21128924728934287, 0.026109434010281186, 0.05944583360205953, -0.5605312494670214, 1.124176925571901, -0.7367054574077487, 0.4068913979328057, 0.3858751125474453, 0.06192352931446569, -0.7950205608701177], [-0.47450097179520806, 0.4257037086244438, 0.2712883657984029, 0.24394202397493914, 0.0024339676497044187, 0.4426184304322558, -0.18898359892943895, 0.5472263225968889, 0.07399802787571139, 0.05434208894785587, 0.38024468136493395, -0.31646625440643295, -0.21725254639334568, 0.49682605214614556], [0.6008753763663891, -0.7187962077498369, 0.5049559234046669, 0.024103421934096498, 0.2934199476946573, -0.11169043035155225, -0.23169984482297004, -0.10240444480447466, 0.3107110147886506, -0.2583244289218814, 0.2045611057264209, -0.4455697873691048, -0.21365701602587459, -0.0238956311313797], [0.561819288625065, 0.10353948411094449, 0.17455347867616375, -0.2903895835142848, 0.15197112261628354, 0.24139126986151538, 0.4290521536661852, -0.2522517147445587, -0.4013777731822888, -0.41520817134377513, -0.33047459487959324, -0.21525872630828827, -0.5508905151144222, 0.05126592538923595], [-0.4799917037233422, -0.2689977595133735, -0.029116264939014494, -0.3783571844895254, 0.2804249470950271, 0.08759437507214386, -0.2531972011080985, -0.23455464996711642, -0.34166665150331493, 0.03625514208409503, 0.8843864221183585, 0.41737723414243566, -0.07051904423746014, 0.3929504531229803], [0.7195357291577885, -0.09150294787139565, -0.1754898103921504, 0.23489122666846976, 0.4406416964052639, 0.307556815251458, 0.24720793921476272, 0.32521628391205953, -0.21371487526447788, -0.1105999470393196, 0.5579325323481301, 0.39019017418122065, -0.2809539082393644, -0.02565139969069421], [0.10717178217243112, -0.24287169376442538, 1.0396309497793614, 0.0015329922904400647, -0.36971558564901535, -0.07603182342944553, 0.10462666095163285, -1.0051390466944228, 0.20044121283222802, 0.07066119931505158, -0.4790116197338609, 0.3331648453091158, 0.22250660791214172, 0.13946655173944375], [-0.32763246656601014, -0.04108718566169981, -0.15630415922572355, -0.010858295589652133, 0.5951068937491574, 0.1940252751768104, 0.11750579025886342, 0.13689277501751662, -0.031660541216625336, -0.3426508329782127, -0.24150342110256592, 0.40383898642759053, 1.1552083971538687, -0.5956726963994484], [1.1896256145849722, -0.4896489134322756, 0.20173185529891133, 0.34622072374578206, -0.35433071295567414, 0.06861124960365679, 0.14252927519943, 0.326710425923085, -0.21678623561928517, -0.17997373203690872, -0.005631966782933656, -0.34621045819720186, 0.0426531787804621, 0.22000117826633492], [-0.04911890940104057, -0.6775855581932371, 0.8204668846411497, -0.25857728422163473, -0.4404371252203347, 0.3500794526883052, 0.02989734352646193, 0.38752063155524263, 0.44886175283816854, 0.021470883734585885, 0.3587175174334969, -0.12076262741161582, -0.159862051869127, -0.2716025702689531]], [[0.011297473913046802, -0.23748327880795997, 0.04982650258772075, -0.0909700244730988, 0.08454237308107805, 0.057721484140524394, -0.043134197535683656, 0.1048789733692886, -0.09465191276828866, 0.020680062378440528, -0.12619409060893513, -0.060798402185049984, -0.022729051825583848, -0.11409456718888229, 0.06691533807644277, 0.06207206790897127, -0.009341363428325488, 0.07878486155371638, -0.0899798211860371, 0.054523845277686195, -0.019104621007210325, -0.004046710434607034, -0.07413438203207798, 0.009539608386902506, 0.08304192592556153, 0.10446487345461143, 0.087439957182832, 0.06080088664197142, -0.008836047221391957, -0.04382373436596005, -0.1224916615177619, -0.08590327239851364, 0.10501546762583182, 0.03221134274754212, 0.05871889018194697, 0.014623614082684965, 0.0022349814801039644, -0.1272166482406765, 0.05629918145922251, -0.01413528649239915, -0.012425358267581633, -0.04672682985390389, -0.005823805750182439, -0.057355085195905244, -0.02312260952206798, 0.09184767245381417, 0.02390376057402631, 0.0032534431135789574, -0.08521583412108152, 0.026937037960116525, -0.16141900252194075, -0.02730925618416189, 0.037214105138629425, -0.05935112307409059, -0.07070322469839681, 0.020256216253010027, 0.034378526616290796, -0.014135100537263762, -0.023357966573382873, 0.05177726739109032, -0.0500540151916728, -0.11135071820133094, -0.08252636472876125, -0.11660560101136351, 0.0907426833686689, 0.11448100255992923, -0.003075761289632109, -0.017402141322396168, 0.043357575709824805, -0.11888594017020208, 0.013741517659206332, -0.047379877590861146, -0.1401542877990887, -0.034754787030282314, 0.033061073292799455, -0.20146803789624093, 0.02482880935481284, 0.09745210909722185, 0.11603808557921569, -0.08134349804379289, 0.10511770196172834, -0.03367521099832649, 0.21692329054288492, 0.14355932953992168, 0.03559803556075276, -0.0787608358220752, 0.03176043845130978, -0.006448794638698144, -0.1220687139956423, 0.033785720968772824, -0.09088147965338529, 0.02017479352603821, -0.11792901503286105, 0.03794177835978144, 0.014429368434279746, 0.2650066607226667, -0.0016539702801184482, -0.08121000959364959, -0.03259847382795576, -0.059023732174551945, -0.2512829769181525, -0.033619556910617965, -0.042074775636518194, -0.13738658748590157, 0.0571607029427993, 0.13751920685009236, 0.0655685263973272, 0.029418212195299595, -0.03997964574881543, -0.029337353567431848, -0.030134979137237887, -0.10952396258614701, -0.10784066086294442, 0.03147263444790016, -0.0636482573930626, 0.054255477204076384, -0.0694738369490192, 0.08460371853807291, 0.01702613261848587, -0.2030283330172243, -0.08139619431706749, 0.08398317202161283, 0.08717241408181696, 0.022230375387580072, 0.07010400409125485, 0.12280097843715536, -0.057181528878102794, -0.0009359448648460171, -0.01586312181115755, 0.005019072205730697, 0.1859409779577449, -0.06655653542951305, -0.0014610296610695441, 0.038072792559837365, 0.08292215782982994, -0.10026112510317364, 0.08242356572376192, -0.09348055477411392, 0.08872912059876889, -0.12660961496365508, -0.041259771698466924, -0.07764142393968142, 0.11285671953923915, -0.003333676284880632, 0.1126118652538369, 0.08832309843757992, -0.012678422394060097, 0.14125710264543748, -0.0592256607054473, -0.06886060390471548, -0.08933218038709743, 0.0032667212613267855, 0.14530552749059505, -0.004594123429905875, -0.04372770867772362, -0.05937905816063041, 0.02631314064842058, -0.07494999223440037, 0.016103040132141165, 0.1423497920643047, 0.17822335348029356, -0.07670544301937307, -0.08984328488602382, 0.006820215731205377, 0.146521758273633, 0.09859334391769016, -0.10144598671916552, -0.10264858008807576, -0.15390603142954873, 0.05439007337798597, 0.03217797225214202, -0.1598934759843617, 0.10967251110921991, 0.13913695435445728, 0.013120088581289505, 0.05228991823408985, 0.06966925237061082, 0.01871385654469101, -0.049572526487903175, 0.17539302422165287, 0.0901199688493541, -0.09602587303427783, 0.030322976990088502, 0.04364582836800895, 0.013374068250829868, 0.12964270922290616, -0.0350410522497943, 0.03326099095702781, 0.05446070677666807, -0.11802412108541269, 0.11375856734166077, 0.16576114006908016, -0.06017575736962498, -0.062058979129022016, -0.10801703514540949, -0.04327391198748033, 0.10831313638677416, 0.030636367822341658, 0.06076701446743492, -0.06501914418576661, 0.009954155072182265, 0.003675255505699679, 0.046442748158494064, -0.06220523873281949, 0.07719348430213441, 0.015158937062312354, -0.03603343655331791, 0.005773830372559615, 0.012835046322341153, 0.09476089886199665, 0.05371669333815939, 0.13069961163813507, -0.034890291807252796, -0.07500892998740938, 0.04923177874028382, 0.17764007409830285, 0.024702524018507525, -0.007843309576000775, 0.09305611440628352, 0.08915919741397127, -0.0072012469518865545, -0.16118251568226974, 0.07736017617852858, -0.14466103824167917, 0.15391011217506248, -0.14851952088994305, -0.08524656932872511, -0.11302901017630418, 0.02251885676346263, -0.02521879743202603, 0.09768559435613862, 0.09294447937665236, 0.023703230103850035, -0.12999181907195714, 0.008727075290560687, -0.0531556851453265, -0.040617256918949136, 0.15787821150346687, -0.1571829430805885, 0.07139884657898, 0.0737855859354796, -0.06879132128791492, 0.03289029948340897, 0.11173506966461288, 0.06693424383360869, -0.15997714989424938, 0.09305813760488962, -0.08933093144205137, 0.03159596880546055, 0.06842591764792887, 0.12031729318385154, 0.07317132818526631, -0.028230754473801137, -0.022787540522072647, -0.15709356251730833, 0.030408552499920714], [0.05264810921552643, -0.07122892243832048, -0.06726636601494185, 0.010615258924651108, -0.025617538040806194, 0.16943234728160353, 0.010914337931036517, 0.16884086434246864, -0.16534914193358227, -0.07111383524641021, -0.00317617106625829, 0.05725133762374519, -0.03994850513431553, -0.12306515891304216, 0.025417732459465027, -0.05451647394305194, -0.04697539033454451, 0.040091526603641466, 0.15594294728679078, 0.11670810898714916, 0.021008105335492168, -0.11716885562294213, -0.1447794777450438, 0.08480113781912262, 0.1864241010195655, 0.10064517063848019, -0.15941441638954446, 0.0906483218307842, -0.11726742025977333, -0.03869751050715529, -0.05004280157756316, 0.008900724446885498, -0.1372330493695687, 0.1285978939449246, 0.02491898800072182, -0.05696368802173974, 0.1493244621935017, -0.04473879571416878, 0.03833544109534376, 0.062444346547109404, 0.049935579216722065, -0.058972279711490855, -0.10035074769046498, 0.07917646456851614, -0.26349580220797997, -0.10872051732189614, 0.18737561033380382, -0.08800886161883624, -0.060004372328361456, 0.009120132595440839, 0.11386343473161388, -0.0069046750394603585, -0.08296301375768174, 0.034337110222308696, -0.09167226140487628, 0.14081779535548974, -0.008183115328427512, -0.002417059400860141, -0.09527906720373225, 0.04198187952354931, -0.06993797472585463, 0.18838182768768436, -0.011826447742438434, -0.011236911616403606, -0.11138664632039819, -0.0037875010212468033, 0.06632577996199283, 0.004425541535702478, -0.08606661852346348, -0.019169358337497097, -0.004438165718408777, 0.023331537210723053, 0.1953090678447805, -0.07413818288902622, 0.1415336254100749, -0.06635502056132388, -0.058393906202420784, -0.07772808708439956, 0.10526729010247284, 0.014477416450137125, 0.04620512462307971, 0.06705137883835531, -0.10542469570323335, -0.04479484788021744, 0.015276024762327731, -0.09615118091509874, -0.033045628738941984, -0.17913400822210546, -0.006788365966768026, 0.11726995708113237, -0.10063125018011328, -0.10361817166139944, -0.04977048079190735, -0.026268808905836646, -0.12885577328190767, 0.08782885853263606, -0.1204772924547526, 0.013289575535633563, -0.08024574421754545, -0.15313275577154706, 0.15176660007213305, -0.10800936746633767, 0.024664930846700923, -0.041763264323202556, -0.07153041220287064, 0.24411748929547658, 0.023979550898263362, 0.06081186744447642, -0.012541548615338117, -0.02063535016121969, 0.02035783555872705, 0.06266247761734386, 0.024878538391324412, -0.07300691963424115, -0.08542462344111103, 0.05535290739759751, -0.11490122755768002, -0.002097179651602899, 0.013536995043000523, -0.01515307445985607, -0.12122938010738643, -0.1365541412956592, -0.033023891977522334, 0.058928663426471004, -0.10231941807362217, 0.03014064200549378, 0.08834161045976167, 0.10505878320871971, -0.07714268009452031, -0.0523661916111083, 0.004642204380234198, 0.06546074431569511, -0.042694698951756434, -0.02076795757455221, -0.03852643089305204, -0.02609718543593832, 0.12807827479858938, -0.004053010400985916, 0.07018124462281913, -0.011643211175328213, -0.16465327649145217, -0.10445444786093395, 0.14306968140097004, 0.019587591414044255, -0.14985679143149158, -0.26831558697674873, 0.07001023122958272, -0.03777700514111548, 0.07194603705483778, -0.11646034335775599, -0.1214938647096505, 0.13844962463838603, -0.0023373504208276585, 0.005728220355442991, 0.03148851597512467, -0.08086574332106969, -0.061712756480675486, -0.021207647375542017, 0.05076361939858815, -0.08871592381342375, -0.11177858522478931, 0.05095573145883789, 0.07916343399266393, 0.0559296134733415, 0.012712011971837122, 0.13062823054124678, 0.16696992731442284, -0.015970426971865882, 0.029665939776215944, -0.02319808733874233, 0.0008124515091092607, 0.0523150409785086, 0.030445693343328382, 0.026560035299057247, -0.02696571113041821, 0.041482424473862585, 0.09255185409848067, -0.04345006924008317, 0.01973957755908493, 0.08415636531030467, -0.07069785002654212, 0.010759248090749554, 0.021240307558009975, -0.0037581790437954026, -0.02097181043814428, 0.0403789952502015, 0.06197865129840977, -0.1659537063946337, -0.05055300786513708, -0.09578838412226845, -0.02149677151986415, -0.03913347632954118, -0.20430569297481416, 0.046968457391368124, 0.006968727886851302, -0.022929680699122056, 0.02823488720396488, -0.04840584047735555, -0.14092085413220098, 0.06031371312142389, -0.011793094771235973, 0.0034592573576181546, -0.1700611779463858, 0.03731575410622017, 0.0255671219328934, -0.05965965232189856, -0.03154939091649509, -0.0754336473343517, -0.054134535311967595, 0.11371793845426796, 0.05181437099854002, 0.1136319475548634, -0.1417080150699364, -0.09442905068695451, 0.0017287988086390619, 0.03620626685247425, -0.05938018432393183, -0.03718213933653694, -0.03629877128055485, -0.0898613631124774, 0.050941418892080814, 0.02347906165350377, 0.07980522682148881, 0.00809764630642325, 0.07543445809499628, 0.1508674665522385, -0.05426642887205231, -0.10320476793427626, -0.03807310548882206, 0.12063528107680306, -0.16211312451164483, -0.04452985034204155, -0.0003285667011842986, 0.07222615699183889, 0.03928896816033514, 0.1476525269671162, 0.013179661577015212, -0.11433426936498332, -0.1567510835213081, 0.024142867929861336, -0.11418634693614432, 0.0789396705638847, -0.09200965039087718, 0.08156094449135434, -0.10990357179776694, 0.02791634894589887, 0.005802827497434559, 0.07870923696704427, 0.02632477167650688, -0.08636867674474004, -0.03099737639911831, 0.03920242082186708, -0.05510019180996269, -0.13616995565617965, -0.07468805441035756, -0.0184510156635166], [0.18342501803203545, 0.1065249442404399, -0.012235514358142666, -0.01754404531253347, 0.05844456690893466, 0.020771877103466528, 0.05503204720190299, -0.016730086433129905, -0.04599068863587818, -0.09149072595477278, 0.11334044747826634, 0.07986664466161224, -0.16187489883140985, -0.045481366894978933, -0.11081286214617903, 0.014856600970331214, -0.01820076565993157, 0.09949370530285548, 0.033119349869250116, 0.040581687901163954, 0.14082359657040017, -0.21774605503512942, -0.1231759726896304, 0.060145351325852026, -0.08828248600021364, -0.08832662330181691, -0.051011785620685375, -0.09593229136787441, -0.05351236069816179, 0.05178240092156835, 0.10407353134612282, 0.1620505621695115, 0.00263413678189403, -0.06856556703979737, -0.06980531822417142, -0.06256574599067698, 0.04673226068253083, 0.05536019516684588, 0.07657928819399093, 0.033777393554749555, -0.022934576156732882, -0.03698768604366003, -0.0681895605680338, 0.05002373071416691, 0.029336546747759037, -0.16258737017873334, 0.0137142224786305, -0.0326725676442718, -0.07529679688202047, 0.051353392341607164, -0.07138321059762819, 0.06830273232954091, -0.10930634695871574, 0.02689511758229823, -0.11990449542319682, 0.14244369129822396, -0.020903212549116913, -0.12081463989937276, -0.0415580605382042, -0.03802073446885409, -0.03585237112101294, -0.012883283879672565, 0.02825314343216139, 0.03864098755565449, 0.04180398558088426, 0.07078502845982214, -0.052924610811483364, 0.12603955461548738, 0.044599967126262005, 0.03188976892478028, -0.08421054338891526, 0.19480708832204396, -0.09289756577248667, -0.0009223020096766838, -0.029072782441496678, 0.09309173431141213, -0.08446300099988774, 0.03165234282496342, 0.01993592435462011, 0.07018732590811845, -0.0010651634593760136, -0.06624961370741865, -0.09541894178387862, 0.06094565255958552, -0.016676854136520418, -0.15313687034959142, 0.11662030265266786, -0.054326560630299656, -0.17052404297920445, 0.16514434666852532, 0.03648475354348677, 0.10577274334518584, -0.13194064036051806, 0.051987812241185455, -0.00022296345528994497, -0.1061034676321606, 0.1894228571921512, 0.1486122713190834, -0.011465397396393125, -0.01607351592754186, -0.06203837242783218, -0.0741078954072312, 0.10257617590477845, 0.11270605167782398, 0.0832561022699113, 0.045587541420817675, -0.10655418743121697, -0.07025484097594774, 0.015985939367253423, -0.01365871579073374, 0.07851559844501838, -0.03958061962730024, -0.0845455745081136, -0.09041491648838838, 0.04524213503637882, 0.09748422365968486, -0.01635240278594861, 0.051045426976535455, -0.03158238612533634, 0.029620228079645077, -0.03558122089894274, 0.07939291905461206, 0.03721360912131048, -0.09719984821758335, 0.07978324358079014, 0.08186499977831048, 0.09101528632109755, -0.00508154230799358, -0.021525924210631518, 0.06711462137395686, -0.07196997722200643, -0.04959767136757157, 0.023658459544589734, 0.008021029432216508, 0.03510798657875568, 0.0012866851568916996, 0.06929061384624631, 0.1494685183753046, 0.03629105615008662, 0.0027861944038375087, -0.023458239692034123, -0.08671703268233398, -0.11745206429721806, -0.06817557765858662, -0.20495422126536078, 0.0012901834767136938, 0.039249132969491646, 0.0006937735501517848, -0.0856027038605874, 0.029622746258182703, -0.014109668354363319, 0.028634036352855188, -0.030204958818453198, -0.10567975167109306, -0.008276880316144576, 0.19606311171342297, 0.03056976514313625, 0.04996495819136428, -0.05546433793015617, -0.1042965789700285, 0.0575461454745643, 0.0381418217335449, -0.05481503668991102, -0.0530519798978848, 0.1009951503503448, 0.053384831339846825, 0.059187154071946156, -0.1894919559074511, 0.16933861423195645, 0.04804190381192434, 0.011615296624361395, -0.04778008701222264, -0.029115594945725142, 0.022592283633639472, -0.1265200347906416, 0.06927753461950208, 0.04613228202528171, -0.028073012351875693, 0.3656683729616031, 0.03473832454576216, -0.0017885276535706564, 0.0021277735176123843, 0.01431112975709602, -0.004829414497842532, 0.1285208108273801, 0.09434988425698358, 0.050447758674198845, 0.11773657746254261, 0.00561559845106708, -0.04125859977023357, -0.001966309995835135, 0.031308167134416795, -0.04550536549291561, 0.024290690299011517, 0.035804917346844954, 0.06525592173947727, -0.00485839677782562, -0.14667268785827858, 0.05947851134449084, -0.005003708208797851, 0.015402483253845484, -0.09191843361855243, 0.2581412707480659, -0.07729940711417287, -0.0119134712588095, 0.012295509076783296, -0.015553539904698715, -0.020243439482378934, 0.03019153549853281, 0.023218804608217628, -0.16615695189377416, 0.09410618619422417, -0.001988967519406151, 0.05706278999608429, -0.05081420319257311, -0.08513560308488038, -0.03019689806208752, -0.13590157401707118, 0.03425362045587093, -0.055104425498123354, 0.027895947342491834, 0.015447007434227476, -0.11466748485437844, -0.14991616878034492, -0.03779493500260887, 0.08482087575124639, 0.019713715717457187, 0.03499597998681155, 0.08280624572258542, 0.09080364234092905, -0.16922614148941278, -0.04579156365373672, 0.1635276807933688, -0.22169335480064717, 0.1050408023234732, -0.06701125930719795, 0.13215774622829632, -0.0028291511057237737, -0.06335795292455138, -0.07145901938598789, 0.15048081996191054, -0.15151090548203142, -0.05533947411681962, -0.04522390259364885, 0.0003296461099720765, -0.10370849098689727, -0.011774768920722042, -0.013114929674399074, -0.08279100138705038, 0.03224829623370918, 0.04154424486666532, -0.07368439760792042, 0.0024412639843450863, 0.10843529939492225, -0.019903487731510627, -0.1061435628049492], [-0.027014087400309778, -0.08221586829267184, -0.06552675959998115, 0.059836521416924256, -0.028240369422335952, 0.04900124454037336, 0.08277708381192456, -0.06572157078417899, 0.032870412452771856, -0.052493254608496395, -0.12716608407645538, 0.02213857248891708, -0.03546196780902472, -0.08055436673491229, -0.09274627248601436, 0.0650685197857129, 0.03359863684010616, -0.14824323044340593, 0.17539302219315023, 0.08118610548749552, -0.04294041842894817, 0.09683342981481154, 0.15152621929136487, 0.053526268158045134, -0.12564924771278058, -0.02612544350776417, -0.00446562970076131, -0.12180455549555766, -0.005510958145657072, 0.026428531000719513, -0.10401646379364998, -0.0981480622669996, 0.014183835290523278, -0.03928097452808325, 0.1167617278152457, 0.15179771382895613, 0.03526440786966257, -0.05344503148761162, -0.06423670629248099, 0.07037962695639716, -0.08195893668379761, 0.040991452239284465, 0.13468137655955742, 0.21296005380025865, -0.07344792263369732, -0.027642956842535298, 0.015239831239514053, -0.0004728636440808264, 0.003725440419947721, -0.05325866488534657, 0.009513490688727531, 0.002012725392612217, -0.03590657824402214, 0.08724590500560664, 0.06931762556693433, -0.041624812425610946, 0.03540481606354569, 0.023184686853139586, 0.021179721334623917, 0.27054855199982475, -0.044551783045036486, -0.04699195522757645, -0.037099142561831236, 0.03763205392488699, 0.08863763770279241, 0.09574317177552266, -0.059672817470878804, 0.00411356615497323, -0.01189053857563618, -0.06812924428002583, 0.003448133421068756, 0.18965962133504344, -0.14309760006028116, 0.032120515770887745, 0.025972568165517476, -0.07265463115276143, -0.004533572959889384, 0.17237714848795258, 0.10022131573194362, -0.02925197116185295, 0.07397265685274822, 0.012655310669537859, 0.12884651495807734, 0.04305513682298848, -0.03580403245814605, 0.12955244615331407, 0.003449874567248307, 0.02260864019879639, -0.08469425368972924, -0.016546911132004006, 0.029499541490817897, 0.14312781222433366, -0.0425656419936819, 0.009972782484196027, -0.1442142738838726, 0.11380807126574519, 0.04661185611801331, -0.02162625140521332, 0.21370724041351918, -0.058543288800841226, 0.004637780612299607, 0.019745645855172765, 0.03256623260230874, 0.0026335873162522823, 0.04668437233495737, 0.0380408282945689, -0.10561194529910767, -0.048636098193023794, 0.0060835612827210665, 0.03832172035471367, -0.08712246001651477, 0.15516492464910114, 0.22588489230347744, 0.12581107753109527, 0.005067513390360407, 0.24377983772668818, 0.052631655899450014, 0.12907429011211982, 0.07973840879163474, -0.1382451942213728, 0.00382128400143917, -0.026387200130498344, 0.11879137233493858, -0.16604564619105439, 0.04978301873968574, -0.0887231990944884, -0.07625265020569866, 0.04012889280551644, -0.0915600622433283, 0.24428667183037275, -0.0018894291846341049, -0.13063231010497556, -0.09984033038538777, -0.16310190803201605, 0.10593223593639806, -0.015081257775301964, 0.01728998690966495, -0.07174095374872143, 0.025520820068279746, -0.08896560135729974, 0.10064824622023374, -0.08148040093007226, 0.051944157781308176, -0.02283695109181539, 0.05857022645072576, -0.14916449851062927, 0.020024765067098448, -0.07957416283104186, 0.010133120415300274, 0.18572420933449965, 0.04322377572407082, 0.056510382001924486, 0.17194761341495918, 0.2188150547417442, 0.02722591415925956, 0.11491343933854517, -0.0875076568643195, -0.13890221938204217, -0.13350232569762355, 0.027685274487008495, 0.007652444062617849, 0.010329533972021191, -0.06802258878301021, 0.013320379359934735, -0.054338890879448834, 0.03102556211035809, -0.017126422980546088, 0.13997972455883914, -0.11979996515967431, 0.043763993219444644, 0.014547546968016316, -0.05209336617030635, -0.02192150406559401, -0.09734110304262288, -0.000490169805194292, 0.11212523523826755, 0.21402226015072437, 0.10830677510766062, -0.006865016421863122, -0.06811730902565558, -0.11780564234711005, -0.07583164557285978, 0.05082151402283189, 0.014830837189441724, -0.10044035960024567, 0.005426133086048987, -0.06184577606152639, -0.07113944150669102, -0.10428954648307373, -0.09478425368635217, -0.030933831618815362, -0.22019274082727416, -0.07053988336680225, -0.028353528620034155, -0.04127622180282352, 0.007766294394470871, 0.17022852586544274, -0.0982049676555524, 0.02496236755625889, 0.07608407399815913, -0.012964117991733496, -0.06601758545934096, 0.1647416051575322, -0.05782926268383277, 0.04708804205372971, -0.020539707270322945, -0.011890332932429398, -0.08336454437593725, -0.038233621015049055, -0.002986670112535387, -0.05893809849261071, 0.05518345403351151, 0.18164364297501437, -0.20681036816404189, -0.07245480079857027, 0.059824991860622144, 0.13390458921194195, -0.025927431623755957, 0.1395913564398689, -0.09765225591434683, -0.029106835314908156, -0.19809985265574853, 0.02181074390828471, -0.04671203972641085, 0.01499115861117518, -0.021777838055420332, -0.1313891297402858, 0.019890193884467156, 0.12375647135363196, -0.13744049892201485, 0.06201063568879684, -0.1209603462047576, -0.08458201105575723, -0.06124909090511432, -0.15941861231227064, 0.06904087908839533, -0.1441232124391797, 0.0779205417015805, 0.04842641546740163, -0.11513115250742006, 0.14984504114090308, 0.008357321353302027, 0.032752464385314956, -0.04477008876856361, 0.18247168930149507, -0.05822234064177278, 0.05862962590012627, -0.07287594042617977, -0.13872629006631887, -0.23831845966632, 0.05698326866058325, 0.03935545886134184, 0.09990295793855246, 0.05076993299677623, -0.15398005844940948, -0.09582981925358787], [0.03640011066408065, 0.17503322284489084, -0.10275813535449127, -0.14549898031399372, 0.05214244361541676, -0.07383974598273262, -0.07876411276649552, -0.037586831087282925, 0.077414239466095, 0.0734345208164005, -0.030403802670108806, -0.08785099617427304, 0.20273476900441764, -0.10995409924024165, -0.04925095677911353, -0.03307874554737019, 0.10826688899654768, 0.01521079578457121, 0.046063541049086686, -0.08004183327845067, -0.17265613416764605, -0.04176475276867035, 0.06061013479145425, -0.06718585531430199, -0.11357334277451785, 0.014844754339660229, -0.0041018103699668965, -0.27027293235796107, 0.02183816854732358, -0.2775768991425521, -0.006944723181512162, 0.003778041826175586, -0.08289398017019778, 0.018501530422417742, 0.1284634534770601, 0.020343572725840784, -0.04263199288208374, -0.03014096024770289, -0.08833732784668182, -0.009036693160838768, 0.01358150541626833, -0.05806118978190756, -0.003576574245962034, -0.07175119000720441, 0.05921537357661596, 0.0310630196358061, 0.014012548124319579, 0.05711103198330827, -0.07917881880378841, 0.01377153239565485, 0.1083377985200833, 0.037481193007704354, -0.09361539432949174, -0.04800878425830442, -0.06715302799104285, 0.03820944514499305, 0.11189132686646834, -0.14922078739683667, -0.11931909804228252, 0.1122907390010487, -0.014867539455575791, -0.15342900176271748, 0.003173378074348338, -0.1266136884595839, 0.04940532726886071, -0.13839523990388997, -0.047453987049442745, 0.12576790880514843, -0.03426894614931788, 0.07269946767333367, -0.019890377503853494, -0.054411417812835663, 0.056533630499971683, -0.1441374219988077, 