{"layers": [256, 128, 64], "in_features": 4, "num_classes": 3, "activation": "leaky", "lr": 0.01, "W": [[[-0.44880209302345153, -0.47845777102901726, 0.30287443670294556, 0.3842432544459169], [0.5574716483476688, -0.01654677827055345, 1.008734195649538, -1.6477555583592152], [-0.06890285102186439, 0.11480386386253753, 0.5750185913011047, 0.918940923201398], [-0.34655038356927964, -0.010395187896668424, -0.6028428685155653, 0.07394758238489602], [0.7204247738662182, -0.46781569331655676, 0.334482885132769, -1.1879784826040944], [1.0802660343207515, 0.3425226306362738, 0.08040437287545951, -0.8389587126081116], [-0.6218262917308054, -0.3139168845969235, -0.3729977569218635, -0.6815575581309968], [-0.334538385557708, -0.5603166240120928, -0.02110344953444542, 0.1740164744768499], [-0.3755987301381155, 1.0362437346848834, -1.4228198946479798, 1.1066722289166042], [1.493749824843553, -0.09992352357835077, 0.3887174019546002, -0.009020801558582828], [0.6896248210256122, -1.032760606447146, 1.6839740410253738, 0.6334333714442058], [-0.19785527706140696, 0.18238308130659847, -0.1655761862600829, 1.1971355605208922], [-0.7106636414152457, -0.8873171420638981, 1.0173944568761262, 0.0088081112436742], [-0.34581823661103095, -0.025783798780678935, 0.4543861685413135, -0.6382329659855428], [-1.3891857118842927, 0.4412271378841761, 0.5301696863958565, 0.1538042935326472], [0.16696047525532542, 0.3189657149944255, 0.19390014165008843, 0.6545883492199623], [-1.4386420505596893, 0.46510740935811373, -0.003497098725782521, 0.34994167299961226], [-0.5264886220249582, 1.00054346954657, -0.11020871085390484, -0.9749190539112801], [-0.5531407666656014, 0.15070998297343768, 0.3863661014727397, 0.5076517247098], [-1.311913226082139, 1.5638283699299413, -0.625382683196261, -1.7538339023043281], [0.5788446264393872, 0.901456509719228, -0.39985775601552564, 0.4376706903222378], [-0.5288750290459563, 0.9214654057169017, -0.12222758144905378, -0.1564560811988237], [-0.05850339473583682, 0.06718908345045535, 0.25771388212816937, 1.6576865632020097], [0.2539737371564159, 0.8102932430992352, -0.6426522958667014, 0.9253182826602842], [-0.4552828364257121, 1.530648087322805, -0.24315145863464932, 0.373661188529872], [-0.7843794619832948, -0.1577397501946777, 0.02296873677436714, -0.5099298619092649], [0.5353837833221058, 0.7474319779309894, -0.9035035481362274, -0.3627931914242744], [-1.1479259838975828, -0.17328715086025226, 0.2160069215976467, 0.11152620223584674], [-0.6665295480649623, -0.6123120599337517, -0.865313004614143, -0.6736038545238873], [-0.14675820571285453, 0.9581375104376344, -0.6257904968658892, -0.5950858375364745], [0.5638186862499793, -0.03050940147983779, 0.4403435559480732, -0.22082637643439104], [0.36605807523005585, -0.579884448919847, -0.7651142783900686, -0.17555785477204336], [-0.5995594205708666, 0.5915118269809521, 0.4501824741230749, 0.5235732383616205], [0.6576365937625871, 0.9656750069047606, 0.3175186860342153, 0.7772285520521977], [1.0533180448952444, -0.6043565560122979, 1.4448510094645224, -1.3274276658971635], [0.1326585023035314, 0.6022651615345522, 0.10208897817211068, -0.6302916997915757], [-0.4001203859619008, -0.15208533632443974, -1.0863781194023812, 0.2583394920902938], [0.6073620189828879, 0.4703522006930527, -0.031125745036345024, 1.0024422510263997], [0.18847915335723972, -0.20973710461939266, -0.47867387673071515, -1.194800606498249], [3.91480335231702e-05, 0.5993649239267653, -0.9111708178136251, 0.9834757309329424], [-0.800154123424136, -0.06370489541008549, -0.4114890970956502, 1.1016647192064266], [-1.0278195060689275, 0.8194376968101866, -0.24856194225396352, 0.11847214615448051], [0.28422214562672, -1.2379628027386944, -0.5146791778137509, 0.6264882176706592], [-0.5815465965341022, -0.5185524791169299, -0.5985458649583784, 0.9930122583779052], [0.2534082702866304, 0.15184706291775865, 0.6839519502833032, -0.08597132515156458], [0.42158911915747177, 0.5445030879058139, 0.22578775206727172, -0.0373602717203205], [0.753336326834617, -0.41111915230844304, 0.6210280076084023, -0.4022856223560392], [0.2896674185378717, -0.5436390898353467, 0.6060765301377454, 0.9950116011063952], [0.5692829799166519, 0.1111352768749587, 0.647316868398153, 0.8773991729482721], [1.0143390817438376, -0.2563246293944571, -1.1364564444516647, 0.7275637921452771], [0.802872893726151, 0.5231930883165622, -0.9933785194101862, -0.09737032253136835], [-0.6658124942853503, -0.21231838895127325, 0.7746085000479228, -0.02494830740950008], [-0.2338364392824409, 0.6227195842711406, 0.8212287110808894, 0.5835032612393347], [0.04924306518124276, 0.9292416227008651, 0.9988451879964758, 0.19340394730933108], [0.6000946255128459, 0.6621501090504713, 0.10501092844282121, -0.29537092512010665], [0.49938631721595966, 1.0607990327014627, 0.6241136464689138, 0.25952610180349805], [-1.6505098190948644, 0.10629518800123304, 0.7291547569064976, -0.10115699026390584], [-0.07356765396006679, -0.629240026855791, -1.0419348318535742, -0.4130514130992782], [-0.48706527812777883, -1.4272064177359771, 1.0257080271256027, -0.9095227363854076], [0.28596702545672326, 0.5677240594456677, -0.7571340712108164, 1.6214903091551034], [1.0176227575273504, 1.4140085666023396, -0.536106377594678, -0.2897876943076905], [0.39422545609677634, 0.09607067469801844, -0.46542705026847864, 1.4742944069054404], [-0.7711071902099728, -0.489248551314469, 0.7416040858509465, 0.3750001331328407], [-0.6779138025611602, 0.007946653054419276, -1.2304243813392597, 0.14710894168509922], [0.8232490917866994, -0.34104535148974, 0.278865475349748, -0.7967629296159211], [0.7150893930926799, 0.21416654824063985, 0.19263733026295435, -0.3306852724187512], [0.3109956592994583, 1.0963795324657961, -0.15998668749903483, -0.656101339709733], [-0.19513738787353133, -0.5544433618838949, 1.0971001307797854, 0.43116366872413553], [0.01950545041519631, -1.5910474787934932, -0.27991515747037127, 0.8465367352796305], [0.07815548487663318, -0.13694917880369048, 0.6873284750810572, -0.0992200372505605], [0.2151170393674423, -0.2390619549954386, 0.23548220129371297, 0.6810027160589619], [-0.18804372433094751, -0.5816113356957574, 0.49242397148721595, 0.4774258159944188], [-0.008653723747990127, -0.18721429258685715, -0.16657971459339993, 0.36789253631239804], [-0.2505501763813869, 0.2908593084534348, 1.3087150621347157, 0.432604151805734], [-1.3771157730763026, -0.8753107928887817, -0.037692208097955586, 0.2021643579434626], [0.26858976490674474, 0.8273883776684858, -1.2961363739414655, -0.120313270022527], [0.4856060372645819, 0.0973881680487979, -0.5957756383613008, -0.07154240315181373], [-0.15494789519199562, 0.7039392309788577, -0.46627322822452877, 0.2620743956109367], [0.16379276939754492, -0.5025404060842489, -0.42571323636807107, -0.26916575498111245], [0.3258405095951606, -0.5532102674896627, 0.08837154876084764, 0.14616042806617688], [-1.1437181394050229, 0.5761133727260941, 1.037766602785014, 1.1498452978721088], [-0.04744710242058144, -0.19568575688043177, -0.46796983908897155, -0.3778663368950019], [0.9894284601410068, 1.1753286322323537, 0.14051229816508076, 0.09202628536092383], [1.1620413951243456, 0.2014995534330217, 0.9541487363858192, 0.5129933595425551], [-0.5837837164468469, 0.5870094241682001, 0.9427366943188129, -0.16818205807221293], [0.17179720589911862, 0.5854888678234388, 0.6296307628957822, 0.7968117584162451], [-0.26816028659013386, 0.5943909479933936, 1.4444391550295317, -0.2980901464023934], [0.8348010151415746, 0.3803648647186866, 0.20165603929203463, 0.26851671130171856], [0.821648693418801, -0.1979889213852945, -0.5814170373390685, 0.6368007826232023], [0.558782047587264, -0.9948256055787946, 0.6221019574110519, -0.4572548187364697], [-1.045635282152615, -0.5735087846871864, 1.6329770031505613, 0.8304055828695698], [1.1507521604268856, 1.112374848341814, -1.0940826090177347, 0.02962138060212103], [-0.04309711992537418, -0.8167094615638572, 0.4079260625821861, 0.08681136630253643], [0.8473240430115997, 0.8073058656300836, 0.06600046101274216, 0.12825531094298293], [-0.3676204507556326, 0.4693181462735572, -0.09088742023466138, -1.568546939386668], [0.14480091167391207, -0.6711683470724453, -0.24180485431755325, -1.0359728953745366], [-0.5639644027199837, -0.015530491552885802, 0.1158471005501457, 0.46146962228355914], [0.6084586105416648, 0.5634348266062312, -0.6575082034803303, -0.8864029782655748], [1.1632408054414598, -0.74038079410563, -0.89763308287716, -0.7688920485259858], [-0.16579232676480632, 0.010116557905162424, 0.19276422877975738, -0.26449983480836836], [-0.004532643688018292, -0.3688700375235095, -0.7836889234538892, 1.9628175429435233], [0.6679204574457146, -0.18060131725278863, -0.7747039015718926, 0.806468575488368], [0.10521566007762106, -0.6096105709622989, 0.8874434885261947, 0.6941280190006605], [-0.2974983891684139, 0.3188689256452227, -0.03749465130759023, 0.8364612970687921], [0.23944143281512523, -0.049088469672840876, 0.036712546067509885, 0.31454973590590074], [-0.05929685457661939, 0.9282463693278922, -0.49074054806490336, -0.3969276673860614], [0.9603819093230803, -0.26266405418971267, 0.42909987549343453, 0.4497867730363406], [0.43671204471664216, -1.4517471956280916, 0.3740535853234618, -0.256386987669156], [-1.2665194531884498, 0.4516684918629464, 0.9911220098628344, 1.1500661558658092], [-0.14492352791762927, -0.8267782861825773, 0.22888977340477193, 0.7714065349370256], [-0.348181963520343, 0.2827005901181835, -0.05028500776823162, 0.08146647436128307], [0.284958351575325, -0.5890976278848127, 0.08492348007143759, -0.6023468624217584], [-0.3413440091131798, 0.09466175332508986, 0.931346286776698, 0.23017063173389327], [-0.5727971514024295, 0.7922705895683887, -0.5123008852137235, -0.43748847386361855], [0.5378795061549315, -0.32546951017974185, -0.02354911428717184, 0.9184320638607503], [1.6199485975507166, -0.8788956039051798, 1.0258472914552494, -0.20344441268201882], [0.47278557177526026, -0.5122856650304162, -0.3630911322115172, -0.13226870721692197], [0.6442608701892549, 0.49360333401255124, 1.086294433412007, 0.325674202782553], [-0.48222224412777154, -0.2803001595223796, 0.6028592351448671, -0.02420662202443725], [0.36229160704301255, -1.2511492341305868, 0.1487620583593544, -0.7542657985759703], [-0.2595256117354129, 0.3798386878521192, 0.23903277685117505, 1.0293736748522595], [-0.23499456175152927, 1.1433947369128235, 0.5661116776335303, 0.9910991790762368], [0.40640257316386164, 1.1015656015118602, 0.5242619513193786, 0.3598917898232604], [0.65452717413054, 0.7149612953964364, 1.1230809446890915, 0.49791514302824114], [-0.043980035671554084, -0.14757816996505474, 0.47589188759395845, 0.4786996209930089], [-0.7420822862685231, 0.5804301469762463, -0.08157077940659328, 0.7557952139621537], [0.6924761343325616, 0.8872668936912648, -0.024455243782951278, -0.2052765129413419], [1.5185764641168362, 2.248072663767183, 0.43639268416743154, 0.14442672143162236], [1.4270566368189805, 0.015690859203649852, -0.9241550790000597, -0.3909072680574628], [1.717710923535607, 0.39877046621123297, -0.4602952524919397, -1.773941141376824], [0.03981175131187471, -1.2090733260648134, 0.6340875388010433, 0.3001716919834428], [-0.2717924229807129, 0.05740115340811762, 0.2580190414784719, -0.05889127916006586], [0.4810235240565892, -0.2904277153686915, 0.16478886288267613, 1.1192544940370275], [-0.8015709484579379, -0.9030954310875462, -0.12249607140681629, 0.31132951553699956], [0.0885191193362356, -0.20853584126845195, 1.1426303181235127, -0.08961985239153222], [-0.07047463108535446, 0.7342915397065537, -0.37986632400388276, -1.109525526266212], [-0.4997094440978548, 0.5511080623426253, -0.29798145068484494, 0.6247311218483069], [0.7383464724269626, -0.9683858132384793, -0.0821276289745452, -0.41776176324874376], [-0.03400626246119402, 0.1242195306150133, 0.4012187599897765, 0.1745997417961965], [-0.22634975686713096, 1.117462293013395, -1.3686299826241313, -0.7257676991931115], [0.03371584625284702, 0.026623248048560994, 0.006617229520885084, 1.5471850606641029], [-1.9563274466767786, -0.07197747708753735, 0.1735322102812503, 1.4034756943636848], [1.0356780202925795, -1.3243286590014685, 0.02936565168151405, -0.1338776843666096], [-0.5475055526358097, 0.5227951061448801, -0.2286080638155579, 0.7752295961551584], [0.320318883096705, -1.0916481335469037, 0.3540018641587813, -0.44241695834510414], [-0.4093536265981082, -0.42125109415992407, -0.10798068185570259, 0.13382363939423628], [-0.5577090904488956, 0.1943121346107295, 0.05092458091410627, 0.08333694980066965], [0.9845982113346067, -0.5124512976985924, 0.04809832531324729, 0.7739547311627174], [-1.1467467832498202, 0.005670080982702118, 0.5605593317675297, -1.4923143672153505], [-0.3503474048677188, -0.5684868842946172, -0.08025080665140114, 0.5408103377926977], [0.1271895020180976, -0.3184959509788865, 0.5634659803678363, 0.5112556118524358], [-0.4332623234017247, 0.5229405263857583, 0.5192446153312602, -0.2515895102819567], [-0.894913015788888, -0.272243016772765, -0.452836756600819, -0.07723755724235733], [-0.4979929316154946, -0.8322596968704333, -0.7610062564637476, -1.5246848257979346], [0.08427696891471827, -0.3060470745822394, 1.224717689300505, -1.3710835495171334], [-0.937429074343136, 0.945031722763319, 0.3647176677809666, -0.025036020576785712], [0.20224728432410827, 1.6640341295199887, 0.2826310835438885, -0.5095021895131268], [-0.11552991703529729, -0.3688394989844164, -0.005840465577196736, 0.6189444220500472], [-1.6101624416118516, 0.6833702515043838, 0.43001063367647535, 0.32581081347684493], [-0.06116806320008731, 0.020103223162402685, 0.857663345909787, -0.933570514655571], [-0.06525523315832059, 0.6984519640706265, 0.3520534708295878, 1.5830251686198256], [0.3982592346795331, 0.3274976919142327, 0.34469457149880844, -1.0122556474720001], [-0.38446802128247853, -1.5694921282225478, 0.21602452360259497, 0.043678293596067785], [0.3390869759378641, 1.2475880135965, 1.0916925500760501, 0.7458445403594632], [-0.21441144568023165, 0.8685565973075706, -0.8438007461352433, 0.9168415383642593], [-0.014590942445905725, 0.7612602355998872, 0.6200853363644396, -1.1699371606191833], [-0.5213570715461928, -0.5381478023125285, -0.36858989125740244, -0.6901582865361162], [0.016520264769573224, 0.24990819586674812, 0.3206154062936673, -0.34547118295565704], [-0.6589139077196089, -0.25824892582845277, -2.398681563301211, -0.1559286505793546], [1.0675915180500302, 0.11960166170110147, -0.7293916096510761, 0.14833051784402848], [0.6804133233048437, 1.2192741628577968, 0.439733353011495, 0.34296114842100783], [-0.7780909006662959, 0.1433122300578504, -0.10071877402364487, -0.4357314661786335], [-1.6944858981272934, 0.2764584794743043, -0.36455360398032016, 0.5985459951154571], [1.0678452022947944, -0.32766583564438007, -1.0437285665913218, -0.5079638376894596], [0.047788689074838894, -0.5405439142015283, -0.9087654899632395, -0.21146943491305806], [-0.9480533505472685, 0.07157170988382981, -0.45441882594539884, -0.36341978117948176], [0.4015622206367775, -1.4101862896022943, -0.2350162604986278, -0.40025761098232526], [-1.0015610970119662, 0.04176405804166613, -0.6712234687907022, 0.6407548789602979], [-1.1259964303157421, -0.12460439571966508, 0.49222078204721026, 0.0985166568349413], [-0.11593017173138288, 0.3013230362142575, 0.5047624114122513, -0.2565685555799613], [0.6413086568989668, 0.1646263411604006, 1.6253184042258202, -0.3249467870713305], [-0.7747472527571654, 0.1812228713243421, -0.08520510510835537, -0.16894430523126241], [0.5153761658850736, -0.4835778381738789, 2.054427217081597, 0.17077142726884126], [0.22850972706492556, 0.9104197883319258, -0.24918337259428333, -1.005792764081021], [-0.24335392764055142, 0.7317122269096223, 0.3938199333246424, 0.23031027626896355], [0.12989123088777613, -1.3018761603097402, -0.0633777726475714, -0.34377214349764096], [-0.5124693828201624, -0.5512450123083955, 0.029471346120195755, 0.22385037294149107], [0.4213437439197711, 0.058476796472182554, 1.1190404912080112, 0.8068539433755111], [0.44609408930994376, 0.7600901930792533, 0.9499585818101501, 0.4327569092879326], [0.43158080966953327, -0.22567571160996433, 0.9258986595535662, 0.29314948382083933], [-0.9864596094731439, -0.1408068339555583, -0.11714781902559325, -1.776784861374536], [-1.0892127229933044, 0.06708389157675555, 0.8250914818300057, 0.5054700396221701], [-0.3872467342097135, -0.15778971115722953, 0.41858027296910744, -0.7951399265726837], [0.11468532637296722, -0.1039609759065572, -0.004307775959876671, -0.07685007009019842], [-0.08396146608530976, -0.2433285207704517, -1.2041883164086409, -0.08513293147366095], [-0.7664321783247086, 0.567638461452763, 0.9384261126848759, 0.7905738842883616], [-0.18198309195148998, 0.5439548772836941, -0.761989382344044, 1.2728522173661074], [-0.2588650802105752, -1.080732796842187, -0.13509404596620547, -0.30274184977026325], [-0.22452789314718163, 0.6091231171217814, 0.5425482122186251, 0.5794011913538339], [-0.8080227109694631, 0.46035063537986504, 0.557830747907221, 0.04956689706377916], [-0.3002403720521642, 1.2998871906353968, -1.3689947207886275, -0.8647834780174682], [-1.0089453443060508, -0.24531374609267065, -0.7737725532174988, -0.0927275121646382], [0.46217777745498245, -0.21244540546392626, 1.0217838066935558, 0.011380723098821066], [-0.9963047087199451, 0.10180427691934632, 0.11326190556292405, 0.2606286740426888], [0.2710582525829386, -1.0590800607507596, -0.6197675690220474, 0.40235961094483225], [-0.354729725996833, -1.1105151743191555, -0.6411337775365668, -0.5749062981950342], [-0.19285479919294965, -0.8171947049123548, 0.9757751242101602, 0.5471601570982232], [0.44182698066503623, -0.9756967958966011, -1.367396818750137, 0.375019855620568], [0.4268758405724279, 0.17035543381321294, -1.3068364753889596, 0.0005175740961087845], [0.1937776221679226, -0.8973489983164031, -0.8143965358585108, -0.08367806380417964], [0.8381495040085772, -1.1968332686679268, -0.6344132540982717, 0.6517899109715302], [0.1227269519445899, 0.7316873789229085, -0.5280298846720587, -1.4253634971970846], [-0.3395809729039583, -0.15714804093410203, -1.1683495565658197, -0.38218539490351616], [0.5492831245620023, 0.49470358629402394, 0.9748408822057889, -0.3845075096251216], [-0.8158930115595693, 0.04585703925447607, 0.17046165501060623, -0.5333689568705321], [1.4869213186762535, 1.4110854657973557, 0.650312822278426, -0.9797704421348292], [0.0014050298957029922, -0.21980251919913785, -0.5140168191226441, -0.3658621045435302], [-0.8290662456522798, 0.5247142170209477, -0.12260245720839386, 0.4132681447609148], [-0.3701149832461003, 0.5143872037264886, -0.5764349591543817, -0.1383225234926449], [0.5741585436603174, 0.034731620182397276, 0.2887168118815602, -0.45025215314353534], [0.9477286712941702, 0.036328110987562896, -0.5045835208309432, 0.07682962775784234], [-0.5674869681904584, -1.3780388605376623, 0.3233801707177022, 0.5872693151333279], [-0.01555876153016536, -1.304053342061784, -0.12331845974539962, 0.26374457016124525], [-0.49633087907569257, 1.4932639539230994, 0.7358369973349083, -0.20523396965441926], [-0.5991137720532503, -0.7309274014157772, -0.390090514380014, -0.45579455869637264], [0.6038665478027787, 0.7841088409372933, 0.17429506266126624, -0.8719374556537998], [-0.32917067877587, 0.3794640838065662, 0.0951445272256958, 0.02527968568487326], [0.12770000288292227, -0.23033043569823683, -0.342423255271013, -0.021280552380342984], [-0.5078999010903853, 1.8184921321929757, -0.791261337985211, -0.0652253401559644], [1.5868074438286013, 0.06165535957642689, -0.41246093839723696, -1.1257212526114309], [-0.5011198294723983, 0.5317969873063051, 0.44950985425460416, 0.2040221187112314], [0.28078505870855724, 1.2682825490883376, -2.5455619210227294, 0.6968263920470236], [0.03673426250027711, 0.3245737020679296, 0.5458897861580296, 0.6542870530606595], [0.0456497564375908, -0.8415239501752774, -0.210314864814018, 0.9219123696028818], [0.1857952616836832, -0.0427526677582279, 0.9211068868760192, 0.055141819335467926], [-1.0502750982975457, 0.5870267015397879, -0.371447351453386, 0.9798775289935854], [0.5263160428024606, -0.8830253742055251, -0.5999139043161961, -0.6870836445891734], [0.22403545634204292, -1.0748869036872244, 0.915832869100923, 1.0330735543826703], [-0.4961735987582976, -0.4479599293716121, -0.9039900537899097, 0.3283552521627994], [0.8169111872498146, -0.0905604560822978, 0.5701768707802237, -0.6084956919489847], [-0.20712516801588018, 0.5260420857254805, 0.8659404782528044, 0.06738145029164948], [-0.3655311793157519, 0.1034645719419931, 0.5853265896645409, 0.7932982709817757], [-0.3237706178936014, 0.6252866871776281, -0.42619217595611897, -0.2682366776794093], [-0.27385090337626256, 0.99304302208664, 1.7261953354233601, 0.37171483080873446], [-0.46474722817044206, 0.045438619078271444, 1.2424144718463668, 0.6979208777103498], [-0.7888429180342086, 0.6781649444356133, -0.3652945097350471, 0.34269958143309665], [0.4608734303605843, 0.5171318482112426, -1.2062180437525247, 0.4374818975579363], [0.16416935076354547, -0.1145246174475222, 0.5688331986509815, 0.4307419487209779], [0.07820131220863426, -1.1348330462275646, -0.4197215562048576, -1.2526743910027038], [0.03031179720675424, 0.30677281879427554, 0.19624714584295985, 0.3384859924581213], [-0.5540437191670985, -0.12672163308860326, -0.19717365576365323, 1.305447272452614], [-1.041852948066767, 0.06986965775834131, 0.951015060444231, 0.5719198385745968], [-0.35899652630088186, -0.9631774234721321, 0.0015506901517980934, -0.41922013397343966], [0.42506427403591984, -0.2105511819663931, 1.3126764568649165, -0.624756500509494], [-0.17843996445402951, 0.24071984957012088, -0.20266800778945868, -0.4440480570379266], [0.7702221577140196, 1.3362597518776687, -1.1938030860719284, 0.7394712264620805]], [[0.1539634298110681, 0.004118797814166758, 0.13262261182817112, -0.17530604669366542, -0.060404536346697735, 0.02575841791830029, -0.07719527914206348, 0.06928067808950258, 0.05296978426369879, 0.07582652360895177, -0.04806920004329169, 0.027799800372748613, -0.09636607458920744, -0.034335336912159696, 0.011732633375365425, -0.10485599132465125, 0.09819983188718455, -0.04267802156484815, -0.058619738585029946, 0.03425362962821634, -0.06787214362412007, -0.005727787252889859, 0.031234424644789004, 0.032029795611362925, -0.02644607780340125, 0.06740215228702104, -0.06780104656988262, 0.006157186645097282, 0.08383767226247933, 0.04622527163582225, -0.010786838892593438, -0.11845175053382359, 0.2942534559941304, 0.0659400568153577, -0.010903621959461623, -0.030142189320420038, -0.08762269232477313, -0.007733992449530282, 0.003382167891320536, -0.11810239532377276, -0.11931130558224029, -0.17639729859055517, -0.0502776404618126, 0.018909480290644733, -0.0039259837087432066, 0.1191355359124631, 0.03951409532736028, -0.051052560643223326, -0.014723546977828812, -0.023293606806712486, 0.013061425529595664, -0.009464570590959889, 0.003294099877152136, -0.03651612951642671, -0.13840539357424092, 0.029993603675465906, 0.1602436456072102, 0.05637476141517368, -0.09432709794251731, -0.015169566647977193, -0.1245545986409837, -0.0063789900105077155, -0.09114051224684536, -0.011482652285407974, -0.11058278535451553, -0.02471124561034383, -0.10081266759418295, -0.059246352554587295, -0.12062440628455233, -0.010990338295952543, -0.05704986809470893, -0.045167853367569406, 0.22017597284297097, 0.008016604036102515, 0.137115438797563, -0.06840081053398787, 0.03900481231797012, -0.048126014833529907, 0.047857635156600846, 0.06664355103478292, 0.15382308243433895, 0.023150630641533446, 0.01766254761507226, -0.1828199295531269, 0.11320576359856595, -0.041367513782469646, 0.033709377018872555, 0.03195935185752556, -0.12892071249751216, 0.10059404712368286, 0.04907702404938347, 0.11429196043266476, 0.002373464894485847, 0.14184728750350417, -0.10104310544491324, 0.08841701140433002, 0.05562972408866747, -0.054091382729076556, 0.08694794277485186, -0.08718710310610651, 0.026674980904674513, -0.14062441523407732, -0.14929513842090092, -0.0654280436219308, 0.1319987998538441, -0.14946426243671135, 0.06033547655740778, -0.1396900690431912, 0.05799255463289219, -0.0035219849604400904, 0.01620762354958836, -0.029924600499956003, -0.04556060621866907, -0.07354822926897613, -0.07176316342425808, -0.022042774428368533, -0.1377498213908749, 0.04333355361746177, -0.048004142285592, 0.14914488312530252, 0.018077599433790077, 0.009624339350224368, -0.021068565532759653, 0.030078717895303454, 0.09607190840027763, -0.03623836346187272, -0.01802072920641602, -0.025015365322992845, -0.050895786195131625, -0.025765500525051537, 0.13081075623889293, 0.019013379003206876, 0.02714159528906529, 0.13112033685830096, 0.03520588599468767, 0.13402802211306075, 0.050914780080158456, -0.0018442960595358249, 0.16024591889858483, -0.02032728318821959, -0.12600654923180482, -0.04082020253751936, -0.0270802864733967, 0.0594352505215894, 0.024443934642434124, -0.11735937790245578, -0.13482269446971842, -0.04391281979361915, -0.018566154798177067, -0.03332242410949079, 0.04731266712733567, 0.028601629050409284, -0.12432749452077095, -0.07098473936857044, 0.08863141484594862, 0.06406253030215453, -0.01146817903674755, 0.040955512479216465, 0.03724856666994819, 0.1029093609666602, -0.052319574311808295, -0.15621391080264993, -0.026964634937812513, -0.0934697800299746, 0.09528348000452125, -0.01674359895570211, 0.10991247513067316, 0.021443115474829154, 0.05865780515712831, -0.12581416791057437, 0.021941174074850103, -0.03871654628075265, 0.028130516173532585, -0.07191317216334378, 0.14288664449333685, 0.11362720410076609, 0.04612611862414633, 0.1355679182685504, -0.02072021338720643, -0.06745094547704573, 0.15508557436808004, 0.12904582227506986, -0.09670214043628736, -0.173137107770524, -0.028688430198243246, -0.07789069954610808, 0.008268877766445462, -0.11058736521960293, -0.10734403349477178, 0.003330182518612822, 0.08972154209804882, 0.06220597743610836, 0.05886483196265209, 0.06625646274923237, -0.07766753914389474, 0.016779871941530074, 0.017977659855821577, 0.008066409903798219, -0.03207544425566909, -0.020495221083485417, 0.06776927335325128, 0.07266377066860723, -0.07180467715949775, 0.023810072840200817, 0.18287401988803992, 0.20971154839937053, 0.05584057988108891, -0.010304705180647062, -0.08491827216644213, -0.17252740504895336, -0.09924912546201858, 0.004626937942674942, -0.08334096515869617, -0.06414308733769551, -0.092049747209163, 0.08202002138103089, 0.12504632612057895, 0.2034973972686019, -0.1190476831433936, 0.007901879641217352, 0.07877668176473239, 0.04100545327730467, 0.017178073744466414, 0.01884234021615021, 0.03232871881551381, -0.09482855802655157, 0.03848190847018064, -0.09846705567140686, 0.24898449995805816, -0.11752799747168588, 0.0077581358064304235, 0.07569457586470027, -0.12003850057751925, 0.05888978376607218, -0.0640835471453696, 0.02896044024209199, 0.0969868670293953, -0.029713580621051033, -0.11695055258669791, -0.15731389268818072, 6.66547668818113e-05, -0.0595591795786382, 0.07666139316250824, -0.078804472248218, 0.07292817742591456, -0.07928870466828251, -0.0482268163481734, 0.03723934954643552, 0.0023627808964004236, 0.13792054443244217, 0.06225011982483553, 0.10505272157175669, -0.07867702452231845, -0.0693083153596481, -0.025694959993733595, 0.13389411007579552], [0.028931792507218217, 0.02237187438103163, -0.0077922668111107575, -0.01267520028162614, 0.08458288795200736, 0.028225033375336692, 0.11563529873331112, 0.05748036098859066, 0.042978071294296344, -0.0638283547965792, -0.0407627303709252, -0.05311362587517384, 0.13020566152837454, 0.1348373851186249, 0.1374568911689977, 0.03476343979010261, 0.08894588733563684, 0.0613229150501811, -0.2590214844707547, 0.19725975323524655, -0.051385554353296385, 0.16295560770316267, 0.2008818362736625, 0.03182384708568048, -0.08677782457240647, 0.043596748215660897, 0.023302260055672985, 0.0481149390085216, 0.01941865334011691, 0.023845094563468727, -0.09075349379281107, 0.047296356216820594, -0.09991280713839126, 0.04883993096644175, 0.07727075376765896, 0.10618730804736991, -0.055553264854432204, 0.02497047596013804, 0.03896377993345348, -0.0680724779515069, -0.053931557816321765, 0.13029736222339666, -0.02373328702042572, -0.0772364359173332, -0.003038745406486525, 0.0548472038956458, 0.09649857460166691, -0.08487854435702806, 0.010416823724757607, 0.0526395556744241, -0.16147089922281882, 0.021463807462293365, -0.049058784767807055, 0.023981026445279902, 0.15475746213071384, -0.03537459150224479, 0.013124147711790855, 0.1233803520866456, 0.05361039810911378, 0.048343713567618664, 0.04922695669639028, -0.08181473712272927, -0.08810767825810874, -0.06049551514142624, 0.09979086730151668, -0.04635973501436308, -0.08508481330317308, 0.09028560251839035, -0.05993004571353696, 0.06168982069459634, 0.03924737404941583, 0.07694816371795381, 0.1483533053649625, 0.022266123013809317, 0.07275441471919937, -0.08001906686919276, 0.04105255481489118, 0.0756771946699633, 0.07537912335912628, 0.06539543715125072, 0.03965893874692834, -0.13281884065592092, -0.10363337871107614, -0.13291166462534348, -0.057292531099247514, -0.1221274974868444, -0.022197508344173267, 0.10456131185611509, -0.09080361511472125, -0.06140942772478868, -0.0456351430429378, 0.16003358292198977, 0.046797219540318916, -0.07605020706537675, -0.020849095519869885, 0.003649943207305524, -0.16709900307650122, -0.14476298916038058, -0.021505122632562813, -0.08944480015238013, -0.07077935641163112, 0.0388341461821389, 0.13639759484070238, 0.03788075011567427, -0.03692645149701455, 0.0601358472326244, -0.001919811562547918, 0.08571761167900534, -0.13511223464499023, 0.11531543541020685, -0.09042932613700508, 0.12926018864159844, -0.00537283643268899, -0.05018809358084592, 0.12143880385341958, 0.0881185124943036, -0.15257738303010965, 0.10519844416760857, -0.09845677524731772, 0.03993434470623422, 0.14208043986547736, 0.11546972048867087, -0.30190230023333503, -0.036647838274760154, -0.17736161469506498, 0.014804952080189287, 0.014610164316204462, -0.060397930936467864, 0.012485662074156792, 0.08318052137236996, -0.11044626313951807, 0.1226379903284536, -0.011641593943169257, -0.019559481042295143, 0.02969416702592664, 0.16319957029366786, -0.01911206205035738, -0.08420309263706278, 0.030605448100763682, 0.009059564597676102, -0.019048732977309055, -0.012893788584922227, -0.014608877707264533, 0.03134815051151497, -0.028804522589054245, -0.03362398856435767, -2.9183855963239085e-05, -0.06280703309502422, -0.03519961777477648, -0.1354413613627601, -0.09942952220040141, -0.006751971388989805, 0.0987232851794023, -0.10552821824783312, 0.12868749844204522, 0.08294187438793844, -0.02308131149398955, 0.014600269759877433, -0.015197369833565821, 0.04655187541797928, 0.03169267619437575, 0.09639106713131633, -0.08939155167695204, 0.1859043753400342, 0.07478004871885675, 0.0795822903948275, -0.08325172284938653, -0.08168465698243468, 0.07653556174402784, -0.09934313670642418, -0.004681139579933541, 0.028361348112996086, 0.03404000232694168, 0.015781983867277572, -0.09023084405313905, 0.0055920416820285064, -0.1250029099759218, -0.06310282856979318, -0.12500062365435252, 0.04676795009190071, -0.04787273998562706, 0.023652760918082678, -0.05902506896284384, 0.17585598620759435, 0.01367392364471514, 0.009213553248284018, -0.014169286239381912, -0.08050306869720233, 0.17127396353337107, -0.05011877011122871, 0.11325190479704546, -0.09769339203856502, 0.05911879537545557, -0.06258772722048926, 0.005110238550290437, 0.07730456493811898, 0.0732407216584195, -0.1470920630556993, 0.03521442539892479, -0.04878601804209232, -0.07437815640125178, -0.09820743890771089, -0.18113935511887128, 0.00448888843762438, -0.12551128970425218, -0.07531641320338889, 0.06902561469453088, -0.03732065551152701, -0.07123912838430042, -0.0049298558783593995, 0.011492522928346417, -0.013479708742312406, -0.03808299384806083, -0.024797160610828036, 0.005824220271483591, -0.09563255172045425, -0.18144991107806582, -0.12334105232859861, 0.05939951315707408, 0.08693415941074054, -0.043022783742337894, 0.061896083869730625, -0.043404872342005685, -0.003352429310772585, 0.026348788461822998, -0.1565704784918154, -0.04041895200053901, -0.03573081868778471, -0.0421038282580947, 0.09644378817652734, -0.013218350112015937, 0.06476258213460406, 0.014206300403040113, -0.09366331216066143, 0.01576923009962157, -0.0475298773439581, 0.08873005376904032, 0.0061723610017884595, 0.0519830515985331, -0.12917767558507967, 0.022556305077647592, -0.007910800920058352, 0.0012057402415061086, 0.0204790657658121, -0.0740580359166273, 0.034309641057498556, -0.03899303165034452, 0.05928085105889685, 0.0034039642703217487, 0.10145537289330911, -0.14320506020161688, -0.1212585773496436, 0.013884330094555638, -0.17521393504445626, 0.05459886500718745, -0.10537907938913628], [-0.03444947529660348, -0.08350615472603783, -0.044566711411892265, -0.021681468819166223, 0.056636528382278825, 0.1092350486767426, -0.061373223438773265, -0.08843692027872664, -0.06130996512666216, -0.046194366818823114, -0.001447032480889004, 0.03650162531805842, -0.011088575952888771, -0.09355429737251122, -0.0575140245835301, -0.059339138730025755, 0.1497501550328373, -0.1735305435560736, -0.020732301935863198, 0.04645629704613946, -0.012532217468168244, -0.07770330058679921, 0.04540467560368052, -0.0037402072944788334, 0.05501713654484332, -0.09468485518152236, 0.09590184700883728, 0.01994363474020816, -0.11258554078995263, 0.03283320982260134, 0.028597518959110793, -0.13042025291849185, -0.016870425803617257, -0.04892791451523609, 0.05316494664968518, 0.10199824637318024, 0.013984538000739602, 0.13299371846398753, -0.06698521801370867, 0.018815934395530576, -0.018646025986777025, 0.05805431714080106, 0.10228345651688621, 0.08305256981814975, -0.009411955344960077, 0.011007741768510196, -0.05335399594416328, -0.008645819915190261, -0.008226365218945054, -0.18208606469822006, 0.06234880742642237, 0.18315710403479293, -0.019815138125874578, -0.10232266717072912, -0.019440666253550124, -0.04438611549073245, 0.048907369508319094, -0.053892713136649395, 0.08997046405597477, -0.010589336900707154, -0.003585111695405275, -0.01566728375674216, 0.014434191976362172, 0.004451230049252177, -0.03525651894935246, -0.010016299231387032, -0.06851393182704621, 0.057871037222166494, 0.0041480718359259055, -0.05037702694312831, 0.04891070726973208, -0.14534173034691908, -0.11862861482111309, 0.1297013192469114, 0.05422286303474687, 0.23909621668445322, 0.03722767883583529, -0.10517468995249299, -0.035539006948908936, -0.01797967456167942, 0.04803366561004829, -0.09558827921560928, 0.046741863786924166, -0.0796300783809695, 0.014295460966384095, -0.135570208162521, -0.03955402862152532, 0.016346353802268763, 0.006548890471424715, 0.2076585652985133, -0.19303866453909396, 0.1568438255047095, -0.043785602680567505, 0.05383194645634307, 0.024316716144899653, 0.09857031350002024, 0.04253603502831683, -0.09076615246732067, -0.0028102048758319722, -0.05939021156838341, 0.02716044299268985, -0.016184108181118907, 0.1421519251394183, 0.0770139503045621, -0.047392530348243186, 0.030805650601486684, -0.055269201749580284, 0.1374714666861858, -0.013054653908888925, -0.03798393071866584, 0.15921560662860687, 0.11547342885796896, -0.1446577030840928, -0.09215308579723931, 0.1474229146144927, 0.0655663319393798, 0.10739479322755854, 0.12200258419071237, -0.11780431314699182, 0.08029958753084515, 0.07601395852538106, 0.01578919001081303, -0.09074034210514093, 0.02188452602820895, -0.02564200028715334, 0.050016888025784724, -0.12610383594813687, -0.09439139662468507, 0.05046549490835916, -0.04825274384379784, -0.05476165901111628, 0.13319555269896174, -0.11497232538959169, 0.09695162622253538, 0.0222174604406326, -0.042629487856676695, -0.07756400627185234, 0.05479670649404298, -0.0017242886216821476, 0.12460285081412538, 0.11488538959227762, 0.11599472294043475, 0.1340481050058645, -0.1107222940343557, -0.06626153122249898, -0.24003075207513858, -0.1607794874055686, -0.038850692369290445, -0.07924144396223012, -0.05116286487552049, 0.15180731221958943, 0.17365551285330613, -0.12709890583946226, 0.08023616947488721, 0.051714418381885036, 0.06631489768791432, 0.04158550553227696, 0.03878150333533099, -0.0113146311788472, 0.02303796698344663, 0.09048404262438225, 0.09531083247222677, 0.08786697841058785, 0.07996927709053653, 0.1647139866249926, 0.011374367665157302, -0.06180780595101453, 0.07218824185343468, 0.09964559861328375, -0.006164093957901053, -0.029173024926004577, -0.009058827525916637, -0.10843185438699725, 0.05814635901259521, 0.11123832771021103, -0.10649196008962401, -0.022502108131796067, -0.11543148307177617, -0.04810603886004549, 0.04067183870608381, -0.0663795948667671, 0.12871985505675254, -0.023709349960282133, 0.025642553659313394, 0.09409367977534074, -0.10832819087828506, 0.007753418378300378, 0.02654985783758864, 0.07269293380177663, -0.1543877703754347, 0.07259636318138804, 0.023583874417641218, -0.09274338465153216, 0.09096207130516056, 0.013405484530509845, 0.12821174586994455, 0.032147145765318796, 0.03663869723120261, -0.021339430468771917, -0.05971334220062752, 0.1320300897039874, -0.07967538512351291, -0.04458074822331312, 0.03763937242349465, 0.08380046422010358, 0.14039218983360618, 0.06141540727660106, -0.024527136700667782, -0.014056488790900096, -0.09845459290601265, 0.10593900765431147, -0.028471931337643953, 0.007870113388077762, 0.08601204749425218, 0.014749787912943265, -0.0025632740387418426, -0.07321388577095209, 0.052193790385222344, -0.11749500207714784, 0.02637785869155138, -0.04046493921342112, 0.18741955976411664, -0.00211508022184563, -0.05985365607453229, 0.07177664170016824, -0.028013381340588006, 0.11394625773078924, 0.04017974027306946, 0.1325275447659367, 0.11566190909655924, 0.012150829297016899, -0.08223647336202046, 0.13649542370342713, -0.1333125644533802, -0.04783624318211696, 0.03828036593689638, 0.1257329302669765, -0.016813907291399987, -0.03436751436212262, 0.1543659824679268, -0.06003079663209171, 0.08263385738492837, -0.09700695374840598, -0.08989505830504843, 0.05024553400586429, -0.14012988477616206, 0.026375776631260547, -0.018538867380391424, 0.010320310436292156, 0.10143960848395223, -0.06550192560641588, 0.10679768338625474, -0.17041571865890368, -0.07598123573070108, -0.03202019551382366, -0.10675386635203314], [0.10544208119254952, 0.22835359225841712, -0.05585790240518931, -0.03517077838351631, -0.038397850935567565, -0.0075841108670649925, -0.0634783497954614, -0.15930776445718636, -0.018253536393502016, -0.10523606168294265, 0.042133017539738596, 0.016116517294787327, 0.0354771767896633, -0.07761307287656152, -0.15894672086014902, 0.13738043434629252, 0.07102612418964029, -0.004474823651672627, -0.05715903659134775, -0.00045500710571991205, -0.11982808672462382, -0.010718640896916314, 0.09400138092047516, 0.02916056514165376, 0.030736889610689447, -0.01938084512682686, -0.13670238318181194, -0.1675350257310206, 0.08005474335167129, 0.047789253692590045, -0.020939339228463222, 0.14294024730773008, -0.03207083695576815, -0.02714393660752583, -0.034438332528205835, -0.01006147594517612, -0.0811471644066536, -0.12895027324041733, 0.020365595534199536, 0.002088852951547457, -0.03929496493787437, 0.10789225568238699, -0.10010674834877242, 0.0681203580679694, 0.12740645539045542, 0.05261370269339121, -0.1764853708503001, -0.12900020843231086, 0.060610314540678646, 0.02822114966640027, -0.02947335563468673, 0.01124695240446967, 0.036790390794374156, 0.059820595659541315, 0.0354379360746319, 0.005089367068023441, -0.06917775052501463, 0.11500118182331938, -0.10010784892375961, -0.011153053949523017, -0.07280571778147005, -0.025751931263274228, 0.10299423796609689, 0.03468350504685917, -0.18929551932748162, -0.03947794722284768, -0.06366328295170598, -0.024784662036327745, -0.07733030433033129, -0.03859953119687096, -0.10542065272149768, 0.10966427322530223, -0.011150459496071057, 0.13718448843696227, -0.06445707751291663, -0.06070168812474677, 0.07836456465110309, 0.2067602036208175, -0.0432224889679349, 0.0796767941451466, -0.024987892785200836, -0.064202723121427, 0.07833357239099616, 0.028091059180568697, 0.02955969948615046, -0.02126790939339693, -0.015458471147494683, 0.03370825508608107, -0.09243416234023341, 0.09138425037540107, 0.06383787649057203, 0.07147507750247716, 0.12113689403245204, 0.020314682777356017, 0.12305164000085185, 0.010104124202192664, -0.0242676218469225, 0.13272767337797806, -0.04291039530813236, 0.044041209248614696, 0.06012027469733479, 0.1714519759132541, 0.11201750780693781, 0.03992641188639437, -0.03458027708385873, -0.0835296646486294, 0.014503425857397457, 0.07489941331411902, -0.006232859847151311, -0.13900468714814576, -0.09030551094493208, 0.04060385072290353, 0.12383064794980601, 0.1419987073402136, -0.05158738527740744, 0.10821631261220896, 0.09643343960593793, -0.06535377951723836, -0.021497077703543914, -0.08790675958229888, -0.019073811910270567, 0.04497955444630084, -0.05953483199147804, 0.1140293122816719, -0.07258737868385458, -0.030615957370107777, 0.09695379230781635, 0.08861463664501947, 0.022502096383774286, 0.0152814188064609, -0.03362991208291506, -0.07715101989407364, -0.01521377695591083, -0.16850509382371984, 0.09675521324770375, 0.06008128834423443, -0.19764659684239796, 0.05112688906015635, -0.01857115031338084, 0.14475600564713145, 0.035827896453069066, -0.13490682794895914, 0.09264621976598733, -0.25888662101161486, -0.010842946046797782, 0.09413217632737557, -0.00039433448014284696, 0.09872174991174128, -0.04476873768195842, -0.21177814046677002, 0.12955838125676025, -0.13604577001797116, 0.06354082968834475, 0.04385189897614772, -0.024863041644641398, 0.08829987743639438, 0.10378330073923274, 0.02977963324740414, -0.021639974282230367, -0.10763488289321654, 0.01534322085415106, 0.1847877584155439, 0.0728342635271944, 0.01773391291781756, -0.0573443572628434, 0.08938865570679087, -0.01738235892534822, -0.11230747483053947, 0.06255881662020493, 0.06382584268655828, -0.06935833194974128, 0.0445265639507533, -0.07509285626914868, -0.05369819659555626, 0.07475809703459055, 0.014962422088046596, -0.01887222261759674, -0.06205437196847449, -0.10003279156425372, -0.057207555640294824, -0.041849232875744206, 0.12613029453867491, 0.10664676709507717, -0.07460837858269398, -0.05264681021475428, 0.0247346351549517, 0.05059771793917071, -0.0007972690348276659, 0.08462638763155772, -0.06386174412711376, 0.09651212931123458, -0.11387622774918482, 0.026939503124101566, 0.034550538802931435, -0.049157494006901205, 0.008377144601962493, 0.10664893474116502, -0.05470948964357747, -0.07062150382032276, -0.03364733010914766, -0.050666137136378284, 0.02430128368025641, -0.1007408655032866, 0.18663682279716445, 0.13342505592564963, -0.10885370067480975, 0.0717418242765266, 0.06435293391370582, 0.07047480938209083, 0.05149894445810089, -0.009535460951426076, -0.10499078895057312, -0.016904665938928625, 0.0031706192151187613, -0.12850890717889993, -0.013338316849216365, -0.055345715104231294, -0.16715283913179113, -0.01768959471561227, -0.019979166866596614, -0.09345010770745005, -0.06099721549085731, 0.17932901763722142, 0.10171123917107239, 0.11810587487869476, 0.04920239943834382, -0.01843701500794773, -0.019168880125160728, 0.022834685667979398, 0.04742319318853643, 0.07548772354298974, 0.02136960479698041, 0.038846403597885736, 0.08677314671591153, -0.050418552995964094, 0.12803804786962414, 0.04146455674636051, -0.11253934590141856, -0.12168897630263158, -0.06827894719322176, -0.008196897327825404, 0.04269442693700265, -0.037585304081079296, 0.036870713266714775, -0.04367361392833237, 0.22147707487927948, -0.09816004452914814, 0.013803455188537652, -0.07459099297401307, 0.09407615020848584, -0.06922050678091395, -0.058972069111626356, -0.029353716358703576, 0.15081718597917718, 0.03200557485830356, -0.11192537956794657], [0.05027751953940353, -0.009570924324954062, 0.04161385798052565, 0.009493668014204888, -0.03425212054764166, -0.06318176302936128, 0.0684799306319084, -0.08231742643204355, 0.011204092917548984, 0.11731839593968538, -0.02703015048905463, 0.047387813309957366, -0.1157629707010351, 0.02851169129088469, 0.1687072548935389, -0.07542954020440827, 0.01292116421225696, 0.04074625581598975, 0.04247929710957043, -0.08078892857380467, 0.026391721864029386, 0.14377643891112551, 0.03602707708845151, -0.07576882215797243, -0.08442833007932765, 0.00638811010463245, -0.01481672828408796, -0.0402581669840287, -0.02839580670300012, 0.12648451511896436, -0.056421787198199846, -0.004780655835560998, -0.003942139816865309, -0.13126967899921727, -0.04255416404255665, 0.02551706204166384, -0.10968680126865664, 0.16014309547862413, -0.06207377845985617, 0.010217519315061277, 0.11074049570880368, 0.1466176192786094, 0.009448489592386134, 0.07787028543223176, -0.039160318055165975, 0.10927426269779095, 0.11592326477512269, 0.02969988528642768, 0.08442920257371757, 0.06741644996581454, 0.002396504323759826, 0.02994375945826529, -0.06165682498012035, -0.1026041321695354, -0.010244870302018056, 0.03832469112549847, 0.01964405915123889, 0.13478789827801332, -0.06484331525597298, 0.09791572263024359, -0.010831415343011146, -0.020350022538574965, -0.015872211908798926, 0.11045988275838974, 0.17212701247513706, 0.0076051296353279235, 0.0008134446082416726, -0.07145086666901264, -0.04598290179983661, 0.03174005896379, -0.011701468706462994, 0.06622125075576177, -0.0273923521359091, -0.11127789937775584, -0.021099721239914423, 0.07258323361569691, 0.08500048312653512, -0.05484815393116813, 0.142126493509456, 0.12916251844913257, 0.06173382292735662, -0.037437169422354685, 0.05594385926972906, -0.07160887101376015, -0.05777757813673009, -0.005654963147283204, -0.05399185304239389, -0.04178215529896358, 0.06111780662171208, -0.025460256662143566, -0.060514382054380166, 0.04494521882440306, 0.08067358549682989, -0.1191020305729148, -0.08967521413015098, 0.042926186255584975, -0.10231964212837728, 0.04963301829489065, 0.029667153598920852, -0.09907367762575388, 0.01987685799278648, -0.06280205963560895, -0.1917088281312208, -0.14037146562535557, 0.03370796823190619, 0.1311462006527139, 0.04717277942493475, 0.15066210492544865, 0.04311953258698703, -0.01190599449536066, -0.0979717660160908, -0.08278985432549099, -0.10107401053069734, 0.0024708585698863667, -0.081549172193936, -0.06445603157866939, -0.05705846981753287, 0.040591529975778584, 0.14540177587040246, -0.06636468947817833, 0.013121628681612475, -0.14453438622956155, -0.1619625185402404, 0.08517495666414379, -0.018243979259541535, -0.008686552495483694, 0.13593932193460465, -0.005915312857815365, -0.015102405362695982, -0.028331573885217846, -0.22882019667236367, 0.10652003122249902, -0.026254336487213918, 0.14695636443891122, -0.015449723713591835, 0.07494758689237441, 0.10405849017772796, -0.0572781757415829, -0.12679888438336573, 0.07731951712601069, -0.07022596896630574, -0.00033861802552454743, -0.1489095699199379, 0.032155462863977934, 0.005820246800953216, -0.005508165658977322, 0.14867236732910294, -0.03944325207632528, 0.08700481678503928, -0.005829078487304706, 0.04484034325329987, -0.021236396637940875, -0.014313083053122767, 0.1191543813605488, -0.07531339390403013, 0.11926883494589738, -0.023105942912835114, -0.002489349970048499, -0.03784009675955256, -0.09196775173665167, 0.0344539644983125, -0.030110169342070916, -0.11219901140508737, 0.050804395568693726, 0.09664221957623659, -0.04647284768073792, 0.19276873147567108, 0.007531267639284717, 0.1441977347593148, -0.014698284772198728, 0.12408804832307692, -0.150920820434742, 0.08026821822004784, -0.06068483420080516, 0.026594241409318722, 0.024997743278021543, -0.13374114741743787, 0.029073835701330528, 0.027999901997064928, -0.016641816941041256, -0.06987446920418293, -0.04221540670447965, -0.17275489334923588, 0.12211969408301926, 0.035166809611647726, -0.0513803103759297, 0.044499093572644095, 0.06334080662004385, 0.07572213662842392, -0.16356816102129804, -0.032162671932070994, 0.11824801534246515, 0.08987382317822522, -0.08721832196509242, 0.051163732858738986, -0.01864345434171699, -0.03345721499237635, 0.05066610359332133, 0.025508724391862345, 0.10504899513427057, 0.05439088043466619, 0.09732445552303735, -0.06378301722523336, 0.029916575507988295, -0.12330808247800053, 0.15290425035105631, -0.019695862828825468, 0.00839056211500039, 0.03948226369332896, -0.12466719960779862, -0.0040162938882755085, -0.05527004034273858, -0.12290352653286621, -0.02612039061646658, 0.11865765356844744, 0.04039961322904718, -0.13028753432954204, 0.14764426399677397, 0.03164107837560062, -0.007704350801909385, -0.051419000712394684, 0.030391069658648538, -0.06709816940116829, -0.2287810603398965, 0.11691088841028564, 0.18345496693218918, 0.24929151316197892, -0.039944069071317576, 0.0009023782583575477, 0.12158852613469838, 0.022517976984273495, 0.09960594748628829, 0.10087289649514346, 0.1260682016239316, -0.04271022686167922, -0.08088173228067452, -0.09614900000910065, -0.17021729669115152, -0.03630157700038648, 0.15192531207646365, 0.14174688713396894, -0.07247354195355608, 0.2247029916667675, 0.005423048952845324, 0.027655371784633426, -0.13640852719824104, 0.0786880124475316, -0.0393165127217202, -0.02146114055284485, -0.09683153133596867, 0.08566079933053532, -0.04870942325277044, -0.019372911482269467, 0.17571997164271208, 0.0866645425343296, 0.2219399951401034], [0.04106529632459072, -0.07462315787784475, 0.021581836393572904, -0.0056312357617291685, -0.05333975755066294, 0.13484146059415109, -0.1264437773338867, 0.12415246305369798, 0.03211017249650205, -0.03159835702301238, 0.09595427081518519, -0.13084570394114572, -0.03287523682295183, 0.04642391250086044, -0.02259607417434122, -0.09420683062020746, -0.10481493609000808, 0.039136508662259824, 0.1163978435665327, 0.05950187653657197, -0.005795915646899352, -0.08374520809008823, 0.08559008392055334, 0.03735258521541288, -0.04304037576240584, 0.10284336765985977, 0.1436379303618911, 0.009498399120624525, -0.004694788944913643, 0.09602108488524273, -0.06971359203397792, 0.0030324418835219183, -0.20076173128627992, 0.04956304319341604, 0.0818151486879183, 0.12288344891671099, 0.021647244555718995, -0.10339009924903285, -0.0893918348313383, -0.024148799467908728, 0.1093952654217853, -0.04331343231770494, 0.12613577797449227, -0.02563650945424435, 0.07380062826460931, -0.07989822254690498, -0.07881142491461675, -0.03549751929760744, 0.02605000496183393, 0.07467908097736817, -0.05863958181853079, -0.0010062746336924936, 0.10310538287520123, 0.03404565071899034, -0.14995707248619358, 0.026391349175318324, -0.13526986551682438, 0.07278885088909952, -0.09665998221843067, -0.05102172943627522, -0.031270547054816536, -0.052538901443331704, -0.053718643011186964, 0.08461896330101677, -0.1325565399260481, 0.011949553356197826, 0.028005973163981228, -0.13301585587783293, 0.0022470056868012294, -0.12091207085421327, 0.003728059844367024, 0.2745195723938805, -0.08110237490353331, 0.0013945938440172946, 0.055899951678154855, -0.19791540009843658, 0.107303951466673, -0.033393425207387806, 0.026688809871069974, -0.05825790883549125, -0.04229562605176979, 0.021526031523671732, 0.04972628907787337, 0.06762611488749387, 0.027168467392423453, -0.00018142699933405368, 0.04304001974875016, -0.04833788507128647, 0.04786030802396637, 0.02599757546956418, 0.015667607113192282, 0.05310448083812596, 0.07968837039140525, 0.05170936290684957, -0.10683067532280308, -0.07000873329468758, -0.015126893026675959, 0.15941575701554334, -0.0600336977034016, -0.25524650516792446, -0.14443303045059006, 0.08135720894827844, -0.05955458458182009, 0.07642985018582465, 0.004666670564638416, 0.03911177225126274, -0.06716754961429904, 0.023488098069591463, -0.19018743962372112, -0.0728159710469039, 0.028267296961094805, 0.0755072833964297, 0.03714755339583867, -0.13241745937134655, 0.08614167096699799, 0.01544187180347502, 0.09638130913692572, 0.006733720296887562, -0.027940011069907452, 0.004355025038890458, 0.055542813391088706, 0.027318672164977565, -0.004072464783660798, 0.13980592132926645, -0.06720126842475713, -0.008811448114104475, 0.04098186778389299, -0.14145650422623204, -0.11578796799166452, -0.03747218855936292, -0.10316672783297014, 0.06171902332740653, -0.044190663661480285, -0.028633394097477064, 0.01466493702275252, 0.010571114611255475, 0.06323898227823141, 0.06589389459337347, -0.13933020934175666, -0.01056663343426379, 0.04913610304027943, -0.06076578187061106, -0.003715296441500046, 0.038166764068920674, 0.12942731087216333, -0.031854688955794394, 0.13102168321312574, 0.1343877960487055, 0.08148898502666262, 0.0892278558202739, 0.18622874240693887, -0.11497215027204269, 0.13979651899560755, 0.06703354757012069, 0.015842539604576867, 0.22646536571575546, 0.05863363251492195, 0.01680725955343806, 0.04579834761642683, 0.008114749483141212, -0.02155926080618201, -0.12214975208273836, 0.02405276245575109, 0.0821376097356396, -0.01049263482947379, 0.044157681450995995, -0.025987940398969882, 0.1432130757102286, -0.01250956775317514, -0.16541966572383185, 0.11792047469943075, 0.05622519344667704, 0.06336682323398615, -0.10354004259116818, -0.09019396044289472, -0.12834647098807678, 0.033875660576946534, -0.16570783324891078, 0.09630739923846149, -0.06277555408224719, -0.14247345147296422, -0.12376887134763057, 0.02241694912667237, 0.12848485256196765, -0.04365339780779307, 0.07718705914735334, -0.13894543839832307, -0.004088443811992933, -0.045055441227377924, -0.010541659206414922, 0.0982496430100577, 0.11127811691342683, 0.16984974978470546, -0.03376741030031451, -0.07186441639812406, -0.05094418037573487, 0.01957665426429167, 0.06424887280299015, 0.03481247764053238, 0.060499416728509656, -0.1750583902306544, -0.008442769362655853, 0.1846505243306058, -0.02309830572210332, 0.11573852921157121, 0.070753855704322, -0.21245605306217058, -0.1526608100907952, -0.046000381329460105, 0.0478140883203516, -0.0023318881868035993, -0.0023799940957045075, -0.0007668692262601045, -0.03462511721334106, 0.04868303145088673, -0.06518855759033156, -0.012713218796273833, -0.06152484746686378, -0.08271312754703099, 0.06780706564775961, -0.004277271165521352, -0.14573257707095838, -0.015436242418345443, -0.02513686421236496, -0.08157162735134868, -0.10687136922496449, -0.18447926169061096, 0.005034555961430277, 0.036978883105189785, -0.04879824009897257, 0.14033150694435756, -0.007362691727005921, -0.0880783521749096, 0.016406683720830265, -0.012494110221969522, -0.18954397337441126, 0.11536176076600435, 0.01835331285040466, 0.12480198271241787, 0.01351106968061771, -0.03511030708826613, 0.024209126560430092, -0.052945223263971254, -0.04330000020877002, -0.145742726656613, 0.12776031630226375, -0.03670859413130685, 0.06082161445505745, -0.013172237969814527, -0.032049688757864354, 0.01045623640074735, 0.01253435859341384, -0.06978096619539743, -0.007187854092671745, -0.12890187614844426, 0.04335857601285797], [0.06567040738475037, 0.025485047385377886, -0.019800716043654014, -0.06961822279040172, -0.09309316353805988, 0.03553899795508144, 0.07245535817743591, -0.02164817445117565, -0.05162813328182359, 0.08414251768059207, -0.030572577631764644, 0.09986096728421157, -0.09270965296287693, -0.010265717649245647, 0.07450726051701576, -0.014091012559707716, -0.0388609695870746, -0.05912633913757293, 0.06414197874602622, -0.003127165672486369, -0.003861983133589788, 0.09180241839659248, 0.04866813069798236, -0.00023839395471554349, -0.17441076590446558, -0.016990531089935434, 0.11986757710301114, -0.07128014516961477, -0.04070834628545597, 0.027346463017182798, -0.15409466950947834, -0.07234928564105236, 0.08243750950649921, 0.05850159085678925, -0.09221458478144452, -0.055624360860165305, -0.06974181107057367, -0.12108622724739983, 0.008042545213223286, -0.003625821794780511, 0.02709879967924078, 0.02065097475882651, 0.03141124801537162, -0.03038501212166504, 0.005827524767613149, 0.11611974462072246, 0.04870068690115444, 0.02296902593285876, 0.12100248435272458, 0.003127094262236947, -0.05906766230664443, -0.008611092628964494, 0.0993760953234981, 0.14164734897958625, -0.20485879840694698, -0.021584098315320363, -0.010621942330714496, 0.07773079354823786, 0.022956241250522307, -0.18055235186458818, -0.05839329060266416, -0.0789096171969407, -0.025269273607014895, 0.0020553272308905415, 0.04103387995251926, 0.01987387835539633, 0.1358258575676421, 0.18521889699860808, 0.08856437440691371, -0.016482935886109065, 0.017574479515450433, 0.03857833825686448, 0.08818380873255352, -0.05614281420172531, -0.028236516432917032, 0.0461699645866612, -0.05247019796209288, 0.112568057665288, 0.058313682145560354, 0.1000800809741585, -0.03431045683446397, -0.14049723406051395, 0.08207585986990963, 0.014659446818560377, 0.12214490715172367, -0.023650309495354377, -0.1828571222590779, -0.04126260317474103, 0.10785577511324337, 0.03347078380479904, 0.19765965468882046, -0.01710418807304448, 0.07675058634037489, -0.005938128089035653, -0.00479373273633924, -0.09866663147539659, 0.012156616740188928, 0.005995460174613425, -0.0022284345643592924, -0.07981274625533936, -0.0720380158004444, 0.04592223514041973, -0.13471654440630218, 0.0467067588653943, -0.06316711213408249, -0.07299389864280212, -0.07757444149545754, -0.06479248550647791, -0.04988815614212543, 0.0558293592991262, 0.006982770166252576, 0.007122404468993696, 0.0426697988650198, 0.0324494673168718, 0.02613157249295858, -0.1334516095414251, 0.04321793559284486, -0.04184757964275654, 0.00340946946907167, -0.034160815515510874, 0.11025889272232264, -0.016275868126171714, 0.021309035174573793, -0.00820579080692343, 0.05494339842787195, 0.20050804685331994, 0.08406548180209264, -0.027306353582395894, 0.08852639067132562, -0.10933188432895585, -0.06142276376913839, -0.06723939402329401, -0.044715468726000476, 0.0485689708185828, 0.15019625341081408, 0.05833354304748174, 0.0065701185968785715, -0.009454070683954503, 0.07733264293394274, -0.043947273214311564, 0.01212171471764908, 0.12033631746315178, 0.03406857524120615, 0.053908066766564025, 0.004280262955823374, -0.07894197062677698, -0.02909169120869388, 0.16522008348643022, -0.09414412628630436, 0.04372680548833663, 0.037493873261239194, 0.09330554524232852, 0.173161326104669, -0.12198997812840735, 0.11022217866498092, 0.06402950211344227, 0.06987033290657058, 0.01035285756637338, 0.12120679391951752, -0.027110028201187228, -0.09088933596832487, 0.0993416242607409, -0.0958583417687807, -0.025905610374234923, -0.026256873344869924, 0.08277789759816788, -0.18433630624022732, -0.005419332768346295, 0.17919760075868796, 0.0054043685092171004, -0.0065936338685392785, 0.019239565458410254, -0.1644561313466918, -0.029391501895912053, -0.08417393685918348, 0.09216643963373579, -0.11354496980735082, 0.030842039612431416, 0.08009650860830668, 0.024023603299254122, 0.09568365118833368, -0.07185122310810127, -0.22360320118482335, -0.0745415755937163, -0.015504184746862795, 0.08225683118026117, 0.053698885930252904, -0.027480559811431046, 0.08612614392444555, -0.03996965779445856, 0.03830921131822719, 0.08871704252670712, 0.009648845958354175, -0.03245381611257415, 0.10230898665654406, 0.03268393739606052, 0.05571501313979273, -0.05518585663916786, 0.027166078528084663, 0.03746436847752117, 0.09170100334997344, 0.19219831148417027, 0.1012233527127915, -0.06489114843643617, -0.044834296253582026, 0.11332119410657285, 0.14131217885365563, 0.02516562026106172, 0.10182422446403844, 0.1846310772377254, -0.11019706697172338, 0.15081454047092066, 0.028651636304655958, 0.08868043438595809, 0.02060674197189865, 0.020643963607605512, 0.006978944379433748, -0.01903685658138274, -0.03091501599021765, 0.03088884846054429, 0.05965638623297026, 0.0051272693088839135, 0.11904669216148812, 0.04786530470779009, 0.06834729972750796, -0.06208612501511892, -0.004943003795857327, -0.00443367889121603, 0.05939377299718774, 0.053935589378110334, 0.030071939229956622, -0.10773943108896997, -0.21337071623673567, -0.07296325450124184, 0.11122733613503563, 0.12254416584543927, -0.005786842520537434, -0.21527377438236017, 0.070552280987325, -0.018268458493841178, -0.045670110619652995, -0.035980012842593403, 0.07253768614534814, 0.041841729971726645, -0.11149360418243279, -0.05244034141229673, -0.15850142764370448, 0.11846049974513213, -0.05378988048828127, -0.08940178658574176, 0.05220042981736556, -0.0815084285674453, -0.06922294895613182, -0.16148012846510512, -0.0029246186492892876, 0.0015528196570999762], [0.05688069109194767, -0.012771322512527388, 0.1113512141031482, -0.1304730702069984, -0.08090707586218225, -0.0633915752098598, -0.0688607375084284, -0.13008509309518157, 0.13527961944981776, 0.06693880499422535, -0.0026033243310612693, -0.141084887400599, -0.035625827433700144, -0.01581838492015553, -0.04411969594025475, 0.0008555393528008082, 0.1152602780764714, 0.09154660165545994, -0.20968708597706437, 0.08390046330717935, -0.004765440916501328, 0.18419861198098653, -0.031227822420487536, 0.022548404139195052, 0.0033774293002528303, 0.004911649055972998, -0.03138194359584631, 0.025587342944998172, -0.05537634491569961, -0.05201594541089704, -0.02796219422191564, -0.04165111621774602, -0.0910002098238877, 0.03607168046516646, 0.12947875539883422, -0.04235332014768905, 0.045115011806987626, -0.17596714723652507, 0.004862266168309696, -0.15342242949193358, -0.020925122369657875, 0.07719551082189496, -0.10451749705163958, -0.006387521962948876, 0.006261179408578443, -0.06923545147328032, -0.0057701733989198745, -0.09294807416415747, 0.12637015933410783, 0.07267342584526908, -0.14521801578111374, 0.056067358165923786, 0.13828799306442516, 0.09508007852235854, 0.06390825941703623, 0.06032690465557146, 0.009891577283080127, 0.15446086269592066, 0.0011942193262873952, -0.13332399315153773, -0.07318230913031237, 0.05973960118916763, -0.12304307556153589, -0.024965786949739003, -0.126397651846578, 0.08939243613513573, -0.15572031159705116, 0.06170369674048191, 0.06669789862517041, 0.15426175249890944, 0.04737111335833508, -0.018402771679854706, 0.0879309131832413, -0.03887729146249945, -3.698536605754759e-05, -0.040493802025340475, -0.03475901905276239, 0.06421747928381082, 0.059892302217562254, 0.050263383983360554, 0.06110558644814874, 0.05387092885219782, -0.0211871453785151, 0.06482346914576215, -0.026275135895043336, 0.06452139217831351, -0.0918750118072242, -0.17554970572279496, 0.08653756267753622, -0.0603376393646243, 0.036900974340634614, -0.054207680678879266, -0.0462829277518959, -0.016516630004599752, -0.025002765226836608, -0.10449501495792192, -0.042099381276148935, -0.11028399255377615, -0.010982151807958198, 0.012971200988176187, -0.17077935634851724, -0.06698941473521201, 0.19185033303378154, -0.1674346388475855, 0.026127280841972432, -0.006267852459587739, -0.046192877594187144, -0.057215720206707274, 0.08788571217348813, 0.03102362558742552, 0.10106352428284175, -0.09948517152090504, 0.10171078960810502, 0.18999192841575221, -0.044043383568323886, 0.009378849382036354, -0.06840463027870264, 0.024296428449486998, 0.0015523658676718731, -0.05134081986605936, -0.12467442770732984, 0.01714984642238564, -0.05905141605791375, -0.026125863841040074, -0.142469403060828, -0.043176867513664584, 0.08661777054855355, -0.026811393942320388, -0.047855823064590644, -0.06872323123260884, -0.07230195286713281, 0.1286863181435357, -0.15110244843461967, -0.09892735871922179, -0.09263029289441839, -0.03331823445470084, 0.00353521040402372, 0.014394739943602412, -0.0244708157685189, 0.08840570964627095, 0.1549622781121273, -0.041006706424031425, 0.04124830122897796, -0.1670577697754254, -0.0750987462638966, 0.027086677593370884, 0.07358564934241035, -0.14407719115045844, 0.2481870928113804, 0.004008129328267922, 0.0038555198534765914, -0.22806002644540727, 0.01897758569524672, -0.0793494200275439, -0.09466561950064256, 0.05605671863082441, -0.14164193097762606, 0.07042018882877828, 0.039725656847192634, -0.04930420822387702, -0.11260162422293928, -0.022229367232914087, -0.01801414311139905, 0.1127556355107007, 0.016990213083688678, -0.035096761747163675, -0.058459914673871176, -0.10305656907470369, -0.14803318210347033, 0.04808759730418567, 0.04028027265005788, -0.15937994073616407, -0.06844615605496648, -0.04560710151572447, 0.07757479201830847, -0.008991747178185286, 0.06253810978929866, -0.05864467137666494, -0.08177773494251053, 0.07488660266961635, 0.03538839324552068, -0.114996252399772, -0.04111657142873951, 0.003861972561934036, -0.014226081627077765, 0.12223489009413664, 0.050339609651579215, -0.08750112776235633, 0.050651281749371384, -0.0783628762674679, 0.06463429286041866, 0.007281545557753377, -0.04823157927137777, 0.10946180389516216, 0.0743905500744743, -0.046710069739264184, -0.027549508872063026, -0.07736486762545185, -0.0468938112303814, -0.04390548554768217, 0.020495075159471566, 0.04665922540504841, 0.06631212067639676, 0.2351620470086405, -0.008511992471409015, -0.03805036208393426, 0.023772793512409574, -0.073104031771071, 0.008432380328102552, -0.014475551128969921, 0.038709597806917226, -0.056026422310619065, 0.07552391732247307, 0.027622962269434417, -0.13407086949085995, 0.002595792182447232, 0.018747537139062076, -0.01484337698820254, 0.09449892123027415, -0.08801558350179861, 0.022258688279529235, -0.006528612473114271, 0.002170239691896685, -0.02978716792816091, -0.1670982702756156, 0.157779872807919, 0.006271610749793529, -0.11014122155902711, -0.025143265661387415, 0.03547043481931809, -0.15098384252647828, -0.06831353797080576, -0.08465700572277125, -0.26812561414479413, -0.23163050629855006, -0.0303543011838567, 0.10771398779291079, -0.035209992787725866, -0.11096201557185814, -0.03542002327124887, -0.00829198005576859, 0.09944869698941776, 0.0008879199765219414, 0.061284691242370924, 0.08627799367429266, -0.01323554353413608, 0.0977963020474307, -0.04775206750739174, 0.16420938857189102, -0.011696715090419845, 0.0041766986685891905, -0.0069876938562324145, -0.10890275298430248, -0.04938555219935021, 0.03573034194613296, -0.07834356974779463], [0.07101940542929783, -0.01540538201899916, 0.09797059890361644, -0.07898787077956916, -0.0525842038971022, -0.05081862955382175, 0.04898536843647682, 0.1418332456049151, 0.09145209253020603, -0.0948763037521294, -0.099845359766553, 0.0620597678315083, 0.029759423895627038, -0.1726150838822325, -0.004304223645232504, -0.13746676438794614, -0.06729147389577568, -0.12406046519987995, -0.10497716328412444, -0.02067838460619154, 0.060339128010870685, 0.041656278085319846, 0.09302118380663738, -0.13520867906958378, -0.05459725329071749, -0.09975213712605034, 0.020491253151903407, -0.2528347904289838, -0.03883373226777941, -0.07019906604302908, 0.0011369015803576233, 0.03964354649287346, 0.03130375055147734, 0.014336019790526133, -0.04229670853389294, -0.042057872440440104, 0.19440680128015575, 0.1003592999136222, -0.07096783383164391, -0.13465044353590272, -0.12354502603977607, 0.012194525228918732, 0.013835360518130389, 0.08599272421906452, 0.11918646594126485, -0.03430951899962838, 0.016349095012113474, 0.05280517428579095, 0.15691280689523793, -0.11685048021055183, -0.01847156331036593, 0.001614813236516298, -0.10727888972976463, -0.0366387855562326, -0.14201004839708095, -0.06331744137024016, 0.0005478058180567167, -0.008536153666865045, -0.0057577271673428885, 0.06398468107897465, -0.11382608416624429, -0.00803281364470484, -0.20283141312954903, -0.19233314188618722, -0.0745857391220747, -0.09436726797228533, -0.027280333576246416, 0.1338065245693783, 0.00044470647475217313, 0.08438093491727858, 0.13202723338847547, -0.15049999179609044, -0.05577694200440271, -0.04018807461109573, 0.0175200772142502, 0.2224622953065238, 0.11739355014943946, -0.00098306764172671, 0.09475337697633249, -0.002187666636287693, 0.10345447577361241, 0.08874907284049817, -0.03910068567353363, 0.07074263233226726, 0.010197683138311531, -0.11862178218613376, -0.028910802242280906, -0.1347370618274062, 0.01593561793494463, 0.009287947603037026, 0.06557957638147684, -0.08120549755644003, 0.05772990907270229, 0.07624393438531198, -0.01892678341969241, 0.03189355809184302, 0.08037614146077764, -0.02614356425889805, -0.05687528247486634, 0.1925733951190782, 0.18037134512584016, -0.025392865250744127, 0.02746792370689502, 0.11928924640313109, 0.004238025109963354, 0.11558531084678333, 0.08653966584458679, -0.11452623984239273, 0.046763494539424605, 0.049369107855503226, -0.11370943318972845, 0.15703550960016394, -0.07534876727919804, -0.002958140520447249, -0.012546496978166236, -0.0866408322540366, -0.13400980407919652, 0.05814454031763306, -0.09428789621885338, -0.12416853648023284, 0.0769620860988228, -0.07301929003671703, -0.12399346282125939, 0.027940313810231526, 0.028389329630840072, 0.03802448223927981, -0.12705375416840345, -0.016377246257397865, 0.02501809210626758, -0.0971620112667403, -0.07155359620738341, 0.09100242224950786, 0.08347054131661616, -0.14931641832878498, -0.1073752192512822, 0.054956525553122235, 0.09503776721148327, 0.10991889579626417, -0.0585131901680402, 0.0995849903937523, 0.09059463725221995, -0.07508404431923858, -0.09220248470951574, 0.13341998034374006, -0.03944738209745299, -0.05505601152696593, 0.026433007571082266, -0.10813399090583377, 0.11413078590961313, -0.10815415642566374, -0.06380609348985897, -0.20283512839329673, 0.09271063635166646, -0.07767233271007229, -0.13290073988514817, -0.02397276084666102, -0.01997101328230049, 0.09287660700036302, -0.0296565397566778, -0.03314168685843174, -0.0529433855910082, -4.338929161718953e-05, -0.021336220962893095, 0.17104127603446395, -0.01958394883675796, -0.08371825642743398, -0.06388180437045216, 0.008352674348879345, -0.1428657788479489, 0.04183848491265471, -0.013591415805845095, 0.0422875868542384, -0.11527411522642547, -0.07582630229412167, -0.0669991810562767, -0.023322876298992556, 0.1903967987312396, 0.11807003592699955, 0.09093021900092746, -0.06668536857740771, -0.02566819852337195, -0.02211791806055497, 0.1083489273516735, -0.17611174460996448, 0.08775926077003461, 0.12180125156128163, -0.07831786804619675, -0.19831471786938334, -0.03607514441348328, -0.1259659316396683, 0.05831356540823382, -0.014457419843010534, 0.04308436906599479, 0.06301372953490347, 0.046062548025323315, 0.030857228510534723, -0.02572552597151265, 0.17843896341829169, 0.05298036983910907, 0.09195876903152901, -0.06401928462627701, 0.04189769526333206, -0.02709758743021995, 0.015976207607516894, -0.1197869913858987, -0.04619408435540019, -0.018306787708831984, 0.08899395129504495, -0.15250444033693372, 0.018138748624955257, 0.07111990798126332, 0.014677508104879783, -0.06810025381624939, 0.11504702309107073, 0.0021202930621129715, -0.05292973523765214, 0.0508461465935829, 0.06383148167458881, 0.05960504971236354, -0.20069737833388082, 0.14393776194898622, 0.00956990566706158, -0.19848970484069028, -0.23828670643722877, -0.06911326042718174, -0.08851143799854798, 0.02671510551803366, 0.11271584911178166, 0.016910770962678276, 0.04501884235413413, -0.013715954975654483, -0.05297465712264403, -0.059764373552284644, 0.11087714685729837, 0.038298836132042394, -0.0010690992387100379, -0.03841401654214127, 0.07666896282357664, -0.04833455977708897, -0.08412246257759251, 0.2598358274795557, -0.0012697406436639482, 0.017563001206247635, -0.08581559453133938, 0.036989438427046925, 0.031660795599513056, -0.1244680579234395, 0.15430417330115953, -0.021530215136119635, 0.008362708897543546, -0.05433495283163115, 0.017003017227322084, 0.08538006983192502, -0.14709987041052708, -0.07087662676748757, -0.12111159543138703], [0.007664857123368628, 0.17472341472603942, -0.0038472912749070278, -0.17328548259065998, -0.25831376904005376, -0.057541276057658616, -0.0792176560087071, 0.1387809989698099, 0.049429972014977695, -0.07342596229867006, -0.031985389769779625, -0.11485666970091814, -0.020591398734740925, -0.02297722300968543, -0.025424496190270013, 0.02631946310745958, 0.11606299517601001, 0.03835770422194369, -0.06604674435387058, -0.016677832822073427, 0.01022358590911067, 0.10113763522892087, -0.1853797090289967, 0.12660403067684176, 0.16694332898299932, 0.07487541859817166, 0.05576882188149224, 0.11198454222082968, 0.020239684794440393, 0.12104841619109653, -0.053024952568112384, 0.007053663688040442, 0.021962371322212293, 0.10092764739928575, 0.13688187490298592, -0.01439649147357716, 0.0028012879578515784, 0.0034774710129241255, -0.03968138066496524, 0.015202075320708875, -0.17525605413108852, -0.015151145541581475, -0.09646774419679507, 0.054883892618397184, 0.024197345421157944, 0.02281990194835496, 0.0031916765741234216, 0.037700627217505174, 0.06433426717280104, -0.1426894421367811, -0.07711935637932209, 0.050020355297909116, 0.09811014799994122, 0.09058397888123994, 0.04562401541360431, 0.031170385996718387, 0.016051828910574856, -0.0816276798251382, 0.09212023167974998, -0.12648883933269667, -0.056651786513403996, -0.009724779488628085, 0.05710880034827736, -0.1180578379988218, 0.011749936254826614, -0.03282481770406119, -0.10966642828926706, -0.061163419840517284, -0.004046726528673694, -0.01746816963877621, 0.001801343523598578, 0.026067531851369962, -0.04077385191766852, 0.03527311882475777, -0.09154639288987679, 0.049876854133269685, 0.06820879758667601, -0.0014858075883648464, 0.02670832264414937, -0.1468569110978296, -0.06970950581594582, 0.06799997911816359, 0.08541258924172059, -0.03149688670409264, 0.04654631829340082, -0.08029185813236575, 0.008775240590702721, -0.021907064788996358, -0.07969874618020678, 0.004607963826705767, -0.07344451288208338, -0.23948523887924358, -0.012966281286841042, 0.0016982110314065519, -0.10646564480448491, -0.02867870542539211, 0.07818982474583214, 0.018982376345589778, 0.10313829687947519, -0.03256286276137215, -0.058091922752552864, -0.004430178876819795, 0.14488733853546198, -0.01576392089527988, -0.004028604140159105, -0.09510543959424068, 0.03691210127576445, 0.08320769028420535, 0.014716534719931479, 0.0666093820792408, -0.08433556449070874, -0.0754930179614816, 0.09132540116264544, -0.11683561075279464, 0.0053256852270252165, 0.09607978664612413, -0.03210541033930311, -0.11529148033392407, 0.11469421038946785, -0.051833150529487976, 0.1338856793298084, -0.07098200003352498, -0.1085470312918806, 0.07790596338651222, 0.011890134650937549, 0.012687505858136765, -0.020818096203914546, 0.09488943606486441, 0.020865192899607827, 0.20059980937759953, 0.014346249246599012, -0.09235448060174829, -0.08875612276008138, -0.00577095811826957, -0.04690336465506181, 0.044901148043570205, -0.10072860769253568, -0.03245070052997913, 0.014175020656388771, 0.0983711882376607, 0.009201936418026847, -0.04325103913191294, 0.09001694816686905, 0.06859391201696541, -0.015523544588078572, -0.03965471154903616, -0.003252088616203809, -0.03063168822036389, 0.024427913848755315, 0.010326166683005452, 0.10238058253780151, 0.04637767520711634, 0.014843249837787752, -0.06126890960695735, -0.0052714052284527175, 0.08063569421119676, 0.06720658200829885, 0.18227926126059557, -0.07433379151151438, -0.03862498328411314, 0.06927197429124805, 0.14735490304211377, -0.03023053257689703, 0.053567027371176155, -0.09823918437091504, -0.009289180929600101, -0.01636790730925539, -0.048938775357757265, -0.11100712525938518, -0.02045839736064546, -0.036134112073350974, -0.007676990020065961, -0.0661189359035324, 0.2341995517840936, 0.08810934740334474, 0.02070915066055378, -0.08887999485996115, 0.047574344901559616, -0.08649669573334848, -0.18889618530680377, 0.06473535667709697, -0.15074438872064705, -0.06944928336773437, -0.11291395717084433, -0.10632591864733439, -0.028816191734364185, 0.02495030554490916, -0.003050479733045846, 0.19366861036325256, 0.10291089149802893, -0.06045726375072383, -0.0008496126842854272, 0.1070645122521076, -0.056366039878871045, -0.09080222334362502, -0.0013551783607849898, -0.08214550313583034, 0.1540306113666873, -0.03955780539480963, 0.06481318391470832, 0.05703485576410137, 0.07627223829475385, -0.04447312183505552, -0.1371176064763234, -0.056211861255493774, 0.051592951101924, 0.11711248288209394, 0.0023203629410045983, 0.01500054987554522, 0.03688781607736484, -0.12602719132320653, -0.03553199709551039, 0.08754378936060131, 0.16789023187726076, -0.02561464484838503, -0.17165913396474353, -0.06684374139574457, 0.14503304327874653, 0.08029282591764496, 0.06665374279249998, 0.02139762905754861, -0.03148058520013179, 0.026933858345683674, -0.10932950601126103, -0.01826977713995426, 0.021322422272286503, 0.022530342657451685, -0.13178528677042178, 0.057194595848699, 0.02078338342125477, -0.015030999248241167, 0.028585500445978154, 0.01317190384739223, -0.09800127917580884, 0.08171329484386067, -0.03625260523098409, 0.0027957422927015006, 0.02367375820073326, -0.05982034985167551, 0.11984628281115935, -0.005659821387318394, 0.06874196404494917, -0.09990177573772585, -0.008325779944543468, 0.03430705572310456, 0.005360816000023275, -0.023709935993570505, -0.07300495732104506, 0.11631134768943599, 0.09554575803124954, -0.005485000290779524, -0.15091018314952453, 0.07210278467134987, 0.048561401809033504, 0.01947095491633206, -0.020501922318778475], [-0.12214441146807697, 0.11578245127198175, -0.14059727819140805, 0.07784732861306355, -0.021390409976666316, 0.09558567189643427, 0.012197876159601752, 0.03509647372252042, -0.0516233712184021, -0.03363739307141059, -0.050233102827969264, -0.010767003499266231, 0.03482989936468284, -0.12429393812785694, 0.21518202844674356, -0.11890324054773739, 0.10377822173316731, -0.14381073334692565, -0.0685486353519237, 0.0519681670931028, -0.12659167767195523, -0.06527006691428383, -0.045049384374147815, -0.026506865656213373, -0.05996356581225269, -0.10188296021291082, 0.09568285719216643, 0.10374914586528049, 0.04748595400912047, -0.0680312393483818, -0.08103831764886955, 0.10897909819994275, -0.020612287653948107, -0.12858895248566907, -0.10894189354603526, 0.044999975782177466, -0.15572453203276154, 0.0007879139138723757, 0.11286643035902241, 0.04666439903879157, 0.03615309072049762, -0.03098014605321878, 0.030216535174911983, 0.011570741383185618, -0.0489974532294119, 0.044121848286824805, 0.02273064375180732, 0.06799046853668271, 0.09767308357827556, -0.28002894752175267, -0.13680770354326116, -0.017433953737508816, 0.02320797816844994, -0.10670099063656806, -0.05670725630832997, -0.05550880889271709, -0.03525488049478631, -0.004185460513648978, -0.12020770123147347, 0.19256493371839495, -0.040377519743072555, 0.09682897905039371, -0.002906823474207509, -0.010470909057396836, -0.04854951415296286, 0.016829903586442024, -0.03638042069299758, 0.046674389432610465, 0.026190925075949854, 0.048402827206491354, -0.10568775605135591, 0.14969941326446876, 0.22900248549299027, -0.05829657303174416, -0.04969256272946964, -0.05592410158761866, -0.022353832140018032, -0.0483915987725301, 0.05176901757613512, 0.1329864239693827, -0.0521239392597753, -0.001383849405400431, 0.04398040677412956, 0.05121968786517057, 0.030257551836097747, 0.08297634993187832, 0.04049772957760519, 0.04678986080118396, -0.0829950990570099, 0.03476067732105871, 0.0028848500843437997, 0.11177208778861136, 0.10716878352382801, -0.1233176253249449, -0.04973896603443383, -0.1774511114451155, -0.114729106276753, 0.0757331581681083, 0.0936417301612257, 0.01667538463935765, 0.03030396146303253, 0.11481735438351502, 0.06675624549760922, -0.15445813527126198, -0.13728923484218586, 0.011375975977269944, 0.007615295164530723, 0.15470716132484089, -0.054108011255457646, 0.01883659805386324, 0.09164746750747842, -0.12143897608251018, 0.11026315425343479, -0.037175609504978634, -0.16734623526478143, 0.041371205417442394, -0.16006185400932982, -0.027650911255782458, 0.08061752076052855, 0.08905695285535432, -0.0716813022362188, -0.03457688966560221, -0.033258802684762175, -0.08572927930334456, 0.03976858030533804, 0.05133243179170631, -0.06907493913002952, 0.0497178023063873, 0.011468181393159966, -0.12956598257593516, -0.0788275639007294, 0.04996330775375055, -0.02236811462040225, 0.009785438046206445, 0.08798083953793308, 0.17854266089383197, -0.060439517727069236, 0.010604354474753719, 0.12040531088439987, -0.04306716456896598, -0.05042490899916113, -0.2119337903959012, -0.017254679298002135, -0.00946520116666907, -0.10908447732986769, 0.16059849106797194, -0.07888594694569764, -0.04397425851798532, -0.016400746668390486, -0.14693564333460638, -0.04743974889180857, -0.04826728120655822, -0.12131186750914379, 0.03134429278673966, -0.08334964943218387, 0.11268625914370954, 0.14958753774644842, -0.07159256424420718, 0.03952407287932296, -0.011831903902317068, 0.17100481133948625, -0.02524775203031531, -0.11058621094774686, -0.0062395820906666075, -0.021733921997022888, -0.10932881635088607, 0.059327091184176874, 0.07448246109938406, -0.00442223596056164, -0.025366088589986516, 0.09666468066419805, -0.10544938213872464, -0.052107390426343055, 0.02461066035002967, 0.0011514208573133525, 0.18634164105314696, -0.17393308412931863, 0.03883760653925807, -0.022850942767760275, -0.12313164323459291, -0.03455228155983954, -0.12846252745149903, 0.06535589907196566, 0.023088363186183902, 0.05766967947485389, 0.1258357334115189, -0.03272587589631478, 0.04958574582833761, -0.018989612306536223, -0.0706208627998031, -0.10459681808837094, -0.09371910160233123, -0.01528230036283061, 0.15172317046754888, -0.0022171317762469927, 0.18228010644182316, 0.07974065407497286, -0.07907470070555461, -0.02982809247956317, -0.06031320590941487, -0.056130681237080544, -0.09084114248737957, -0.059284876390370445, 0.027130614523382557, -0.04194221437726348, -0.01906497680862383, 0.012147110090036549, 0.03507684491604506, -0.05525515310136213, 0.043956709171050275, -0.0750605990086083, -0.141918200029404, -0.15981748919433122, 0.019308911264879165, 0.09174147191130509, 0.054391987976516266, 0.11310050357627757, 0.02999062532308058, 0.04829947387725103, 0.08622859855845802, 0.04942756361124592, 0.12638406204709815, 0.15025214313570556, 0.035700394412403344, -0.1034730933187007, -0.04418282734038797, -0.026313864700489995, 0.1770688088154787, 0.056119512929203356, 0.09239847687083298, -0.036120431938419226, -0.03321886380455664, 0.10384685685606303, -0.12543192211778037, -0.033726672084877236, -0.010962310185651204, -0.07733766937431469, -0.026832617509125398, 0.05538382889650418, -0.013959660941087176, -0.02426919115904996, -0.16703956413133642, 0.012255032339990883, -0.07280817016108498, -0.040607104681944804, -0.0709618624607669, -0.13205177903302784, 0.04990046725052679, -0.1235912675178044, 0.18193710516578535, 0.2732134512357847, -0.02991497246815373, 0.19439701599374218, -0.0861918586706831, -0.15607270213891564, 0.05733592657746376], [0.05163255356003418, 0.10892268840099567, 0.040860101147448535, 0.016455261364249563, 0.027972415404741373, 0.026322652833921233, -0.03468697850317287, 0.16455352350324945, -0.09153600582289985, -0.04649872621125273, -0.12085289191915032, 0.07798203291471299, 0.17866011115975242, 0.039980713044410233, 0.016934101160932583, 0.1679349199950679, 0.028301217466875667, 0.050909196027249304, -0.029160788309005082, 0.01862881613077281, 0.10005329370247398, 0.004311618589062917, 0.26042687935499326, 0.0012204906046358705, 0.01879168136809804, -0.00967345797232877, 0.09296558008680662, 0.06893273852020161, -0.003005625471520581, 0.10398085593791619, -0.003908655748957363, -0.0806486543878697, -0.007728350857521603, -0.09928035141701297, -0.0039619449630314595, 0.0215460137684625, 0.0181214702945447, -0.03414662096276831, 0.165245465312262, 0.19148668677402245, -0.08529922002690822, -0.015231576523411488, 0.15432844137972682, -0.09927172127562471, -0.09761107954580417, -0.03771611333083565, -0.022038906452806095, -0.009007810214745426, -0.04446383533479349, -0.019857373754792837, -0.09660155625610958, 0.008838430638142656, -0.00012050071591918757, -0.061797754478806345, -0.08517241801098346, 0.0029846506684504557, -0.048054150809181524, -0.1183336785695579, -0.13737061310525137, 0.05002181579373262, 0.054608401684693664, -0.09782904969327676, 0.06003524311468337, 0.11093724035450078, -0.06206734570461121, -0.04847213687784196, -0.10507286728348936, 0.052465615225266556, 0.12704706871419708, 0.05854089377728324, -0.05730678273148038, 0.14646901685943114, 0.15821474077971948, -0.06137229902759197, 0.07978826679001573, -0.09447393758206202, 0.028857754345509332, 0.1556761376706264, -0.06041344195446688, 0.07675584046254029, -0.03479685676471355, -0.005796574174330365, 0.05337573639932, 0.027439793374995164, -0.08452230377208397, -0.22928364785871572, -0.04284217958054638, -0.012376051626906914, -0.03021992733453176, -0.11022307155130084, 0.004313909464772255, 0.025171380682669442, -0.07705213005772076, 0.20145101437578625, -0.05691448649827276, -0.05316043393283418, -0.0014079782906870966, 0.10423807348582724, -0.0669601905506654, -0.08322933743212364, -0.1860571746831841, -0.008134471809178184, 0.04153204185811326, -0.030477750355903336, -0.08433136965618612, 0.0268906707777718, 0.013932641650003588, -0.07008818292042476, 0.0462680964070515, -0.014425561633533217, 0.0496060438260133, 0.02861265471071245, -0.0832433463531052, -0.016268475165763952, 0.08594138277182378, -0.004992590001724065, -0.037780584256916695, -0.07375543535148629, 0.02662178252251252, -0.11826072354052648, 0.18379531989201098, 0.08904635442949473, 0.028145163025752432, 0.02093804080884378, 0.10729055853480239, -0.03718190088827897, 0.07546374180708547, 0.28041700589533164, 0.19605075759234467, -0.07544769479367197, -0.08941824889981863, -0.07851813586227431, -0.021730456541371637, -0.0665462931984884, 0.14121838589619476, -0.003291611792600364, -0.13215209690039562, -0.04290525532286603, -0.001237766993969615, 0.07157215127524649, -0.08792259822689255, -0.01175157761287941, 0.18331853049584226, 0.030587078745703225, 0.03466181125459847, 0.09021148011662049, 0.08264053906088256, 0.019747732604859024, 0.11534798615998532, -0.07736948543511382, 0.038681845127117226, 0.06230862857145922, -0.07627121176808016, -0.05498110614840602, -0.04608694010673339, 0.11905873473447294, -0.06584588351693496, -0.06579344674136148, 0.09074041064046898, -0.1148652568991179, -0.15788600969847133, -0.07302395719513531, -0.18201767581845493, 0.04873202025546615, 0.06494999297491835, 0.0030646712135725535, -0.06130451090352828, -0.07127855470554305, 0.1262826641485751, 0.04509116117616265, -0.044837121166822716, 0.1562758218970888, 0.16115509975037787, 0.07277462823673969, 0.14452454096939202, -0.10310388502622264, -0.07605272052681937, 0.10309536752343124, 0.03581694414325238, -0.09738553805177548, -0.03806693124524773, 0.060517317663295, -0.004337589061411263, 0.011326700207585548, -0.04019431445201097, 0.01147386790055695, 0.09182357066103357, -0.15608950024015789, 0.17873026525851637, 0.08760996156911023, -0.004051499783000717, 0.050687405828406466, 0.01076094715488142, -0.019439281200834765, -0.12003967424724199, -0.14621431837375456, -0.088429631779863, 0.10973937154891412, -0.09281243999016292, 0.28000357358668093, -0.11603077427261331, 0.013571550934329131, 0.04655346934041915, 0.09577829867470489, 0.10662093438119297, 0.03264125181151625, 0.0012702734070069994, 0.08779861548070331, -0.07501656348198321, -0.14491899595429256, -0.07216104647329076, 0.20314771165059897, -0.03706329193378105, 0.04363239478389698, -0.05290620338034592, -0.0897183445474258, -0.12311716571249728, -0.040055265515461916, -0.21616345685734598, 0.09007243635535071, -0.1588827309761822, 0.043321409538481584, 0.013328959553922649, -0.06391441043748826, 0.26859135111624316, -0.047985317287228865, -0.05000256543328444, 0.0493126383863543, 0.010716532458129197, -0.08271587631824566, 0.07659086342481776, 0.06567611528691632, -0.050052565976022916, 0.04155545646024181, -0.1794593454997747, 0.14986409486296412, -0.04683274877380569, 0.1985197314118796, 0.005938478085363996, -0.024599453315513838, 0.05862044970381958, 0.0676865247161921, 0.1050478664989613, 0.05559723311798485, 0.1492195643759451, 0.008875296031349735, 0.013998857393877961, -0.01874739503274989, 0.06872085116634245, 0.04555992674210826, 0.02595218248722528, 0.08085476507047822, 0.03619830002127195, -0.01087890729913231, -0.07400468775707293, 0.22409821525241247], [0.07402612130972433, -0.09204565745470969, 0.15984961680610776, -0.11700098740935982, -0.16329918946998345, -0.040537900081438843, -0.15136950205174204, -0.05665366376313322, -0.15062543221533498, -0.02930822055552592, 0.0962958651132004, -0.16631378803546745, 0.004171078713870588, 0.07173240939874265, 0.03328122204393317, -0.09301605287711363, -0.017672636804780404, 0.09302222797238915, 0.13063685833097313, -0.18103242393978625, 0.006343233550022463, -0.0015783583426252311, -0.049706845456162586, -0.1024925907935838, 0.11552065171471534, 0.043673497487165154, -0.15136879973222728, -0.19065582111288246, -0.041318312648191996, -0.024055149262559063, 0.032993324803729754, 0.013274187771190065, 0.041887357447912235, 0.011919287533529534, -0.007568036714975562, -0.008788547090728677, -0.003535888858947563, 0.10420220418622274, 0.026518042876812226, 0.01868199754488483, 0.013426531396006705, -0.06762387329504536, -0.07266823253359798, 0.09770366370887243, -0.10992058187509965, -0.10888113599325426, 0.08629490260264805, 0.026845648888127592, 0.10280688040947059, -0.07843894612850982, -0.04317184438999861, -0.12305730076443545, 0.04198828665388812, 0.062385120745499165, -0.011357927158066347, 0.17370790742426376, 0.14360116458938316, -0.12668245953902052, -0.045260051528996294, 0.01215306525684407, -0.021667735379689926, -0.03621424574231309, 0.10718959251110817, 0.1271738547336675, -0.0010210440427658267, -0.09081115147969074, 0.02253479220968185, -0.06382959854661367, 0.027243685974447745, 0.08468161726693596, 0.06448663595958645, 0.04082009386157182, 0.08529380733716507, 0.10409107326806483, 0.025095845084379592, -0.09490430713322301, -0.09534171619788274, -0.18095399872771611, -0.0001882083278840463, -0.06928836625090629, 0.09409673965779768, -0.012033952427649406, -0.10383370792400753, 0.09029748939184393, 0.09028048270289457, 0.004764912179881819, 0.05980420147725667, -0.032494867171345684, -0.047170566875741025, -0.009403100818314396, 0.09174310494243026, 0.10861706351817356, 0.013760474568502358, 0.09130005355801735, -0.12247645680422188, 0.11102799995731054, -0.0956587253400156, -0.011098827842526363, -0.029173765531537593, 0.028727076083425823, 0.02058836730251262, -0.04077442830681555, 0.05050823069618569, -0.043239448322032414, 0.06833213561640199, -0.25332539269100257, -0.019475192950387334, 0.10131768948495094, -0.03832187443080301, 0.029686496116529206, -0.06168654329840169, 0.027770235031141576, 0.04397167848240387, 0.16138404614038843, -0.10773005381379373, 0.03634676748595064, -0.09057257071171113, -0.03411405356127088, 0.042953258425849544, 0.019167215233108846, -0.04403471075366326, 0.08956905090284949, 0.04934180700065803, 0.035375017242534126, -0.026030127147508544, 0.04440611396907272, -0.09015073013103475, -0.08602944365262839, 0.14119582157271426, -0.04312289118721332, 0.023599313766161326, -0.13087101998700798, 0.09117124735803067, 0.024324386700968762, -0.08873406095846167, 0.06666929606399993, -0.06193797042529736, 0.06851270707516581, -0.12271534908164304, -0.06151276047454783, -0.023703739097697147, -0.1698002774295188, 0.104013971129658, 0.13408882642099312, 0.03589157338064009, -0.008351714341335041, -0.05438156140488091, -0.11696588702651811, -0.13915733907162484, -0.03403414586526741, 0.01671259580562718, 0.26552299148667363, -0.06248262953339624, 0.00844818941735291, -0.1016335722629776, -0.0792425272568114, 0.017695820479785837, -0.06017764013912943, -0.029265521680169892, -0.09359109826206514, -0.11082923082467183, 0.11243256050736312, 0.06178122355195567, -0.09160406822850525, 0.04306539786585098, 0.02942066541205779, -0.052529261633949366, -0.0062916735901853565, 0.16438547760140704, 0.03235231817676824, -0.14432517044980367, -0.0626876245847512, -0.0824535024873409, 0.016033390559599504, 0.07638980403140158, 0.09085530259309514, -0.044737490618501935, -0.07950110144478481, 0.0186203183393784, 0.06419217066367584, 0.01138354640815207, 0.027256486145213428, -0.10303046783401838, -0.0004959652160594195, -0.01843348135173163, 0.04702119078018446, -0.06799720037494159, 0.1250085834343414, 0.05953656236391897, -0.07190829513132528, -0.11194423001461795, 0.03551526805489925, 0.14864164549551093, -0.07432918614168457, -0.003612730410583531, 0.12602699688913968, -0.08141830227405822, -0.07810501488959933, -0.1289053001479038, -0.13568524202781695, -0.04681724293258618, -0.01896395529471816, 0.09050009690592337, 0.02867202800472037, -0.05441433122864266, 0.0731653188744092, 0.031513616637316465, -0.14536524996284467, 0.038965603611386505, -0.05088137585306522, -0.21675390690246737, -0.015469725842562697, -0.0026771659972340276, -0.025846300200175833, -0.11401540431166474, 0.062350347070491474, 0.019199361736778095, -0.03304391837296966, -0.034743510394517285, -0.07235006571117808, 0.025370706099019917, 0.04188017847319612, 0.022382020016583952, 0.09244847584238, 0.04470869983830241, 0.006307655089294979, 0.06580118890274865, -0.009802239342965835, 0.1305189296408775, 0.028065622520268018, 0.10690745382143273, 0.04459853708183347, 0.006072796580851414, 0.08239835559404028, -0.001902567963684652, 0.02836176370395572, 0.011866065993919296, -0.032421391585885515, 0.015252258753222699, -0.11218683002921193, -0.20134948386804138, 0.030251494671272087, 0.026993444031007546, -0.061883345629618856, 0.06468375315266493, 0.06556638960698154, -0.13850196100005333, 0.1536416088338341, 0.053747797891188116, -0.133839355647141, 0.10785025528472696, -0.020371307905980525, -0.07902948064676985, -8.290112171115423e-05, 0.039571765948207556, 0.008527223225832182], [0.09006300297616703, -0.06135209693687609, -0.11086117944890736, -0.027514717927894783, -0.07190483765773072, 0.1460808926973763, -0.0018814538758397399, 0.07941366141359461, -0.048344244530580026, -0.11467883388938922, -0.11867218229724018, -0.09672723959640087, -0.056834369262862436, 0.03899952345006708, -0.11522530415136135, 0.15056360598329344, -0.039606074518586346, 0.19914231531131185, -0.015264549303248599, -0.010074544215855805, -0.10385522268900985, -0.0746412771730786, -0.09398781790685858, 0.07597016985021848, 0.025066772503507063, -0.04944186676907321, -0.01650637450152942, -0.11664330732647363, 0.05181792215479603, -0.005244017487179113, -0.1300621075777871, -0.06579952916573921, 0.03148079180441567, -0.035188121796888724, -0.07494846491138893, 0.025265445488011875, -0.036335003184807764, 0.051951774599942525, -0.0024494253043894553, -0.1272074422396267, 0.019274708205203436, -0.024587998775510836, 0.03888361202111045, -0.033135550070806194, -0.059661757267980044, -0.03232753281186551, 0.0033432686400599195, 0.07287370483711797, -0.01734451209223037, -0.036991055014795396, 0.03863648873942086, 0.040378635438161545, -0.027657712172166588, 0.09666124496022048, -0.16187395509210364, -0.048561654169115225, -0.1971227797218817, -0.20251721312454188, 0.07172607863498895, 0.269074314087756, 0.0573559115327915, 0.0961434447724878, -0.1698409493250184, -0.018421211340334726, -0.07467853439962616, -0.1486214338566501, 0.017634219934303412, -0.15491200358080198, 0.006934701862393453, -0.037754671144773884, 0.035734142784502175, -0.11402393689269887, -0.13196597698024792, -0.04469595640560542, -0.057359099365845066, -0.07637407942792838, 0.058080547334996326, 0.0929571665899133, -0.05644102229997909, -0.05722549270914516, 0.0059851959487595965, -0.00403010385033449, 0.021483457996681263, -0.060662219744054606, 0.08997132800676293, 0.09584352959113364, 0.0022527977835346807, 0.051759951794069156, 0.007271784601527246, 0.09694441799520598, 0.009264054934270433, -0.04616456950328582, 0.12868663398358796, -0.0849482484140973, -0.058613960494884466, -0.08375891296006245, -0.0509884979369116, -0.014329377743862495, -0.09810936284871052, 0.07120875084917938, 0.07434950921470712, 0.12578626676786672, 0.012205829601290847, 0.018641148317476045, 0.13300780915278002, 0.031017785395862627, 0.027051193098691702, 0.01950690321641069, -0.028163884781474326, -0.039628540256432455, 0.10471764807460683, -0.12925970367168033, 0.07320424479698616, -0.030477700075843023, 0.014735450481940025, -0.058788106004315485, -0.07760628991652262, -0.06364925250928712, 0.09439803481345148, 0.10640035781169113, 0.15404903732175493, 0.01660311630848687, 0.01500225922365964, -0.03402748578069657, -0.03818066201675241, 0.08647272334637461, -0.031155654468551335, -0.10283198673079924, 0.0808436817186202, -0.05359511054608659, 0.045840076754035626, -0.0328344644450541, 0.16289935326380448, 0.07644999153029795, -0.04987568072322062, 0.021713343121571204, -0.09720952332522234, 0.10084329164180643, 0.07612939976605837, 0.019710451981525462, -0.023914759639855204, 0.13853214390571908, -0.17572135274006978, -0.06978698357147473, 0.031143442483986695, -0.020073020595026678, -0.035828153834788, 0.026287769819027522, 0.05074672536819033, 0.03614528093776839, 0.20079446237912016, 0.15377860757532336, -0.08362713350640542, 0.07779910457601319, 0.09163338704874839, 0.08049396561631314, -0.026121104602140555, 0.06388816179666289, 0.17539903714392088, 0.030535223837838864, -0.05991948202539476, 0.0556922813378381, 0.009691418565399222, 0.018036659524925773, 0.08005098159934451, -0.10044628274492831, 0.09706064951141712, -0.06495081545475752, 0.1506589717217412, -0.03377143781846236, 0.01807550624039602, 0.13537347332860894, 0.044266719617396595, 0.0385069375193515, -0.1132730096666121, -0.024689528959359934, -0.17876865806906841, -0.07688450923483767, 0.02323752103751947, -0.06472282065160741, 0.08150440961503487, -0.023351937898645408, 0.10117733143399311, -0.031004834181776547, -0.013010903280841335, 0.113476179494116, 0.09206368466672779, 0.04382955458301462, -0.003943878647487848, -0.061705598338723494, -0.019827704346470465, 0.03569912366940945, 0.042095353061243054, -0.07229454325629021, -0.019077730716514384, -0.04607580974444758, -0.06434934342654114, 0.19516108349216288, 0.19307003703958886, -0.008090498955413588, -0.10317077394256435, 0.17572137897250253, 0.039197852011391685, -0.051557445330474495, -0.07226422165138945, -0.04719706754203881, 3.5187050414737164e-05, -0.03791184096567086, -0.06605799784618471, 0.016317906740307978, -0.010652159370898825, 0.03688043739236557, -0.02278324011229454, -0.17660598950476408, 0.008204036955240569, 0.027711825016061037, 0.1301822383466646, -0.05985838936311584, 0.1133452404159807, 0.08826618598836324, 0.05045768739666056, -0.08954503932488232, -0.03931622628307567, 0.1478138149752781, -0.15187830303110308, 0.04738984303278651, 0.15501499948717173, -0.06064321780218585, -0.19127666271562882, -0.03252684071541767, 0.03766512521078538, -0.027399332907363242, 0.08537070272331593, 0.06157244807410017, 0.02981078808195958, -0.08765533001077425, 0.09914163228256816, 0.10481717867826912, 0.12711553755699923, -0.06555192415769856, -0.10013425505676285, 0.024895313341277397, 0.042350149766801376, 0.041598375131673686, -0.06964617779363975, 0.009015191273447142, -0.07351818371151733, 0.10296690409662472, -0.07701164807278751, 0.02745517556449139, 0.03470649596055662, -0.2159709989541482, 0.07574426678804956, -0.09478696613186392, 0.025881045877965324, 0.06934093552702776], [-0.0160149374466682, 0.09396560996177054, -0.18590325987522155, 0.05844283492561154, 0.15824689546707768, 0.02964623437065804, 0.012813371983577505, 0.06596986584655379, 0.13711960842840362, -0.0998247163204714, 0.01605769366612069, 0.0007467755260755584, -0.06478069286131821, -0.12402402784260977, -0.08734053503043765, 