{"layers": [64, 32], "in_features": 784, "num_classes": 10, "activation": "leaky", "lr": 0.01, "W": [[[0.004532800526966085, 0.02605788019359294, 0.06814250934429553, -0.10133974654870676, -0.013516486161554108, 0.11591742593792806, 0.05886344538268691, -0.01334541571615954, -0.04066916318132111, -0.05160733188158244, -0.04019611300081888, 0.06410680803786474, -0.036270563022595, -0.041273822728529225, 0.01903478063762001, -0.05528447255066713, -0.13459270200571496, -0.0099733241031491, -0.025721498328221678, 0.08243524809860903, 0.057333883596702134, -0.04874413970227889, -0.0035326818223392746, 0.04120701473143351, -0.08912313837760075, 0.09551319213050137, -0.07068358632551994, 0.05648819243711842, -0.07137186964380635, -0.05853975105446695, 0.04347063604511263, -0.005571169462322924, -0.01842293188095465, -0.05264513028645797, -0.08417001286989086, 0.04739156426030313, 0.009725891709158857, -0.017698937563180497, 0.09485693009069586, 0.03243585149958475, 0.032596511812300964, -0.0033915708502808666, 0.044153956924355364, -0.01201340025585932, 0.07967613598456398, 0.003962131970945954, 0.09812459589845275, -0.015017121698382388, 0.04368439251046089, 0.03268433912773579, -0.034759706784613306, 0.04343483059995435, 0.014246743856683706, 0.11378340614783222, 0.0246046955441655, 0.029478440298140677, 0.03341542470372357, -0.05318559742437412, -0.0278869419042673, 0.03530195392261184, 0.049020629888886974, -0.08428683293854546, -0.027475577565180997, 0.040491932978750554, 0.05396977032149104, 0.00990509585472679, -0.015865371713234048, 0.03027347765020662, 0.015735900387180587, 0.04858425436285821, 0.005195708230375902, -0.0532381494606763, 0.022205192252867892, 0.006866171873566354, -0.024136133558043074, -0.05921737185431827, 0.027970619582616946, 0.0017122392305311267, -0.09411482588924333, 0.00682107161415052, 0.015657592242789477, -0.006036108215210307, -0.023804685015828185, -0.056903883185870294, 0.03963741762096469, 0.01320329523690246, -0.04057435286291157, 0.07749604845082578, 0.06828674564247746, -0.010057099467928791, -0.0725108461305461, 0.02680876112375484, 0.08520773585713234, -0.027110499436684327, 0.02214139481663431, 0.008365315996702424, -0.07471159982291353, 0.07264357134826764, -0.04835827053115991, 0.10086498899750825, -0.019412858999477155, 0.048511927819509984, 0.020316162069448196, 0.0825493035339961, -0.026229924011514753, 0.03657060855959942, -0.0053018236420746545, 0.07488484194511731, 0.028707218082159723, 0.08411065360130025, 0.03496634790650529, 0.06840633346139215, -0.020942448658492048, -0.08402953869127074, -0.05994399074935593, 0.07388409885464584, 0.038183909300912144, 0.04432557012532813, -0.03820442807323593, -0.04917780353494806, -0.0625141813696365, -0.04308992868133887, 0.009100097725607688, -0.04948583643770244, -0.022458568889013826, 0.02763185311294564, -0.004121782591214406, -0.0004656576721682638, -0.08877028558218486, 0.01920131681229042, 0.04212608547889661, -0.0020669625817339933, -0.08368504016253481, 0.04807089952265016, -0.013264183011991374, -0.05147188139738257, 0.02563789084659435, 0.02772829254076217, -0.0031564852201709237, 0.02877604546747643, -0.05399756256592492, 0.017153329485963643, 0.013737704988538393, 0.008332743326919582, 0.03700061256962735, -0.05633775724712259, 0.02545926590973438, -0.09248453109678655, -0.03700008818159885, -0.09209298922628495, -0.07317336759949225, 0.06220453749204706, -0.04171118753423296, 0.003752625636107513, 0.022775566721883956, -0.11375929763258913, 0.09555146034049769, -0.047265563820336254, -0.01680884864703927, 0.08254409721604782, -0.05307809196694747, 0.031520401796038704, -0.03673364949020996, 0.03299079156969785, -0.0036687282953308353, -0.07160256058219641, 0.08153718930141235, -0.10405894337881791, 0.050839624948371014, 0.02506479715976294, -0.050102372996033526, 0.07933616361631846, 0.04093126189678335, 0.04965858555669155, 0.07126223515681453, -0.03005132398048369, 0.02417266600068961, -0.049092019306114495, -0.06547963579523412, -0.04105642373038402, -0.02760035900109873, 0.044742270179906625, 0.02978123424607507, 0.10930634993655378, -0.11120129099203344, -0.030563428093576456, -0.05550671275170406, -0.04762238771125163, -0.031226667410868172, -0.06311057512538049, 0.04555171472953571, 0.0032514716943308833, 0.03689944525187189, 0.043506465383765625, 0.037431709440428215, -0.007619581258782496, -0.0023523674592605473, -0.001825571445483611, 0.13313758018741925, 0.006825510987338579, -0.056898125486235636, -0.05173386477789482, 0.0008452658834713621, 0.02791462764433692, -0.01018727839200094, -0.06396312050639608, -0.0028373203687041835, 0.02646727506151678, 0.0366462163286302, -0.07537846626564063, -0.0686037509592407, 0.007164054140790481, -0.028580242270401127, 0.05754383531666922, 0.05217577741746483, -0.13135412756287534, 0.00015900232747047507, -0.08740932857238592, -0.0028589096448993273, -0.004876126895799638, -0.041714103318150994, 0.01549601017285417, -0.01892950150195255, -0.019351891366236006, 0.09016842373376717, 0.015569731332542759, 0.016490792326238502, -0.011738752337817876, -0.07907938975879064, -0.04333086385211816, -0.038911492628799456, -0.0007480490933382323, -0.11481997836720306, -0.03488754445707845, 0.030227351429176767, 0.061365495747497806, 0.030939407433410292, 0.0033838892059811134, 0.05994458419484846, -0.03304007978120952, -0.05541332639353924, -0.12118013736916128, -0.06542247956978868, 0.03927215758931044, -0.06489866100108858, -0.03125263473808168, -0.013257678036496091, -0.06509042598668519, 0.061257395689128434, -0.04724144175505634, 0.10991094616596651, 0.04182103668128926, 0.025777271459670747, -0.005931897967315888, 0.05954561837888265, -0.008268528434164098, 0.020549582849492425, -0.1535402258691388, 0.03920026281094738, -0.007657029014530192, -0.05108685788831608, -0.027005054791178287, 0.07733113781398623, -0.09271664242723021, 0.015460491589242944, -0.007676527772089625, 0.05069199654728032, -0.026290865851230617, -0.020363946950405862, -0.03284605299904181, -0.10241135645168276, -0.0987202587429867, -0.056164675967178924, -0.00351367243884714, 0.07760477381723305, -0.04570067743185395, 0.11055138471261314, 0.0031802737417674504, -0.039548209884369835, 0.0540901021097897, -0.0663422828674227, 0.02714068681448895, -0.0015180846781665724, -0.011738078873967444, -0.07319213681509062, 0.03023092814455816, 0.03173427904818216, -0.016845233357953435, -0.03203960371705343, 0.020764852642399932, -0.10079708346738658, -0.0016716954882079551, 0.05517061151942581, 0.08401361959702447, 0.11044193761642716, -0.0278757927902469, -0.040848633715799484, -0.019488977763584905, 0.08119811514994095, -0.04157498257772073, -0.009081221611922012, -0.02743969360479684, -0.05830138828315165, 0.04025405624287345, 0.04335705029409388, 0.04704146627145719, -0.03904326564521653, -0.027684080557281106, 0.008201535173287026, 0.09099939996431802, -0.01975887116400046, -0.02867460706141318, -0.03415652990344483, -0.03842817075346853, 0.029434155141757647, 0.02986570248471074, 0.0011405606640878044, -0.01928106651267369, 0.07517572634547431, -0.027765796922132664, 0.06341980183346026, 0.048878963788097335, 0.06762502269456712, -0.021852955962085998, -0.022222699334257214, -0.022396211135394636, -0.019705337367039305, -0.007992809591770357, 0.02446638753541008, 0.06970071014052831, 0.09568101419548454, 0.09634068713070165, -9.159680740199595e-05, 0.06759035502302752, -0.03351463528708412, 0.006978136101201355, 0.07031566260126389, -0.03042744639555045, 0.11346757764380942, -0.049151881277829275, -0.09407820917967308, 0.032297244449628615, 0.0033616608284058862, 0.05685160500386583, 0.028651412138704983, -0.03721655474221023, 0.045305425942543644, 0.005909422987350497, 0.04059863754699323, 0.07125120636662348, 0.05141035075150744, 0.009625648552074793, 0.011055654574315187, -0.014098133809993169, -0.013379101902380872, 0.011445207048639846, 0.045646735532641314, -0.01945556119211206, 0.0362673861448157, 0.051719943773273234, -0.06806505047189225, 0.07819857747951987, 0.056285546658305693, 0.09078874050563325, 0.004010151545069228, 0.020753943075983303, 0.022270554549647482, -0.05089221845216029, -0.035843972047697965, 0.0049179119024152914, -0.030003108245694587, 0.07495231687118795, -0.07384063734497646, 0.012416521384642555, -0.020231882191381043, 0.007433724921218867, -0.059397501378649444, 0.046237262064987274, -0.10190652644417061, -0.00456349091711396, -0.017440577610449075, 0.010732074451346092, 0.030197429779692475, -0.06752342652191703, -0.009963942215847055, 0.06220988220334803, 0.07291865252149815, 0.1422171217064747, 0.053108773525458175, -0.030131113391761232, 0.06263536384190312, 0.03738157684069716, 0.019263084421960525, 0.014480959085934605, 0.02970702085189928, -0.045961675851372875, 0.03103745235935922, 0.036435021767699166, -0.06598594604583866, -0.05297458195391285, 0.03910310649208668, -0.03753986485437669, -0.0034901075790717525, 0.0683883608481135, 0.00984535346256935, -0.028121482573294606, -0.1040320435930558, 0.0012813295066961918, -0.059265819850766774, -0.08743401574479807, 0.06930716131008242, 0.002755220218602299, 0.036866043130869365, -0.01903568906352764, 0.06582660678570273, 0.11561779977730291, 0.0018644756353467682, -0.03993899463407966, -0.07702638587592833, 0.04707710355393199, -0.013502912244196159, 0.01676338089188702, 0.08546345172294448, -0.026684531228651855, -0.06510897466967083, 0.011403299630125674, 0.04661041081026148, -0.02354153419658077, -0.06441370429216679, -0.001205378905408595, 0.08039418543781812, 0.10488066525705333, -0.007080224522942118, 0.003142873951469899, -0.09495146210022451, -0.1322232591062728, -0.030558082039243442, -0.02749199756453157, -0.07653707164241043, -0.019057564449180442, -0.03511499786356835, 0.07693330241055892, -0.026364279021235577, 0.02264020039618608, -0.0014037349263831312, 0.05338467211018036, 0.011883230770838268, -0.00834744797059707, -0.012524298262251213, 0.009205297012058909, 0.09305732904711056, -0.11719672586954634, -0.03584065443801689, -0.0628750086341524, -0.07562282665720592, 0.019738726331672625, -0.016117540963965445, 0.1824022540296444, 0.08173553535533716, 0.056893325249228965, 0.054174902665984175, 0.02600500810310248, -0.10226532909847864, 0.026443426422415317, -0.10613868443406137, -0.10824570735523233, -0.02329071071662804, -0.010658227965121642, 0.06411453312928651, -0.07429678989229496, 0.08170368140761862, 0.006340148480612861, -0.0106589015272419, -0.07092446800235652, -0.06863358146401931, 0.02491308099499271, -0.05414297332733554, -0.012550854686252725, 0.09152553374580047, -0.04574369728940389, -0.02657087194391678, 5.583476355415991e-05, 0.027780208786373578, -0.06484437413899544, 0.008880004432891997, 0.04222094138143942, 0.03859605654164738, 0.06774041701476365, 0.07100857201207453, -0.03196182191111539, -0.011249048399268791, -0.08712149253905169, -0.09303619440840162, -0.04892170262138254, -0.059152062577678396, -0.021451766359152358, -0.030826779254823185, -0.023994978469287186, -0.007129200079724354, 0.056490356763473394, 0.0921463454944044, 0.04525851453956129, 0.016288099626038118, 0.004385417072688975, -0.10997950222443892, -0.09721815308601399, -0.10387667903145438, -0.029491401759949708, -0.04403274262701824, -0.03582397667149892, 0.013380287589652987, 0.07619403159009189, 0.05784642292920902, 0.10906126289342476, 0.06940219804828922, 0.0770524951577351, 0.037304472822996704, -0.09062273533667298, 0.059516513211841766, 0.08515759672766714, -0.017919504946354553, -0.0264464833973359, -0.003941708335318709, 0.050741445305338154, 0.012650834865629892, 0.009683972976201754, -0.052193315214810465, -0.05697228886116104, -0.016504842380104967, 0.055438266980861725, -0.04107414870948985, -0.0011547023818213715, -0.007686530246503036, 0.04342901490080046, 0.05780553240574408, -0.040398264727464175, 0.02019031738532751, -0.06807609281764557, -0.035321476030521555, 0.018775332079621142, 0.04985822077110276, 0.047359342574386266, 0.07892650558707716, 0.07649216807134165, 0.0028393997438438527, 0.024075475123779763, 0.04407510767285408, -0.0393712345200132, 0.025510235228986884, 0.08100039018996766, 0.012487766545958392, 0.06867050094344415, 0.004854895760544567, -0.05632243506874532, -0.03126464170374637, 0.002891243802312855, 0.10193761782903171, 0.009473061244767418, -0.15173218121221102, 0.06204166226813418, 0.0132106943177741, -0.03030271009301839, 0.0236382054067959, -0.009526787241297257, 0.06143530797749392, -0.06429530821919009, -0.040067590475418226, 0.152892170175362, 0.12116442943850682, 0.05558550261646117, 0.10515002434263178, 0.07173748454806804, 0.1562619514027133, 0.12577587132258927, 0.004236935742245766, 0.055333169915110204, -0.008300419361075298, 0.003076575744738982, 0.04039555192073139, 0.06173483276427017, -0.0804100589840114, -0.05497206608213543, 0.007282023034988246, 0.03582433577473927, -0.018113251322544516, -0.13965303553978792, -0.030745189362139033, 0.045190766399937715, -0.10311309342632802, -0.06159596319761301, -0.004854044899709649, 0.10656038690906319, -0.02160711692289887, -0.03148700123066549, 0.18738686376581906, 0.08214413517940311, 0.025468628043437563, 0.030626704400374016, 0.046745823054382296, 0.053599456807757115, 0.10891905628750599, 0.07661466073399405, 0.08351736952333329, 0.07239706636819986, 0.08575950618351062, 0.007005718353948927, 0.0057644610351022755, -0.07410863727101712, -0.05532619952695624, -0.05466947726977563, -0.04371820922889157, 0.027100352979091955, -0.047963382089849974, 0.0642768398457806, -0.024380610041707915, -0.019802016001074278, -0.032899572891063995, -0.0049023033821884165, -0.02963351251834514, 0.10371507904591909, -0.0007822519780715291, 0.04457707169301284, 0.00348470492942163, 0.04327615853588462, 0.04844154212605417, 0.020379577803729593, 0.06458151860110269, 0.024283420495784497, -0.02939538317737633, 0.02462203625170704, 0.07565494906695786, -0.041724438073283535, 0.022359125407862144, -0.007692454912845445, 0.06329527346141262, -0.027191414166798888, -0.10117277696355192, 0.0026181640296602466, -0.07464056888199642, -0.03732152234144718, 0.0810760527184313, 0.04328165489690169, -0.0027436925622235757, 0.02295585854467577, 0.01609064561391951, 0.003964032622889169, 0.03112433562432074, 0.04538693781823403, -0.06647482242705888, 0.005314030336615387, -0.05510030123960466, -0.15478351825611686, -0.023081871706215944, 0.06036325661047474, 0.05685787241829716, 0.0057161092846351146, 0.0009476489509538331, 0.05394829861471134, -0.024530059664214877, 0.0008641794562811885, -0.01054193267501774, -0.020690815030942188, -0.011845740786654917, -0.06936311224755655, -0.018291835456626035, 0.037503530554588015, 0.026228812997139837, 0.07643715319489754, -0.03080814357530793, -0.005658987496803695, 0.02855068969288522, -0.07830865768088592, 0.007251472716108233, 0.029335682170819347, 0.01949336864438832, -0.028295718369800604, 0.024892225869103186, 0.05330780936047722, -0.022541888640666564, -0.03486029885468814, -0.013016997876671578, -0.03206833119042541, 0.023313910404181137, 0.012801089944452277, 0.06851760462475746, 0.0369409949953682, -0.010951112249360118, -0.016910693321993926, 0.035457417459971295, -0.09595489552186401, -0.04285809739690715, -0.08050437235718252, -0.017120201917706492, -0.121706658888702, -0.003454679653177917, -0.09945735730916935, -0.014100618742906853, -0.025764746682252336, 0.0026156717752657383, -0.0381956621175882, -0.0006982845594456446, 0.053769499742901364, -0.015196744904683283, -0.03478047395117136, -0.005678499391477011, 0.10767808235244657, -0.09477855711979837, -0.017234155340640437, -0.0861786153231834, -0.01731753311539292, -0.10206904915155694, -0.03091381193458043, 0.0715365925360091, 0.0048781760120988745, -0.012539283855868544, 0.0022497915178527807, 0.009283441108810044, 0.0050817232303725385, 0.0637441312467441, 0.055370584336219504, -0.029784271119377956, 0.021914442602105854, 0.09220961593834913, 0.030889402872662983, 0.07844782263434794, -0.03598686528617215, 0.08877272643899692, -0.02086610971004036, 0.047527043619881505, -0.007801711273134308, 0.011927696221704363, -0.04634027867909629, 0.0083086930560258, 0.06056992330294414, 0.0045729853065055795, -0.015251076084599935, -0.003153460329410684, -0.02712703864006852, -0.02507695670689313, 0.013071858142640292, 0.037869350809867655, -0.004345484631432995, -0.07312560821285662, 0.053821165722192976, -0.1163685201448694, 0.017936278799477498, 0.0028640634354629452, 0.016259656266736033, -0.04610313443303794, -0.009638422256747521, 0.04716090379422434, 0.015453102621512213, 0.048847867289501336, 0.05787829653570204, 0.042944332359095096, 0.030428790788813727, 0.04427068634634234, 0.09281553247189288, 0.10500073629881701, -0.036541871045087104, 0.018921638094153807, 0.012772095605969076, 0.05830762945775993, 0.003935295962850012, -0.10164164769095987, -0.030731378656745793, -0.008446841761505135, -0.07330432227545865, 0.01903751938796106, 0.09047307008043408, 0.050672871804037165, 0.007482015114582857, 0.01522101151522424, 0.0382708627425124, -0.014654724903356698, -0.018400547562345274, 0.0801725897260525, 0.022693494066186086, -0.049030374740579113, -0.015285961613187031, 0.020185977349894826, -0.016551970916869937, 0.06522389899539399, -0.020918995541092996], [-0.053301582578159944, 0.01342254358384243, -0.011688922451835773, 0.10604127033583198, -0.08981840409839954, 0.05060522919812105, 0.01476252291675145, 0.01851335346831098, -0.019026318982725974, 0.0400315238624688, 0.024921485059971632, 0.030170215919755213, 0.08865576578117017, 0.00023550624077080565, -0.0208977812044174, 0.019247701895241328, -0.010371549818576803, 0.0009546407659779761, -0.015061473695602883, -0.019439642322993007, -0.009405416302125434, -0.01694519320674969, -0.004889038177861841, 0.029579294510049467, -0.018514184873701323, -0.013598468118226525, -0.04036935177588221, -0.03097398246759141, 0.06325188058536127, 0.010596994225829081, 0.04392133069316899, -0.07449807215941423, 0.015756395725300538, 0.0604587569758953, 0.08632642884869879, 0.031416693513854614, 0.058693637096141685, -0.0011950747736700102, 0.0001746573435940982, -0.022844041664607045, 0.041368661342299384, 0.06555933928008967, 0.018688141481482925, -0.036145780092629996, -0.04176659608027872, 0.028596747045122172, -0.04019980796237274, -0.02346879540513735, -0.0020807989057040153, -0.1126729724684085, -0.03222684715002963, 0.03685422229386872, 0.0015312726227881706, 0.02435899818359366, 0.030155889644372234, -0.01930348885625209, -0.018443981105724528, 0.10212919130263634, 0.04317699900071211, 0.0153448183950699, 0.012513531391313228, -0.01440746751021968, 0.009510831691057904, -0.04086800184002807, 0.024434367866668638, 0.05694113275802505, 0.01797874195237091, -0.0032553889902301727, 0.017342636732308674, 0.010019134835654983, 0.012392846265551509, -0.04646455372209443, 0.008891882922355829, -0.0187705957226036, 0.0048627189701134265, 0.03794485143312625, -0.013671555330665601, 0.009359410504823156, -0.010428410274157713, 0.015117076524687635, 0.008279945722712458, -0.07661467798771324, 0.024063662197433833, -0.005050821107332898, 0.026617445085150137, 0.017015800402710387, 0.014973936061462632, 0.053463256014970345, 0.06091616601141792, 0.07687890155170536, -0.023810281230519682, 0.025372342959789868, -0.10940211427979317, -0.022834510026014696, -0.024402867086918464, 0.05674927634641541, 6.29999153482384e-06, 0.109625282691957, -0.04150646740900971, 0.12264692859822612, -0.011569787602634857, 0.0031730374463206654, 0.03750075057663449, -0.010019152925491845, 0.012450249961058058, 0.0007211077543261436, 0.019164925917308895, 0.01689402547730175, 0.05821950702916877, 0.05843957415445694, 0.10078572971824375, 0.06941859940404214, -0.01985522397123179, -0.04970267000197092, -0.08385005728284639, -0.015698876801911392, -0.04924611880023648, 0.0673000754154817, 0.002833644076369355, 0.04227011496353504, 0.025164114615567137, -0.03253626271217708, -0.010811407165646719, 0.002866087435547226, 0.023239653804185627, -0.08096767364422965, 0.032565381566306124, -0.044353262348738313, -0.09698302289581713, -0.0036736084311789277, 0.10182733676926134, 0.026437491717673515, 0.021372642668109003, -0.018886833473516846, 0.08100221790111137, 0.05815387717277309, -0.06293820103552342, 0.025406890751120514, 0.02689942246911113, -0.03630434965851102, 0.03645618267630359, 0.0749327590425233, 0.0551190611596288, -0.07265045344196217, -0.07685852656333707, 0.033355781766747625, 0.010393439489967852, 0.016347767609478432, 0.098323372953611, 0.02722341845308, 0.09182217738503243, 0.0625893377766458, 0.021050495502173094, 0.06080919630989762, 0.005356102002787839, 0.043371371813772486, 0.030310885200975326, -0.10490128520779826, -0.06645573556992906, 0.07288062193157036, 0.019070705061337758, -0.031035243267323515, 0.04605702095953505, 0.011883864113189419, 0.0916433199579789, 0.034881053896433964, 0.03862593240259271, 0.06211649265065947, -0.005851697937728934, -0.0075070787922737825, -0.007908219802169767, -0.04376650476947391, 0.0323647473742319, 0.014034932749518588, -0.009680613184953857, 0.05897975059903935, 0.10215568817345563, 0.01674014550354359, 0.10653086672482276, 0.04856468245098756, 0.05666508524997391, 0.0226005236857205, 0.06138762161738501, 0.039135365103198046, -0.021288356703262342, -0.00043183827914365836, 0.04921076669536899, -0.013760329000269276, -0.01944049366847288, 0.036689483275340946, 0.11243277365088239, 0.0753817625391985, 0.00528553946143084, -0.02751980287233253, -0.04508695869403589, 0.008680311518435825, -0.08035329687723401, 0.0190312603728773, 0.057068120936876826, -0.05639552737616743, -0.02615697041051686, 0.08571887358479117, 0.04243335062856001, 0.03206373735312494, 0.12818125205789882, 0.007654265205129208, 0.08648841016485437, 0.020238510942973, -0.06963945051834075, 0.1170833699312141, -0.023030879280393796, 0.020466680576757167, 0.04546463782939681, -0.03861628308894235, -0.06002653342979515, 0.019648609030475606, -0.037214988569521254, 0.047597374301068536, 0.0018854693256247768, 0.1407901569152268, 0.006001452221026634, -0.08583639144914867, -0.04342328991501635, -0.045599396101795545, -0.0767807127749576, 0.017461380313640782, 0.0045171676339666594, 0.07361933094581517, 0.1385807168033186, 0.12417666264111978, 0.04498534626643274, 0.013969396916716453, 0.10296236898837849, -0.0004781313320086035, 0.06375965830117923, 0.09888014705500453, 0.011568587571118501, 0.06760421863501032, -0.004839689958915008, 0.02635543350734948, -0.006465755026321402, 0.010116878536003496, 0.059335844917521724, 0.05807184395315936, 0.038939416966619, -0.038625875173446685, -0.022105989675302605, -0.006281955092043404, -0.04566812536987388, -0.01560433709996996, -0.04388993084981738, -0.027520265971946182, 0.014562167327009438, 0.05780587278368787, 0.071059966154734, 0.024567976899054628, -0.007144669528073551, 0.09380745943355115, 0.044066216024340535, 0.0016099925599853996, -0.10242703525252644, -0.04868993536844869, 0.004318349828190802, 0.024060669703538682, -0.055389317907769325, 0.03922958754538044, 0.0021122544939936056, 0.010552960035041243, -0.035582743156053795, -0.056086571625835434, 0.03734026409193382, 0.001964288872225813, -0.08826327151958317, -0.08183685992717606, -0.02866327030430303, 0.022134061955636216, 0.0586930316913467, -0.039945193402390944, -0.02208249084050149, 0.10618614872449292, 0.0044168905709733395, -0.007015664445462155, -0.04522626033618356, 0.030797075103462614, 0.024649044570419, -0.02998663011512762, -0.01822892530905567, 0.03138850553128021, 0.021753197701644054, -0.03714916683469691, -0.020623038319344998, 0.02987966957259726, -0.011349508515777916, -0.01654773181399302, -0.10611043690715831, -0.10073026774833703, 0.0583075137467223, -0.03276581692766073, -0.03656668518393494, -0.024523101104615936, 0.014502387471819944, -0.05432173706813863, -0.03735231849731551, 0.04620296111526116, 0.019315332060546257, -0.04197025125971762, -0.03584711710454523, 0.02687567640828667, -0.017818598943207538, 0.052498467557143574, 0.010698979434847308, 0.04252472618075208, -0.011357940269997324, 0.07106726036402965, -0.03545268647879045, -0.03733449102839249, -0.05086878084772005, -0.09097822547770414, -0.05876683267444256, 0.02962193573948428, -0.06576822936351556, -0.03301137795561297, -0.07374287990702752, -0.10694462963440513, -0.0901629000856714, 0.01471578741472455, 0.042670634896906125, 0.05135538972827822, -0.07061572427009903, -0.08012294163067844, -0.022997408654740894, -0.025516116740654852, -0.06031415067303347, 0.04540099536673076, 0.013202353430147092, -0.004198425645036888, 0.0013959071300482905, 0.042846773771194224, 0.06276536480435325, 0.06707920208130862, -0.04244274949991267, 0.01622263648825045, -0.12130372920786399, 0.022486589281801896, 0.06111260799368938, -0.07545179114767435, -0.013800549851779734, 0.05418155118514447, -0.03843460152141908, 0.014959892254690493, -0.027157820497789097, 0.09331384013302982, -0.03318374938750081, 0.012916029843739314, -0.014989123485513149, -0.03079447536538916, -0.005439353433071787, -0.075775039294758, -0.05806255074729572, 0.008089043419254267, 0.0037380896251986767, -0.0019668965090862416, 0.015422544489284108, -0.0537592081727119, 0.029724254857711713, -0.032713897395959736, 0.06176208503168343, -0.03998962887224511, -0.046227593331241996, -0.06437526209739668, -0.08316340810971465, -0.10163363615633962, -0.1152000481816503, 0.012601958848203972, 0.0112394782608327, -0.0707807837146078, -0.03770763987862248, -0.06860471466495419, -0.028659884363078328, -0.14555535358447963, -0.009967837551298138, -0.03447628046532759, 0.05245249233845995, -0.12853903066494465, -0.022523119426560337, 0.046242917881245335, -0.04724514686652982, 0.055853911656363796, 0.027585438183144097, 0.0023551383839807713, 0.02852174176443875, 0.008121680420786103, -0.011011347825142345, -0.05376391421050491, 0.05551425554674808, -0.05807663808602016, -0.04249854580381829, 0.07986240323170263, 0.03840529625942025, -0.045832425846221214, -0.03937456189369365, 0.024547875311274513, -0.04483248954084231, 0.08575419500459568, 0.025856003842603167, -0.06272602570545947, -0.16317691160145173, 0.036040836732580565, 0.19646871030946514, -0.032204976750887786, 0.028979316438100967, 0.14990543782866686, -0.0014562109772963574, -0.055441724273048845, 0.00037396088447583313, -0.016140109540290482, 0.11501772482844863, 0.060885097114900075, 0.03381963890765771, -0.11954840486143203, -0.010529602215567853, -0.08744505806645153, -0.06397478864067487, 0.020194277795242892, -0.022339377773572887, -0.05262282403053707, -0.018752926532765106, 0.012238861552910605, -0.01291389907860413, 0.005930512366134891, 0.027116154951862995, 0.1508552029977518, 0.04303530267237495, 0.03721027126070227, -0.1287451092364438, 0.015605817592517888, -0.054233206828542324, -0.06282798178120384, 0.066756852682594, 0.00400219764270517, -0.05852429843767507, 0.06358907282911379, 0.051906900524584666, 0.04819205440367361, -0.003215857143111893, 0.04336040415280068, -0.15445433814381251, 0.020058054300200905, 0.06760780417378189, 0.007312571264555195, 0.050910731494739216, 0.03991463277580191, 0.08957513681108284, 0.06655053040936412, 0.013882886054128784, -9.276493103363172e-06, 0.08632496016166225, -0.03597164027293131, 0.0814459717230272, -0.04449174234991623, -0.025005293804207334, -0.036396106351119235, -0.08064478378883123, -0.022744787370873962, 0.043283597792680935, 0.049182705503528844, 0.008176963502139884, 0.004835082253122467, -0.016938221328622705, -0.021325376443600386, -0.0032179282735368122, 0.0361134339609558, -0.027550630659257645, -0.06357988210491526, 0.01728161205427786, 0.008448248559800916, -0.02834240441588107, -0.018980946929976154, -0.03534562269403696, -0.06323927668112522, -0.00583731794290385, 0.00993683456465135, 0.018529293216279902, -0.018749705003000543, 0.0006092253358295604, -0.013639751213590979, -0.040593649018287145, -0.024659622075146912, 0.0321868684136986, 0.003225025941063595, 0.0023806218658674336, -0.01972595150852189, -0.022958216032645546, -0.015194345209382294, 0.012761270580221085, 0.05406237590204433, -0.013453926661631529, 0.09663258268176997, 0.07540140111974007, 0.05587263110509744, 0.04465671886686515, -0.05954297581598376, -0.08532561041962994, -0.004541513731725289, 0.03440918113244874, 0.06479106155355951, 0.012933218562076196, -0.02878561578070669, 0.04765201720504592, -0.033543932960588635, -0.05722491640553492, -0.036146674896060785, -0.00806738930590521, -0.08426021895880016, 0.0280088520895091, 0.057487891352744146, -0.05495611849606897, 0.013968881083289404, 0.07311224093078572, -0.024531967098484656, -0.018712056753279607, -0.001714347182209437, 0.03771348206357664, 0.018408924643644676, 0.0416569643242284, 0.08409662234970511, 0.055396314675331924, 0.0371854106955601, -0.022649303566703322, 0.022769369138507932, -0.01033156334488671, 0.04181909082862344, -0.06131318206111708, 0.05390162244837099, 0.08427786142545103, -0.02215360697318876, -0.027434743986260033, -0.029478258134574557, -0.03279732472269112, -0.036355691407454586, 0.0029689178942148126, -0.05099288622197616, 0.06714238753665241, -0.054471670020291095, 0.07295607034084858, -0.00639992301777559, -0.02801386522906406, 0.06153303688281489, 0.021884306804434914, -0.008411840677936008, -0.027932737380392748, -0.04315771393082957, -0.0917132909461497, 0.025639722880179884, 0.0949103930719388, -0.0022252279294994824, -0.08476806592649494, 0.008737835453085326, 0.04677306512545161, 0.08616899465853736, 0.02252684477783691, -0.03744587132683051, 0.03680512500358823, -0.0386847282453773, 0.08487269463456722, 0.09605293219046845, -0.04793434394069468, -0.03603304403230112, 0.021478395786826567, -0.021533000292698643, 0.05750521359003952, 0.08266668046964191, 0.0858271881151058, -0.00131859223062737, 0.008880342801170485, 0.12432290791400952, 0.001741876821900325, -0.029659123737906738, 0.03693272398025494, -0.04059121687173193, 0.019750342456400418, 0.05220566936218802, 0.09797482273676501, -0.04720731112029926, -0.040073951357388435, 0.07219219360179947, 0.05648779942988801, 0.028256552869417837, -0.07840938665595137, -0.002590714562039672, -0.05337301438286498, 0.01810622175143821, -0.011390919527724405, 0.010127386287842306, 0.06811421557314921, -0.04824657230043434, -0.025663676907001057, 0.06412944444964605, 0.06657444998669068, 0.07249180676480918, 0.08104547044057654, 0.004140417487662414, 0.007458698521102005, -0.02493481178692874, -0.013966387986815775, -0.02120240123221313, -0.0025133906869677404, -0.04172480642267645, -0.026797726841186895, -0.03005858621421568, 0.021758820389294456, 0.09096967009286891, 0.09185052776167946, -0.0560430101698157, 0.09229823360526633, 0.0790368955445299, -0.11906073070656814, -0.05077175483334978, -0.0889035352108059, 0.096761391560698, 0.059587783311757604, -2.1388109261487362e-05, 0.0056466314614318485, -0.03687196059412492, 0.09699095683466286, -0.01533525321122852, 0.03719239188908521, 0.056287118723407824, 0.008505313045993364, 0.10507479644506418, -0.03149566207189438, -0.0497698133568158, -0.009981465787438339, -0.007858982137574255, -0.020288956305873254, -0.04086326369141381, -0.006533682406905179, -0.07740342791322151, 0.010121306480422303, -0.01161210492903586, 0.0037788729899934296, -0.03518532807621073, 0.0405734016763679, 0.10086918344631801, -0.008914564647937703, -0.028190636848482904, -0.02713651948392641, -0.055629203324037764, -0.07452118000121612, -0.05983836924817009, 0.031360521751737404, 0.08193103172267813, 0.04397286885386065, -0.02533605910128235, 0.15881498387135964, 0.07404410547260709, -0.05218453285749933, 0.14325382573088224, 0.0035437018060231577, 0.06067483229203752, 0.07791998702433434, -0.07030905959471093, -0.009229497232195925, -0.08337959710109615, -0.01676404602287008, -0.030607141700160805, -0.016737139847027536, 0.06206664152536531, 0.021533143033498747, -0.018441256309010966, -0.004894866898601656, 0.12038900390368544, -0.016704348040318832, 0.009609449381917785, 0.11816166934206053, 0.052255118920545136, -0.06009766922361011, 0.03865630705883212, -0.007487586498673347, 0.06141862691974625, -0.033289101336252305, -0.0821929542520968, 0.005534043082964713, -0.009066669281620846, 0.007321153643445584, 0.019170822583266637, 0.11901232209015938, -0.03940989936910828, -0.07706498549626438, 0.04420417416342337, -0.04297990801073428, -0.008283392595823965, 0.03408114532564533, 0.007078026544398438, -0.0728276345027785, 0.05176162781329858, 0.009640918246365189, 0.06397548865432465, 0.0743693216234015, -0.13778133502360496, 0.014800390525810362, -0.028799417895426366, 0.05731288857492018, 0.03597108053249974, -0.040618275185178715, -0.009560825606594082, 0.08555383954684553, 0.026031541906254854, 0.0056723805224015945, 0.0820990650059118, -0.12178616232956539, -0.0774525444051731, -0.028617505628274892, -0.051226637384555705, 0.0518059352888944, -0.0006312986350039485, 0.04638729030486869, -0.014107353200851592, 0.05041708029840601, -0.023858972276635384, 0.11001475074237187, 0.05300159839597261, -0.1264379357874541, -0.006460209802140951, 0.011095559715275934, -0.029974339215058272, -0.008923527788887808, 0.012350630533879827, 0.045269421127788, -0.07273685719595407, -0.08933987315158687, -0.11385188539076614, -0.019825059645614204, 0.026241700638935363, 0.01894275865233512, 0.00552827882643035, -0.004447169626736247, 0.056056770727082754, -0.042678745586495793, 0.017717037170551713, -0.04989280311657195, 0.02070556140767678, 0.0025956163525162473, 0.004695290688470772, 0.06024651598407689, -0.0090144437377564, -0.01994765024627367, 0.10712703439934622, 0.0030063345654488534, 0.050325928409215764, -0.03229508501180935, 0.003225889012935665, -0.007137004230081417, -0.03285117318802702, -0.01583291244972448, 0.087415613332419, 0.059564272887849636, 0.03311897596702856, -0.030849401584843224, -0.004514304286941216, 0.0813064763887296, 0.020887629017857283, 0.025307026824753807, -0.0788294502059758, 0.028828651003875473, -0.009021741101645818, 0.08346109929919926, 0.13656586729300618, -0.04937862947519456, -0.032396723273141165, 0.03177654239387785, -0.06376938408754297, -0.03485132084402822, -0.0031181776460685352, 0.08738630676952264, 0.09284794043143188, 0.08102348915936415, -0.004094193064160376, -0.014804891915428262, 0.0729432665378375, 0.003674442020956652, 0.004132486458373933, 0.08607043674903765, -0.04065913820691451], [0.09046456763324186, -0.04929381442392712, -0.05554716286456438, 0.030073032828384853, 0.0007729886333479371, -0.03644829778003053, -0.04709575148118832, 0.025055798340285266, 0.023943228434522255, -0.018656621486160947, 0.0867473456450055, -0.05430260839475755, 0.049367561702196666, 0.043120543107276, -0.07911860836689169, 0.032455467299457835, -0.030478162408039872, -0.03538900849978667, -0.03510956695124166, -0.032386822553571025, -0.05886802599822825, -0.004396883157181385, 0.07949946070945473, 0.07233375207407716, -0.024744434477967925, 0.015352282000709878, 0.04780894056780483, 0.04347785095832791, 0.03310662546460317, -0.04068669915396959, -0.02828953699309806, -0.09100624926996191, 0.05153867373753881, 0.03340343334494254, 0.045736937239581825, 0.03149490965228928, -0.02228402390330086, 0.0422904106191984, 0.04354560783921345, 0.07499535121683287, 0.014986090757841589, -0.034495998033251866, -0.0926881230201124, -0.035295535714264616, -0.03927752044355959, 0.13099370488439263, 0.034109502113690786, -0.029283964552699018, 0.0629928494833664, -0.10338258423869047, 0.009933780391934923, 0.016008072587634283, -0.06165133843835584, 0.05574519814240496, 0.009920490950870027, -0.023146986581765918, -0.03625285903022711, -0.04513685995338994, -0.07047414052213292, 0.06568625341885401, -0.021927727855516874, 0.0035258857005790608, -0.034973688282096724, -0.02359974058393376, -0.06744563540536493, -0.06866277664349345, 0.10077404277509171, 0.10491261682185613, 0.01662183580550811, 0.0623534472383275, 0.0071492554049001145, 0.013462098131151604, -0.08568838415858167, 0.03477740018259119, -0.07704819450123916, -0.07984773588874794, 0.15175996568444294, 0.10569258574364637, 0.007375640358093104, -0.0006515435949432587, -0.00034130334834130214, 0.0063458300119387245, 0.025898475130861427, 0.05245773896800308, 0.009728069940951838, 0.016355014898550454, -0.019559954510744885, 0.04916599423357394, 0.07980800478406949, 0.0937591951277299, -0.0004114575233123751, -0.04178900534786375, 0.0569519571770617, -0.12268110603680908, 0.053639421095611255, -0.017213554169721642, 0.07504109693474463, 0.07061224161235848, 0.055338527027869636, 0.13543120398947078, -0.0055225087059593055, 0.07516032215423823, 0.08519488223838087, 0.03603470443540553, -0.012666849998023378, -0.004239875622055577, -0.10019975191084854, -0.01304046898058801, -0.0013665438334040032, -0.0033020769861412027, 0.01702874250593711, 0.04526510275562224, 0.004817323099520067, -0.10559425529349215, -0.02669415385311281, 0.060387751176216406, 0.0017276197678117765, 0.04430709864267423, -0.015438331800810827, -0.09025092704581139, -0.017350018727940817, 0.07691114772926588, 0.051348880159642396, -0.044651620596564724, -0.11187380540712477, -0.08391297919046874, 0.0018984825284356715, 0.014999222676405173, 0.03455284207098988, 0.035974059843494804, -0.09935257959093606, 0.006818794726959856, -0.02191310270564365, 0.04734658849457268, -0.058329086915242856, 0.07323848913546262, 0.00774746920176461, -0.03228556121584372, -0.016324258144054467, -0.015201804296898271, -0.01789386914001984, 0.010615641202311161, 0.09168121201656376, 0.11361358017315842, 0.07159266987680152, 0.058781288574020076, -0.04344377809439042, 0.047668609978509975, -0.01946123442920909, 0.022547706128875238, 0.014198299458770349, 0.08077217450842654, 0.01216585236790184, 0.13480379409158433, 0.024137423876081223, -0.06420887019968081, 0.005697193488191108, 0.0995556003536039, 0.04240222604311773, 0.0017460091542440995, 0.010435145025436998, 0.033491475115748445, -0.17769453734013083, -0.09118926268049944, -0.05450724975937, -0.030146669975961063, -0.014117796774247536, 0.05629964566353281, 0.032197187716352244, 0.11034718070750178, 0.09517814903116904, -0.0015375141401885806, 0.13863207090296706, 0.04338005785269565, 0.005280418281601244, 0.041814629036855955, -0.06717176936912003, -0.04579626834666725, 0.0094423788877965, 0.06769929462795785, -0.0875449439136739, -0.03386665301655185, 0.05716409044053772, 0.05243557111378718, 0.04470624440223815, 0.028857291033859662, 0.07560472380113688, -0.02804557321787806, -0.06743153801031072, 0.009054149140918146, 0.017547103401406344, -0.10148473675207795, 0.04882166293678078, -0.09031931670967534, -0.0008465410089966757, -0.0041163718641504116, 0.07792563653984289, 0.02907807809294288, 0.0032043273889335137, -0.027351107815682413, 0.0699968732711769, -0.04365599382475034, -0.07380085532958996, -0.016535341811720543, 0.033272665025592396, -0.01895440859534549, -0.05154342722573137, -0.062346216141632264, 0.1124449556259625, 0.050261523708163766, 0.03760833368981039, 0.1064489708992205, 0.08562003983403178, 0.07062257945788836, 0.09371088995070913, 0.13813509369547572, -0.07272056096365787, -0.037710119790733077, -0.002174791823481355, 0.0005284323175620974, 0.03046484055396529, 0.024809004207754344, -0.09032127899649063, 0.014726899382483638, 0.014402318442424601, 0.04179209627159572, 0.08535547274532147, 0.01584931945314149, 0.04971459093086723, -0.00815102761208616, -0.03510046926521014, -0.02124498547023892, -0.10475320936901623, -0.02537271810899342, -0.10292327340294061, -0.06220192866132705, -0.006597484262408392, -0.09789788748290874, 0.06966219371686529, 0.025852361412458, 0.104762029093465, 0.08401963620066896, 0.08233843903863877, -0.0015146476878898827, -0.07154983090884805, -0.04405687512469061, -0.06966735181728276, 0.05455026133959726, -0.10687989522206415, -0.003351463516109101, -0.0628191649817708, 0.05201730398344236, 0.025482008829986247, 0.11801821248278964, 0.019248559681133086, 0.007005436074849168, -0.02642372633882373, -0.08986097977242433, -0.05564037156568111, -0.08952833151198056, -0.03902711879019725, 0.02004507240213181, -0.011235785076706003, -0.06163653629035286, -0.06643743633351445, 0.03606564853052443, -0.004687780363260397, 0.15838381985241096, 0.0961788112101814, -0.04044083966172108, 0.023063801026571844, 0.014600166371537469, 0.00724977972470163, -0.04220240118624847, -0.12072042591279232, -0.04001810977064429, -0.015679605207283218, 0.07161175405872394, 0.038640018164136536, 0.03683452797259977, -0.09126855933162394, 0.0028899618065438087, 0.06861100346897936, 0.044658583230346924, 0.08534498967371597, 0.01710734304682564, -0.02659501654381935, -0.11350211506313983, 0.03572831064958999, -0.03647086652416447, -0.009390487519738654, -0.09768630570835896, 0.01828432082191099, -0.019365072695233975, -0.012809996633001615, 0.028166415045532887, 0.02254793434386879, 0.0774874987154335, 0.014255818011400061, 0.004349800303593506, 0.03495417792673457, 0.016505110995869487, 0.04206819304127839, 0.007586457755780574, 0.0073867094193185235, 0.02415170584764439, -0.05842096459438126, 0.029623848831436934, 0.052546324422074145, -0.11901897154307456, -0.01549396139880304, -4.628427442407751e-05, -0.0396588240015213, -0.08380073545697651, -0.07856748967982165, -0.041013922910635305, 0.07303062933344616, -0.01568581144704077, 0.00693770034049262, 0.021431382304441887, -0.027405353721163924, -0.007798379369333884, -0.1372503022867845, -0.019331365774445795, -0.08201236756957164, -0.03620725776937954, 0.03138436971670695, 0.055159177499791164, 0.04017469730942758, 0.01928249181851161, 0.05145948111138134, 0.15736262616566168, 0.10500234661125993, -0.021262309180276644, -0.1097054899017056, 0.046549878791973, 0.04163829951742911, -0.018188116464856987, 0.03734716515292743, -0.005670453585612883, 0.040495727446930814, -0.045422292139520065, 0.07275123203927214, -0.04520825219594229, 0.03132337746653661, -0.0054343845995357834, 0.08898341418670232, 0.03451621635591751, 0.01020721290631341, -0.028830972598379016, -0.03145746348910642, -0.1659901168527501, -0.048735722358672, -0.05729813881234766, -0.11188460203344809, -0.10706221879635135, -0.05998969109299747, 0.0161380225795792, 0.05505479573817696, 0.021026455389210788, 0.08094336482325071, 0.017603234077106157, -0.026104693392903142, 0.057868105751939715, -0.003885477162266448, -0.019681889359402273, 0.022395075519756752, -0.036360857155462396, 0.025420912495078742, 0.10275477063649761, 0.018963007711442163, 0.055581379139078506, 0.11302958540960997, 0.024055274534723763, -0.019499135958392488, 0.0141804330548336, -0.028721401431129355, -0.16000341848315996, -0.10123045203679965, -0.1279870652007866, -0.05239362474322118, -0.0453035115101411, -0.0807488500220782, 0.015327382231242071, 0.04286709271069587, -0.01214220997787718, -0.03619971859988846, 0.15379505868596605, 0.054852680929258595, 0.04365231194951749, -0.018232211372866798, -0.022079429254673263, -0.036466363242836884, 0.06704691511321972, -0.03573017972953087, -0.044015709923703794, -0.041016651412941654, 0.054678058712544754, 0.02389095513712042, 0.084719527226681, 0.04001264018730173, 0.09847306709742365, 0.019732804320249542, -0.03339019508246218, -0.06892277249465893, 0.017432173877348228, -0.15613616102025415, -0.01730258411765775, -0.1534359868614448, -0.01155428479185587, -0.051053440658490386, 0.003342120886285193, -0.02955576429158333, 0.05191736776210994, 0.07865825195374228, 0.025590072099344, 0.07041589767523462, 0.005543260785479943, 0.03849242120922157, 0.02725013670342777, -0.006302572372852789, 0.012726613706328552, 0.05759006057984774, -0.11080969424990676, 0.0036009436453797775, 0.011268462429592455, 0.09568142889367773, 0.05738136622744605, 0.072992327895952, -0.04849783611265479, -0.023690392661223407, 0.0026010281128294533, -0.014347447417102149, -0.1277274230599883, -0.12064462915366558, -0.023707558140274875, -0.14572846354589866, -0.1534286592215954, -0.017084330840052134, -0.027492599080459656, 0.07387072763517775, 0.036849526160317315, 0.042532468219484657, 0.11789781749442826, 0.14531851157089545, -0.1682290591312579, 0.0005823129603743562, 0.0517647315994175, 0.0052206533654230915, 0.020893244854577865, 0.032167108731792037, 0.0033481553478009723, -0.019223599607502476, 0.050368372318003465, -0.0007859732669373332, 0.08991977797042373, -0.014257761164819579, 0.029611078544640828, -0.12664167344942392, -0.018017812476854717, -0.07851432843340449, -0.09983710639253984, -0.06214174687528137, -0.02978667358720013, -0.0824496814089074, -0.08183557012013407, 0.03901048571848587, 0.015569837355129169, -0.08036269762808884, 0.019770560150934962, 0.080492035057823, -0.0919774011577569, 0.013115313616637576, -0.0015313698432420878, 0.0006340250942274231, 0.026911227785803748, -0.009405006719291117, -0.00483274819714104, 0.04886553294867071, -0.08492163761640716, -0.024145770939835578, -0.004280829925947798, -0.028703163976422044, 0.013132102907215396, -0.0384021785913393, 0.042519631980651756, 0.010055458774040463, -0.03694055945375718, -0.11372902683480578, -0.1595012162597879, -0.13252196517518072, -0.09944139727496654, -0.042234347357132294, -0.02893424559954521, 0.01358787580716818, 0.06579645292694182, 0.00269318365374659, -0.027307976007117447, -0.01193582997768075, -0.06956713407745786, 0.0006561964837379268, -0.007828277570603573, 0.02334330320757271, -0.10159954291704161, -0.029564188143205734, 0.026223771684071404, -0.07574402233090638, -0.014560781511583734, -0.035186946380630024, -0.000221868706569408, 0.006162552283923388, 0.025707575155983695, -0.028316651697656067, 0.07151392787540928, 0.05984930607413682, -0.06371190502542796, 0.009531635258025514, 0.02276402936434207, -0.03274488745491867, -0.02079893648610212, -0.1408918621981685, -0.005410251777426269, -0.031232073597160567, 0.016235126700196507, -0.04500696743269548, 0.07102144663955462, 0.00719919956440754, 0.052713342007951795, -0.06853850658208774, -0.018137592029055898, 0.01852593028028879, -0.015996674876870485, -0.02234273568384491, 0.024013296992010554, 0.037197930191603584, -0.006570147358096067, 0.004885922093348846, -0.015825252689156022, -0.05020778882374664, 0.07024289508297765, -0.05139615117402744, 0.055811025792229046, -0.02532069569336317, 0.06170640760408211, 0.04679519003206665, 0.019484504257199355, 0.0030637998920898823, -0.02144678968111557, 0.029626044860380098, -0.003137169753393308, 0.02074602450350242, 0.10682874419056873, 0.030530501504234885, 0.008137125762200274, 0.07690283325172487, -0.024358036214890535, -0.11202378174107953, -0.05161057225179347, -0.12849583072809295, -0.025255389916729976, -0.07659332962288574, -0.010038884573789241, -0.013219819871577481, -0.04481615591763032, 0.0005414832470710697, -0.016150648489982423, -0.03240626160803257, -0.04894002298417397, -0.07596014647923166, 0.07281107118094314, 0.06693119496004803, 0.13688577860409568, 0.11386583183956207, 0.08930667567383378, 0.08208760904757788, -0.0037052622994641223, -0.003504877629710383, -0.004627329502026246, 0.012472627507701181, 0.055063752910457654, 0.07491410617179725, 0.034590785617039856, -0.011656499739266616, -0.04681695382822138, -0.002874295587288687, -0.06427915789861471, 0.046998360182116186, -0.03315023930928157, -0.04440082728826143, -0.014320658437670088, 0.010011376932394967, 0.10431247451726555, -0.06436350932055641, -0.060882655783558635, 0.020195739631866303, -0.006383570863673253, 0.08753987417106054, 0.032899270030981226, 0.16056004283273287, 0.018575891062126967, 0.17035523315006243, 0.06452200220054044, 0.084179021878088, 0.011767874729669173, 0.013191210524617266, -0.01201368479617258, -0.01679163653400013, -0.015846147550512713, -0.012040819519399061, 0.013640187467174499, 0.06021169738780327, -0.004311098791238369, -0.00047757440279239864, -0.0024015867947619366, -0.173369072162095, 0.05952368128935916, 0.003773945055103942, 0.08745985526851181, 0.04731776233649808, 0.07294765094885512, -0.06056594074358389, -0.06590414165618055, 0.04407778863156677, 0.062291316323632204, -0.004734504062262433, -0.0062806123018557805, 0.043682188965157166, 0.16387605814184356, 0.10565113453632327, 0.1370060783985097, 0.10501588435102162, 0.056060711967015356, 0.003103234120334924, 0.0034813601365957015, 0.08258550977548283, -0.10538841927002279, 0.07662169820849282, 0.09962496405829901, -0.03589182217804111, -0.06508584726744884, -0.03958670692296658, 0.017420122751536867, 0.06066969537424745, 0.10197920605717067, 0.06192530118786025, 0.00849027622428429, 0.11620275789265622, -0.006212428135068674, 0.08472026438394387, -0.08787729535526904, 0.007426531134336298, 0.030025277050343985, 0.039680457518217, 0.03404479442059303, 0.07418646700806224, 0.06496996537373977, 0.12062777996779031, -0.03417267575777084, 0.13090596914497432, 0.12121949615761504, -0.018704360834588592, -0.04078247270878562, 0.032715801390769676, 0.004790689908371845, -0.025295984883134618, -0.0632709525817209, -0.014402048299525336, 0.057749504051695426, -0.09489277749668755, 0.023614700879407723, -0.032122946705047166, -6.355873133389526e-05, -0.01927802259654767, 0.0009946653231213997, -0.0034876874326792767, 0.017213633879101704, -0.012845074296316992, -0.016517393976626472, -0.029317180294126173, -0.04966802206056177, -0.05841983150363969, -0.05822901429727496, 0.021368597071556757, -0.004050438413290723, -0.043464500297594404, -0.05895186525847783, 0.07684604695241092, -0.015233800406192485, 0.018538154966084516, 0.055843268566586564, -0.051558978321503954, -0.020082331815588942, 0.05444574097130396, 0.006075300250837832, -0.0023233215735553583, -0.04210276355496138, 0.010793496391934491, 0.0006938162719954892, 0.026074250288990172, 0.022816079963004627, 0.02593918403262063, -0.0037080265934368822, -0.020806204316936097, -0.020843863498058002, -0.05383334090690526, -0.031362830324609375, -0.03542928074675807, -0.02381537031003478, -0.05727901443187793, -0.019380727249434928, -0.08176743576605054, -0.13588094225129319, -0.11981751981817595, -0.021375065965773005, 0.01970198871060316, -0.12791195338338335, 0.03800242860889802, -0.01756884833127653, -0.0800212158731422, -0.035744625503390755, 0.0005430115962248168, 0.08432017001501388, 0.002415860469763532, -0.12423388684144912, -0.05524451477850697, 0.007646894512573466, -0.06080306424656426, -0.06860401019122835, 0.012347549386238289, -0.0032953468722188724, -0.02010218034464019, 0.05050613367832171, -0.010854622318078981, 0.052216620008091304, 0.031115800772953076, 0.03293696160403926, 0.029188847943027528, -0.0724507141063277, -0.06691171776684182, -0.04036610238789729, 0.01923860383543761, -0.013016028141069004, -0.05415101833673735, -0.04259800403437389, -0.01113370565751595, -0.035895700710385954, -0.08927250936582151, -0.057110051113311876, 0.06616502760155127, -0.07820829521604811, 0.010758192116770232, 0.017051161480686132, 0.09673358729799764, 0.06179297400212289, -0.024572056316196092, -0.025619025970347115, -0.024121201289573374, -0.0060500068013721285, 0.0370857586850362, 0.0740174981555805, 0.060879413011560086, -0.05997805238857828, -0.047282758449506475, -0.04482785939282717, -0.058895990208873136, 0.054578276362930195, 0.0192540322802423, 0.013247257136996511, -0.09229505386557564, 0.04890553748737934, 0.01748217481336713, -0.015325792545580896, -0.04241088961055147, -0.010550909198104029, -0.06633357883106279, 0.003708096609759708, 0.010945171547480093, -0.00477720382800558, -0.03275866688163895, 0.0019378058781072559, 0.051317874231445584, -0.02832596064776749, 0.060854416412689134, 0.019171959958605118], [0.09113634527046957, -0.0346060958841016, -0.011770448940257321, 0.029952985451812325, -0.02813470273463115, -0.03297214055752865, 0.022491151139632175, -0.035545997994263535, -0.035387675340241356, -0.05067582948268198, -0.055309866631794616, 0.05187477465578177, -0.02757870475712373, 0.054702180640818755, 0.06377827147686775, 0.08463596982805463, 0.049888331814227665, -0.03247642728570597, 0.008057653207350192, -0.026936652496101297, -0.04191104445280108, -0.028657867938089145, -0.006353521373616098, -0.025465858491457397, 0.004036907815679583, -0.042798829378544595, 0.05029773756656547, 0.02669141362744772, -0.08426524003162221, 0.07812115051760368, 0.08624810140311126, 0.03776813162249943, -0.005424758022633421, 0.048759317661192514, 0.021347632708332467, -0.019816749439522788, -0.0058952026386356274, 0.010275138515528578, -0.020358674426910833, -0.009028657283332384, -0.05313249008049929, -0.16274173164831574, -0.015257019578292437, 0.029381576707482975, -0.008692089365999835, -0.10055394254559015, 0.010636585295367049, 0.015760576463150378, -0.008108758279650475, -0.04365050805330881, 0.017277286189375917, 0.015577164840560943, 0.03143215312378647, -0.047347121953010496, 0.15664303771366603, 0.024358294328442547, 0.06364567338491911, -0.023186044344453885, 0.013806508460353395, 0.006073940907850201, -0.08055581159807207, -0.04223498951888333, -0.05959981484944785, -0.08076593187078682, -0.015806039516153288, 0.1092854331433964, -0.01576391779241429, -0.04322155736324257, -0.030481648007491674, -0.012944865715413601, -0.0394485593342299, -0.06896032245829681, 0.03815100963812487, 0.08635970695129688, 0.009025633471953284, -0.1011840214389759, 0.004053126142830303, 0.03768587355913479, 0.0328737728444116, 0.009990870235068965, 0.0007368022481099779, -0.08025531930089513, -0.05488993307993783, 0.03171548953230962, -0.01471971086263471, 0.0879932840947203, -0.031751279314328, -0.00867669818850386, 0.07420803370867037, -0.01800597523780577, 0.03122156125883897, -0.013404793869230743, -0.016701791968749675, -0.06404175905082873, 0.03103912249632114, -0.07590799107301159, -0.043669055884953484, -0.14028106684218514, -0.01789780071522827, -0.13900348362374598, -0.09455896845469217, -0.05256956070380803, -0.11377807760612582, -0.04724773412932234, -0.028538230224104302, -0.007706235028822533, -0.04171695428915142, 0.002524241672410296, 0.007876369416171371, 0.02084667274735584, 0.0031941525562354045, -0.004692128647445527, 0.043206206406250204, -0.010791171493517257, 0.048304347121966414, -0.040624542951937695, 0.012944584998886682, -0.03357757217596594, -0.05318963593594813, 0.03564398866042282, -0.038530099759417735, -0.07472565281722479, -0.007941661156920469, -0.03217740241155008, -0.0976120583122334, -0.03580004976567027, 0.013792401550011357, -0.03363992915442743, -0.012529848394190548, -0.060436263763232675, 0.05396335062555536, -0.08543194158402959, 0.07259588051590887, 0.06843079344778051, -0.01676061588331295, 0.09002417489711577, 0.00916598807877196, -0.03972427427004801, -0.03837186082744013, -0.0395775825476774, 0.00886817472175948, 0.013533956153794926, 0.1035709378435043, -0.005992993684919788, 0.03368390458468395, -0.012927075569911593, 0.014214896063773035, 0.017927222129795604, -0.08627513247572066, 0.0006843193827935545, -0.11084586788430162, 0.018252494057662234, 0.02149280728114475, -0.016849481764062074, -0.052147979971349886, 0.12997486144389553, 0.03165094424697897, 0.015951829967230463, -0.025435027854216495, -0.021508044095845107, -0.1464705327510898, -0.0020190010297047012, 0.034421633346065794, -0.029978869911108385, -0.0493478273675798, -0.02189369590507962, -0.02477040563421725, 0.031027247543287475, -0.07226236994175506, -0.035070344965549755, 0.02313591697192648, -0.026632939749568926, -0.009946251100485836, 0.002221807585579458, 0.0374245692963723, 0.029059243139501645, -0.04167873285280708, -0.09196627541033559, 0.025333829435953713, 0.043250229654618395, 0.031663454028258306, 0.065549580592785, 0.013007931831519633, -0.018708067767989667, -0.024991592415957935, -0.12365992878289575, -0.09596992752423451, -0.11905298413254353, 0.034903003059072686, -0.045105358422145185, 0.04525810551581794, 0.025219262093410175, 0.0430205845083432, 0.02595280277765823, 0.02271612415571049, -0.03357853422505003, -0.02758551057339102, 0.05237709344661091, 0.07484431414078002, -0.0857228571633014, -0.0145515318719507, 0.02878104587092512, 0.0919749629090147, -0.013738841544463065, -0.030269485221918867, -0.0208185221200926, -0.0973622814351758, 0.04003806169481571, 0.025690335219269226, 0.058356458950712925, 0.0001921500823535011, -0.1066729831621838, -0.08128783476404285, -0.12232026148489036, -0.1286908730929463, -0.04036516001359527, 0.003979555752504959, -0.010382284773378075, -0.011830831872662012, 0.05967603596557372, 0.04721462380594581, 0.052443860584767556, 0.04288553330903292, 0.003922788962007434, -0.07590295968030962, 0.028864766057143804, -0.010831027735728048, 0.026844917413075625, 0.032933229169066665, 0.005031591448859789, 0.006969647121671667, -0.033669204752890924, -0.07737302263301778, -0.0033237767936891236, -0.019003644488457545, -0.007757718839176554, 0.049053198798117724, 0.006459393085812218, -0.10264639105606213, -0.012767631300350716, -0.04913675109264978, -0.025749531966053996, -0.027025724843385397, -0.0024511792378178656, 0.0027930651572351615, 0.10216021967082689, -0.03510542822525958, 0.0938806943019878, 0.09292590020700942, -0.0735020214923977, 0.09400515246483873, 0.025253656550914418, -0.06534403464081372, 0.016798098542812938, 0.05454336081591312, 0.022001078617807188, -0.06500463505029463, -0.062149318613861124, -0.06772707822525868, -0.08918839963192979, 0.027940841994090103, -0.017249913798853583, -0.08239226682082569, 0.013589689606108492, -0.024918533636165703, -0.00411064595220973, -0.0770419864111584, -0.0016727736880308931, -0.030217428970198846, 0.03808645244110485, 0.023259036442774016, 0.05043596496132106, -0.005755831208245165, 0.07084364104902946, 0.1097745580509217, 0.1394255218401515, 0.08489000989391414, 0.03668363999026852, -0.058581254504619575, 0.004007168065113691, 0.05081075805216306, 0.0572558413578101, 0.06179892261159398, -0.08070325079464553, 0.05266107703618628, 0.04809824778439311, 0.017701654463948703, -0.08995098973681463, -0.0775437311541234, 0.035599083753135904, -0.05292493903442995, -0.04287854850539427, 0.028149268248485453, 0.02431102134272883, 0.05762763912591516, -0.014145010786189856, -0.045280074540138, 0.050566122311526546, 0.01105283701963402, 0.11344706533680315, 0.12893137441989058, -0.0008653013021547527, 0.06273871094170531, 0.13996487387222703, 0.08375344809960557, 0.18596440783350102, 0.06583964234614144, -0.03427052812777738, -0.02926685112453818, -0.1268202074513499, 0.005668842545925906, 0.05267224617808704, -0.00587683634730399, 0.0022972106804533647, 0.021510020004226676, -0.00856184864310981, -0.0726557208450148, 0.062357446170427995, -0.10900342540507055, -0.0057583124265394615, -0.0006062357383149143, -0.051906390836880395, 0.07011600884018455, 0.0112746183518934, 0.0252050066508895, -0.04286326976964939, -0.02301115117393994, 0.020503189492437852, 0.02279396858803327, 0.06384191131907284, 0.007439861697848195, 0.019515643512569892, 0.15911098655667918, -0.005981033075183686, -0.03550127926201541, -0.020005024392008963, -0.01074464276478987, -0.015132600430686255, 0.018579146012786707, 0.03378729730273685, -0.050462968081927885, -0.04178409866950396, -0.0007933735372522712, 0.07817740551615036, 0.04651070075401086, -0.0626630233430797, -0.10920594916995288, -0.010289517552941824, 0.12120607079509628, -0.01960430798365499, -0.011001445275653372, -0.09879247805984308, -0.10534327287007998, -0.033506018374724666, -0.018983264957257294, 0.03320815240908592, 0.04950902560921594, 0.03549192053916578, 0.016504606168375645, -0.05397598563135634, -0.0816576065019958, -0.03783692267017663, -0.11614123144691145, 0.0022203612918493786, 0.006341526181958991, -0.08705717221003693, 0.03933215490537069, 0.09608031437849941, -0.026581646472332535, -0.006061018612061008, 0.02699037420811075, 0.06654392175117269, 0.1210356036241842, 0.03972193694829381, 0.045072933898098175, 0.05099072992473053, 0.08738031511920556, 0.1324931772939644, 0.05158424686435782, -0.009197175502758765, -0.04785444293309076, -0.06588347087866382, -0.0010478934701500342, -0.0031777816527768506, 0.02030838204301555, 0.14087748880590226, -0.15478999753648168, 0.08525889103334869, -0.06949294064222171, 0.022382450966624577, 0.009845788495688802, -0.039742704494001996, -0.0008540771141722578, -0.009528142379965496, 0.05436319489923802, -0.040692619688496114, 0.032253578233351184, -0.0350992031738491, -0.04354858444693138, -0.008110070230544083, -0.07455619153225501, 0.05425685688812827, 0.07357453735018753, 0.07486640965088452, 0.1373520302644703, 0.10677475894407808, 0.03429779704245874, 0.0516019851765415, 0.04792472293620198, 0.009153280652094021, -0.03754130447593701, -0.05059639171819582, -0.016537929786585664, 0.01791492853994347, 0.0012562258874497382, -0.07872780161813131, -0.004966802463911609, -0.02003246866893808, -0.03897843325984371, 0.03479483741836535, -0.07293827402906525, 0.02768611159519327, -0.01315979665749018, 0.0814772502835974, 0.01662369344094349, 0.0028629538269549803, 0.03490137942235599, 0.02604752804499089, -0.00326250897762889, 0.04310963072341675, -0.021484242680543972, 0.08500615272536992, 0.028780518607537622, 0.17704168586477256, 0.09364183487377754, 0.07950116846322362, 0.033107648918439404, -0.06068469247637711, 0.07773870197500449, -0.1075698365500442, -0.03409007830851455, -0.089812964149509, 0.0911917330877298, -0.12336202393692568, -0.04334609229506569, 0.014811882514233352, 0.06625301499571942, 0.05914291094800124, -0.0038606850202543017, -0.09280216153220096, -0.03603952272677953, 0.023349699172886044, -0.05837285794028683, 0.022301081559280567, -0.030049235414074397, -0.01934595089524932, -0.0013249627262008014, -0.02471440732881228, 0.06120792478907732, 0.021763168137047033, 0.04973180294894364, 0.0788955787483904, 0.11027112733146867, -0.003341518648127419, -0.011203814633702574, -0.024107476071491118, -0.035536296698401394, -0.030618056135009054, -0.11943781250511347, -0.11852417728426601, -0.07012424203523956, 0.04221010586888254, -0.04905378915165224, -0.012041094650653018, -0.034035404944901766, 0.01249287564200544, -0.014078680435867531, -0.01383273525490597, -0.04501400006843658, -0.0032114736027482353, -0.04728356690657333, -0.057677700953141224, -0.07512507090237593, -0.09394004960441532, -0.04136906703434732, -0.036113007771705244, -0.04209805479476241, -0.1308562317373514, -0.01099335778319912, 0.1548033736248225, 0.1468866484151489, 0.08044606786290853, 0.05095035655412937, 0.04168388477076797, -0.19166653874714973, -0.10692297349771511, -0.10758863276863247, 0.009341003037101654, 0.010778523493517479, 0.054588485320886226, 0.03291882009308576, -0.003687194394270622, -0.008521308795752396, 0.05456450239863261, 0.00246624204925851, -0.010712115556078811, -0.08223075651000938, 0.03187211928450087, 0.022673379041579806, -0.07690125131268681, -0.004421538461169162, -0.06496097468583881, -0.022668337134014505, -0.07378368730429839, -0.0547500868966932, 0.0693248536086091, -0.01177545288699952, 0.03389422104318887, 0.06704305695126424, 0.04947018640153217, 0.032888110040849586, -0.026747835826835313, 0.020637074329900716, -0.061578140612382835, -0.0626881576090868, -0.09690088875616593, -0.018321656639075888, -0.10614602839033195, 0.002714722554618653, 0.033765754404823635, 0.03813037822032451, -0.02663292050903974, -0.05666564152928665, 0.038816766204462366, 0.057571483310001614, 0.027356493434397677, 0.007210584962066789, -0.015084411395768554, 0.02514852012165157, -0.04143467898090128, 0.012575967315062579, -0.028640447986622446, 0.011960294703534198, -0.015325131212781453, -0.14408850574600854, -0.08760184197776821, -0.03903081703816586, -0.020422283203992808, 0.002638880617341475, -0.013929829249987404, -0.04810517217012318, 0.07393561828414152, -0.017105529449942737, -0.02654946302202779, -0.03336782882488586, 0.04974017242258602, -0.05301942810832171, 0.009839295464968142, 0.009879519002772728, 0.0037892358422662647, 0.06113170563020603, 0.09335777210853113, 0.01801718686903627, 0.07014981919796598, 0.022278058369349787, -0.06745104720256384, 0.005763435367877171, 0.04055712642345938, -0.14767695300255762, 0.010694829147558904, -0.07217827636266261, 0.010875323355140817, -0.01775317265289593, -0.07435712585181217, 0.08207373595500081, -0.01583973483795989, -0.056158058051353994, 0.002967646824347445, 0.05081522192715106, -0.11623608950967067, -0.012855452505751591, 0.006300169866030777, -0.038559391584217576, -0.08977240958527055, -0.01870892065235972, 0.042944002550553126, -0.04230027686509351, -0.020480811272588897, 0.0025585309510571565, -0.0299897372777183, -0.12566317756927234, -0.012808046203741005, -0.04062125403389801, -0.11174129580316682, 0.0020019939376687557, 0.016918677744300024, -0.013100106305822461, -0.027935028906140105, -0.04222797256630067, -0.0721700331259377, -0.10737746554974456, 0.0369682235448616, 0.010890216260230713, -0.005586243291571196, -0.10509565724896858, 0.028346931085770053, 0.006790277861138024, 0.07285987161184412, -0.06644696901809152, -0.03964023083456388, -0.02760766002011315, -0.05155739628353238, 0.049618487972980845, 0.05129783173516399, -0.03761503600103844, -0.04231418027760672, -0.08193806717991196, 0.060002924639136965, -0.06453004159001352, -0.01839764357173238, -0.04734325739515037, 0.0017257994043038958, 0.0112207493475612, 0.16451443247454148, 0.04754039165447456, -0.028065384608919167, 0.017079917284215426, 0.1070624113463138, -0.048446464395895554, -0.04624682833291118, -0.02772894260955817, 0.07140598887659012, -0.09950355096374945, -0.04251970139035307, -0.010561055545632402, 0.048831293251187825, -0.01536233308590904, 0.02776062378351211, -0.10190864110440305, -0.004535313268935495, -0.004452245853985104, -0.07439115761484622, -0.035583914230017694, -0.028283172614866254, 0.002255331771871767, 0.021536244070413626, 0.060533684107297404, -0.007475205017884449, 0.03329030633194029, -0.0025935420514910353, -0.041024125507660714, 0.0071764740336816, 0.10166652505604182, 0.00040576102658453176, 0.020621183892058, 0.039051915917253, 0.10680219490667432, 0.0038529607268285083, 0.033495007167689585, -0.0038014206085410967, 0.07461283894053229, -0.07559181330984054, -0.08229365803540212, 0.05345066169668242, -0.04207415232258508, -0.07418646130265713, -0.0027887808723548067, 0.0337102790165687, -0.048753583361621916, 0.04150366272852705, 0.020616936791682777, -0.042079492923665945, -0.0803103490059964, -0.014547406425652464, 0.01998552602559244, -0.047398679436672926, 0.04181515378383237, 0.012014779473904122, -0.03731967831521804, -0.04031817627429072, 0.01827828974372179, 0.0015624487873672033, 0.013819344819378385, 0.04852881078758574, -0.023444110708595544, 0.011220264099425916, 0.06501592695140639, -0.04229568528339829, 0.09977893895722965, -0.047268398558339565, -0.03600254494122954, -7.30869986145252e-05, -0.06507950627310914, 0.034220505171542855, -0.018282335298456145, 0.0055864002841570105, -0.012880813411945084, -0.037941195588897664, 0.05787952229154695, 0.057566314190138974, 0.17573299787320878, -0.04387450967758978, -0.03876548197177461, -0.08782572862844339, 0.01611065699222528, -0.018099173954899808, -0.03172754277946685, 0.0046225929805219605, 0.015211005457087303, 0.009457304214529417, -0.05598989987175026, -0.04830814653652317, -0.12141740256328239, 0.007529684011762356, -0.06161863090453482, -0.04082473020588006, -0.021070580117075858, -0.07882681934135408, 0.05790869326263793, -0.019152060451821155, 0.07490363355676655, 0.011710368363684377, -0.0027611941040934693, -0.059960921109023194, -0.010339470883681772, 0.006146127546810534, 0.03620939249973486, 0.017549968232813334, 0.07670206777370492, -0.0004620656314098291, 0.01854397748472346, -0.021222511254167516, 0.0046197805628833, -0.0268200102645269, 0.005153070941171205, -0.0038110239956951697, -0.06885542750841718, -0.06993369462131283, -0.055122921748469896, -0.10760428434338012, -0.01788853277132328, 0.08072813494759846, -0.1020432562284418, -0.10146370821363265, 0.01072341313225202, 0.02984798321227303, -0.09054122628516553, 0.0187354005074834, 0.0050030147280660095, -0.12222245196070645, -0.04294237629126081, -0.00945521459789434, -0.031128907621247565, 0.011643758940547911, -0.04597381003801608, 0.06642910794853264, -0.03517416281498851, -0.0021034946433326784, 0.025380508577937035, 0.048910428968168246, -0.032500549066756784, -0.04792996440020265, -0.022153962801198798, 0.03458685243948412, -0.042402833935256685, -0.04517308335076261, -0.0025204018380416996, 0.11355262209290734, -0.003630187503499764, 0.0767646450287453, -0.055892488261337074, -0.0341843141784545, -0.008276490816772243, -0.12763418936004625, 0.013389714494709172, 0.020532675104669534, -0.00018742821651526251, -0.05359021613126943, -0.030219935619098307, 0.05445812270927196, -0.026465717643736012, 0.08582320907408542, -0.01977903444405316, -0.05148308007487588], [0.026777097099876003, -0.055694004426115544, -0.028926580622582004, -0.05578269981537149, 0.03175847112626022, -0.01906814010953254, 0.006430986590347276, 0.03851317242317262, 0.032457582764533165, 0.046608233701905956, -0.12138584660382513, -0.00801358996999534, 0.043315140375872065, 0.045097945545692186, -0.06379915183430801, 0.01604972280156162, -0.011828829439594101, -0.034237640554232056, 0.02635661137533322, -0.011376591533342051, 0.048518796019878484, 0.018727031440997518, -0.0055744678191423525, -0.06902511585015646, -0.03514398484405147, -0.01442790210773894, -0.08144313434164055, 0.04680274241582422, -0.02914598387560573, -0.03333962430471114, 0.08961927981341244, -0.006817534962915049, 0.015011809004793207, -0.008494713298238732, 0.031204015676121286, -0.08380532286835407, 0.028083494630784755, 0.005898457377650782, 0.06545988281614523, 0.012385546928893917, -0.1261106927353596, 0.026415373099294426, -0.00787218896423372, -0.08976201317801731, -0.05444184245119853, -0.001071561643549879, 0.03564992468537317, -0.04336488547521943, -0.01593955439746551, -0.02032366024745157, -0.0947814403468495, -0.0057921880401196, -0.046453962986715794, 0.014164807306475286, -0.013794923315756292, -0.0069715580892256, 0.010166915267487435, -0.04289240466872016, -0.029486911327296122, -0.07754367017047019, 0.01161635275894852, -0.027688336266268973, -0.09152116823077223, 0.0770572004642069, -0.004999482267278339, -0.0031144176578677043, -0.0069756605844469655, 0.07159365739650869, -0.02464119066068415, 0.03896400472404207, 0.029875074383406332, 0.027870199956979362, -0.08565492999437818, 0.029950571444354965, 0.03493643432691029, -0.011946221472631672, -0.04346729711529976, -0.007892511562243847, -0.03527867398874762, -0.05116569768480225, 0.001221365355693098, -0.07161669639210175, 0.01060209486374108, 0.015910732352081833, 0.034622272491177074, -0.0757175984595841, -0.04266242788746644, 0.02297600409867353, -0.07858611760470738, 0.06915210618366899, -0.10156636898431082, -0.021288300163257213, 0.07425106032546248, 0.0010090569674898995, -0.01583390846727368, -0.018665161298118845, 0.05514479223464473, 0.028170252617620767, -0.03772544101644657, 0.008091560349069563, -0.022221714093005607, -0.036600603679705475, -0.045215683613774156, -0.04689309745083749, -0.013862635618207568, -0.012035207903131118, -0.003894337059500487, -0.0641222965783079, -0.04872245428312832, -0.03104179895193353, 0.023987291537325206, 0.02008446044861854, -0.05583716567461921, -0.04852054777368707, 0.008556963115373155, -0.0291803434613659, 0.04931658949849087, 0.13035102866647857, 0.08812227426827314, 0.020414806286988045, 0.007625748394661353, 0.017879852779124343, 0.08576149147797177, 0.00827525731596933, -0.008207248680196488, 0.009037173956178812, -0.08535488471514328, -0.031340941047486415, -0.08249038884182011, -0.005258349828937982, -0.006773589355571158, 0.03380517147822239, -0.045932099796067404, -0.053007007471118965, -0.052531643528510724, 0.028717911895693216, -0.04023031623759637, -0.08516469988312175, -0.045313037618442624, 0.06993117104763846, 0.10372780736169217, -0.013301648892403452, -0.012154830111148235, -0.007039060596442797, 0.05029646435096142, 0.004778776023096293, -0.08654329450715433, 0.05418776420952139, -0.043762333338007595, -0.025694140800079056, 0.010200636350572723, -0.101046950342928, -0.10177461103326087, -0.10663316704648025, 0.016711112882333245, -0.058831898076373734, -0.10093873468679927, -0.024005954315009723, -0.09918022741770344, -0.07305829907276253, -0.0626169974489683, -0.0415911259600271, 0.0861752316882838, -0.055130594833641404, 0.004261747262111827, -0.1279604088962688, -0.06573405884284006, 0.007618729464481695, -0.015305498103428915, -0.024455222300860554, -0.056635467376086754, 0.04433069515857731, -0.06566999079952991, -0.11390845353654985, -0.03532507238311885, -0.004366044134859996, -0.12842317307301393, -0.12561001562440582, -0.01867202380513199, -0.12764118035196195, -0.06381265755269072, -0.13895455417896668, 0.002247986562058268, 0.009259853196842523, -0.061727067547672966, -0.11292097853187255, 0.04675478028228338, -0.10742958092791237, -0.08721544863954785, -0.06433550323288899, -0.0572844898385818, -0.0038640896929896785, -0.06338421687611917, 0.000263776112393905, 0.02339950606329955, -0.03887471855820281, 0.09197790834857654, -0.07399540444052138, 0.04085410524969193, 0.026554488698433347, 0.02627605538060423, 0.012431451623081517, -0.01161516485590476, -0.07728149631981591, -0.08389577473093017, -0.02556874594879941, -0.08890355197046883, -0.05399608468052144, -0.03106277653017859, -0.024457509332937104, -0.11099912030948386, 0.014206768017793718, -0.07976614473198786, -0.03624813015552972, -0.055268981992877, 0.046751417630184575, 0.04136714495068808, -0.045518635463134796, -0.06608301603882966, -0.15301998702814854, 0.020902060576794855, -0.0089305735875326, 0.03119173191171962, -0.011031804797914966, -0.05362332219419779, 0.04966192938749342, 0.00785275182210802, -0.016996751902031135, -0.06457066280725987, -0.048342612889858, -0.06543335487619291, -0.07872879490816834, -0.08486436608283984, -0.09088871704808091, -0.037164363996111796, -0.00174653102321928, -0.07428218036956913, -0.011998727828053581, -0.04705598716425592, 0.028930968967339786, 0.044870193667531526, 0.03520457864796376, -0.04368670922869193, -0.09126885551902279, 0.027746052490302164, -0.023541630201204363, 0.0749501556085015, -0.1059779700283245, -0.007657993023666362, 0.05278678580190136, -0.019274085326789796, 0.11051820584205314, -0.08717132846375172, 0.058950717870238416, 0.008402152592748364, 0.002556490542474059, -0.0019802127558402895, 0.023563619263829556, -0.011090267196418717, 0.02177449710159863, -0.0016859319072110726, 0.010920040904932793, 0.00463744953261633, -0.022815431260239133, -0.027601373022271437, -0.015467973990609443, 0.11292246543584773, 0.020952206878579998, -0.04976749834117501, 0.08233513262578827, 0.008168682081402296, 0.0014799797507649222, 0.04640797475144761, -0.015380803467088006, -0.013877244605260903, -0.024808474640276523, 0.02608155594490656, 0.034217354166140586, -0.0080029255457115, -0.05894299677191695, 0.008586730057056633, -0.05533849386957143, -0.05613932886621337, 0.01323267209604268, 0.027866243329542358, 0.021078389204421885, 0.03661163107907288, 0.03856071536315867, 0.11985340301667018, 0.04414849089368156, -0.06499653897837611, 0.004957970066866492, 0.06690161781954905, 0.04880626281154474, 0.08226559425640868, -0.020886993318294366, 0.0446911555108023, 0.05121388025096336, -0.038949853731306834, 0.01765981210294136, -0.02761768890421463, 0.01742108834961724, -0.007229141267369033, -0.05883789067871833, 0.015730542246174786, 0.035037667135009894, -0.06106268781542393, 0.06356924021025528, 0.042025314044243756, -0.029677513865011152, 0.0012563489424979376, 0.0253255605498236, 0.04197799477809571, -0.08338649924380716, 0.032604824645403825, 0.004481128837085788, 0.01754362924218723, 0.04523729804324742, 0.014721767686967278, -0.05910387810770468, 0.018434274002456178, 0.0919219670751013, 0.05408225116490114, 0.07938690392134481, 0.08677508955196515, -0.04074751273751598, -0.09350706082000208, 0.07230600970017226, -0.03599771084375891, 0.005233043080699572, -0.03676226986924956, -0.07475289536187914, 0.07546875558728608, 0.02238075136093725, 0.09902949346360408, -0.03427427601685366, -0.0852484486404783, -0.002581798031170371, 0.03189931878689112, 0.012106353465091257, 0.013501437465121351, 0.080808204211129, -0.023850515494711684, 0.09132014269466812, 0.04561483876365045, -0.11082123810190615, -0.017565455848434115, 0.12150343510644122, 0.09324473042003091, 0.1548705711975357, 0.11740253865170402, 0.006637409281073123, -0.05351580642764307, -0.10071945744208177, 0.020964158688189558, -0.011514467766181594, -0.045238989773811585, -0.05022333118900515, -0.08724875260473634, 0.04954213332043335, 0.024594840770528984, -0.03286107984194572, 0.07509429982959001, 0.008062313674149309, 0.02857495540636973, 0.033996367959617725, 0.027950512262248057, 0.020254357208373645, 0.004434936185997418, -0.046609763679116616, 0.000274030017978174, 0.003890847686936987, 0.03289451637340044, -0.04010844305040034, 0.018838494885521292, 0.07117496639557173, 0.058474321853155584, 0.14281778013061916, 0.0986784709691058, 0.008049482399895815, 0.09193517131365515, -0.009791736045807665, 0.09952478522334891, 0.012749692773815656, -0.041704442565591124, -0.12719246082172583, -0.04127886627558812, -0.02792180501581637, 0.007534770538557699, 0.11499210971012788, -0.01426423762767631, 0.09546809298280491, -0.0862158667724967, -0.09657975919395116, -0.12100616455102961, -0.059726525323057555, 0.06583776713265838, -0.07390444332843933, -0.00791092766210292, 0.011133129735755342, -0.006946777377748849, 0.15876370718314128, 0.008561979003205824, 0.08011686436847386, 0.07851717996512796, 0.05725991807708198, 0.047324667274302464, 0.13552583597203807, 0.08020185145302028, -0.0018333556136599627, 0.022719527916421227, -0.09520915812370874, 0.029248257172287448, 0.01631941454342257, -0.012437483385203594, -0.023369961674339013, 0.045008875223488905, 0.15446125040913053, -0.04732666387137125, -0.0037876122345337957, -0.008980029137049855, 0.028627771638369957, 0.05818105098308553, 0.0353845244832568, -0.008354272517682212, 0.06841495671365036, 0.016683721202156946, 0.01864461611083436, 0.030387617576500145, 0.02772236024130179, -0.019521452274910145, 0.11155904714253315, 0.0891396726662997, 0.0538489685322259, -0.03595461717560129, -0.009276419878155286, 0.07080099355928723, 0.0924256292457621, 0.03390199760372414, 0.02721025967822308, -0.08681580109493288, -0.006196357188127136, 0.01665767834157975, 0.0186752238569417, 0.04953512341442974, 0.09489433683528829, -0.09437336803554675, 0.03585313702246286, 0.07038704047427481, 0.06721987597742976, -0.08386915596212632, 0.01168191715791232, 0.053738975983373315, 0.09342191479823934, 0.019464911093699782, -0.08064857257997672, 0.03898909715433686, -0.02727658938558091, -0.03256770408424114, 0.07196897948564022, 0.032583618776573675, -0.028049854482265275, 0.03900039589003508, 0.1199723990336908, 0.09409028046252133, 0.019837069524814382, 0.007522419899823951, -0.03605562343588531, -0.009466009849410878, 0.02979499029916704, 0.0657067682062044, 0.08356595534579231, -0.022694888462077116, 0.11059109629804938, 0.03707240655528581, -0.012481872152731334, 0.07279080289300638, -0.04655172072529038, -0.012124373758057154, 0.04838728156217698, 0.06474965344613504, 0.07485888456987515, 0.10193190059533604, 0.0013338333636087303, -0.02832707743830755, 0.017510062785821148, -0.024435565504734823, -0.07965717726126868, -0.035800009537735385, -0.04136575779583475, 0.05200198290571843, 0.14970504370505108, 0.08577551805299292, -0.0015391478947168766, 0.09104733767160637, 0.038263428887866775, 0.049897072131520705, 0.1008317438009067, 0.0993121067444257, 0.024544377485049614, 0.15656475652044163, 0.041358926600957364, -0.0003147026630425619, 0.06915138587563473, -0.052854129694584945, 0.014048773085738698, -0.08053308224463349, 0.09756923407958353, 0.025368813232236893, 0.025835497515549876, 0.1329119563980818, -0.0758557551016106, 0.051088538266798815, -0.02645641133561256, 0.1092352716209415, -0.04689517254118889, 0.05933274273873631, -0.04810175552887881, 0.08664993073726718, 0.008104620360829743, 0.015721862732570504, 0.010675638955073646, -0.0042449779382741915, 0.015567604277151589, 0.015717357409616342, -0.031510847736663336, 0.007105124504447115, 0.06644804881540152, 0.07112119192500407, 0.06492389379488675, -0.006454198321760108, 0.0075275345987762254, 0.0013488819056913224, 0.06669731362384422, -0.03998688058728154, 0.018524730392158437, -0.09030712592954918, -0.057248830072056826, -0.09126209054256766, 0.0015409222073206256, 0.03715944955710452, 0.10470178055993036, -0.016281215264086768, -0.07774912376674599, -0.011961309175090043, 0.02392889448725806, 0.018621460177834896, -0.009008504578825023, 0.015568838930560878, 0.02403445286541874, 0.04268003048824721, 0.005026882231478362, -0.017272250497532452, 0.0614566300535559, 0.03138156311484259, -0.014125285073229524, 0.10385043337539916, 0.020043286557174717, -0.025472608573535442, 0.016324396858285458, -0.05519928292541129, -0.010666829533592326, -0.09286499294420902, 0.06591921549186948, 0.037752134745982345, 0.027292034345113025, 0.0030119693012521775, -0.0025820510150317746, -0.07228889796095965, 0.009713815440176923, 0.04752889717429346, -0.03723943260598704, -0.08175513436518589, -0.04812661766748809, 0.06398984914589577, -0.12378511312865824, -0.05512772789413535, -0.07903401348617714, -0.019820155895785216, 0.026376676557533438, -0.054440721422301296, -0.08451569944045907, -0.024492924778753318, -0.0016469953177902777, 0.03488239194246989, 0.06298772733973702, 0.039082499452298206, -0.013744275005721176, -0.07517247591148302, -0.07880752416417139, -0.08800232199534265, 0.07418742424138111, 0.016807485598743222, 0.028960888075389775, -0.06150063038180213, -0.08509691960414918, -0.023111873533278218, -0.1600402732540745, -0.16243543451712486, -0.07624140953898227, -0.09091859467581796, -0.02951749109607849, -0.10346969223578287, -0.13772825365228714, -0.10085990309435723, -0.0561763582632453, -0.10561298230678944, -0.09587537840911399, -0.0060738986484016174, 0.027517855969579556, -0.027432024603629097, -0.028736754754990098, -0.12335484123508371, 0.059135548632948155, 0.0030520484224710476, -0.013142862189028456, 0.028064723278059884, 0.1003455331308621, 0.044195675976918015, 0.009886014646862843, -0.017086661901210054, 0.07133209170155476, 0.046880678511119836, -0.03593960091525989, 0.007030775205688239, -0.060740087636012234, -0.0012566382770445225, -0.12871959001204542, -0.09788820224501604, -0.038308303770150244, -0.12425842078274581, -0.09331809174218342, -0.03852787072892113, -0.10104211943224259, -0.13145562435811683, -0.17027967510718223, -0.04658178355644508, -0.07739285525128452, -0.0005123187773717668, -0.00426356015458935, 0.010902741654261283, 0.013119829413459266, 0.0011522750801406367, 0.022335575215352454, 0.018471161146183232, -0.11028031561706024, -0.05272040847679397, 0.010668588265595956, -0.07764115246989242, -0.0465829077639749, -0.040297816632633425, -0.07405621480240765, -0.050711922334350214, -0.12119770808051834, -0.09280448057459706, -0.0676093717857777, -0.04087872465979893, -0.07272831620528859, -0.10983512680566589, -0.11786377317104584, -0.10861421867792104, -0.1657928671678707, -0.02817796759124657, -0.06200138181623334, -0.15573003954124204, -0.02806516672505089, -0.029146168454455768, 0.00794465737490722, 0.07703647739949199, -0.03386202158525835, -0.015127751409472725, 0.043300234413757126, -0.09065619212619845, -0.09857563998804965, -0.010746105170405832, -0.01921174526837584, 0.02926028733697558, -0.011088538769644062, -0.06773507204464711, -0.0071886336432286525, -0.01597294193485682, -0.02231068966633344, 0.06136861475325307, -0.08240805917103039, -0.009866269125243255, -0.04458259789807995, -0.05794275642777709, 0.0005216032666690543, -0.12168145083365706, -0.036348611858279464, -0.08125058414734053, -0.0221912288935881, -0.03768973021097405, 0.015270907214126854, 0.022315655446964514, 0.05653293865800049, -0.019819933186526528, -0.043058154499005394, 0.03835346279144116, 0.0550310815161969, 0.0027494013436849605, -0.0008614197651014536, 0.10504709635201677, 0.043118197659773504, -0.015367593084357057, -0.019367679962851474, -0.08255134704013453, -0.043750320473540674, 0.008355018501647628, -0.05261015148554951, 0.013190333909725885, -0.052319323414898165, 0.04689337394670274, -0.03296979450276659, -0.054872110651808546, -0.039263716444507296, 0.10754848616852258, -0.07670803808365008, -0.05452323987410752, -0.034638538387357816, -0.03733831400631672, -0.060147773796058686, 0.05492733791641, 0.06141545429891803, -0.05109082490706327, 0.015687061005351503, -0.016138595015454907, 0.009977838469585904, -0.006535370592203445, -0.0601785359978409, -0.0171767451232123, -0.0716032996347357, -0.08823092659472725, -0.02491146204770096, 0.03219279278406886, 0.06380522630070894, 0.055926577556208515, 0.10088239087400692, -0.029242975797125485, -0.0075077563287903075, 0.06357526630040335, 0.008614901081334317, 0.04756650268132797, -0.0002977605052063974, 0.007471026778271444, 0.017627414187739433, -0.039501047710926794, -0.08727919290649554, -0.08298284984654848, -0.07491375329861165, -0.04398119249019871, -0.0565350124166632, -0.036497026666962716, -0.005701654346640087, -0.023220235899295793, -0.028302129840345316, -0.11152236491573501, -0.058525962014703434, -0.04400784216007575, -0.07277073709858564, -0.024554459425935864, -0.011216996075078924, -0.004225310783201227, -0.010905516342313916, -0.019473970311337057, -0.013360030640233807, 0.021785615782364168, 0.02395949674691217, 0.004271993139328805, -0.03317678397987006, 0.04953988006570476, 0.01796285348052895, 0.017850667351953335, -0.022358273656099596, -0.047735754752869154, 0.07983938177153911, 0.04037933963596052, -0.057756330652785834, -0.02738013580688829, 0.024916049785697236, -0.12484587806787414, 0.04068241097015581, -0.028694702680877385, -0.02460034404927236], [0.002316942614876236, -0.018651009413617407, 0.03358219518838558, 0.008226517710457343, -0.03771092838583003, 0.07354059594259374, -0.022627122029257502, -0.06338859357816191, -0.07608128762070246, 0.030408519148676854, 0.07587672171728531, 0.03909626844869467, 0.022094217396401078, 0.05673183856627097, 0.05128998799386735, 0.04399944870393904, 0.06800000466712083, 0.07801763838679282, 0.034670638236146266, -0.028016837348392186, 0.024557495777648975, 0.022390866877876028, -0.038467281309369175, -0.0059478736626029415, 0.03576181531005777, 0.023459840680109666, 0.13379278249926743, 0.018105972304184603, 0.005025811603899993, -0.06616460411368504, -0.05745097039711755, -0.019187471914405445, 0.07197477544098628, -0.05162770459928135, 0.025329771674596605, -0.006581580832941811, -0.01475703940745576, -0.0686618836706339, -0.10722058029378176, -0.026921899733525524, -0.060512680475090126, -0.04993147800447888, 0.03175387117979485, 0.09158284062881172, 0.008394803883010433, -0.0013333379985638399, -0.017391638995535412, 0.03901087745013584, 0.06064813395526765, 0.004403627314799109, 0.00015489078369769027, -0.0002459196095993594, 0.00796027406780316, -0.054661714344558285, 0.07295919604027802, 0.03870297535564782, 0.03195202649912157, 0.013508659441838213, 0.035596634373733206, 0.002654885400347272, -0.1026337901013327, 0.011250556631381506, 0.008699818566855538, 0.033910995861172084, 0.01047778300002867, -0.06824798765573373, 0.09011313690631718, 0.08385419851117368, 0.08704057701920692, -0.06312677234241326, -0.08552996690950707, -0.031815938312400316, -0.08520228764222293, -0.007960498422051716, 0.07975313725231185, 0.08970076908578523, -0.006607018846438021, 0.07597704952635582, 0.0012722230326552419, -0.09312365809067967, -0.03394945333074012, 0.0442423523696942, -0.002231458542103162, 0.04684937785681787, 0.028694701669651577, -0.04823059234544397, -0.03581380599975549, -0.009867935432788442, -0.004291176152918264, 0.07637105507128644, -0.08094699619854266, 0.01746218968739621, 0.02725007612943732, -0.10520666784549522, -0.05691633156733283, -0.005743122769457418, 0.036925434613926784, 0.054857858493595826, 0.09521949975319385, -0.013637708803536102, 0.05705193027289325, 0.062455335937708314, -0.10872892384606979, 0.06105363187450656, 0.053169841718606, 0.04081976999353546, 0.04219264403629435, 0.09243784795048124, 0.14628821495996958, 0.010803608374450045, 0.05863797234926339, -0.05982902817589898, -0.00016036807440460805, -0.06563743787567734, 0.06277073752163315, -0.04730564033622647, -0.07285136022401861, 0.0822903902131469, 0.029250876176816664, -0.03109276699107858, -0.06271158077360041, 0.0576989958971722, 0.04937302531331287, -0.00816433491959069, -0.06862797774355023, 0.08048317104860825, 0.024821219011283955, -0.025697351800847423, -0.011011152028029077, -0.06864025639552232, 0.033333318518436135, 0.04668709029498527, -0.13682445801190246, 0.054648065362261924, -0.019770082569162118, 0.06479329899197803, -0.023997033972863936, -0.019002268791147057, 0.07898738233456497, 0.013060023675763172, -0.014579666593630114, -0.040541297143185176, -0.018429216967921727, -0.0053486783015252205, -0.042250013461055745, -0.0005098167421492623, -0.12124523713009962, -0.0038027502137046552, 0.09615532691947735, 0.015661565522505753, 0.002682612197441097, -0.019601706150991507, 0.02656432037000254, 0.12126032068496066, -0.00791106790733203, -0.050596650610713466, -0.08493072843335332, -0.06383542222359193, 0.10950042895611642, -0.02184692351773463, -0.005115200170751785, 0.0702116253399728, 0.004423541726996665, 0.02830662429043608, -0.04336749669023137, 0.0262159589841887, 0.010455932201672727, -0.022345359271485912, -0.011596575663011829, -0.02761549120414906, 0.058425413263993926, 0.030133690444518173, 0.001851228998391363, -0.021048725589840982, 0.10241685907389342, -0.000990768976239369, -0.07831598402633065, 0.013303609595993762, 0.04773154830466697, 0.07560941813497914, -0.019356695577418058, 0.002168238182226128, 0.15913090820667805, 0.024476589298142577, -0.015441571558568333, -0.013387584389988733, 0.0702598612179865, 0.016007320763148456, 0.04492371974576793, 0.026895177006497146, 0.04042135746723416, 0.0022430189535148685, 0.028931591364961814, -0.024554698174645683, -0.013935992845409018, -0.00864915722494358, 0.03527264566073147, -0.035326897563299396, 0.00804867527646107, -0.07571117504283813, -0.0519753779532964, -0.026016074120367022, 0.04114428955570008, -0.00015364961776620866, 0.1451301287306837, 0.035079408564809976, 0.04175025561675044, 0.019873734773840624, 0.044697746087037485, 0.04899724416662774, 0.08435900342345441, -0.0707204390067394, 0.06104133795548422, -0.10246622278047562, 0.009734385775011702, -0.06709807529828529, 0.04270935419873752, -0.026199056974488346, -0.027737760246406902, 0.03947617013545175, -0.035281949894875195, 0.04902674548423454, -0.03235327180939072, 0.04118335241619797, -0.035257885803818764, 0.02081575735672204, -0.022849524018643885, -0.0455748089312919, -0.05819927983668141, 0.04028229418152195, -0.02602652362016023, 0.03964514375041115, 0.002268880911156712, 0.06314295728409382, 0.03766194995368777, 0.01422170502108579, 0.02427732634496171, 0.1329837946045232, 0.0960404371690576, 0.04253513010514326, -0.01945459535670655, -0.035621642114892944, 0.027543740388227742, -0.150742063502461, 0.014919288502154286, -0.028807854245403854, 0.013486496933588403, -0.0697857611609373, -0.04121274744556544, -0.06826182577360139, 0.07112167523479022, -0.06548125755972337, 0.015474813349273168, 0.04814552977383167, 0.0031139694783188124, 0.017971270025291284, -0.05479354029793078, 0.09936310968723172, -0.013878678326549609, 0.0936200164343466, 0.02551646298946787, 0.019861809754123886, 0.11964172176579722, 0.14028708638203585, 0.14577266550962464, -0.02468270666054199, -0.025878848796003225, -0.01826845842945346, -0.04408718763441688, -0.031737040448710736, 0.026272501778257174, 0.009310945619809009, 0.005043998950566, -0.07417824838757649, -0.05224114207844983, -0.01982608353774814, 0.054755928851600945, 0.023940029795404924, -0.01256841731202529, -0.001042718281687614, -0.017742534685450125, -0.011414737645741602, 0.014624359678025514, 0.014642250336533774, -0.030619780284012195, -0.05150523026752842, 0.04526409692051771, 0.12469537851727924, 0.06076435228914533, 0.014551450836365503, 0.04540958873939154, -0.056386109508910716, -0.00397549925715173, 0.023031421718410022, -0.024026158051589634, -0.06374525733548388, -0.13894181796443017, -0.022021237511363194, -0.10669023613208291, -0.09436029128857992, -0.00833740428901183, -0.05862180456785009, -0.012567532595921804, -0.009525142570813617, 0.05622248437337055, -0.022567850802937515, 0.10803927039993065, -0.07563148150365723, -0.02724709400376551, 0.09598804467471224, -0.058460018245654215, -0.005011186967139321, -0.0028197431502804777, 0.037562010430587704, -0.002089764168027854, -0.05576036885863283, 0.08231251127082158, -0.07360898042892806, 0.0012980804109803575, 0.004998108004723103, -0.007016631530245278, -0.025782110133213364, -0.1224471702533392, -0.1062149416199269, 0.0013451890961850524, 0.07602692063784783, -0.005551873445781061, -0.04057430425973177, 0.03145941208392348, -0.029805069648303824, 0.029860720259598784, 0.03740758439698168, -0.06465567676485709, 0.016793814437257693, -0.03913350286079718, -0.05735815669948662, -0.015585860686395503, -0.058832098126887854, -0.015155468316337403, 0.08511152698875793, -0.06045880694541687, -0.06597831757128796, -0.014832691802105422, -0.07651208871965859, 0.042152377107437744, -0.0449285984160942, 0.020476459551647022, -0.019500192172403445, -0.0071671536865089295, -0.023183964522857124, -0.060404300581751724, 0.012304110995109979, -0.040083623306913764, 0.020040344384718526, 0.028916596982749447, -0.001189337818257622, -0.034741819251056044, 0.0006365099248526526, 0.03226573380184025, 0.04352732737721912, 0.1028454667539538, 0.008344600959459214, -0.09406343378784568, -0.02481409140863382, 0.011531868576983767, 0.04063989193766036, 0.006534257670379823, -0.026937030333925357, 0.026035623056059835, -0.06459679345764151, 0.00753048755192226, -0.07837433806558229, 0.02736093132107639, -0.04683853352656059, 0.0006451184458679419, -0.040584912568259086, -0.03808157114710925, -0.130542661397191, -0.011168523879961048, 0.03407770006946405, -0.05654518118146954, -0.05758199962204516, -0.028375299499376814, -0.024948490221527703, -0.08678446375597015, -0.06802544799188373, 0.05620299133670602, 0.07041614239025946, 0.07236382819832426, 0.03253744496273733, -0.040680986471788284, 0.02599702973297672, -0.03852619850767309, 0.11096528069246922, 0.051166414529442907, 0.04734961026390528, -0.06199100077043513, 0.029914141832926337, 0.08685074214246018, -0.00741958835563194, -0.057264137036303356, -0.003227446232350642, 0.05777358366854833, -0.15917630733104804, 0.018562959000979054, -0.1280280170774837, -0.09758887285345118, -0.02465442045981539, -0.01614143798981762, 0.022041959516771997, -0.1118825064847875, -0.03756370678095794, -0.03602262622314831, -0.013134025786942354, 0.0719902388051417, 0.002194951226385009, -0.018905238799325187, -0.02315493549202509, 0.033559264355279055, 0.017557824400745985, 0.013308682327975113, 0.024558604568387446, 0.03132721368607315, 0.0028738877958436066, 0.00037458815794787475, 0.02226179953720877, -0.02125039284047989, 0.02733816699842043, 0.031041610056777386, 0.04461044016915129, 0.0699660637113043, -0.08437713244359196, -0.031701668390285, 0.06386499815342456, 0.02499515771519127, 0.009482832587537205, -0.11260324916037401, 0.07961461813120335, -0.04262098536513323, -0.05562940041423582, 0.05702348552607609, 0.060878289702793506, -0.04852829171990335, -0.10479195203985009, 0.015779472354530904, 0.05369678299720266, -0.04292332409626209, 0.017500841284025802, 0.054627160592878296, -0.06267369846525289, 0.005146705901427535, 0.019858441573609227, -0.023803709483041943, 0.0476359094524937, -0.07773489397849982, -0.042627597597060515, -0.07380132938977765, -0.014359025572555749, -0.021770824747587136, -0.019046158992286674, -0.03662565499398173, -0.010283129759922823, -0.003975749451263431, 0.05507376722590566, -0.012640229181025715, -0.0744102756521296, 0.03204227500237943, -0.0017611957272589765, -0.07510648780785549, 0.053793964516537875, 0.05940759149135557, 0.014534295054732548, 0.07305554278333201, -0.1077197437823203, 0.09894825974274085, -0.02970903591558624, -0.024810593044817603, 0.04339987660958845, 0.0642529775840302, -0.04206581344643963, 0.008612600110561187, 0.025495768687479402, -0.04276513205798177, -0.0048298180393846375, -0.034210085764710574, -0.019666175920353666, 0.07139641680889947, 0.05308265141925179, 0.0037211035781117407, -0.04075008631932469, -0.047383840078996944, -0.14412200444493245, -0.09854288798523211, -0.070039745194992, -0.06690339757799273, -0.046286204228561424, 0.03932619786197349, 0.01126308265430178, 0.1503110784636515, 0.047708338273812205, 0.06762548580668797, -0.015275324782600552, 0.035386923117229366, 0.03273434920292465, -0.08493260578112664, 0.0821678639017905, -0.026184313209896407, 0.02003178176515382, 0.03458820402926095, 0.011920675339145929, -0.08969707479707895, -0.03629380267339006, 0.020691560768180867, 0.054947574229121755, -0.058747278677841915, -0.11710576557059582, -0.07262664870295549, -0.011193497745479581, -0.05236849662973612, -0.019892100810659296, -0.06858696805806681, -0.09344429873192119, 0.08015431902450636, 0.02551543693428602, -0.022516322951696033, -0.02138933193198122, 0.022726049059405843, 0.09692466530043377, 0.005978948510691723, -0.0033554867768329647, 0.047224717441499295, 0.035292994508350196, 0.015616201238911007, 0.04434699054140004, 0.022187398394820746, 0.05199781495078175, 0.03680319856906541, -0.024945972438729723, -0.020339140202509102, 0.037504860030663126, -0.033511896628820745, -0.004457645132305582, -0.10064334942684734, -0.019748205763641277, -0.08495201526405237, -0.044371409936374666, -0.06864730059428482, -0.0012568803076692889, 0.039791618942877444, 0.04466071650326063, -0.04153689010682247, 0.06914549869909159, 0.02443980246980413, 0.024910938014562286, 0.07151637742688872, -0.014421717088833507, 0.018313123273148917, 0.023472925934523978, 0.0474243022800938, 0.09783448800242346, -0.02899817079648228, 0.01927469842980784, 0.03164293321788986, 0.023047780990169835, -0.05668617404673329, -0.039570402088684474, -0.02506771034707455, -0.09591511149043755, -0.09581331881517792, -0.0007571858289239413, -0.0025871806743852956, -0.0411233395028941, -0.01151800518405263, -0.10286275833903602, -0.03877425951201267, 0.05345726337445285, -0.030030551478625152, 0.012803479499584545, 0.0254892744149947, -0.002748426750547748, -0.03498904531142403, -0.02111277287883994, 0.018841112773921104, -0.006306717830188645, -0.005297745909965072, 0.08360143974894792, -0.04018848972857341, 0.06692602081327143, -0.01708271205872866, 0.01563329964486032, 0.08243794060736188, 0.005614826312481267, -0.025969981365831507, -0.006869828487621449, -0.07597973157297755, 0.040701646651301174, -0.026557778180844337, 0.040629088821910304, 0.05138072662359741, 0.02102262015688516, -0.03902061592133399, 0.019998388648139763, 0.05622133498626657, 0.15273679878693827, 0.006586453939423966, 0.08257762028978405, 0.01494582519480014, 0.09211112421868983, -0.02938124026149366, -0.04531543073739052, -0.0058258813532058125, -0.024093025311280995, 0.07324546666008132, 0.07915496753936742, -0.03001232686617298, 0.0280097198771486, -0.03794843399579539, -0.03064787948358613, 0.06812426025790633, -0.07459349155314145, -0.042541831209187336, 0.06945087816910088, 0.03777264233743257, -0.00336008636705153, 0.020259541077087804, 0.05271344769927289, -0.08079915512946195, -0.00665440398852873, 0.1326501731405252, -0.04511363220321005, 0.01612187004520609, 0.041799380647201435, 0.052387397289282565, 0.12081304909727793, 0.08265582154131561, 0.024812181646405276, 0.11682588056511738, 0.05321199874704217, 0.02018414644645562, -0.004971230481569926, 