{"layers": [64, 32], "in_features": 784, "num_classes": 10, "activation": "leaky", "lr": 0.01, "W": [[[0.04806491686298459, -0.025646663547125303, 0.04031373370499173, 0.01749477462028286, -0.07178164283714109, -0.07730355433646198, 0.07123048313762896, -0.0006510344589109607, -0.03523236139035738, -0.10089054026134295, -0.009379841568251081, 0.04898929894998296, 0.06571112148896684, -0.06161184615771479, 0.014020890267671834, -0.0399616201830761, 0.06415101561160011, 0.026380493648516242, 0.043828275594425835, -0.0751416058110827, 0.026468405352472735, 0.02976616408449395, 0.08405589654987301, 0.05008383175709933, -0.014259618302414722, -0.024713226943931174, 0.006987621566245008, 0.00792520784189564, 0.01723621447899929, 0.028174769556315198, 0.001381931135741669, 0.00014552758351059672, 0.005034754877633294, -0.0397335155085658, 0.013696145331868494, -0.06440790966673154, -0.04496077465235774, -0.021619887555573807, 0.04930618610464753, -0.05568263826719874, -0.057190232733368936, 0.06553153652032821, -0.04061994368594229, 0.014554474769602617, -0.12180188232791911, -0.021747429642071322, -0.05143382902166881, -0.06218970739469705, 0.035509452104512444, -0.03807260112078375, -0.02426278549609446, -0.017334929989127324, 0.058081658759728316, -0.05873665680234603, -0.043015523193289426, -0.007651067104244398, -0.055042167793393985, -0.027147746242928254, 0.013239691523516978, 0.00011549921417913524, -0.06807298903759644, 0.0016868630532710853, 0.04481557382046234, 0.07365889625935543, -0.06931044739356475, -0.054465581655880675, 0.04760869844726544, -0.08342514680546155, -0.01812844761319716, -0.057414200057801124, 0.058587442005998414, -0.06410059783142859, -0.006696622955620194, 0.04071400226314887, 0.009176159816860416, 0.012625376521186492, 0.07323471332280357, -0.019015265377304653, 0.056488065596148045, 0.028714588164696412, -0.05367701270548587, -0.028372426521661488, -0.00733931106648298, 0.03151022745567945, 0.022458509858668724, 0.11041650884150044, 0.06436643306604001, -0.08204295472855745, 0.04841896588040196, 0.052714057058359076, 0.022373077916972402, 0.1097114650015321, 0.037249572814524984, -0.04882325472871806, -0.03638670880636073, -0.0036302777551426597, -0.04500009997712078, -0.03416997001623374, -0.026480975483675093, -0.020838809193031636, -0.03127590277620491, 0.0327749120211506, -0.04158787797388841, 0.047508440651372184, 0.057072237566586866, 0.15959615859839946, 0.06573175948459584, -0.021866723305373897, 0.002909029383995121, 0.021835697563827042, -0.0024860262015321357, 0.07324248668182005, 0.023340080931103235, -0.008278604332460296, -0.021380307658998947, 0.018339166881655863, 0.07253064086806738, 0.08989133945021208, -0.011382767401010897, -0.007167166507862104, -0.030846629194533577, -0.043873663189585806, -0.02712386070578781, -0.08560805402510005, -0.023775440479382716, -0.005082543461838241, -0.0150428730703839, -0.07346657317435627, -0.03269305666978624, -0.028499258615057036, 0.08826023847299118, 0.04862107510537022, 0.05616236669004447, 0.02034772151918745, 0.02384028614652688, 0.00041853924451103913, 0.02901170134271178, -0.07942824330486017, -0.045330975349902325, 0.07442575447281792, 0.006236530491346175, -0.00927565205438324, -0.06351218511589203, 0.05510447865786645, -0.08018255956429331, 0.010058064247470145, 0.028305326944271462, -0.008410245849459928, -0.1325110875663168, -0.04234138394309528, -0.05316792042657653, -0.014812390524467405, -0.037816494119905196, -0.04610319904515089, 0.06519869483827458, 0.03563488144849557, -0.03317342272004592, 0.02424033729422981, 0.024199747024365406, 0.1020682293367445, -0.026484748771410948, 0.023437021960851578, 0.10316942747637095, 0.141822792923209, 0.024919457097761995, 0.01397847078426828, 0.08836057195671104, -0.026418648566657443, -0.05679708895842613, -0.013874300702611952, 0.06057078841627797, -0.04268222404811757, 0.015012166480054795, -0.02458925907785332, -0.10821403279898904, 0.0020294663080036844, -0.02232196715381441, -0.05149016929363834, -0.03664857577456407, -0.029690892510028658, 0.017344039525338258, -0.0837958010386442, 0.003346818401599329, 0.004887601568836994, 0.03532165419066065, 0.05651264515604776, 0.028616239972398188, -0.03379328501743651, -0.018589500465229686, 0.1384366582972619, 0.02761249283120459, -0.006166339433447763, 0.047401374323618954, 0.05169164432340476, 0.05986706410146352, 0.04968967364173661, -0.08983940291735441, -0.049401044501649914, -0.04809889345207568, -0.036108586703824046, 0.05968229420022298, -0.043798810477893295, -0.048535474181901316, -0.09539337072846486, -0.030470277998217957, -0.03839218080992937, -0.04090032505048419, 0.08138014427121688, 0.0446200819926245, -0.03615845165295834, -0.00970978009176956, 0.014054861775703724, 0.10813093445539358, -0.022390432587631657, -0.004358549180269547, 0.039485018030565346, 0.044192292543760406, -0.09403885764669234, -0.031527413274040406, 0.015472210895098124, -0.006970455094901771, -0.0537257483744659, -0.02779091261815537, -0.004002008630828227, -0.0878663250231961, -0.06077130468847357, 0.08412503065356274, -0.04032996456152132, -0.07120790559576685, 0.0011193654899514327, -0.02118739455350392, -0.03164735109378214, -0.036448090299114506, -0.038529581083362685, 0.024187202913786506, 0.02049003798063871, 0.05504043855113483, 0.030519838429087065, 0.019086665042376535, 0.031406694212325614, 0.05607354513627723, 0.001541911388317269, -0.05863435607584835, -0.11041246041141561, -0.025763685685897115, -0.054042977327775084, -0.011221349049685704, -0.0960945135993469, 0.0245778699042201, 0.007659975559198703, 0.03186811196602231, -0.009356436416298328, -0.07624272205185745, 0.10717327076079923, 0.08628298268395639, 0.00010561782043128629, -0.11929512731200553, 0.037045035346783606, -0.11165200737937515, -0.10269808479178963, -0.10486895231511999, -0.08268603231865754, 0.0031184660347519898, 0.045538343142303844, 0.013411419082468469, 0.01772966745792538, 0.009803552010182731, 0.016091901191100086, -0.06967949499641282, 0.024209091727052257, -0.09686028531910537, -0.11671455880595705, -0.07364268054238439, -0.07511296919446683, -0.008885449488421024, -0.029222168389944025, -0.08605969414239356, 0.016406150639651777, 0.04099808616585502, 0.006599609017359648, 0.039236976041081575, 0.020851697309077037, 0.09540905899784849, 0.08989826035057827, -0.15467802616598467, -0.012841193653464103, -0.01386123152933242, -0.0022378736822474313, -0.006927823646901282, 0.08877399142118596, 0.049773324239615106, -0.03159247692316301, -0.010291474457346012, -0.013654376860654188, -0.09037252950644978, 0.07157755177142555, 0.013497050857171233, -0.013282137136738427, -0.1767672932715096, 0.005167333003046519, -0.0810647290638027, -0.08317127685093413, -0.11406439276263503, -0.05816917103633621, -0.04374145973670305, 0.054739709213770055, 0.007623112096372502, 0.01856443007999202, -0.006903606675082421, 0.03650919570222398, -0.09045979630465617, -0.07678696628504204, -0.041910876987348904, -0.12666394246871596, -0.02455430160933764, 0.020839914921850153, 0.05861401856516033, -0.03391388538880693, 0.07680142415156539, -0.007927601157322292, 0.006059987813621965, -0.04406024550852771, -0.01150888783599225, 0.12413238200798525, -0.11577681367785445, -0.047480963478595255, 0.05325334243645939, -0.02258341745600161, -0.03687634429353317, 0.015493021162696598, -0.03320668439214328, -0.06522383006622881, -0.055029823977382084, 0.0433549499357, -0.04999288484557263, 0.07780254908667904, -0.03821800712150444, -0.028526768797063944, -0.037897982173213614, 0.04504644862041734, -0.022650947295260477, -0.026285586906066936, 0.04495743313054504, -0.07775462188479028, 0.04212831266420347, -0.07364311393352867, -0.05770067931009027, 0.0066260104800219734, 0.08163905976292976, 0.021429097576829034, 0.11602207866478206, -0.013781763088781915, -0.060498701032729967, 0.05439980129374624, -0.057301022069684945, -0.02663894639340776, -0.04657798161943806, -0.02687753059740562, -0.07952480731740276, 0.07956009122499086, 0.017159813793594922, -0.011381738585990984, 0.005841351739085178, -0.03354805015867123, -0.028338425483684086, -0.015437588547936745, 0.04453658840180326, 0.0408497620095643, -0.06267880748440659, -0.03650393549195454, 0.005084550517408113, 0.014393828604726159, -0.019322114856918822, -0.07705039093503786, -0.03275625317193167, 0.03229032227150143, 0.04580910312261804, -0.02767610398923998, -0.026364194705688664, 0.0379062127433952, 0.024278413166850282, -0.0023091431953431944, 0.061911356890866034, -0.0048067270245502084, -0.013380857788274183, 0.04253166032376116, -0.003586750230943966, 0.015143557413743939, -0.0037046219951452864, 0.004300742866363575, 0.12403939481231248, -0.03289361806945511, -0.0032703004937624626, 0.026560999737518187, -0.005752577528590182, -0.02605356728287744, -0.01110571889417625, 0.036056585029107024, 0.02438783657739824, 0.09403090743821184, 0.09813459235510254, 0.057340423377489486, -0.013957144078225478, -0.011891712490942593, 0.045956520167829785, 0.05695729971497255, -0.010470241302303774, 0.007079657491354194, -0.03324448204886493, -0.03347754373556476, -0.07198960776534347, -0.0003289703306470608, 0.04550722762671623, -0.03662000096000432, 0.03700541858551122, -0.10096924807626576, -0.0747404254646858, -0.0019042260372028957, -0.03590125790937526, 0.02619194757989459, -0.05675135030442138, 0.04930043334968169, 0.05813355958059245, 0.06434926122613663, 0.014033045177089278, 0.05965012461761565, 0.020904265944078397, 0.03319763935861741, -0.042314715937677314, -0.020906156327075955, 0.05173577247852145, 0.013353576817888431, 0.012808438456662245, -0.00036607923898671204, 0.022277283949036594, 0.06802882019394027, 0.05531069070134092, 0.06026789896762824, 0.04211421249807801, -0.05333512556174788, 0.000587950135651965, -0.060495804220423256, 0.0029577164960914375, -0.08154182147691873, -0.043541918710049136, -0.06350989202290565, 0.051913533153485104, 0.033747303325937096, -0.03117115954760205, -0.00598452421761468, 0.0017724129343996324, -0.03304693285753859, -0.08812967786765664, -0.005984393054660459, -0.03152460070999282, 0.06328791103946256, 0.04416734711334639, -0.11228043258371007, -0.03561338279364499, 0.04281802573797321, -0.005226479741594402, 0.07922044318596877, 0.05975915018509091, -0.01688767467910587, 0.015050338695409405, -0.01313888798074399, 0.008429708864660452, -0.04692637809635, 0.010486257454803182, 0.030678662773717367, -0.013573395656860264, -0.045128929576149744, -0.0756083629609479, 0.05893362459248909, 0.07596074189092915, -0.036366361188355456, 0.0909576403276002, -0.014172969224574103, 0.011773102957791558, -0.03226016567592333, -0.06755496245531696, -0.1759113126419456, -0.0313083637483314, 0.18707756729295194, 0.06420097837484579, 0.0062492706458534405, 0.05831413449747468, 0.0420970766186836, -0.013826997653034136, 0.12885105171758973, 0.07719977657733454, 0.0253550329731343, 0.017324963841498654, 0.009019495968563142, -0.03397821033895659, -0.06309552472306203, 0.060870024383119496, -0.0037477945745853364, 0.036880858697315985, -0.13793394573852072, -0.02130280405473385, 0.08059566396593035, 0.03729848087684789, -0.03956001967165235, -0.02063491426695274, 0.031772232024861284, 0.06077682315847264, -0.0006787535169882887, 0.02168442345770693, -0.03562213221579431, -0.1312756673024664, 0.054220813691408035, 0.036382331046027366, 0.04403642958237018, 0.016349288550846792, 0.08224873882215593, 0.017269957787502167, 0.017691543674391977, 0.062762859832812, -0.03506812182292141, -0.05520978118175465, -0.03458099607414863, 0.014062152599723935, 0.08203693865728669, -0.014404992343759911, 0.058136518593479576, -0.03232149446883623, 0.009700040603953667, -0.0034471402423011718, -0.0791114545522986, -0.10421521392285113, 0.04013936182541248, 0.03737971133304958, 0.04596750798426835, 0.08078165329949338, 0.07028156960290635, 0.04105762614194855, -0.015200975468959127, 0.022630008848432824, -0.04991491389844234, -0.09050609864688984, -0.02487948768374213, 0.01209381059171863, -0.03533527289148007, 0.0045654345609981, 0.08297251927796206, 0.05200853159253115, -0.01678428820816998, -0.021054629814731638, -0.02495744768545993, -0.015111735319289768, -0.11061558042397451, 0.014651202237398072, -0.07906711621574329, -0.0427851142836569, -0.0003816325174780282, -0.004177973471441687, -0.02880065750066154, -0.03513069757577981, -0.028006140705920713, 0.09455239711091966, 0.02501811778625392, -0.030241421843842552, 0.012342020810087794, -0.0380888256575998, -0.06590607947103858, -0.03648324475274727, -0.1203140526566157, -0.1072298567700333, 0.008241415315697333, 0.10239240347644522, -0.04176724366504021, -0.037395829052258314, -0.05514325286186283, -0.011081219532440473, 0.01661747663590739, 0.02050914630547664, -0.0758428791951752, 0.044719357093540704, 0.0015652353211566574, 0.0008733998048660557, 0.05626532179845458, 0.052088927958464516, -0.029361783830465223, 0.034634267078707356, 0.015003911721259455, -0.09329803947630441, -0.016040779609810093, 0.051247048582446476, 0.10218511791409864, 0.037083862532712, -0.10871017835031653, -0.010997887739650429, 0.004513511373860817, -0.00903621429927236, -0.07133040541904653, -0.09780951656613332, -0.06351477757707949, 0.0847010143212988, -0.0063001515069518715, -0.030116771332874808, -0.0768987699150473, 0.024262715230181225, 0.008650341648426261, 0.022894890497077127, 0.06469981788375402, 0.11021529124831515, 0.0027729493736360893, 0.045715033666057295, -0.09187783155361522, -0.03658395572357976, -0.05938528776927089, 0.10461940207177596, -0.0027010406962668177, 0.04270661851945782, -0.005802718454775209, 0.018686085939020994, 0.01892034877347299, 0.02618435767442132, -0.012464653830469147, -0.022007968744650993, 0.01386203912217881, 0.05264152589760213, -0.019717132206437435, 0.07155541693171862, -0.0026030570923678883, -0.007599609250944752, 0.0885136767780853, -0.040013072241984124, 0.06950674654999581, 0.011240398336234487, -0.03556564021865369, -0.004552166985125764, -0.03249092540272482, -0.06932991034685985, 0.004749525156656379, -0.026135708150512114, 0.09365231583610054, -0.033401205365306455, -0.05204948929553369, 0.05023178803511829, 0.012662671632782264, -0.03866527210638287, 0.029373645414683524, -0.025045742560410738, 0.028083779823551015, 0.009299130176149407, -0.11571129945949159, -0.003741326918401751, -0.026358401672806647, 0.005148232535337611, -0.14092136604363262, 0.010708276619880082, -0.024401864734883878, -0.02154823098086209, -0.05724243609117728, -0.10308971623819801, -0.027677190894320556, -0.04566494729440739, -0.08215121418820809, 0.09413307622819005, -0.051883959955031866, -0.020573621759606697, -0.002088599640211683, -0.023007318721647133, 0.00884489867993225, 0.10138552674431806, -0.06640173085930318, 0.010413562484163173, 0.05962075773535753, 0.030362464289287298, -0.003963974662663256, 0.020525464213901504, 0.05312056615552049, 0.08276773640870135, 0.028718986982269643, 0.047734538051382426, -0.03605093256899597, 0.028364930761645063, -0.030162195939423982, -0.09548738462081238, -0.03793451361091725, -0.09637786260419923, -0.11970162896557805, -0.043769187090960615, -0.05593661922422552, -0.05349033807565394, -0.0702218146782863, -0.07330083004742309, -0.008079153950227916, 0.03202064937941229, -0.02364564827593142, -0.0021567939889987607, 0.0060230529352129445, -0.041922926555198484, 0.05876468918591438, 0.014351154854007621, -0.05905441843938332, -0.07990766942587925, -0.00085787670174303, -0.005283067184333645, 0.10182135301237388, -0.06739740523492257, 0.04183275020257124, -0.0057721184284711844, -0.02801299724944381, -0.047231324402552045, -0.12049315578041157, -0.0010855326311343348, 0.04272343462587968, 0.006193079019131103, -0.05805471956548216, 0.048032348245076614, 0.041360049371396514, -0.09217154173682857, -0.019880048029179833, -0.07177130390856366, -0.057010915773597334, 0.03537573930292481, -0.03118859098087646, 0.06989884452392989, 0.09488096818637093, -0.03449847590912137, -0.03041401605744078, -0.053783225587002166, -0.03070566354999447, 0.05471479853054261, -0.003550944282406752, 0.05369142262172707, 0.08194706579235743, -0.043562528874801734, 0.03918395761185084, 0.06100018018821107, 0.029119264065343157, 0.05562535268959116, -0.10806010494107553, 0.023955250290662866, -0.01920983154958334, 0.016321923824732642, -0.020416951867173513, 0.009159602016912873, -0.06073852873415667, -0.15621132086062092, -0.012451025430316537, -0.022508531375129932, 0.041545314833201466, -0.048319948807696016, -0.009644169261900181, 0.03834480170469701, 0.07220265228971201, 0.02870825557335738, -0.05177470148573354, -0.014629103956462866, 0.0435724877231849, -0.009458526551045602, -0.0261800827897879, 0.07753807092377607, 0.01708664451361393, 0.05996440577250645, 0.02945349119011544, 0.008237027568795562, -0.011760778293013361, -0.011479863019020426, -0.06113487266589001, 0.024080148162837725, 0.011394093082576101, -0.05713327292405028, -0.07816160248752153, -0.04213984990329044, -0.027510595127337424, 0.04876054036949706, -0.09768365639292038, 0.0026399720956386, -0.012517287653525305, -0.01820242461211865, -0.024520622022484805, 0.07220672507709122, -0.12649286242305874, 0.0009841758038523938, 0.06259473252548822, 0.01390415313679639, -0.01775607085441371, 0.04263229199695117, -0.03986724546803413], [0.012757987418679078, 0.042488802929801485, -0.030984045110221608, -0.017525643907548533, -0.009930144335860662, -0.02980290447346435, -0.08364248347278423, 0.11662295061940706, -0.026880949401697687, 0.02300905988337279, -0.0468748230388314, 0.07954726862993557, 0.02197751316056432, -0.028276708778255603, -0.10378267255210506, -0.08535116029141482, -0.0037955161533139974, 0.008162774074271753, -0.022344073158440197, -0.05193039777333864, -0.013546559128311176, 0.023008332623497718, -0.051202512324579355, -0.04616553265542683, -0.013169671510396485, -0.008638120290080075, 0.009018404373694092, 0.07542166256973742, 0.04610085254023943, -0.11455268843840903, 0.011146523356795907, 0.005947786171393811, 0.04083440728096881, -0.04241168707996705, 0.019821543739945453, -0.007953169977035816, -0.06162489100502222, 0.013215644285687599, 0.008703587152680822, 0.008035942152015018, 0.06269888733563757, -0.0646104489448264, -0.03543881814954133, 0.035536178710980526, -0.09955872488687048, 0.026473993579740316, -0.039367312107209895, 0.014198492743521285, 0.033660640963534307, -0.060752039913482915, -0.069566001385779, -0.0624219354108133, -0.023916465553068773, 0.014488146683807088, 0.03919819708291281, 0.043236751410596026, 0.04576590913164271, 0.03408245608077299, -0.011594872023741237, 0.03329638291375122, 0.0024393450238855635, -0.04140749303050989, 0.009112743084160862, 0.008928756081769814, -0.0001872917688436558, 0.04728894259361778, -0.02089073902769577, 0.019896081197894287, 0.025757052305650813, -0.004001111191770177, -0.011819011410560265, -0.05654691830233807, 0.0026654408919734823, -0.018746478554224927, 0.02869079026370557, -0.018512123162211257, 0.0042268172085728846, 0.06455277414590053, -0.08300591807328592, 0.00871701709305337, -0.016693839386966138, -0.018235248431613504, 0.04499399020820715, -0.03226282426340783, -0.06877574016724974, 0.05993283173743705, -0.0008090238234014456, -0.09127337310298027, -0.030487463030326147, -0.03537030035514019, 0.06754230967132677, 0.06387567153313181, -0.028291508123390253, 0.052202842535246284, -0.04669967645047009, -0.03688829781292928, 0.021368682221277708, 0.009472560293978336, 0.056168960812855995, 0.059375876148570775, 0.008081040053260985, -0.009845236571528925, -0.003697071730226425, 0.0695574726146646, -0.08996062822275463, 0.05263131347196321, 0.017604622110113217, 0.1421363237549155, -0.032421860030054934, -0.010011249442312367, 0.00036352861817358134, -0.029059682048780375, -0.03262772324723821, 0.017079359075915315, 0.05305306652180812, 0.06695760995489584, 0.01905855648254045, 0.06396619162527699, -0.014119796449538532, 0.00885102351182972, -0.0031540224351709343, 0.01206514167338048, 0.05068195516454643, 0.03707235780420646, 0.15535319624414035, -0.04283176204591688, 0.055478081498990944, -0.04389249921570535, 0.02137075385154361, -0.04784260370596288, 0.10617579169085557, 0.08449005466987325, 0.04912445920711368, -0.009069185091844865, 0.1065950430612964, 0.01292436107836643, -0.024621296848150797, 0.035248072762655645, 0.05588910569022813, 0.04042005530375556, 0.00426490630893722, 0.02142098137714933, 0.069350864598148, -0.05646031887027177, -0.07554562741982124, -0.03368134665477721, 0.05799093825516676, 0.06747165875174804, -0.01943645503987115, 0.055658666712093366, 0.0021797047834527824, -0.05252720072653774, -0.048715016890391594, 0.009512311831723115, -0.035404787602147623, -0.07167471619759674, -0.023104715737498355, 0.039115998607063836, -0.054342963787385984, -0.040870500427230796, -0.016730863747661785, -0.04660259261034545, 0.046021581944029694, -0.016076647070444594, -0.00585214890652355, 0.07266465602976126, 0.027787574032948962, -0.031881762695914716, 0.03933408455351521, -0.003371915568833226, -0.014502961052849343, 0.05415354631722153, 0.0320831627438379, -0.09310216391953324, 0.02096129032881701, -0.030145624900898938, 0.06823632260473748, 0.079217074688509, 0.029955327449678975, 0.013229144017563489, 0.05974881089805296, 0.08096985644339975, -0.05696852340084058, 0.0531818293373671, 0.023197831902907036, 0.002957993708006033, -0.08631502103474427, -0.04454449723771792, -0.01817026865107751, -0.03145230031139113, 0.08340543102120179, 0.0668073912221517, 0.003488439341054409, 0.017335909981153655, -0.04953227172771761, 0.026329755445427365, 0.02881632990694064, 0.00414116427589003, 0.07561637386639505, -0.027483606659597072, 0.04717308976907119, -0.047719615660158865, -0.051874867162035036, 0.040732162341651855, -0.07584291753290293, 0.042823175353894696, -0.04504804001873845, -0.046905456361277, 0.045318234084578086, 0.043114027444840095, 0.0970522130172995, -0.11678324055075323, -0.08462259985104714, -0.03177922227898423, -0.03802450080042701, -0.10333359544343444, 0.0005756057054161718, -0.03335965964463608, 0.013484103085977969, -0.05584046141359156, -0.06613373410775011, 0.016798562891501178, 0.01532977995691286, 0.05794075433591927, 0.06877436491887003, 0.04873665016191097, -0.01678607900633837, 0.04502784971568417, 0.09569494440181325, -0.07679355051504988, 0.010414708924740014, -0.0034017833506890306, -0.027865960833776314, 0.015326222914081377, 0.026509577616106374, -0.04636562893648837, 0.0066917271643471814, -0.05651362395250939, -0.013570225772820185, 0.07624705367981145, -0.044709100621634246, -0.018974655730059853, 0.027211275779799097, -0.04246165138326811, 0.03869514184304579, 0.1255201273030036, 0.029447898345520574, -0.027621020256104387, 0.07771849251565346, 0.02418305552418979, 0.013484256169106737, -0.04042649834815211, 0.01574577132702004, 0.02359318925434182, 0.07008495016802273, -0.01549459324116455, 0.09425639205459796, -0.025014549898143574, -0.04720746839654527, -0.11011105868522532, 0.05442197874324512, -0.02069852569888577, 0.04734741495363772, -0.03491122052716833, 0.029655658046218097, -0.0036195293598098414, -0.021999021903896746, -0.02944087263611102, 0.10456995384449412, 0.0014249528730974753, 0.09485671871329002, 0.05212899086266299, 0.034510344583093155, 0.030088204866406947, 0.0222466285685176, 0.02567448698694067, 0.04022278214302369, 0.007048381193290769, -0.04697834039517184, 0.06587709308093784, -0.017954694663909806, 0.060095377895178395, 0.03843581895475376, 0.038646197933690736, 0.07046431950132966, -0.00923007361502681, 0.006665027232827759, -0.0846783630968557, -0.08971402260312632, 0.028655858188269497, 0.04301572803236101, -0.006544267742721005, 0.07327574007555876, 0.006481237802529563, -0.05434610199815871, -0.08259622341316473, 0.0004936681039302023, -0.004549130315449611, -0.0004935898640926835, -0.0014748824312688289, 0.08825201192023154, 0.07113310701921649, 0.07685602864714156, -0.03462547895991304, 0.006603497811133682, -0.05910847253475468, 0.042020555320875744, 0.006381969766129779, -0.00604289953285607, -0.045176375295202666, 0.04917620424972991, 0.06572204810981408, 0.0663154364190007, 0.010990206445101335, 0.042839454779863416, 0.03579317641800545, 0.06900085363439165, -0.018189051004466925, 0.0877354032852142, -0.0011287541830243282, 0.07447322887262087, 0.040438266967731944, -0.013162233806984428, 0.005886325605308918, 0.09691087250749322, 0.06617133380858899, 0.020655893727951187, -0.029604962566863707, 0.016418666300140203, 0.010676174302984788, 0.018767135957858824, 0.02407094955674707, -0.006872212190533526, -0.04240302001324956, 0.04297430980140619, -0.05132909507167221, 0.11916086398692548, 0.025839666983454752, -0.09719131425445583, -0.05342050190097538, -0.036073830939185016, 0.009431891205116788, -0.046534499368325107, 0.03184058334154538, -0.0010718534867263706, 0.033486290347574284, 0.10584197584158007, 0.12182272088125737, 0.04980563849494346, -0.03129925073349195, 0.0005321472819689422, 0.05945425114978487, 0.06936976305781363, -0.008711962069504836, 0.0005201331955033976, 0.01007896100646484, 0.05906604009924186, -0.012377393988705215, -0.07080888147812711, 0.0008478116201023193, -0.10935988211610415, 0.09111368822279976, -0.008287962828023857, -0.011030569452707905, 0.05172895537323976, -0.08735486366435624, 0.008838060422979509, 0.06703529449519716, 0.04331639890461994, 0.051457864616865884, 0.0838135415537496, 0.007586395205381839, 0.020271348539402937, 0.1313011685257331, -0.010177001592742521, 0.0642989790436123, -0.09526864553191464, -0.07431713154812189, -0.020910630882041634, 0.04167526385175652, 0.08313399106548323, 0.08653946730422195, 0.02774420706085486, -0.04539576081530796, 0.06598136680833759, 0.0690044862165896, -0.14352778621255063, -0.06140723473300759, 0.013447133794339783, -0.04750010450640838, 0.038177579983142876, 0.0978168657451204, 0.021171278095799727, 0.004448574501745405, -0.0574211837526716, -0.008568825827744781, 0.028264658942149225, 0.06888039274237275, 0.09032093642646734, -0.030456063987675717, 0.01629033176613014, -0.02709831816450788, 0.09057592190449129, 0.05509259149109097, -0.06535148074653968, -0.026882824418682068, -0.056210959322047234, -0.04677612882183706, 0.10936489744454087, 0.016133866753044138, 0.09492626297115077, 0.11320011605601735, 0.1226552248661229, 0.006152082332202649, -0.03788327618653627, -0.017409828166877236, -0.01633162962474961, -0.10657695100622362, 0.03521826001238159, 0.0900872043027769, 0.06868945861777037, 0.14642685166854016, 0.021442264797610387, 0.004100432725659851, 0.043979932828062486, 0.03957813861443495, 0.137904411317924, 0.0266412256068398, -0.029273030186625408, 0.01232657783244983, 0.03353104190361801, 0.01933506003088431, -0.053791436557758365, 0.08398433960833052, -0.08371376091215653, -0.023915529347342628, -0.015968655676781837, -0.012061394672684089, 0.007474509724269483, -0.019791208909461233, 0.09652836740818976, 0.13705807888838117, 0.00451698740609475, -0.05980003109922855, 0.04906062858955437, -0.048897586102967, -0.027258187910791057, 0.001081523154850191, -0.011451257040835511, 0.06511603651113437, -0.16532568530103772, 0.0715203105656288, 0.035817937605012354, -0.0621713093609051, -0.03356891243763492, 0.025592995934567098, 0.040243947257299725, 0.017213949826468698, 0.02125758911438528, 0.0010382009046099624, -0.062021325990437956, -0.05447451509763538, 0.06387611945366559, -0.05946663484846586, 0.00111089255884658, 0.02599180694308175, 0.04221415139989447, 0.10785863849523171, 0.04605927568791535, 0.14511148988461986, 0.025561076459142712, 0.031165442273040696, -0.09860906609265767, -0.05921608125200969, -0.022828654358968817, -0.014072740367791478, -0.032596832668982896, 0.012908212777973624, -0.09269521110739255, 0.0213191960564748, 0.003921941909284766, -0.0026012704233709604, -0.05951104502328037, -0.05784487215558884, -0.1042031245428886, -0.1186141290979545, -0.02421003282348801, -0.06239466539223726, -0.1521040409906133, -0.059534364874964635, -0.025948941922696898, 0.015869756226994436, 0.01261677747985905, -0.0665969525257992, 0.06914035913072397, 0.05260543176935719, -0.02125343195865114, 0.0013213925532699925, 0.021310719231430405, -0.08297821003730843, -0.05717198337515109, -0.08084672956793486, 0.04483788786658776, -0.013697366026585816, 0.020067988562002464, 0.0469413248473504, -0.042294660939485695, 0.07961322724782198, 0.05220568926436132, -0.028820596116865854, -0.010986193760311026, -0.012465165500122243, -0.12217762076338744, -0.1262790610617648, -0.1010569410104033, -0.0806182656589893, -0.16995960792309256, -0.10201982229441958, -0.04382262183400397, 0.05650813312089252, -0.031242185681258042, 0.104017615022097, 0.015345855686923975, -0.003936029758119585, 0.07126511638043072, -0.021131552510685672, -0.027993921298514288, -0.016705910747161278, 0.03779925247520223, -0.07466521263748466, 0.07562337537890375, -0.02539395600579328, -0.004945762489377671, -0.04690303518222032, -0.039836721063106185, 0.0015575817713379594, 0.051965408921660274, -0.06074890200676279, -0.037343216831264577, -0.008707169803736713, 0.01728968346460583, -0.13385287149551814, -0.06054987682132977, -0.01718468399250694, -0.1499371168580408, -0.1183065470955805, 0.062000556075751355, 0.006856743746561868, 0.1421378689187458, 0.008360320317721758, -0.003455159110963454, 0.005121590028701402, -0.012984637988773006, 0.06828867996319188, 0.039517598247301076, -0.08194446458418604, -0.08564870006444987, 0.1591298504774019, 0.0212766238504789, -0.015159353263328313, -0.07472671124868263, 0.009821741652356327, 0.05714734210125328, 0.010218394731022996, 0.10034516883726737, -0.06988480347898664, -0.01413866717751006, 0.01540710697381224, -1.6632611769989325e-05, -0.004557713948936253, -0.04532747035685728, -0.04780166342606456, -0.100082471581741, -0.04538409329974574, 0.010331237965832797, 0.005538078681937801, 0.020506602441367438, 0.07648037789745901, 0.1151377825402146, 0.013420483869610464, -0.0254184036719255, -0.055755013100787544, 0.05323619612447597, -0.04122175568498783, -0.005902547754567007, 0.05866633857010579, 0.01130543437860602, -0.018244253070196642, -0.08495914424885831, -0.003987450355049528, -0.11256726263704754, 0.00019674759437207176, 0.00895902742091301, 0.0021639349491019777, 0.10593111010352114, 0.024997781894113152, -0.016397394365512824, 0.05761658996851387, 0.005510905268584822, -0.07760389414734115, -0.03690571299826624, 0.04471415753332711, -0.016792926716412842, 0.06883829847664032, 0.0504611415115333, 0.13029830616107352, 0.04457714760575571, 0.0012696732703159329, 0.02431185853655133, -0.0542148927386656, -0.0050022982220384185, -0.038491841090109745, -0.05124185820409753, -0.0035209614165857077, -0.035367294149929826, 0.06463559815076952, -0.022035851913655438, -0.06282494155303756, -0.016165986946284884, 0.08536414591268787, -0.01875337665428967, 0.038564375857625274, 0.08993010739884105, 0.0240123480960918, -0.06384729976517686, 0.03535438288412096, -0.018287728596565446, 0.033479739084903135, 0.01381679162887801, -0.04775650134793511, 0.1006474095163831, -0.04843120633048134, 0.030718863450195383, 0.07780153273258883, 0.01085978420597344, -0.02114972211659534, 0.0034261567871553536, -0.051449897427112624, -0.06553733125557726, -0.06146171056143668, 0.06693315957532582, 0.020499815685628503, -0.037000322051760265, 0.03789918279704797, 0.002549633955191724, -0.04084139948230621, -0.07175440230764461, -0.13424276200323576, 0.027431244773192864, -0.024275252555963397, 0.100281376596683, 0.04502051336951011, -0.009327288027966396, -0.01420245580807871, -0.010930688166203503, 0.02849019643550074, -0.06244657370357963, 0.07304724394164644, -0.03997918676497851, 0.06168925218927643, -0.07827736713855815, -0.005377955179902889, 0.0811441945639294, 0.004531699837399878, -0.019608957574930534, 0.03727588818030418, 0.049529656710496514, -0.046099509919899716, 0.03879556583988854, -0.002242405427905358, -0.01903322780149742, -0.02252712917509246, -0.011372349879690696, 0.07668508571048, -0.056414331496591814, 0.02517491815926989, -0.0006664486338029702, 0.10358051398754481, 0.06682872167389349, -0.020199730341888756, -0.004641752684093467, 0.0685583667738679, 0.05238083585482942, 0.014963507130644243, 0.024398591498699912, -0.03615581060887924, -0.07815667077406725, -0.008625594159283064, -0.06821792190570436, 0.08578979587922753, 0.08292266670789353, -0.01338573265428766, -0.016146089021259094, -0.05427357311925427, -0.009215173504417862, 0.0667228587178324, 0.007901834236438848, 0.0410032595116326, 0.029942413672194204, -0.034744410269328035, 0.01806449316775501, 0.02718501447923579, -0.015276774346105824, 0.015526362400208922, -0.017158464826730183, 0.06982579531940859, -0.02241534417889347, -0.027162436090445014, 0.04771407477244468, -0.004461510517440661, 0.006504632166029236, 0.017508516229562728, -0.01249078553425497, -0.05544755570254592, -0.049680647088794196, 0.05121220700436959, -0.0009735598949618285, 0.020539786982992234, 0.07416421588269, 0.001378058022025449, 0.025890651876490586, 0.023278912428660387, -0.029188603158438534, 0.008940594247980004, -0.0328165258706381, -0.0016392858494400223, 0.07785188253180345, -0.037459020279576725, 0.021738827095230884, 0.07406530837613554, -0.0383202241864132, 0.007870798179778708, 0.03886481214205953, -0.029870545187826038, 0.04454103952106131, 0.0056072748952965485, 0.01595079734468321, 0.03700519581264602, -0.004578051503298484, 0.030812725208023663, 0.004081021039313636, 0.03803326949350029, -0.011630016898386188, -0.05293444065257359, 0.04023876886650474, -0.062117874542164234, -0.08224536566075613, 0.07300241813270723, 0.0010972468047216162, 0.08049247194877875, -0.03270044623006595, -0.08376047972719255, 0.05335644001760135, 0.02910795374152628, -0.04199434214210818, -0.018307179537994083, 0.015673611144150244, -0.05704256167061846, 0.0052864895694598795, 0.06270996210226379, 0.06575249979270575, 0.006161146387906448, -0.04829599342250332, -0.052854618535074546, 0.016103313344748165, -0.008949222154490118, -0.038605042025445145, -0.08842734537001694, -0.08275548766470087, 0.003630605418754264, 0.06531575059040826, -0.0028993933017063237, -0.08618761229269442, -0.06175731311163061, 0.024231894753403375, -0.016971274416798673, -0.1595351657572871, 0.08161144010211409, -0.01125069033853938, 0.03212052454477674, 0.019309399030668035, 0.07911843619288278, -0.06495202006495551, -0.08012292162786333], [-0.03659797208357313, 0.0754061025220845, 0.05872655391829691, -0.05438368282824423, -0.07955140505645317, 0.025834918374272778, 0.03494482472887421, 0.04363784294602119, 0.11730969865975228, 0.10786586059952803, 0.07205632410048392, 0.00895121333920963, 0.044656634091838295, -0.012122438567323998, -0.02735815932784984, -0.021832332796530133, 0.0592076299055472, 0.010384600530925438, -0.06524085931334025, 0.05906167178549231, 0.05594573942979016, 0.07329116577502853, -0.03219005552484638, 0.0359974652408037, -0.024391210411790435, 0.10350290160247512, 0.007260992663513077, 0.027864215053551585, 0.10762477731179934, -0.021740376390940865, -0.0010714093366311552, -0.004500794508868816, 0.06738846587719635, -0.02600192005907867, -0.03432290250571638, -0.056493262173925717, 0.011960688203252311, -0.0003475984067428864, -0.031665068397081456, 0.056899694393975624, 0.056610679268049066, 0.06281506107619644, 0.0457105500781589, -0.03470798801003804, 0.03619219332757024, -0.0005379333829649309, 0.07759395529456244, -0.009251216993478327, 0.019571632634550182, 0.029597276952115524, -0.014432565599997981, 0.03173113895928004, 0.06357290079446173, 0.08301025940849728, -0.01197159492312235, 0.006796600782409565, 0.0650505649093148, 0.004559876339827517, -0.073369024101747, 0.04878338581544948, 0.03562308723835138, 0.012172442758741483, -0.06466275778653084, -0.049132522641384666, 0.026179275194021894, 0.08174919154544949, -0.10779515510784957, -0.05921464571542573, -0.035992044047326546, -0.07473664133593362, 0.025697408229918676, 0.005293254273167443, 0.10358880050097417, -0.0694404293890242, 0.02564303717212039, -0.002351687909994178, 0.006163988573281918, -0.0075749942990699275, -0.008852567534199815, 0.048631840435958876, 0.058373918800029026, -0.023303628796705392, -0.0717242934868455, 0.042636389856947954, 0.022253839901111263, -0.003215804939122477, 0.09302545689421844, 0.05036191409615705, 0.022687332208943933, 0.06260402900217266, -0.006266997596377457, 0.016576619254072767, 0.07710528594966985, -0.05584633737014592, -0.042760795307183144, 0.02683693924533794, -0.06652438068922623, -0.005998764697619593, -0.049584577693162026, -0.012820088754081114, -0.027282193027769214, -0.007647610429749452, 0.09375368813738183, 0.0376885404666866, -0.059288995667988474, 0.027603894420260844, -0.04469258987165355, 0.043018287879407396, -0.01867374585989024, -0.044637040439253844, -0.006457830642246692, -0.05690023161715699, 0.002854874771441332, 0.07121239186675989, 0.09239835877232236, 0.055337682521903915, -0.028596605935396112, 0.03514568815556165, -0.0733495594101917, 0.05446321800314051, 0.07469473902346419, 0.03534718878119292, 0.05995749120797612, 0.018205670363791497, 0.002508005810973473, 0.07364123714647375, -0.04241945207901013, -0.09096998136749723, 0.026975406025689406, -0.1584932050322968, 0.07668444183271432, 0.004326067006500935, 0.06062682607856429, -0.001132047430545281, -0.02993682314542377, -0.0027960210369895704, 0.022218211702893197, -0.004980005222500382, 0.06393445687537042, 0.09624038974468065, -0.004168621896029306, -0.03677641406753243, 0.06837806009993776, 0.0342126418556639, 0.048406176331105964, 0.014181922207653418, 0.020555238750864624, -0.06338534963715474, -0.13025373054741138, -0.16121756396198839, -0.04303075438628532, -0.058555917215554636, -0.04335607041538896, -0.009569849901400222, -0.04799020821419838, -0.039104833397009785, 0.014639337764713786, 0.011601517715497677, -0.05717827717094535, 0.019725415602583594, -0.08084870264284345, -0.034681539519116664, -0.08838552583053072, 0.051459739973242005, -0.05079844495668352, -0.0262995901174787, 0.06683018710321675, 0.008324484405203066, 0.10569844820053388, 0.002452935798176383, -0.013891154962303509, 0.027188588954077754, 0.0827213525257942, 0.051424962907412636, 0.025071930288658204, -0.08145560523663095, 0.04640390722122548, -0.11877817462812823, -0.02785168914383952, -0.06946989724762921, 0.008380915306999552, -0.08265233282175513, -0.00920994651793645, -0.08810390429202329, -0.06966155338460392, -0.06274258016285664, -0.025071206121924296, -0.05298546531485189, -0.05940437430984071, 0.05917585749788413, 0.004361894676172253, 0.0015877483695477482, -0.06790883936473174, 0.0008720678978107412, -0.031513895014331626, -0.06936620664434523, -0.00462628999028102, -0.07524836785712195, 0.02207268885830498, -0.05080840405312266, 0.055806370335355376, 0.03092610839988586, -0.07961113362631467, -0.061590375974026126, -0.026019496661459293, 0.0494486378701376, 0.01939011803199964, 0.008169173808976873, -0.02979887017262952, 0.040351571696119, -0.024801806358339968, -0.08910903743666305, -0.083569180585419, -0.0830973566048222, -0.032147617055248746, -0.04771617225418213, -0.009190538834492265, -0.008565704310402855, 0.004245912291778644, 0.02619491800199975, -0.022912816428220104, 0.08407589672463484, -0.018481726927292254, -0.05790108627876837, -0.1035288990308404, 0.021002849411037923, 0.03154638725408165, -0.07392372160266748, -0.003385428581269679, -0.0931320367912951, -0.019875497175115865, -0.006554093753704632, 0.014960985755588959, 0.0036477651902821744, -0.05183102109364868, 0.028146595725615214, 0.11706642779575417, -0.055562952179362496, -0.022693816911933288, -0.05155264918937903, -0.020715148660351568, 0.02420217538573578, -0.0654093706511959, 0.0530204403144243, -0.0005649443922876107, -0.10027570694146466, 0.04110550018689536, -0.06281830168243843, -0.00524039882553354, 0.023831770394997252, -0.01710527981836053, -0.006982371438163031, -0.06030941468085157, -0.08632375268333371, -0.008563886032496837, 0.02683567029965156, 0.10113720092875299, -0.025520165594075637, -0.01344067060617323, 0.003660375605005956, -0.043510972670779594, 0.05003121512928609, 0.040420419098795964, 0.00793217888613226, 0.02243862382826244, -0.011632426674034416, 0.09874312023032164, 0.03618842308189244, 0.005789652968341642, 0.07141554740991185, 0.021283849746168242, -0.005016661442367572, -0.06752546306424015, 0.09562930059333839, 0.010867465136072828, 0.018903592063959376, -0.022794720368059327, 0.0264127220213346, -0.041357582419377356, 0.0709305210601423, -0.012296885657227757, 0.013362157616979654, -0.09718376221739404, -0.006161576839980644, -0.04985752701377056, 0.07587076284750943, -0.05528661349441331, -0.006442348485829343, -0.02038925698497242, -0.005630411296676038, -0.0885387076862524, -0.03876600330501582, -0.024708488943675593, 0.06160961156969232, 0.007935417417470277, 0.02610809590560669, 0.12439824759434918, 0.03811092787789091, 0.03947587544093153, 0.09280034461508352, 0.083118391768152, 0.005377093893550433, 0.04959175786583142, 0.042726361502608154, 0.12206535403775677, 0.10620456441089261, 0.08244538606191192, -0.000853901677637084, 0.043051023147794194, 0.011027794196844317, 0.029307665755177743, 0.08956953035764409, -0.12643826714353829, -0.009454088561726035, 0.005383099305872555, -0.048583045954070155, -0.023435803081376678, 0.10601728546475671, -0.003424026031145869, -0.016185429854475023, 0.022883302346080173, 0.05930863736450948, 0.03923015626171102, 0.025224775222799378, 0.06738715317967876, 0.01021800378522884, 0.051974948375128414, 0.061037289017664996, -0.05605238873938681, 0.047223451236196354, -0.0007597442603506544, -0.056446203487824316, 0.03315665963398096, 0.028646598364599145, 0.05174126773745351, 0.021763052645366585, -0.07151408361869017, 0.040974363485087865, 0.02304269007109301, 0.027439025149221127, 0.05688069491040225, -0.04481034255399758, -0.0383656947090682, -0.06986535558163894, -0.03422354328185723, -0.10980743704299684, 0.021599141557905804, 0.028168617620439693, 0.001621223097649224, 0.06590580009321594, 0.09391067702755274, 0.019501022730231334, -0.07022988318820858, 0.006240092009619785, 0.025868984703439957, 0.13663181819917614, 0.0832380408535929, -0.14125596415881636, -0.04377725025152561, 0.051611977488162764, -0.01221062933399397, 0.0728189694914854, -0.06143141701574399, 0.014178902968657923, -0.02029748961148578, 6.166732645269629e-05, -0.0817515531953398, 0.014074378550730716, 0.08034424156665972, 0.05298115931929395, 0.008670880942209941, 0.005044813405872626, -0.010027914595785947, -0.05333473696047633, -0.05304192141228248, 0.07733549168986342, 0.022792659778933126, 0.040676417190201715, 0.014332661451664213, 0.007254428662052801, -0.0030171336725481547, 0.01967397047806994, -0.08942912296050166, 0.026939930854809252, -0.045392719242953565, 0.05900340594638887, -0.1472562251140038, -0.01450936054823571, 0.016641006573864102, -0.005643296158333333, -0.030151653999769278, -0.06584825857765558, -0.01331529412735338, 0.010505535419498113, -0.0386764130764941, -0.13051930777179657, -0.020618665594417652, 0.0817861822365903, 0.03971083017258479, -0.005139000687711755, -0.04765161779136046, -0.07621682317081559, -0.0002880788087363067, -0.020601606206414477, 0.0038046746203288175, 0.03698123748996259, 0.03546138802870058, -0.11590240085618146, -0.0324456623926063, -0.04829337399691141, 0.0768931347216754, -0.029642078169002727, -0.04908600189835487, 0.08021193537943451, -0.04798100156812668, 0.013605986873825577, 0.04969676463150454, 0.05154277081872299, -0.016857256579394325, 0.07934710363909035, -0.07776547858010104, 0.034092332171300525, 0.006822533088709553, 0.014579385458960753, 0.10166428229733569, 0.034725999773552965, -0.0358573897808992, 0.016562149842746524, 0.012745917703025963, 0.045974446196376445, 0.034716120702573634, 0.04478546142224945, -0.01465645579432518, -0.03854450685553045, -0.010317573896882967, 0.03253973599828638, -0.04148442113248849, 0.04240576817609706, -0.06044894667352896, -0.024630860561982885, 0.0517355409876263, 0.0400371243758757, 0.07043092189002377, 0.027678741735628364, 0.05240419590700602, -0.024394417083816913, -0.014346277086771332, -0.07132107723279663, -0.005645897432264037, -0.08082326178975002, 0.002374326979143631, -0.009111859091168243, 0.033405090662289555, -0.05585314632780706, 0.04124697180465268, 0.1259490886207447, 0.012403812850645311, -0.013733552104238513, -0.03465434139039182, -0.029786474000631, 0.03376647303074652, 0.035430097740536674, 0.0688858432581887, -0.021991461131485163, -0.028851351227930408, -0.02869592602177048, 0.021127554307386498, -0.01836660196991029, 0.014793672549160333, -0.06079087462875818, -0.05591276546104223, 0.04196716400534883, 0.14363526907440524, 0.0856813052261969, -0.07710063640830869, 0.04451679394988851, 0.004027242491386141, 0.08486234870856256, 0.08466110523924862, 0.04291260464495339, -0.023352437419669542, 0.1630657816563547, 0.014664030976068165, -0.0763652720807563, -0.007545287451375058, -0.026019002799861787, 0.06098617715381209, 0.023501897139744155, 0.01726611740196367, -0.013491515899797217, 0.04446129416296372, 0.03666850227813648, 0.00061146892782784, 0.04279806916146953, 0.05052595381611481, -0.018150002765374408, 0.03348751735502337, 0.011249132940695206, -0.02158806166408058, 0.050140534473190286, 0.055450444682082496, -0.04977803497981165, -0.08501473484687486, 0.015638695688772002, -0.01343463225297868, -0.05156512299558035, 0.01264289103269107, -0.05736404089818822, -0.02622349018836435, 0.03447197277529024, 0.03234152573315178, 0.13237717053704365, -0.015560858282904207, 0.10360942866917786, 0.012026493912531825, 0.05502367885065181, 0.062066842266974, -0.010327177916762983, 0.020747375778331037, -0.016092757106255576, -0.03709103098477106, 0.0024798143777904273, -0.06557803014772565, 0.0738653643649791, 0.015593618394856233, 0.047650813857071136, -0.037936929457123555, -0.017203772338952785, 0.041036523482945314, -0.01443694707839121, 0.05836266770797859, 0.027582752147808448, -0.036202927746695444, 0.04964679873406548, -0.029671133308768898, -0.0791845830583527, -0.11319306920803626, 0.013381182523718132, 0.048058625021762495, -0.05697282962633797, 0.031003332948402865, 0.07773657613673798, 0.08215641159477297, 0.013546969473270288, 0.08965204397311659, -0.07857453430391195, -0.04022727516754875, -0.06734061486693173, 0.03308430809358307, 0.012400122276914989, -0.02340340025841174, 0.023230428157221965, 0.02566592798595673, -0.0014667064269668786, -0.023288012774875147, 0.0795785841639145, -0.10351534379450052, -0.06158918263113882, -0.06474895347707377, 0.007260525595424993, -0.03307163389646069, 0.022892638223537543, -0.04129934302694275, -0.015320514102995652, 0.025936477883034024, 0.05120958001334083, 0.006815238395895189, 0.05547872383451591, -0.04045264732627977, 0.04250997642721315, 0.03658767850453188, 0.004256917488709709, -0.05494008290832287, -0.09408124344927674, -0.04000980336924925, 0.022611843151977413, -0.12523920807298222, -0.07881385339211198, -0.03259889066660537, -0.08406558034318315, -0.036788289746346486, -0.0015801977299960798, -0.04335075237864688, 0.10156044061939078, -0.08684106833382048, -0.055453181991235515, 0.06402182822655977, -0.04357735474361261, -0.03778090116217181, 0.06006252544726467, -0.043905841683173755, 0.010811135415630703, 0.007685119495672648, 0.0006652682465441356, 0.03307545125984769, -0.03639765293664944, 0.059554559758463126, -0.09307911264543502, -0.0642240165854573, -0.10094923519117995, -0.152676317263232, -0.012554632506840774, 0.04197834223882732, -0.04784025694178385, -0.11658416019235453, -0.004251809596051369, -0.010535884964414866, 0.0333852368604069, -0.0022970246490163757, 0.025435089791728212, 0.05802897521666196, -0.07547577753720103, -0.006797047689078255, 0.1060306943408154, 0.047954993949643705, -0.04101704801412843, -0.03601425849102123, 0.03229268232332799, 0.008097935028477323, -0.007843848189083845, -0.05748631406956586, -0.005397395769283254, 0.035111614260326246, -0.07984569115717824, 0.013921872539821242, -0.02769003215387984, -0.06792434455304505, -0.08443534310601312, -0.13406485730687012, -0.0008128680332946082, -0.1647601664167095, -0.06082218556643874, -0.025703750241867846, 0.030559726762492398, 0.07609620526147144, 0.06986689177832414, 0.0036626483219093075, 0.01807998018632164, -0.009409623378143262, -0.04372554162667542, -0.027639263644134666, 0.05810487118011359, -0.007371276453909303, -0.028647936086413358, -0.04377814354756772, 0.015501924312431813, -0.0029616022290320965, -0.04800303557545231, -0.01660395464875329, -0.05754962578272693, -0.07484276908336741, -0.021576281428979858, -0.0401218699611057, -0.006988026011758058, -0.04700553041230062, -0.17302767378213885, -0.07415916349576678, 0.023995847382725845, -0.08827267479632638, 0.005496487407035093, 0.07913420350588742, 0.008768190663977994, -0.04898763866112803, 0.020974996470636123, 0.012792391040183882, -0.055780517025190386, 0.05913443497362154, -0.04597353342158468, 0.002895233017577923, -0.10123402520061721, -0.08682766443468275, -0.004386150547018927, -0.09916367026174149, -0.002971105574881421, 0.08640821923665261, -0.02549049434687263, -0.06192896837743237, -0.043530548138287495, 0.0033081747631733584, 0.012343130280818126, 0.0038741070038240135, -0.0019455587643809054, -0.05395566779011745, 0.06019696251579523, -0.11228140200531271, 0.03732378834379875, -0.013153872688680925, -0.09936203655991126, -0.047064215196095716, 0.08879031849181482, 0.0429173119909153, 0.031250131963426075, 0.095378106160083, -0.043156254542038315, -0.016672029423866468, 0.042248828444709875, -0.03402385132471947, 0.05915996755434166, 0.012485076215506406, -0.09065591644217891, -0.030812725244935484, 0.026188260508575298, 0.025267882123765607, 0.014418094122793941, -0.029357560935215445, 0.04002901737051285, -0.0487674529657135, -0.05676426614178944, 0.002304320247329129, 0.006048010708804634, 0.018564404178651805, 0.07547140888767945, -0.001991543388934875, 0.022464110717627755, -0.04120664351848049, -0.040338024210436536, -0.06470787608135367, -0.031284816457136155, 0.035706686923592745, 0.050580250349787484, 0.03742727054676872, 0.0751912184973056, 0.053669041535999835, -0.09337180491355375, -0.008432433397436672, 0.005603882654283827, 0.0162376223410667, 0.025812573015420517, 0.024905273034701084, 0.011864674754539204, -0.006385600329939067, -0.04507243406184178, -0.053632097182162074, 0.02442741328186669, 0.018853489729286868, 0.004213929391338456, -0.024474338643544973, 0.041389232301603573, 0.07944862854700124, 0.036112305996005185, 0.05012162532758724, 0.023623448208801905, 0.023395094545062382, 0.03930219587962466, -0.03369143103062452, -0.0523837991318353, 0.09370823992881093, 0.051712301519111804, 0.025017690604270802, 0.005055497523295774, -0.09753934861538698, 0.08091392295002268, -0.05037438718590907, 0.0048153640621675636, -0.024637271922996605, 0.02961331137439556, -0.14048536280423773, -0.067874887119916, -0.08021626995060514, 0.011906158936819395, 0.06733401950353175, 0.030216975418608197, -0.07274494627947475, -0.004979871388474327, -0.010222496613078568, -0.024030794312101037, -0.016697926413041506, -0.06241103624535336, -0.03539251294290365, -0.019479734301581463, -0.04408764152243274, -0.016771873798922237, -0.03383863996905912, -0.004291609223893796, 0.053623783734673164, 0.0005419552796497013, 0.016732572052034118, 0.01787390033734496, -0.05979118794728159, -0.06320371460939127, 0.0312952414151068, -0.05893869028409127, 0.1127020301344247, 0.0508070825521084], [-0.04919990549311178, -0.0019471950569787148, -0.07837240528605185, 0.04920317144455345, 0.03315096077080282, 0.047479566013370236, 0.013001654105628703, 0.00034257350130157104, -0.07066525665736183, -0.007155773782312548, -0.07332030989066098, 0.08030521750958067, -0.08877099844035452, 0.02348202654072566, -0.012951270967892585, -0.011681081509297944, 0.06506358093629507, 0.03321510745405895, -0.023895727821036473, -0.04329013558628948, 0.0063921494626611565, -0.07289390716384334, 0.025808084554483607, 0.0280936292799028, -0.03624905217098166, -0.04070304350756837, 0.01647906396544278, -0.01891217338019485, 0.0693592248553376, 0.01601636183028486, 0.06953508210701377, 0.019566229124682085, -0.03100460319328289, 0.028115544301989478, 0.01639969742768359, -0.00954873520990709, -0.10078609548170651, 0.03303022511686504, -0.040279618027643994, -0.03945674487777895, 0.056184542035328223, 0.04596311602374942, 0.06277016229512039, 0.03623202396083802, -0.04931526727821066, 0.018449250719233357, 0.04481021574930344, 0.02046706428657286, 0.03413481718420105, 0.04226135359037436, -0.025942422901270187, -0.042347269976683366, 0.021433139707168977, 0.017056845394390195, 0.022102590879148742, 0.0023055367287481278, 0.03394943455355516, 0.07053326669087844, -0.05151706662559845, 0.10044097536393941, -0.05188070922277164, -0.10390781383899672, -0.0005832459665144331, 0.028709146037450454, -0.03446310669490945, -0.07718019177789937, 0.014605900638447343, 0.0015975418047790464, -0.007394390105690462, 0.04465992371625836, 0.07260711478526952, 0.04225925511975339, -0.002516589634713722, -0.011465457602031711, 0.06991251753062054, -0.011783744870080418, 0.03354653356529547, -0.09106928577388274, -0.02594165891738909, -0.032655339644246766, -0.04428235710889399, 0.08748142799455344, -0.00857465535655864, 0.03256216101264185, 0.009743271380331688, -0.0005978362036268389, 0.021570356588534612, 0.010301897908248087, 0.03882072367610763, 0.035156497832383844, -0.0739322164558035, -0.07939728521184714, -0.010543644754454408, 0.032076821110826534, 0.026692347451755825, -0.050742763766081306, -0.01824968396837992, -0.024503559986566614, 0.10574890723419765, 0.03990792373383816, -0.014269899108683157, 0.030033187076755823, -0.07720447803125005, 0.014639885691248983, 0.01229550920579942, 0.013029783617909716, -0.007568478659144129, 0.023105304550087708, -0.00278796020128044, -0.04495119413077688, 0.029312685809758016, -0.04941480980443042, 0.004172239028763385, 0.0008041589018956575, -0.0844607056078997, 0.03816945812314758, -0.03583234896184165, -0.011180324593840116, -0.10193535916221899, 0.05436661238295469, 0.038446241498188385, 0.03716510082358772, 0.00123680238872068, -0.020755467384590123, -0.03205733988342425, 0.06712514970484366, 0.031531059701108435, 0.05788187095057077, 0.0597503856885748, 0.06063252002766341, 0.020137742217661805, 0.001075793258132697, 0.06968219993669938, -0.07808816722585533, 0.08299184312938368, 0.048960454118093986, -0.04188100264088691, -0.057156575741052915, -0.06619108321911132, -0.03527633847502816, 0.008095651726115784, 0.02811033666864525, -0.03043393990510312, -0.00015514300823075728, -0.00831008044530707, -0.11549161292153708, -0.06008217390137816, -0.06147243275839908, -0.016915339953717398, 0.057660020832722585, -0.11454108427124422, -0.011750578353210904, 0.02536102538725871, 0.04404138778413159, 0.04359525395185542, -0.027726735678660852, 0.09547592653810606, 0.10155426767845999, -0.010266739335327109, 0.10002350889522295, -0.010309358937240035, 0.014385093528247687, -0.00038548144485924776, -0.06923260862726073, -0.07932211122998233, 0.03883507351327687, -0.023116465597045138, -0.03782107242815043, -0.020695444764600907, 0.013221215277606703, 0.03823698167216129, 0.1106741273392971, -0.05449026968651573, 0.0040133247537398825, -0.11085817118414017, 0.02870748341493372, -0.10357314039149344, -0.04108269512605945, -0.023062434508055268, 0.008309911921859226, -0.002798940291676559, -0.01982711571921785, -0.04115342494627168, -0.0053722688135090955, 0.0354560098107693, 0.11657573066390317, 0.1043624892428781, 0.10702024066444374, 0.09091520858521505, 0.06953920052043802, -0.05230278985555145, 0.0025393229908262376, -0.032040923159151545, 0.0504950854900172, -0.061137787735687496, 0.041705894979854684, 0.025833818701262487, -0.1543674799260476, -0.03312714928150239, -0.07782271209609991, 0.01253412935533138, 0.03251884477107681, 0.09615709402997863, 0.021140967258291538, -0.13536815329567345, 0.05202855156161128, -0.01116633382058087, -0.06789114393628254, 0.019407475336348984, 0.02828087465489314, -0.03895217803713024, -0.001852064141409863, 0.02028644316888973, 0.033044879127649814, 0.062113908840698784, 0.0777602739180812, 0.057253286373363105, 0.06705076539180027, 0.02230076218080296, -0.0037241762361751238, -0.008697552113207187, 0.012529737342937143, -0.020782247156745415, 0.05973614156617786, 0.05213096881419568, -0.10968448381819831, 0.031953469086440915, 0.030371259133035965, 0.004811831887800619, 0.06980247740684396, -0.03297775621846088, -0.08378185879966862, -0.04221828141504343, -0.0303783537994739, -0.06272286044284357, -0.13013130908953016, 0.006541743450434252, -0.11031228740652492, -0.024384430706438857, 0.01156966880048038, 0.016980624811769582, 0.00890845802155658, -0.010931841369317095, 0.07839657672704387, 0.05475970205110354, 0.017366648407337464, 0.022056722448663035, 0.05631719294635917, 0.07405807792971847, -0.055604481029267634, 0.017768039887531884, 0.07430882917569048, 0.021011665562789047, -0.014730018260691926, -0.1303343157135932, 0.04507763622196469, 0.030467379129641713, 0.028200231802843832, 0.004069124266143202, -0.09489061313428836, -0.19656883811485318, -0.010682863218930055, -0.11956275150994652, -0.03515868372820324, -0.046450357807861525, -0.022155597232719516, 0.037972186765765366, -0.0642856880586031, 0.03057089007922046, 0.08090736260499808, -0.005429162744971861, 0.07940166835591733, 0.0059479051016872566, 0.008730742109355101, 0.08611620224421743, 0.10584221298761663, -0.04658524772514615, 0.08997698006270723, -0.014011380114969321, -0.042528316195446385, 0.017393567607867293, -0.0049157211295404735, -0.10606606017411062, -0.031030832842193105, -0.038329061710968844, 0.011257756955447892, -0.00046739418705610725, -0.08354913108911108, -0.04080971834077525, -0.03194013808861946, -0.06472200312664526, -0.08464473966646596, -0.06097330908486599, -0.11250480585726748, -0.04518604431896606, -0.06629005304975824, -0.1269574908488923, -0.010408851914180676, 0.02922792601202315, 0.06161842473543059, 0.041374627784537724, 0.10412302402460938, 0.14286070604754655, 0.09884599745504545, -0.06028104629935602, 0.01320973085939304, 0.05222917774412667, 0.056028832371292595, -0.026871067602723384, 0.06015314996216145, 0.03287814143870492, -0.020476164260450045, 0.02773996027790023, -0.02031139602294984, -0.03616779639337753, -0.02205511719531658, 0.02806308308795648, -0.05427249655641591, 0.010531011665987976, 0.03194018631046012, -0.05813402452654595, -0.09318624069691786, -0.10625653608055866, -0.193200677718861, -0.04433615112953869, -0.1767165989622209, 0.0076737943936763834, 0.04434498557387456, 0.06306080897497317, 0.016366634482957314, -0.02451451830049083, -0.05409227790401848, 0.02465819627791032, 0.027272439263180338, 0.00012279479055068136, -0.0015984139397312283, 0.02463649062791561, -0.03767051839690722, 0.0638677187913335, -0.01185589109580418, -0.02122504394260625, -0.008263035758002383, 0.009195549427186976, 0.05844667766437217, -0.08789182498881272, 0.007207431415452127, -0.1310721117677138, -0.20171208493832693, -0.08492502611919016, -0.10710093515257249, -0.013081590858479101, -0.052643651412689535, -0.11472717355511247, -0.023975140858795017, 0.0003137574456085737, 0.04566170843230628, 0.13460309432967532, 0.026599708747786166, -0.03796366402903898, 0.03004985792039831, -0.010896742034407684, 0.004062485979036811, 0.038785894157143376, -0.059276794206578554, -0.01245471622504497, -0.04877814557922791, -0.13211373228280088, 0.030199187789108167, -0.06319925794152739, -0.06056971763310239, -0.07148942189042487, 0.04357083650820611, 0.023937600010159744, 0.04564317437507448, -0.05044824125889323, -0.03737040502639003, -0.0023331830252970726, -0.12306181077845947, -0.05132284857129662, -0.08241151760110657, -0.04035555489971807, -0.07543077475264476, 0.004291398179917436, -0.04964864807025077, 0.05483682795107321, 0.03326471176528147, 0.07478103861030704, 0.051023434987548855, -0.049785870693127864, 0.020441070994195627, 0.04690802864972513, -0.04043811073361459, 0.03866212192001105, 0.059564978288203944, 0.04328353561657054, 0.018883496336556404, 0.06295480927791457, 0.020693956531544704, 0.08364398970146378, 0.01061104119434233, 0.04004587672492225, 0.09628875544460429, 0.08175590901349047, -0.039129903941291434, -0.12119500907249543, 0.06268048353615396, -0.038194112401722304, -0.010058047282864123, -0.042470590668789276, -0.03733843985865653, 0.08432031905260823, 0.010203805003297027, 0.08533305950499213, 0.08945105847281742, -0.10737944317153897, -0.006473764917429162, 0.07361063106735971, -0.05009502628971853, 0.04963110927283439, -0.01530743241173761, -0.034824587345225796, -0.04338949139910469, 0.11558638461762154, 0.0024688315102588737, -0.050492989082768676, 0.04270663282954755, 0.017011801684731574, 0.06179614678523398, 0.07735463204605804, 0.0488320424778634, 0.005690981467795635, -0.02136936293735794, 0.02939180158739175, -0.04364735965227155, 0.022171955063313733, -0.08551316576090884, -0.012607874649240227, -0.09789763645169615, -0.01915912171946657, 0.009033672754472612, 0.027858740383682825, -0.07016846641567098, -0.03052359360368964, 0.0028539211682670506, -0.0029798510048737506, -0.008452344936166636, 0.06728534873608524, 0.07889814631887385, -0.0002763041594337786, 0.05567503504895129, 0.01814701453113883, -0.026170973777546284, 0.02312930230821568, 0.016580772637339772, 0.057528796074951254, 0.01444770668954069, 0.08340253518752382, 0.003711581436955645, 0.06932861170168308, 0.03902948249614907, 0.0011478894564785117, -0.02777771206800751, -0.06116994467539546, -0.07109460459187651, -0.05611820408723613, 0.05789466175297151, 0.038986704854245886, 0.06198938766838313, -0.006853361745376699, -0.0008885174440148733, 0.041610581175751275, -0.040021688027460485, -0.040705561550010844, 0.01547192197040818, 0.057201364554957106, 0.05663894501169877, -0.02778795690677734, 0.034192045398130456, -0.008103016935561957, 0.01497077022286653, 0.03304657291677943, 0.05842033811007568, 0.049646999955179495, 0.08787120555397131, 0.05857674848511212, 0.09036938282996176, 5.784896845990913e-05, -0.07649998888319605, 0.06978051844601237, -0.06320173494581506, -0.04988942187814361, -0.011771604964141319, 0.006413893238259871, -0.03649900919715973, 0.004993986418147434, -0.004418726796117374, -0.003959115505396103, -0.11326890927853425, -0.04143675653864574, -0.041377419828973486, 0.10044616899032396, 0.024815883000611744, 0.08684375485550283, -0.06743248827970091, 0.02777116164629395, -0.024223766168699673, 0.017087640217271497, -0.033380274427795585, -0.023154945983585456, 0.0531922021282358, 0.05019231601318677, 0.056122467176327746, 0.02602156338022559, 0.05561052156568643, 0.024795382012073177, 0.03195898807881593, -0.06314181367518976, -0.0447360707862347, 0.018747054843078377, -0.061828353894032066, -0.07167205747359101, -0.024254715995221283, 0.04283455683983837, 0.007912231443634763, 0.02666263026619519, 0.04575271973222526, 0.04231750638261533, -0.01915670878885853, 0.023059265330180035, 0.019938189215497837, 0.06269347235173509, -0.03746217142330987, -0.0159078996623815, 0.06282804517663193, -0.03170843625516058, 0.03449937516338775, -0.0252485169185304, -0.006197265874089523, 0.09239187625589602, 0.02726370459971377, 0.05285069078793154, 0.08806682854585902, -0.06751090177819598, -0.07405954560943205, -0.016334087908663274, -0.011151605514525218, -0.16043525520847748, -0.05463852606316526, -0.00369380080113689, -0.1388834953953231, 0.020930105946134335, -0.06614977383740031, -0.0742567933931816, 0.03676541778137455, -0.07675037982524627, 0.0010267813494609316, -0.05807707908137889, -0.047206390326815326, 0.0979000866871476, -0.09719155955245963, -0.00788113735185314, -0.06470914875987972, 0.10048578033124199, 0.00559121762845386, 0.017791034790720896, 0.05077298525219775, 0.035515200095050554, 0.14844262694006322, 0.10710992731992618, 0.11424638803717829, 0.026141779784872216, 0.050132848997233866, 0.0005546919385767799, -0.04585060440303543, -0.0390367496735338, -0.02102805613623671, 0.018966762925663003, 0.003002777603324162, -0.09741734248686612, -0.05602880934262099, -0.04519643476326003, 0.05056705636151194, 0.008727266310849198, -0.020037985902705217, -0.01841266933851996, 0.009906688013545774, -0.042152014153304065, 0.03738163828481445, -0.035869508697697554, -0.02311238625281247, -0.008903579927155998, 0.008964116673538084, 0.15279869243476188, 0.04573327470614183, 0.014080605512777197, 0.07799637277282383, -0.0016893465922301599, -0.01931811593483806, -0.038482906681146296, 0.005547819863470685, -0.048673511988185494, 0.058160966881265416, -0.046053581052592205, 0.053943393161899764, -0.011813424620984826, -0.06017531882393046, 0.015322188104311827, 0.05934503381876767, 0.018862521068334824, 0.03207199624970142, -0.09560006231791816, -0.053603648843328744, 0.014979763027342902, -0.06570118721858718, -0.0013731558485520839, 0.043315042205840225, -0.05908217314176307, -0.021524941178817664, 0.0545665814419935, -0.028291834427587835, 0.07588655970781386, -0.009572930636027373, -0.006332486141554106, 0.12711929757454887, 0.023632187674371797, 0.06040357177988009, 0.03847317562056453, -0.018064823266504278, 0.03378887898062376, 0.004985640549875838, -0.05801080085329121, -0.0022131339669318245, -0.020524320377376084, 0.008712859912021286, -0.038522044083490956, 0.04043329074863037, -0.044719330471361715, 0.08072986767948279, -0.0369264824719075, 0.0725944693122269, -0.04167111427661646, -0.006154468919277786, -0.03444281561429565, -0.07262425340785862, 0.01774376809766381, 0.006528436975233689, 0.046557809723007534, 0.08412864999324722, -0.039566812034302894, -0.10000308916596858, -0.01957306824096336, 0.09129801333291204, 0.026776745047997236, 0.041937686632748404, 0.10679774319872068, 0.06588914599276165, 0.10998760981636665, 0.050649393146685484, 0.023361853850693302, 0.04803519279215777, -0.05931213396105743, -0.02219828671166156, 0.06668396995388362, 0.04490142612324488, 0.019298254057538586, 0.08978461969767015, -0.08585143647461767, 0.06423577247831351, 0.022006195493638525, 0.023410187325427285, 0.0845163209813835, 0.060870267861534134, 0.02550241388689402, 0.05923941650116132, -0.007061594475337928, 0.018794498206452563, -0.038657369624154315, 0.040041976171172104, -0.1099421826442121, -0.027100427245053377, -0.0043257445787659035, 0.03278175101589261, -0.0507160434340185, 0.009415346643416464, 0.009222475122534839, 0.007528038013455208, 0.012008492671852153, 0.07441711851714246, -0.021687672536635123, 0.02669399689230215, 0.009858937534756298, -0.02604610216431411, 0.07108015831498979, -0.036686177267092536, -0.00281052757065093, 0.03811092705734994, -0.052392941649739976, 0.011419301853195372, 0.0017539441991258004, -0.08478605784504892, -0.01464267308951463, 0.03545499570927662, 0.06843742998970741, 0.028781290711123588, -0.060598916185996075, 0.043263193818679976, 0.03633757595905048, -0.05048980113720178, -0.0500811432910089, -0.07737306554026487, -0.08977807158616996, -0.0492950540383699, -0.01988337573397258, -0.1422806376214732, -0.0935611521735171, -0.007454885159307997, 0.07345033994684211, -0.05622444709049849, 0.010644956115502383, -0.027829542768303673, -0.02278996982495451, -0.017566753426401904, 0.02223322381839363, -0.12413130362035428, 0.03827986353770534, 0.04420008145977175, -0.024186847981601145, 0.009254420061915507, -0.015238673958430891, 0.040549921667805466, 0.015173133399781852, -0.0050746962722999596, -0.00033389234774053534, 0.017097456404936377, -0.0029918198058632643, 0.02871317855362859, -0.030460629424931638, -0.0033585973786285665, -0.003020672681278991, -0.0679398525334236, -0.01760577710970501, 0.01628568215334293, -0.05438186724567223, -0.09341979407594819, -0.13280076112143455, -0.029545866081156058, 0.05404859542595177, 0.045328165841984826, -0.0121883083099517, 0.006646983590407322, 0.023152741736341024, -0.014615114361332157, -0.05270852791228183, 0.10741316834595188, 0.028765547034486305, -0.0003667543527855206, 0.006769034894922621, -0.005135565550993581, -0.0952156725553822, -0.10633858486701912, 0.020005277238850375, 0.010796355506875204, -0.0424262134149677, 0.05801574429261149, 0.04138710166158731, 0.04785496288536855, -0.020683798203097695, 0.008109753840138722, -0.03805068767072504, 0.05647568251552941, 0.00011502781425851384, -0.014369391129713742, -0.07049232099483371, 0.08459835634010875, -0.019815916337876216, 0.032144556064744687, 0.022672146347634342, -0.013326905112057067, -0.08976255008974761, -0.021815403506688275, 0.05040123373762333, -0.05044607822813745, -0.05689317784660958, -0.0073021746151643915], [0.056630097722309355, 0.03256110716243138, 0.06868171751208514, 0.09645934350629341, 0.029053636616180406, 0.0031940989844737176, -0.09764755741072757, -0.03692994912471573, -0.020072454843912003, 0.011547522105973498, 0.08188277793904028, -0.017755264663942595, 0.055273624776614926, 0.03610890186318675, 0.0781115971309248, 0.06543305231632608, 0.01470027308819748, -0.015392449046720876, -0.04487693580428366, -0.021894601162565037, -0.05642736871210455, 0.054132864466654405, 0.0909281505606513, -0.007965978813807097, 0.0666137899924613, 0.024578260514893056, 0.008211288448519245, -0.004872790383102994, -0.0339512736390389, 0.02126373165741273, 0.0765933914200886, 0.11949753627298196, -0.03693445720087882, 0.010515778728348395, 0.00791286175565749, -0.050379052781140035, -0.01664651387739766, 0.003732827396061697, -0.012165634651870748, 0.04893880841902266, -0.0015601207872440338, -0.06869585079761585, 0.0682546223079186, 0.03312793282007952, -0.03987637170346203, 0.007812745603733264, -0.02701527829983264, 0.017093224720811137, -0.012172124501679206, -0.11909431449237741, -0.07626107696363574, -0.03693235343352828, 0.012397708485209252, 0.0013294042360164644, -0.04606223138348365, 0.0016807039893911608, 0.026732608745770905, -0.022579823510461304, -0.03232891075905304, -0.048913151094198574, 0.040240996171181834, -0.06172558582566248, -0.06181483551547854, -0.0007459591337247648, 0.08389983533555105, -0.04359843842451414, -0.04298162868283302, -0.01350898201865869, -0.017928217713112073, -0.008487169917266155, -0.03077594111711314, -0.0096550203983931, 0.03724119649680064, 0.06968369048555953, 0.009449651195395167, 0.033653817870739816, 0.004285667903048885, -0.0025479298059456396, 0.0054971322388447765, -0.03697873317165766, -0.06707542983321242, -0.0540537249637297, 0.008017335065947597, 0.06325472076974009, -0.004157028646806273, -0.018230735533658556, -0.09951798332815029, -0.027673110118455108, 0.056106430566144096, -0.00840731252476388, 0.0011646112196347196, -0.08380556796363939, 0.01385422676986805, -0.036010173169124894, -0.016391103346341748, -0.160515980730167, 0.04072886112412455, 0.0937258612512806, -0.027233742552885958, 0.07872719861496122, 0.04431446429383252, 0.04204558278438059, 0.03526440719096097, -0.05020768862839272, 0.023025128050806934, -0.02588591946268145, 0.026646085280405196, 0.03216199898188484, 0.0336157583401513, -0.0855928204707475, 0.003431724349155463, -0.039183199518042805, 0.00608375642965124, -0.05698347906740493, 0.007132511233695104, -0.08470939085166677, -0.01052732473689581, 0.09837516109853593, -0.054402461497859975, -0.013413758918888647, -0.03724593283536032, 0.020751761029077373, 0.00024745342979343724, -0.10248635914397435, -0.007101483338980266, 0.006417445768987558, -0.0030016187555883846, 0.09111743590389797, 0.029789857117715497, -0.06960456662610426, 0.029267335620691642, 0.03273286307496688, 0.013978834872446111, -0.0467964383367069, -0.007946791871216705, -0.04347403775525972, 0.017063920501320634, 0.023620290556500077, -0.0017246956956225247, 0.05868955821650995, -0.016656721104566913, 0.04019660537992949, -0.02182311939543864, -0.007673030487007508, -0.03149616572837364, 0.01550324872869554, -0.00533690036937003, -0.006323496685521706, -0.013748943639108994, -0.029730562518664155, 0.09560855675297124, -0.08196947253736826, -0.028842787627382432, -0.02435934775753785, 0.021753120695386235, 0.04961119676336128, -0.03273461066234931, 0.00242376069038207, -0.08283273942250179, 0.027377439552330265, -0.05536605699104265, 0.011269851201097235, 0.12454103991074315, 0.11039851379022493, 0.084366685699387, -0.005248939140844681, -0.06186118444516384, -0.02631830859026019, -0.05744477661372304, 0.022397451297488626, -0.02451790295835959, 0.07373994648058996, 0.04874549871831329, -0.03592210252896625, 0.00038903994757775637, 0.0183063502308765, 0.014089062247503593, -0.029900217682178515, -0.02284629021555545, -0.096470386683209, -0.011916775264920784, -0.08078849301199044, -0.039388624035083475, -0.024612352040045107, -0.07514660215785536, -0.06815801013960017, -0.032229467164696504, -0.1471346326306111, -0.02984280253830201, 0.009739935644905068, -0.03445303597637438, -0.023939672279842915, -0.07425326558447634, -0.01530436559957551, 0.038675355804950635, -0.02699370743377703, 0.014576752383342108, -0.061342457575262785, 0.032583576631175, -0.03570820172984229, -0.0024718720082149855, 0.043514984630261704, 0.011771909421274956, 0.03303519192292973, 0.0067824702919437475, -0.023284197443342473, 0.005258461769793947, -0.05289646184280204, -0.09807656470296608, -0.199490867083877, -0.09937883429349383, -0.007271435820274693, -0.06858672552246924, -0.03161345274554298, -0.08547387794409375, -0.03453382873768972, -0.08809955465807337, -0.11762290851397321, 0.06553235673920596, 0.06968400994205282, 0.043394515563847214, 0.04722693732590703, -0.02626298201657749, -0.08759168755382903, 0.08871374298991153, -0.04549938442051688, -9.869630065674647e-05, -0.052826551235706745, -0.04784308930126791, 0.06740540266854712, 0.08053811717812952, 0.06499547290318658, -0.009691334595543635, -0.04464812212591406, -0.00685962807868178, -0.03539541118860301, -0.0871654608322171, -0.06136854598626787, -0.019775011884564844, -0.028053934049912285, -0.06313954706692863, -0.0897368280811639, 0.0007987495789510521, -0.06983961992280167, -0.09550381128150122, -0.026735590045207227, -0.02523745603651558, -0.0018215774777225612, -0.040360720611798455, -0.07765140946813603, -0.0423973080126914, -0.0488189333985095, -0.022454631344614707, 0.03099864867221031, -0.037845159202249054, 0.022403637335677573, 0.034980120668856765, -0.05306356911425283, -0.00889425389808009, -0.055637453322364874, -0.056250036401418145, 0.057792760798995965, -0.015088061955352903, -0.035197193655628414, -0.114263786684526, -0.18756898071313982, -0.08829111216848531, 0.00019509875211363395, -0.045247417788366585, 0.03369011810011259, -0.03406876584038452, -0.04003857521498297, 0.04835673444113675, -0.0448774383195401, -0.0552020493598372, 0.0025417418688640056, 0.04437595306878413, 0.018593357387700293, 0.039048304720393785, -0.0008437731454223244, -0.0021949289296229087, 0.015845176737510958, -0.02980419437914237, 0.022345025220038738, -0.016230956192461364, 0.033009960858323306, -0.006023291910736434, 0.04627075753228748, 0.05833337125379071, 0.011205458831926422, -0.1393722569376362, 0.014644566114731214, -0.023298558125468775, 0.0051895492524117355, -0.09481664800597911, 0.14200732774277394, -0.008978253003485202, -0.010197529567717077, -0.12507884054595786, -0.13095713726608124, -0.10481103135013886, -0.021502922805729983, -0.09164707614678365, -0.10538225502472394, 0.01727544878931815, -0.02409860625278689, -0.013766703322559963, 0.04288023427810111, -0.03726236868786389, 0.02570063808509215, 0.011557070918488283, 0.03402346982711501, 0.050987592797438065, -0.057204375833095004, -0.050738613251895395, -0.02995845413169869, -0.07908981713860969, -0.0434800602579439, 0.053611713134469274, -0.026395904306894893, -0.03446822692900421, -0.0965914493423016, 0.012247541611748744, 0.07400931067888653, 0.04880341097897348, -0.04982883700127797, -0.07721452771409715, -0.0720065677012632, -0.09696839545942715, -0.02773508007787466, -0.08412937136126108, -0.03268986436555229, -0.05473569989326241, -0.05960534918323492, 0.0251178412746816, -0.09723469059452307, -0.0749166170561562, -0.021993102483619912, -0.08131713121920749, -0.057641642880753394, -0.03543816535460275, -0.08408811447242195, 0.0174665895073345, 0.048886339038795225, 0.02296326876709731, -0.006933372941824075, 0.04995698628587289, -0.028472002713415365, -0.011525252067553428, -0.004706141327505672, 0.04354180014662605, 0.06730015446178039, -0.008481379187050513, -0.005684611043067345, -0.10427809303373563, 0.0025190699655337732, 0.01113073655684838, 0.03528134536407698, 0.04754797946495036, 0.026652675786652546, -0.02521280129210085, 0.07639590463112789, 0.006943563393286029, 0.027900707700970796, 0.08299220784636632, -0.026638942511757618, 0.025338588516179848, 0.00729146777056194, -0.04447193483520472, -0.021000436045700437, -0.048647797913137975, 0.09015662154401917, 0.016810041327645006, 0.002779536376953495, -0.10011813899023765, -0.016610708258961274, -0.060412722268569634, 0.15172605733418884, 0.07990133028279699, 0.15059289452202762, -0.0579202084051557, 0.007954894796339724, -0.03899449534751906, 0.05020398317361603, 0.009753839914492593, -0.005928341065697416, -0.03752534908601611, 2.866741046717926e-05, -0.06531441394802595, -0.04086433329862063, -0.10752024170906387, -0.03907164555866484, -0.0888795049017975, 0.03861338842870316, 0.05088379943535394, 0.05760636880208761, 0.016919058345809476, 0.008153205437389835, -0.0003495263740822806, 0.02532338353963216, 0.03955723709982873, -0.03412932811580426, 0.06393019920530733, -0.08378401434231789, 0.0774199936550567, 0.017726323751175097, 0.03535788236534419, 0.04818194382914196, 0.04236148856412591, 0.03104533667399991, 0.032778024042067366, -0.03774927640752248, 0.0292201480723429, 0.07981742181892111, 0.006697776587717711, -0.0070889381396806095, 0.06388687151424946, -0.020360373520923954, 0.023226780793223097, 0.017481263651224675, -0.03641410915017338, -0.007997143538522107, -0.035155909948708486, -0.06254691853840125, -0.08922707950086659, 0.023482208529248032, -0.007510453576018227, 0.069420270280258, 0.026049752347512306, -0.01953643410810183, 0.006367878443935154, -0.028057103269418213, 0.1263710478573568, 0.18202113694037086, 0.09238087396217794, 0.11320827821909878, -0.032366947811683436, -0.06952908020836483, -0.006952890841074543, 0.09584177053024043, -0.09863344211150506, 0.10691157121893752, 0.03414246064078138, 0.05409126433451836, 0.015053751324986703, -0.020852816291724228, 0.060075353563653705, -0.02138964703887516, -0.011582743220001888, 0.023520375561291548, 0.00949546235382153, -0.025795855398351386, -0.13008006490560492, -0.028933852096061998, 0.051912688352049124, 0.03691074712737908, 0.06204428554977169, 0.027780725208064187, 0.006375907751981473, -0.03166319033001187, 0.025882049118211205, 0.05587372596848008, 0.15836674794546662, 0.07481782598487002, 0.1238877488698618, 0.042698763385406756, 0.0216727528611161, 0.03083615136739144, 0.03609071871709892, 0.054624578402515146, 0.059973995289510924, 0.15355385219948595, 0.09291215458982224, -0.00058368754796561, 0.060178204412162435, -0.028568478805377887, 0.07222639476483068, -0.03462802663610156, 0.056106621029192935, -0.06665293610104694, -0.03044107141997865, -0.021796365987650675, -0.001763082141184794, 0.06010206195094686, 0.04079124035664643, -0.041804996880846865, -0.007079422025609749, -0.02212118565291308, -0.04951006249789116, 0.04122540452896729, 0.13049864038659473, 0.013777581685169633, 0.02477530689536113, -0.014457306037449378, 0.028546471091167147, -0.025188060178618077, -0.050135414163049716, 0.03196912093027317, 0.036441835510946895, 0.13511059449715712, 0.07097237657138578, -0.037746909026005845, 0.027298885457660522, 0.0010965971804823326, -0.0034486242143898227, 0.007353457854727476, 0.041004880218804884, -0.016077015546487373, 0.013268241777153546, -0.029755486937492404, 0.04004068257818225, -0.1252402538526741, -0.03824224303990186, 0.06052588318288162, -0.06701632448543564, -0.06869300900255128, 0.09972077525877761, 0.09683727284755148, 0.08531205797574887, -0.006747800919927408, 0.03973162280007678, 0.03243301714031118, 0.05393218384626778, 0.009016850621677222, 0.05328896769106923, -0.005788315764306781, 0.041119246035822225, -0.04859798151761355, 0.02512229260426362, 0.03337033754917238, 0.023501034205602563, -0.011328012830312083, -0.018830238158359887, 0.02196359369889026, 0.05429526135029791, -0.05175300236424748, -0.07901417568618731, -0.04856028356360457, -0.007588578838974712, -0.013707716166667201, -0.025554378043056755, 0.009264050074412718, -0.007548069003809254, 0.1188346736746603, 0.028744478339728298, 0.0358968691966686, 0.019401802904187956, 0.05865881816008324, -0.01675757469586785, 0.05751633734942109, -0.02449111940122471, -0.08054480207730123, 0.0009885797093403745, -0.00034020096972261636, 0.031012828757682527, -0.06992127667429407, -0.009570549912275761, -0.07350083089967024, 0.0004658596595309678, -0.015133057768223608, -0.07512385262410874, 0.027088099675256234, -0.038102644023955, 0.0517944766129992, 0.03852099351549007, -0.03529380263809742, 0.07325176741818784, -0.0048642498969804614, 0.044602292211389026, -0.07787528055359152, -0.06558770884659187, 0.009343302328618474, -0.0008239075693443156, 0.0655075060424442, 0.0699322466434292, -0.03997762672383829, 0.07090291747697063, 0.07915202767830434, 0.012866264655204398, -0.03360722289638722, -0.03753848647534258, -0.024232293962174047, -0.08760315516447693, -0.10967382088681567, 0.043358453509195954, 0.041673997966865904, 0.008994292787796872, 0.09398711524004381, -0.021549973660745715, -0.029040303215558814, -0.03618040679971394, 0.007255443609359327, 0.03622693594385537, -0.02623947707849441, -0.030511466409793554, -0.01877495115042793, -0.08778775499347688, 0.04541761189363459, 0.03019519981067385, -0.04935227575885719, -0.030983318095523068, -0.0032535591579648925, 0.06708185086163286, 0.06588925659976225, -0.03073744163809394, -0.0032840488541937655, 0.022089738216451583, 0.04046719175608567, 0.0509594846251213, 0.008235674390380223, -0.0175724527231227, -0.017604944614924796, 0.04431068951273751, 0.08080777907842372, -0.011173437357660989, 0.07532969629582116, 0.03858828090263698, -0.04980230886640244, 0.04531294330129581, 0.06354667099566133, -0.017445123618651335, 0.009249119687886328, -0.07590122236526663, -0.05303753081060326, -0.044328865724797745, -0.0015734244512003981, -0.08123939888374224, -0.03418668857670284, -0.08486060821936231, -0.10860583806962189, 0.07111435875056779, 0.057672369324097604, 0.007206860842961014, 0.04546395723424481, -0.05644796297537258, 0.006410157582452399, 0.08849863242028266, 0.08104506446671574, -0.0682670808994382, 0.01590820602031991, -0.008438285950789177, -0.0062546982960192425, -0.03683227157342083, -0.0688807802356554, 0.01800858927873934, -0.003799789968907877, -0.0054262491205786245, -0.03553079282973697, -0.05142854589366808, 0.03825611247711475, 0.039972646851526045, -0.03665139636227473, -0.004497512131771454, -0.04545919967891757, -0.09494282910537162, 0.010229213440272462, 0.14699825220867815, -0.01900921064580954, 0.047674098495624935, -0.09497119402548106, -0.027723311997300746, 0.02049837851877146, -0.037082943318362586, -0.036167416782009215, -0.07498323634076602, 0.0344876703091134, 0.005994408828130986, -0.07622350702326021, -0.05039413708707037, -0.04115877533926841, 0.03639111251114358, 0.06393929421177859, -0.05834401067543296, 0.029708550587350866, -0.008355692275894982, 0.0687202211539914, -0.009003541304171659, 0.02653426682096, 0.05881673045507994, -0.04361121092160398, -0.04907664755384873, 0.04222504693130872, -0.02842005636644081, -0.006355232142928683, -0.023713101815948448, 0.03955359663198451, -0.045018845530093214, -0.07680680430006069, -0.054914839232293865, -0.05773947444713318, -0.01664886397984763, -0.057594237525145225, -0.022627783224502367, -0.10994490061894176, -0.08111907994820412, 0.010143556250599501, -0.027712672712331826, 0.021071643200987995, 0.01684009633873531, -0.024842401351795752, -0.01692094591771043, 0.08561567446320996, 0.05147255088898971, -0.0575972983696146, 0.023292307317403674, -0.013551091950900113, 0.00882495506788582, -0.04234081966500821, -0.09166700773030118, -0.0015544798888585043, -0.0989178076562296, 0.041307786750199124, -0.07954240856354441, -0.06164209719979953, -0.0909074339805078, 0.024556153207209136, -0.031793272408126794, -0.12755894657021447, -0.04637669551293843, 0.007883603947637324, 0.029628623448408765, -0.007375059656149464, -0.02822455392360724, -0.02312345329287096, 0.005009951393198234, 0.045709898859399314, -0.05395283139363459, -0.030487515240305435, -0.04021392682727378, -0.035495524329316665, 0.022899297355013414, -0.050092954609000574, 0.036018418961264016, -0.02767060936430444, -0.03360147298299783, 0.034468394289997775, -0.04367528327771714, -0.031559175151251735, -0.04239662679293286, -0.06072723640900471, -0.07045409913824836, -0.032433072131849816, -0.06586652055153172, -0.07233369787664772, 0.01836151130962637, -0.06171814896877915, -0.042898541475635155, -0.07035380982274067, 0.018505682106410723, -0.017720593832360538, 0.10577781261037093, 0.03497452178171029, -0.018983381873910334, -0.058448210653053265, 0.04635772586325508, 0.049255646839563724, 0.011667367078713931, 0.0688916353371389, 0.025189946215516294, -0.01825108557744468, 0.07258879997330313, 0.08340428780534052, 0.006295323319764985, -0.011325644771784053, -0.003133920210525752, 0.04557736459403034, 0.03522828606521165, 0.015579746291122135, -0.04664226141778957, -0.10049638480354313, 0.010380279882567772, -0.0316161844429164, -0.0068243635049956095, 0.023008965716508154, -0.009843034451604789, -0.026500438038769912, -0.08893009753153805, 0.029834554043612856, 0.04897173012675178, 0.05262651117167295, -0.0866025544242592, 0.01320764238006467, 0.005979703388323778, -0.022205648650989132], [0.0056332553048916885, 0.04169443631341357, 0.013054355995442284, -0.07286322207333039, 0.041458082519888674, -0.009228909233976009, -0.02950096394227631, -0.02464205296710203, 0.07526906045813828, -0.018282875377409316, 0.029966890478380553, 0.04799277773213925, -0.09162083672333081, -0.046092454239543564, -0.01412127888850066, 0.010363966028895517, 0.010968382363334509, 0.04239723315170183, 0.06131294458499711, 0.12861976915338233, -0.030464323057094716, -0.015497268319625744, -0.067912488840092, -0.002315514165355079, -0.004323935778567997, -0.04474141981119438, -0.02961692384377085, 0.03217932110193124, -0.013520291320068639, -0.05654303254266388, 0.01654155416818489, -0.040554030961362855, 0.05726150789126979, -0.015351794479756663, -0.04784039250780919, -0.003792666851069356, 0.005279062421604683, -0.034600515855094695, 0.020565989062248508, -0.026410139388158355, 0.05270415166186936, 0.08832747131077476, 0.009142355219576565, -0.021718865315581728, 0.05642346412764191, -0.045067938364563756, 0.014065824685120867, -0.08896436540773764, -0.001908628424872059, 0.01031158613219787, 0.025858359404925473, 0.0006391269113547311, -0.05644098499768914, -0.045427335901887946, -0.03797992748432308, 0.024343298827590946, -0.025966921900177648, 0.009235501469200996, 0.06552532340261935, 0.05334871303469168, 0.043275566048398335, -0.002663092221925645, 0.009113759226846957, 0.024558817775928977, -0.0973193474103189, 0.08517699401012023, -0.030146225748805343, -0.0357666304210951, 0.035004395284220655, 0.007941919830561469, -0.052366608626173115, -0.008643481360405282, -0.0852814088593494, -0.04735433724461649, 0.03186700115789595, -0.05309707627435543, -0.0708933098970795, -0.08814450533285687, -0.04381707481221203, 0.05233610177076224, 0.017997471830903573, -0.006069182137364669, -0.04101043401526619, -0.04209143229594767, -0.0963559546939295, 0.05297656467246663, 0.008539731889202762, -0.09850403881997036, 0.08630235329382363, 0.009747753638920678, -0.03726047353915144, -0.031623528033338164, -0.013309907132580368, -0.03207319414546901, 0.017881967063661297, 0.02527928977842126, 0.042527527320811234, -0.022827045856259956, 0.07026593545201378, -0.03026038348724163, 0.09404250425346494, 0.059045551557366224, 0.03384074662813584, -0.006706071025481092, -0.05018197785837943, 0.02797386364884725, -0.039612371837965066, -0.00841815020554609, -0.09976894670270955, 0.03178864667401476, 0.021185371822697304, -0.006490838997840506, 0.09493194577735116, 0.04142112750720961, -0.016183368497924587, -0.07652175261778789, 0.040184574848347025, -0.03431517076525972, 0.0008267411315329905, 0.0016768084853137752, -0.07998784614848126, 0.03307520983449108, -0.027862359604190614, -0.03255278218958341, -0.031840861282697405, -0.038010875197888004, -0.00739174827752739, -0.04856672140078476, -0.05768168127577343, -0.05947253277877449, -0.019604176482343458, -0.10540276020527214, 0.023215695877507676, -0.05098006800387153, -0.046056585604283946, 0.012199158134317089, -0.030766526673722823, -0.04610040243432004, -0.05813394398887233, -0.03636059598421773, 0.059335068131763924, -0.013623313686027172, 0.02692454912908509, 0.03354636001815342, -0.017048545823939595, 0.020823189317076607, -0.017138428560140414, 0.04270723755765656, 0.02597857668076753, -0.004177100633783982, 0.05238656309082936, -0.02745837838670657, 0.004709536683797981, 0.07434964869060628, 0.012102439043382785, 0.09142101571808108, 0.013038003898308973, 0.1710744577991266, -0.05621826172057938, -0.04582063031358916, -0.019061818365115054, 0.013059054158538188, 0.047560416504124695, -0.029353045241726314, -0.049192049806199234, 0.051361809494530924, 0.013088629191367534, -0.022730058195140256, -0.0032530174568110646, 0.07810778888153577, 0.07536572291599897, 0.030778323834979894, 0.0732807578081912, -0.03621224501892776, -0.07087486084936444, -0.0588441235636858, -0.03285502050052239, -0.02115992024154752, -0.008208752581318604, 0.009312211398417118, 0.0668507339324233, 0.15180070247434865, 0.01373024997185937, 0.02088846589885552, 0.10266738115426208, 0.11903921965364336, 0.01616636725521151, 0.056433598207794755, -0.013692413241420103, -0.011853044378508742, 0.055356328618555974, -0.04413303375623179, -0.02995875509429786, 0.016318473538614008, -0.012093922014340563, -0.00297623429066393, 0.04193377965258622, 0.024312602735488964, -0.08001909606463924, 0.02645905151237109, 0.045265172139474674, -0.059018082598311206, 0.0006201236477324113, -0.023935142708906253, -0.03325866176196208, -0.027893364979115376, 0.07294387776075309, 0.054729993326389934, 0.03773713772254311, 0.09576588249533961, 0.11838794720716599, 0.09868481151549964, 0.10830143316431678, 0.03210786037854425, 0.03783838713463969, 0.14578556466447615, -0.005456163682790162, 0.07715223672035175, 0.021901561769284865, -0.0429305858603583, -0.007019710072193351, -0.03244774788197235, -0.006197249042541911, 0.023917006339324316, -0.07337148343064735, -0.06484174652352902, 0.0036580152097841837, 0.0689106275535496, -0.04459997496299203, -0.04416532199063436, 0.015935098958763924, -0.017078556383390602, 0.012824127809964819, 0.03836653350494355, -0.0031941994104466125, 0.017827453979139603, 0.09926461153229293, 0.01209765339311382, 0.03189129695244296, 0.02114482676787442, 0.11202392370280415, -0.019960468334504766, -0.043806326702630155, -0.007779828519763129, 0.0802151604458479, -0.06456742015391768, -0.038339496268662725, -0.04858521131208122, 0.060106839453600396, -0.0809343707078289, -0.07664903933159471, 0.005529678973777788, -0.012185087815506096, -0.098947061261881, 0.11307207661066164, -0.046498879821902726, 0.01323194131353765, -0.003243258879253439, -0.018966078774080755, 0.0630824209070115, 0.07537417291379525, 0.028671618367040838, 0.12590844109159505, -0.06757544773728097, -0.05410534280782359, -0.06115172628805604, -0.07230463020824139, -0.07540354874329519, -0.0824333022035487, 0.054283757701089064, 0.014948423868045868, 0.03761275875334676, -0.030271647614033163, -0.0053689323138719075, -0.029212372224605133, -0.08451684024795635, -0.00231091200073662, 0.0016133468807043709, -0.014931563946070116, -0.09126307054167883, -0.02501789209737096, 0.04225275203622391, 0.0030634703922005546, -0.04567552973547343, -0.012674513711286332, -0.003129354199235908, 0.051770238424683784, -0.005875018918282755, 0.06340109471469466, 0.04170795783482689, -0.009735267772736467, 0.06850864603464346, -0.014966034475463356, -0.04582259190390337, -0.06918218723901623, -0.19325263739512116, -0.004640347892701446, 0.011585267701067383, 0.028530087354599897, 0.058524995398665534, -0.06950533624907725, -0.07075743205346094, -0.01527452417832292, -0.024929797860065942, -0.08173539861741884, 0.01578254590887914, -0.062126750611901455, 0.0002457926107412704, -0.05442660424301274, -0.04420078216359659, -0.09259113496122398, -0.020684866104491956, -0.04218468652230529, -0.10199086082797935, 0.05284271926204878, 0.030750611962624585, -0.017861760524787086, -0.05244969559494808, -0.06959774933035928, 0.07643902820108994, 0.01630802834736594, -0.1961624146463812, -0.08637682386057441, -0.020093706200840798, -0.09947256908472622, 0.009840715191755296, 0.002529255374629978, -0.01195407746968886, 0.06941794254165992, 0.03458053863918821, 0.013362142793960958, 0.030230737241561164, -0.04120922101403659, -0.020261833659132332, 0.032517022874965676, 0.052487021646807436, -0.05233508489839235, -0.04266679830928374, 0.08999010499374266, -0.028842905218581284, -0.05725297793146774, 0.10450972334833412, 0.05300439071212555, 0.03286887721472672, -0.014131714954890181, 0.040636748333289584, 0.0090885193479829, 0.03830526783258474, -0.019783176505528903, 0.035710335413984086, -0.050893871016263297, -0.02718318336180977, -0.024476252618432344, 0.08328079836585196, 0.059685489729273934, 0.1264893391304828, 0.06651603870328479, 0.004766476734964459, -0.058184811131538526, 0.05778659169508791, -0.02495821381953252, -0.016735236053022264, 0.0016325609963218875, 0.04105084317413069, 0.023073759020619377, 0.06837273930363, -0.03407132949074857, 0.043381424584230326, 0.019969120918175744, 0.08129257369116394, -0.011573265880887612, -0.06439733663603145, -0.033667947157535016, 0.04644137799165918, 0.1326606494998327, 0.02132274269916187, 0.04206223453498345, 0.06428735317198063, -0.07201152370653814, -0.0015825958875503132, 0.028901501340791565, 0.017117848596026178, 0.04165871818229207, 0.01871408784135369, 0.09091590755261775, 0.07374383764727224, -0.042725623993295964, 0.052514020646256473, 0.030049903983412507, -0.052327143800044176, 0.07451005623124475, 0.0015362725783398155, -0.006136201165135353, 0.006923687032964315, -0.09591505868038859, -0.10175507154149473, 0.02028579986144279, 0.03798484615369776, -0.04187296925792956, 0.11833119332623517, 0.01698842695804595, -0.018172362603058472, 0.015576044324883152, 0.005349361887135478, 0.09658614869089197, 0.09323679864599368, -0.0017341588477305043, -0.0533213886755218, 0.08168848693162528, 0.06355939038793552, 0.10949893376232178, 0.0038960772971853926, 0.014702636161157199, 0.0062176602348010005, 0.024310800732517176, 0.038525946757736754, 0.01745411710213716, 0.04157621529240392, 0.015494852230046569, 0.07677042094711105, 0.012491626866590645, 0.009395790622869993, 0.027880288821897574, -0.043323632277286035, 0.04362548842857355, 0.07006272014149814, 0.05271430362609185, 0.07659687273734439, -0.014714250919908703, 0.014378451036626806, 0.0833699402793759, 0.08588145511784853, 0.043370395173969706, 0.07010323604566109, -0.002775812690456061, -0.013846438958018018, -0.03592607031083998, 0.005811089105815643, 0.031049020006956023, 0.06676894935618173, 0.016593119713639127, 0.006733508592709763, 0.07335901237174237, 0.023440752202994665, -0.042128079107800996, 0.10137121221922685, -0.012774224813450396, -0.006030828226791862, 0.06985546303474477, -0.0058673879493999605, 0.0020407015779634525, -0.024172428340414522, 0.019420880230607902, 0.09476273970944005, -0.006871644867431463, 0.023503334767644376, 0.052395523161002475, -0.013436561796532723, 0.05542078097612331, 0.04889295890370892, 0.04755693673443578, -0.014851536134343712, -0.09848936433898499, 0.06872578998332841, 0.045341575561332524, 0.20436998785700153, 0.05904260668984745, 0.045507119903393144, -0.034602851281345166, -0.026634357991792534, -0.04281653205084781, -0.1290614057857271, 0.02044184861398941, 0.15141869266579724, -0.07997038691787185, 0.05480557584584956, 0.04090628771189528, 0.017063923437424574, 0.013591636267711206, -0.033567183846505685, 0.012469528155801237, 0.09763075044157743, -0.035950021562337446, 0.07546650819001342, 0.042050513067794615, 0.12045782065365822, 0.05052579910417311, 0.09903092929797744, 0.09033731980600863, 0.027872088664693283, -0.060797612856786885, 0.02417642318506275, -0.03778210500970909, 0.043737076920774984, 0.023782065481586682, 0.038640270170780526, 0.043734176754166736, 0.08738749705601354, 0.01885546178475005, 0.049042053615368224, 0.07179349208349284, -0.012306166029819024, 0.012864500989772728, 0.03366273990652523, -0.034172706564152854, -0.0552770159592473, -0.0008748891011848055, 0.06293904465932525, 0.11186631117178128, 0.03514036515521558, 0.07733241267681132, 0.04481752493780995, -0.04946305506390176, -0.04829980694965817, 0.014637581025118472, 0.0806490260292575, -0.01664127518193157, -0.07569053699954782, -0.045365371197659564, 0.04227626466300436, 0.008715253839113606, 0.14048179412985196, -0.021956604304809314, 0.07928669817501142, -0.009693085138643483, -0.005287145492137461, 0.07513087121765631, 0.014731093886471126, -0.05492301617980678, -0.027660707773550654, -0.03111705408603614, -0.062179574101933505, -0.07560626327525036, -0.060423702196003015, 0.08663425136647894, 0.01624369258498889, -0.008487491994475883, 0.005062623340758203, 0.048048795853189434, -0.003586544545948268, -0.09331532915251464, 0.06172824379409052, 0.03209938941624525, 0.0752056799754359, -0.09024382457128265, 0.006523772515022248, -0.0071495101656597095, 0.06715620646049102, -0.055260341176237564, 0.05403919470341432, 0.003961132661436193, -0.004107279131309226, -0.04468451077897216, 0.14420333208042374, 0.1226662425436321, 0.03150018088695317, 0.0189101128062316, 0.11664825447628674, 0.053122849671932204, -0.011199788837407949, -0.0021826532184745437, -0.05193945631238497, -0.04615774541886465, 0.03262091022119717, 0.04584871556022105, 0.09905108764189234, -0.057755376531543105, 0.026237285986277427, 0.02179055897436509, -0.044073602389278974, -0.03305760705646217, -0.044479164986606104, -0.06176383765361266, -0.062464108677673866, -0.010501713961406105, 0.005350265491707179, -0.09105301563547497, -0.05545374638302519, -0.07989876214109327, 0.08018342509475151, -0.058531847045288105, -0.05495683310226676, -0.04016182396041623, 0.06725492665385305, 0.0739955472203837, -0.05649951790557602, -0.007542195381508564, -0.04732034694077714, 0.035508872790303375, 0.014401740942293077, -0.024063823707303818, -0.01086158500098284, 0.03468346567963126, 0.04339086537092929, 0.07187231882389586, 0.015243604604452295, -0.09589275592166606, 0.014301018134589241, -0.0036697590156643087, -0.06948300508690122, -0.07514352326949372, -0.05999804272788413, -0.09496610434520288, 0.008994876711525164, -0.03749448342277649, -0.155289235871871, -0.054179772775896196, -0.10192895652450579, 0.04051014759167556, 0.07922130539654296, 0.10060268596822954, -0.023945971727088913, 0.03565034532988979, 0.04868793086774632, -0.023046968152380793, 0.061097936271239564, -0.004502345130391498, -0.029747298951433562, 0.04305575535159337, -0.03120759989025804, 0.11742859689064462, 0.005584204375558353, -0.004330220299776627, 0.01195655534814251, -0.08553567810809232, -0.07567249553283087, 0.061952358905953284, -0.027925675746301545, 0.10483740354719605, 0.000319210924030651, -0.03782881508987789, -0.09309051672088633, -0.11075611197523406, -0.10272502187172744, -0.06843918288341566, -0.09662654945223437, -0.056906539073096875, 0.079926962617398, -0.007862227450759037, 0.017278060132308034, 