{"layers": [256, 128, 64], "in_features": 14, "num_classes": 5, "activation": "leaky", "lr": 0.01, "W": [[[-0.22368717762733129, 0.2533310233478159, -0.2679484657961629, -0.1547956692026634, 0.5789850314370844, -0.01738576127509447, 0.24247900453381213, 0.11440234688810556, 0.19453333090230732, 0.04054681541528537, -0.38325719050924034, 0.25521415773502537, 0.03556547838161467, 0.5299267388533003], [-0.4224632705703195, 0.06154069933502542, 0.41211465438963746, 0.36573020839554554, -0.1532997473856915, -0.1318158840008562, -0.0659241040378641, 0.18319404500622755, 0.21527160269318968, 0.5397806605975166, 0.059047520269874955, -0.0693443643741614, 0.5755586813836966, 0.794238482299932], [0.3626232506956841, -0.3374214119278267, 0.04936883539735699, 0.31865232436826724, -0.04086929363373076, 0.9050825804311565, 0.3841403176245545, 1.035940505587765, 0.26208383929381335, -0.6139760173661017, -0.2645962689123748, -0.531592678284121, 0.23860562338255245, -0.24570868615916364], [0.15240905925002224, 0.1779777058363609, -0.08556273642612906, 0.06710926135331868, 0.6333644362429779, 0.009271504991589382, -0.9406467746108391, -0.16419471369313432, -0.4481571374065006, -0.026146676213546396, 0.41283272376499325, -0.07969208631462514, -0.2930727006332581, 0.14421991004794915], [0.014846059149375843, 0.34005381451538647, 0.11720248842897642, 0.35061688685457104, -0.2150781089661751, 0.4642125409543074, -0.15443430465956792, 0.5907490077482408, 0.09176620843843755, 0.05837937237466848, -0.16970609995102603, -0.3469023621754322, 0.3114471546521211, -0.2317746150232788], [0.37601440243437584, -0.30235057345201055, -0.28527974050144084, 0.024672893516990507, -0.5548942538330724, -0.0010432384989461335, -0.1938146718764618, -0.22596665255193887, -0.1288072145499348, 0.3208920786907286, 0.2941111512485781, -0.4983872665325006, -0.44236840794986876, 0.5189506131359483], [0.025928786002789302, -0.5157782984941063, -0.2606486431722927, -0.18314689104704046, 0.10197632997549898, -0.07466200367189556, -0.5201250916645797, 0.21819081546193939, 0.21018370647242143, 0.40231299486535116, -0.36530829242534824, 0.08998570704870096, -0.04274586759412231, 0.15763436154079577], [-0.5821664139732868, 0.22873176687154387, -0.23574582773828004, -0.3396259446762394, 0.14386019879347048, 0.3203434950163955, -0.17077481211494522, 0.35345165392662475, 0.346109019063635, 0.0901876531616622, -0.5898255236216503, 0.41775577105660644, -0.30247674114428813, 0.6741706616088404], [0.34835073107380965, -0.414464502293767, -0.09555791138338268, 0.33270136252455723, 0.07104097744969971, -0.20788947357695978, 0.09784344044768745, -0.8758502829893308, -0.6323801705508078, 0.15936388534812562, -0.4095700126505993, -0.2509650998705991, 0.06471474043104478, 0.22100317004173642], [-0.46205338856756867, -0.009218387783522847, 0.6564805448031109, 0.992673928883375, 0.7503228795837819, -0.3039556111696192, 0.5918227098299309, 0.23684235101531304, -0.16463885597730624, 0.2908578122928366, -0.3932455140305905, -0.4103623089944836, -0.14326441527998662, 0.29269783745129885], [0.29340463213711854, -0.530632886278628, -0.37967170967513725, 0.43709450317849846, 0.18140481164329933, 0.5366046790626388, -0.37252956947551374, 0.08670203448435067, 0.62926578461072, -0.34000279903135705, 0.5194240556541234, 0.20262394562424682, 0.33500885840292727, 0.0023334204390641025], [-0.1759489188095674, 0.18847858404539986, -0.07189167241929122, -0.2792279860167675, -0.48154300290235796, 0.3062332802615272, 0.25970519579557205, -0.006411441303767286, 0.3817811675750833, 0.2229188007944427, -0.07618513080683097, 0.8391597505087266, 0.1478864975830748, -0.08586761442568469], [-0.6414736650920418, 0.017314900042980613, -0.10771127726022794, -0.30529444499302905, 0.25798138057533804, -0.9349987896938851, 0.5378955947651377, -0.007312759720123434, -0.6230633206869196, 0.1545266599659839, 0.592841329676745, 0.11025103102873833, -0.08479151204107967, 0.14784395933460182], [0.20884179469234365, -0.7484837481783705, -0.7532539135769686, -0.4452387979518169, -0.3852903229055375, 0.9500140545515137, 0.3709517182543927, 0.1685324415010457, -0.4765822831453199, -0.11417224250140542, -0.1450758195530895, 1.230564168238376, -0.21523298558238452, 0.34781124532587215], [0.1873018672843602, -0.05548810585292631, 0.8498835885731775, -0.07864701708095431, -0.026884952668869946, 0.19189743816893687, -0.2976287622647963, -0.03855548801523676, 0.1643409951731696, -0.1658469753845405, -0.4097657425573149, 0.322647848442109, 0.09329293426526607, 0.486628002628559], [-0.10049856271166473, 0.2915770581761251, -0.07964099425793636, -0.6819239795021627, 0.18643020553376927, -0.022624937865731894, 0.01002593653505063, 0.48597208960802235, -0.46909337260618983, -0.03540110388100129, 0.6878531408307129, 0.24613309224735005, -0.1467671514637879, 0.3431483981412553], [-0.6127947698419957, -0.6145210058322826, -0.5228753441900021, -0.11240385008073467, 0.2505678293263139, 0.6009099594452516, -0.12579852626452984, 0.3834852368981003, 0.3795502549329139, -0.6055509932236897, 0.2754573237684415, 0.3410373574913566, 0.7141847453827844, 0.012108903762176118], [0.10944871587903429, -0.14563630654998871, 0.23885274439740767, -0.46030875600485116, 0.187364241408441, -0.13228702525187885, 0.03473263022660563, -0.27030834072242216, 0.0986246920365254, 0.191102268390767, -0.21513354519000039, -0.3699079265919676, 0.13942717870503515, 0.8847746805791901], [0.43109430302157775, 0.25295805651216463, 0.5495048910585792, 0.29070669137894917, -0.06858504047435032, -0.14412579012500448, 0.578418668166099, 0.5110056287709497, -0.10062052732146262, -0.3682889125221331, 0.26353620928496135, -0.19047589744015167, 0.22452143095880897, 0.1559214739104547], [-0.7516296389343936, 0.21950256486171782, 0.2927323038792631, 0.051406406887681506, -0.025132453736597296, 0.8646593831260811, 0.22133743521627602, 0.6465673252635655, -0.05615365968988119, 0.2795340171903085, -0.22206322260210656, -0.4451827445637522, -0.23999282673693567, 0.6976430805583773], [-0.5673316967805578, -0.5376410216607856, 0.6599315065835418, 0.07318066757730872, -0.2977389160046032, -0.14256228910028645, -0.04422141346798451, 0.11863019994772188, -0.22417287996708454, -1.0300523126022074, -0.18240794878411482, -0.45996043288632804, 0.17901696857533547, -0.24045025803584041], [-0.422666313520428, 0.282230802433423, 0.15897011643655287, 0.1898072140475936, -0.23312280904421592, 0.9924137415843746, 0.5693178775739104, -0.03732998737600287, -0.2134433914567012, 0.16514699326892118, 0.12815203580234644, -0.29037647835763014, 0.24217001036965766, 0.10487975282135568], [0.20396851564768073, -0.5219524493455097, -0.1743490226480083, 0.49667099875942844, 0.15782868069280226, 0.48637615093786607, -0.23336574726147302, 0.4142164096250957, -0.40166733107999397, -0.38925158057650633, 0.6245021774924541, -0.3241990178674007, -0.7620738957646724, -0.46648143553695254], [0.2976137756175989, 0.46321148275512697, -0.10522986291725918, -0.62176226459116, 0.2727748444748277, 0.5037950189300655, 0.6983095494555461, -0.5086626983027523, -0.08670503059340114, -0.35520882448839847, 0.02606892567472677, 0.18959191353620963, 0.0757207143831014, -0.11451424506387624], [-0.08337008885172978, 0.32213692740444494, -0.4273618287539484, -0.47933663447035146, -0.18765189258526066, 0.36137591664758073, -0.3893567963320155, 0.18568824883992566, -0.21901871588067442, 0.23485761184935217, -0.0036043158529730913, 0.022526403333772614, 0.6252835074669575, -0.6320423192074093], [-0.6126042966837097, -0.6257135677743032, -0.281123690959856, 0.056932799247971434, -0.19561371449939807, 0.4417266001606135, 0.16782664398722746, 0.18330882883990246, -0.5934197269045982, 0.4884564461559846, 0.14219291665508035, 0.16602004633231782, 0.21628013178805766, 0.21103597752140044], [0.031223541980793718, 0.23823952421182423, -0.04593772090511793, -0.19514256931134197, 0.1632340198834918, -0.0036496526817640096, 0.714848125443386, -0.080270520193511, -0.08214070165871326, 0.247260208962837, 0.2981666594014678, 0.002057419862872591, -0.1595826654287821, -0.6239646444574077], [-0.02029510991552388, -0.3669224871388756, -0.43045200142842216, -0.5328340818706896, -0.5008537466272364, -0.11778990093749911, 0.20404500300675893, -0.20364054784077748, 0.39637044823733825, -0.41307887149683753, 0.2336176448993141, -0.030031068292958037, 0.4340993600630653, -0.06261087243896654], [-0.2769403011814662, 0.6092687401876148, -0.6855584665088124, -0.06289963929852052, -0.14333922111735617, -0.14308623617296187, -0.43411313563626525, -0.3718056614560401, -0.36416403201534214, -0.05020899065163256, -0.06216044775398102, -0.8674474589932516, 0.2221399919598045, -0.24630187235658246], [-0.6515032356086947, 0.10457760077643691, -0.13157315204531128, -0.11232697999861285, 0.31500657324156406, -0.25491349850773887, -0.10154364903561723, 0.011478484368397978, 0.3065414770227319, -0.08564163046087223, 0.11814463633956793, 0.16683981746951543, 0.1810660994045264, 0.6893904137199316], [0.1678518064744238, 0.16205913001418681, 0.18232715720290446, -0.25026245357939597, -0.29313211028225544, 0.40640404797480145, 0.24042960202002583, 0.12373696625190941, -0.3765642751664179, -0.004904356954491509, 0.12695026122167402, -0.31712980298871607, 0.37386896199762676, 0.9421088696556945], [0.10324945215959086, -0.1781789455310195, -0.380950997429185, 0.9822360958226715, -0.015883135750718865, -0.5456504553304097, 0.32431190033583873, -0.09741244387605212, -0.16765911616990067, -0.1654812365204465, -0.014703099360103656, -0.14891668655553636, 0.08149186755888008, -0.1496965761020342], [-0.4482302445904613, 0.1599476579880867, -0.0158028003249203, 0.3438461735572096, -0.7376637112066061, 0.4550557173678159, -0.3593616597253468, 0.020725680326106256, 0.33535325552564565, -0.02454495024414272, 0.1407215477460974, 0.5856578374019044, -0.38061004134621346, 0.7535660669217834], [-0.4235406742237054, 0.17442840876602603, 0.75221619985595, -0.004896795580357318, 0.5876200813645899, -0.7176197658121424, 0.37102370750654784, 0.08554998768812787, -0.3017922141395095, 0.1630526413345931, 0.6763203219542075, 0.24765970372731813, -0.2589233816275883, 0.36288861129865135], [-0.03723160901010379, -0.3500409829240873, -0.1713565305930311, -0.3670005270831647, -0.24334579854418592, 0.5443099016235039, -0.8949529431674405, -0.14126779558205127, 0.1450345351737574, 0.038108120627785895, 0.01761170191363015, 0.0813956715932965, 0.6950718448190399, -0.24180555077503207], [-0.4008022029839501, 0.3000858250383258, 0.1898864461559245, -0.429574751257948, 0.22271691515610031, -0.03232699004393429, 0.6649048606651458, 0.04507203865123762, -0.4647532173672712, -0.1137056475056941, -0.24712155453534485, 0.038047423244471586, -0.371148292983435, 0.11039368780129225], [0.1460420968108915, 0.7262640621326603, 0.2995747439306083, -0.12462660058045552, -0.06830680862467882, -0.11803626969586833, -0.23090066120477815, 0.03967702440092731, -0.5515187889041365, -0.19959173554964385, -0.13974442100301446, 0.10857711366901648, 0.5551288282176796, 0.48204400309895434], [-0.38845585703735613, -0.2917903244307423, -0.5231446252045637, 0.6104092846572009, 0.15235303602129172, 0.18211559338114433, 0.2918914299250092, -0.545300517323525, -0.09507335612125849, 0.19110060714294771, -0.4902070424238557, -0.4541014102013947, -0.45969405616618614, 0.07527022833834743], [-0.21670254716031678, -0.6545102778279274, -0.16013332488121237, -0.2949589488311824, -0.30240465184030674, -0.19927161556786893, 0.3699303542307196, 0.3584969010846102, -0.9973510901373436, 0.008911223705274265, -0.21531226645708135, 0.565938474028521, 0.4826390420780554, -0.3987596465039363], [0.9496994818198329, 0.32424429430917756, -0.30633612030075835, 0.0374854464120578, -0.3185071267484983, 0.5614652303133628, -0.3309655469561163, 0.5361893757011927, 0.2975108707019279, -0.5752541637983064, -0.4354573036857674, -0.03178923601259219, -0.44092806990492817, 0.35791110243904856], [-0.1425807037123691, -0.40158557116768234, 0.0761768930240021, -0.022645033798648746, 0.6945420357279878, 0.055297502431580166, 0.27434147410042464, 0.13840405405089148, 0.13826953079725005, 0.18903056685857741, 0.38498621765947455, -0.3797612349915586, 0.04024984617670469, 0.5448781080505253], [0.045591278882956124, 0.505700624140953, -0.7343250456674844, -0.2979038088576297, 0.10377929364243293, 0.40419688567130985, -0.2866302870407272, 0.4205463967444445, 0.18613434564613562, -0.34267244950693915, -0.22632980953831508, -0.03754852328303115, -0.14743542184712055, 0.11771965857370706], [-1.2399507553597746, -0.507774002242223, -0.20066903098947456, 0.30895027030512867, 0.38850723121421055, 0.39419437944579766, 0.05245745913956954, -0.20727941087808827, -0.1636112757952102, 0.5015170240535533, -0.26151164325454834, 0.18343081358941146, -0.1373084626759712, -0.8500442517706437], [-0.313611739098486, 0.28999294256957164, 0.26059654421814293, -0.45107151387698735, 0.03354392600932933, -0.21599398328887387, 0.20508244481937252, -0.3449517969619009, -0.143708034197906, 0.3286821779412472, -0.44381343373984494, 0.7284468603374656, -0.06901213405782113, 0.3543775268773135], [-0.1988356694746077, 0.12404273498299274, -0.5797387892004191, 0.1334346262422522, -0.5540075173593778, -0.21904274452350567, 0.1470156707991748, 0.1263559141368098, 0.4726193152153695, 0.4563122095131236, -0.2646900702095692, 0.08685781476361618, 0.7933780752104039, 0.5578477147703437], [0.4790991439952023, -0.2198904473479421, 0.2858584890874182, 0.5582584807310199, -0.011802682386963676, -0.09595396967501885, -1.0605786995289903, 0.09722924492303496, 0.3127184106895728, 0.2120219715426215, -0.052381006559817124, 0.43445115469999457, -0.8956557760944499, -0.3500211098676679], [-0.3359327196792186, -0.3701031523080515, 0.10585904597430261, -0.5663102537853897, 0.18754469077299052, 0.2079820200689669, 0.15346073235098656, 0.22075298929219708, -0.26561717448432803, 0.14919835555376598, 0.5951385698869998, -0.24041678032246971, -0.48862101814999676, -0.24233104213869305], [-0.5441662410737321, 0.5604868691304936, 0.48560954165168174, 0.14175111405358823, -0.3901034389286414, -0.4588721178643257, 0.2606998011655932, 0.008637567333586933, 0.2547341708075592, -0.24679045025933138, 0.22766927472727164, 0.016471786436203412, -0.19928489213178197, 0.22083398387709058], [-0.4993820963456, -0.09894024104416847, 0.156759843306679, 1.051441019182699, 0.014796650796572117, -0.7345128974062856, 0.26069297086695586, -0.45626880670162145, 0.5331255795086399, -0.17420013500603196, -0.021327429558024687, 0.9558045281695201, 0.510912814337199, 0.32544947440536964], [0.18699122948860758, 0.5210645248589901, -0.27263335753285706, 0.03160195844227994, -0.039900724432612666, 0.44714317321704944, 0.45912841850078767, -0.13867784814315462, -0.03153874156474231, 0.3029463154233658, 0.18559458052710542, -0.2938938569693157, 1.6044232685579813, 0.4741613604164247], [0.12742172100924196, 0.2623731179588628, 0.1920782613166519, 0.6892215231678223, 0.3286212524811404, -0.3401911991873471, -0.09148737270569642, 0.3060634235604312, 0.9299938866771977, -0.35951340681881583, 0.39712584458335304, -0.037750203071870464, -0.3052879087601581, 0.044676815514543125], [0.22645433955498623, 0.63169174012992, -0.4822254730017518, -0.07003000932957862, 0.5427671950448916, 0.14190479348215876, -0.0846634101470831, -0.1095247834973955, -0.003070040606914624, 0.1490186369187715, -0.07816091998079285, -0.04687527656374659, -0.8309162659656061, -0.47148267021181883], [0.03417206229185632, -0.47044927469247794, -0.4202141161850897, -0.024827163480657666, -0.4543468724352535, -0.38211989731731855, -0.26648774989979834, -0.19198708937669626, 0.02261870451691995, -0.00913765043467545, 0.06991187124873723, 0.025806533347733383, 0.5162473281500606, 0.1890375468335016], [0.19584708230480893, 0.025369193197441277, 0.4246392001438845, -0.3817756150441614, 0.07989990850114984, -0.3266191745139586, 0.18387171714764572, 1.0636014061530206, -0.5211792428985538, -0.09089646082413731, 0.08087902594776636, -0.4472651089131929, -0.2893654195182241, 0.1484966943425262], [-0.02650771359165134, -0.7483786949575664, -0.23313295449541227, 0.44935519494492426, 0.21089102259327172, -0.9627247566779279, -0.5659447308449213, -0.2084404969832542, 0.158239487791966, 0.05991959164358462, -0.3502775559435261, -0.4236981845967104, 0.5976906080025479, -0.31290657312361897], [0.3442475661961481, 0.33412720829559983, -0.19363837784892532, 0.0462714811839292, 1.0275200608434711, 0.0350228990235251, 0.050880609293382256, 0.37977582460372317, 0.503157268922021, -0.16023236090811896, -0.9938465134146939, 0.30990462527500506, -0.25047247789447813, -0.5565970918182989], [-0.6068574599949136, -0.3834573914227528, 0.34896918536254884, 0.615198849103491, 0.43759820493952734, 0.14319949597217213, -0.0673939680301161, -0.49596091119995295, 0.06549794102263948, 0.07609643245750154, -0.05692537022300596, -0.28584556978526354, 0.20314458960482054, -0.956358956419312], [0.5215653001611881, -0.3993756315169768, 0.1268470459427545, 0.16144411073716128, -0.1497082442679515, -0.10452612015921921, 0.36302819065319525, 0.1167078227714473, 0.14423583033620108, -0.35888334198803895, -0.029712671045236175, 0.026024397127564852, -0.6620672092619427, 0.4403300243754862], [0.507716825561524, 0.04842631152465796, 0.06127159072201062, -0.9041874021732789, 0.0968779688199059, 0.050271916139726494, 0.29607304099952836, -0.25781846049566975, 0.4376466829818699, -0.7103999055327243, -0.21149363309137334, 0.2175032895936684, 0.48444329056230284, 0.7587698396383058], [0.9936651267804466, 0.08020870350356646, 0.012251628181583082, 0.4408793705225543, 0.074205520591793, -0.0065851946857140055, 0.19585290245393075, 0.010113211374336274, 0.2826931054354426, -0.335497065179175, 0.11010030757787073, 0.15797699594858933, 0.5058207779913299, -0.5742050094217386], [0.3828807635357327, 0.1149473977353394, -0.7307016610537803, -0.10535974531496592, -0.5512969037710848, 0.7745568556323129, 0.4815226682231796, -0.12986839599384434, -0.28297927497438324, 0.1433750247885557, -0.2967237609336448, 0.35281248536091786, -0.3459744598208423, 0.21689214427089987], [-0.16605716342120225, -0.010831268509790942, -0.1653382674654516, 0.08699576644517315, 0.10383195939015627, -0.16139484341478555, -0.3107134371413584, -0.22286571307434555, -0.3815291599104034, 0.061038053379669506, -0.27440320125082607, -0.9153368870529096, 0.454422864562407, 0.2544796618337225], [-0.8391077754046554, -0.10006989078557582, 0.24100755955674194, -0.6437518842342775, -0.03315402714380081, -0.3119196643365808, -0.09729448020392864, 1.0178520818746355, -0.21701091915870802, -0.4708921076694278, 0.11228991425532897, 0.393752751075181, -0.0806697820808303, 0.27798419291828114], [-0.21411748401990735, -0.05752628244096033, -0.035462963799547824, -0.5622106735738973, -0.02973550612758736, 0.27181405712021134, -0.053113583262822, -0.03903537653584655, 0.18241210770873115, -0.06493667080470543, 0.49802540814086244, -0.22636533399533468, 0.6623550776443544, -0.09643285635834074], [0.016324389358200533, 0.3413589239755225, 0.15229294293075543, -0.1480479469825468, 0.14948409437975188, -0.990832268919885, -0.09419646045256362, 0.6230046588029985, 0.4424674684602649, 0.0220389312725931, 0.44422948350606517, 0.442416903235812, -0.48310133041781544, -0.065924975591898], [-0.2619498691924086, 0.3469277386148712, 0.088024190946817, 0.07068726427507993, 0.10140313552794318, -0.4045281588305544, 0.343200932599999, -0.37977694734495926, 0.06838626035722666, -0.07539949999392342, 0.19260263669594233, -0.09924201417255646, -0.20733552248613013, 0.00548196951231858], [0.4218330345633271, -0.2085131095085331, 0.2225222877303345, 0.4278682297589388, 0.1328190312326192, -0.3090611567924401, 0.08305094213379678, 0.4491285772315074, -0.15554334812641438, -0.1629949914370988, 0.14509487611485428, 0.035854938579645106, -0.7384599360027173, 0.8233223792119464], [-0.42208306737629386, 0.21138318746973928, -0.2779441426248293, 0.10881429062640213, 0.18689985587213853, 0.1888409223251176, -0.3630418384049058, 0.23095448225199097, -0.32567457874242156, 0.00895922206838653, 0.6694372919589009, 0.07981093312046512, -0.29712161540587617, -0.6488192898416121], [0.3084912727237018, 0.17858873052672564, -0.2277935525289369, 0.04846476226011809, -0.04875031930251826, -0.34188179599676677, 0.027288710522335145, -0.07467474799899801, -0.11471621717768127, 0.8881404678951882, -0.5679464347748159, -0.18084613711918654, -0.23701742372313445, -0.35219002693944834], [0.15187203585551412, -0.06842369668948849, -0.608340486168146, -0.4648978043792336, -0.4704836864552753, -0.2790809853886112, -0.2864942400664095, -0.2074035323183549, 0.048760253625029185, -0.2915246713911141, -0.18014637419443957, -0.3592230052106429, -0.07821627157162937, 0.8653949400325879], [-0.14496136927593092, -0.217153717742059, -0.2649827671408642, -0.5291184308717946, -0.19523770523101616, -0.11943271075132403, 1.0280541899135878, -0.25927259737050723, -0.6946234612301085, 0.5033631366536256, 0.17626203520227113, 0.6046682109128348, -0.3713172827343452, 0.3128092460505476], [-0.1974735411793281, 0.2409608929030392, -0.09691769053644554, 0.0621835792522086, 0.49808797460981247, -0.21109071106084823, -0.05817156913715375, 0.3684310512774547, 0.44050975736087183, 0.3974727742213093, 0.12173300604127915, 0.18419583437982232, 0.22658344077444675, -0.010412286003795092], [-0.30041828962411143, 0.1244493209939153, -0.4014426615471414, -0.06947592873626388, 0.104955291372814, 0.7337668617285626, -0.6541828938328149, -0.23668522295963168, 0.4214111507551732, -0.507299948626523, 0.03920690235528532, 0.421833244739559, -0.02180805807463772, -1.159951084854911], [-0.28540421956553597, -0.28883252679559057, 0.23154392648837877, 0.31371525304501136, 0.17426906925093963, -0.025726534766303155, 0.06989556395395413, -0.17549421617256222, -0.15729782706313863, -0.09396690136122271, 0.2219993037783318, -0.14255709978260522, -0.6978029012100521, 0.24450324784947425], [0.3584887595288257, 0.15680503200014456, -0.5810078218157947, 0.5392103205256998, -0.06965561366390138, 0.35331762745925455, 0.19542231701477694, -0.17614226663494076, -0.31918997065977417, 0.4802731371565787, 0.9805630273010496, 0.43049229864850624, -0.2305379045526562, -0.42778680764272436], [0.01654600127873497, 0.3847869702673577, 0.5442760670573829, -0.3644489059657787, -0.4340189897253595, -0.08178018711744375, 0.13549427729169877, -0.16140981228842236, 0.5886122771451735, 0.22358683853955202, 0.04732529147071889, 0.06840837858768875, -0.33166942673411354, -0.33381022189590853], [-0.7708160752069295, 0.056390454262897204, 0.19995138990028943, -0.024940476527230686, -0.40931633815587365, 0.10859610534941215, -0.06925093784336789, -0.018518459167597805, 0.16245356573673517, 0.44841429966354246, 0.0017112899223990017, -0.07885633051998944, -0.5755461475280107, -0.2259935246635898], [0.12435834080515527, 0.009206812015075996, 0.34692021332395684, -0.17962546915231886, 0.22444374472608908, 0.0432078629281874, -0.15949981376527878, -0.06318641884985071, -0.24250606430201155, -0.3023619778937515, -0.030621163211492757, 0.05223186675512379, 0.1346796835592576, -0.33992919470946664], [0.18391796780478306, -0.07500355371751, -0.39542594430764777, 0.5481997114201426, -0.1778586456127696, -0.3704760723663363, -0.46732892142500954, -0.25583863502041054, 0.19611660612606588, -0.06763118507976848, -0.28712265728546604, -0.21250347934534036, -0.08084205336403892, 0.15110442183217687], [-0.16473832155434714, -0.19953047190659268, -0.2664163874277669, -0.11484109916798381, 0.34912911992360346, -0.23699894656133677, -0.4093606839226753, 0.25672627986464974, 0.3602979557891597, -0.02861528727527457, -0.5837327428646897, 0.5060892432425121, -0.32713681012736756, 0.23297264881165558], [-0.1138697149838681, -0.10995774105708125, -0.6135492729771025, 0.05157699012625012, -0.21368120757483558, -0.093218526954314, 0.06698581881097182, 0.5608996037376202, -0.05026078018771703, -0.1191107575210845, -0.4808620746759317, -0.016959793534996586, 0.3102284522777941, -0.2552457568177785], [0.10537960131291417, -0.08346816567101216, -0.2048161897213767, 0.15211339217812705, 0.13383402888548324, 0.22539984013530015, -0.019451621076103376, -0.6420194169483084, -0.22665519311143753, -0.06155810655810542, 0.24115516483392488, -0.04448964613645186, -0.3715409669224056, 0.23986416926317902], [0.038920134614441444, -0.562136048706986, -0.5608241731975538, -0.4050245601778577, 0.6096379553299647, -0.07455812500801182, -0.25655106547976547, -0.13971802474316009, 0.1956608404534301, -0.31950227302759326, 0.382039866587466, -0.5097830921627843, 0.030251603901810496, -0.1538612748318836], [0.07332547373923579, 0.3196656436699143, 0.19983355856123594, -0.19284036248835776, -0.7268534061538914, 0.19695319729951663, -0.10710384284682685, -0.37907783935277845, 0.4071392158940307, -0.4722929628573552, 0.615836749566852, 0.4311550046939839, -0.2162957880352965, 0.3660169351219177], [0.17379167509969176, -0.5361020420748954, 0.5539911326104618, -0.2539716432160411, 0.41527597987362863, 0.02591602079426333, 0.17947728397970913, 0.04659025146931775, 0.6255645397156275, -0.3406946616249118, -0.42703317575537847, -0.6908167197575772, 0.8105920917611241, -0.28332636271890804], [0.22047246484923497, 0.15262640316776552, -0.1692752752693677, -0.3354527383217409, 0.34450285278249493, -0.23216374518036595, 1.0616651828053043, -0.38403916664286386, 0.00917308426495915, 0.19523417386215547, -0.22489053159280092, 0.0493701060708417, 0.13758145802416785, 0.05880326317298613], [0.7810531497524282, -0.26570375898193804, -0.310117778888575, -0.13208184738909295, 0.017965566401779806, -0.7492568094463241, 0.4893880711238121, -0.792652813075353, 0.10036205430559961, -0.1846517682477493, -0.213707298003369, 0.6900021973653975, 0.17267323874155302, -0.3823962835950211], [-0.4212529273794378, 0.028284794469567217, 0.3714233731838494, -0.21847708738445507, -0.4211383514093897, 0.17328462811441964, -0.5644139616146752, 0.1522273368508132, -0.47543125961877447, 0.36034732574219946, 0.5640863929460921, 0.19461247665423223, -0.13398627551299108, 0.2087205957043082], [0.7907986231184012, 0.4493929003746481, 0.31777000782514725, -0.22248859069181862, -0.6518361635290225, -0.24241711483413228, 0.3262047710501553, 0.5249694388704164, -0.24621827204225608, -0.08025612615453889, -0.04608648622042872, -0.1993610977268226, 0.5780324751764921, 0.611707968699317], [0.003950102318851493, -0.13904111617423287, 0.21078566669711066, 0.4611064719776865, -0.36409370878463554, -0.3718467922465399, -0.3869851936881177, 0.1970334384278249, 0.12099588638762633, 0.08810767798837617, -0.13211688617981918, -0.4617973614233543, 0.23327348047998578, 0.27343022712475307], [0.37604543470060275, -0.8060877892167125, -0.7641797379570612, 0.5942505825422341, 0.20630222585111432, 0.3952150865824741, 0.07838254593415056, 0.27636455279909744, -0.513732221246832, -0.19666653597394768, -0.35165269191979637, 0.3965752447438265, -0.7402873776129358, 0.7619307943694779], [-0.5341047509173533, -0.0012437940006848867, -0.620171019977104, -0.14342632730421612, -0.6756410045712844, 0.0041272847564751735, -0.172847637047118, 0.06967017868682553, -0.8488388067941288, -0.011614037472818846, 0.3356449097434276, -0.014848323873168976, -0.6399031766859435, 0.9828433239581313], [-0.2353602290997595, -0.3765660949048941, 0.5446782660978173, 0.2177463320878654, -0.5801349922959715, -0.05719788991033735, 0.4805212951936347, -0.12524015254704468, 0.1747884545330627, 0.6235025595644956, -1.0193481167906406, 0.37219307896635895, -1.2629329874729192, -0.023006141142262352], [0.5097696892514537, -0.3978771072155078, 0.555342788121573, -0.028795759620460295, 0.565677816082972, -0.15911767882703312, -0.3201601269610328, -0.03261488363390686, -0.2947830036733439, -0.11759409507287356, -0.4805163940402913, 0.3416225785217254, 0.474191769279368, -0.1084178432732639], [0.299734635179761, -0.9512402200489507, -0.6124733583610554, 0.057265462999798164, -0.4952479940604701, 0.03763020674180249, -0.11418074059168515, 0.380872297035789, 0.11052054347673543, -0.2299478902203451, -0.2226784491186359, 0.8944032774794026, -0.37664718734071323, -0.4707471933616397], [-0.40340235568268296, -0.5639243564194296, 0.17151730809237278, -0.569506232150787, 0.5271201701166771, 0.6828718064310452, 0.4453558762484632, -0.047936923611216674, -0.4786778633711349, -0.04030126005137655, -0.20913340376154121, 0.2356503311484185, -0.5049424661867468, 0.6917937002499102], [-0.456890527838598, -0.009113351136065624, -0.11147101199777484, 0.46370297271755645, 0.5528149520875906, 1.0822136862099334, 0.24289115969403835, 0.3150158042429741, -0.15921823755480718, -0.39840854055468317, -0.7339366724078842, 0.29531038388420255, 0.08406001387435895, 0.37578686369019837], [-0.478346385615489, 0.1960762982863283, -0.3886404081811906, 0.2774999463991106, 0.6950217835722876, -0.43178061861378386, -0.15201612393952676, 0.5393283092588668, -0.26160429358261467, -0.23532801894119731, 0.4592160832355502, 0.0679630734888625, 0.1421802697794408, 0.46601017500702796], [-0.14123999631922948, -0.32259512518322475, -0.2556686172846297, -0.3048445278327925, -0.6162112851141347, -0.18888085735016896, -0.05843874089825269, -0.08816889154938799, 0.017801184899471034, -0.5054585344246668, 0.11655502081959247, -0.1296740856691207, 0.0022661752553556646, 0.4934213686222291], [0.058317761155869306, -0.44780924726261634, -0.31989323744996184, 0.2582015859167117, -0.07759813219622562, -0.06667264590475214, 0.28885937479074264, -0.04075988629187017, 0.1148619610043221, -0.11223924966106111, 0.39714005535332364, 0.16029775493573079, -0.014434989885838844, 0.002449423415071166], [0.45575863940517225, 0.16404199428621533, 0.20016087212665915, 1.101444997550489, 0.19156521965942402, 0.039430841092511916, 0.8854163564459302, -0.029405580857563958, -0.19617352049432857, -0.08742979352923409, -0.6367744027112495, -0.2794175963520026, -0.4054883478208781, -0.4492126418475895], [0.20100650972323736, 0.6173979453498513, 0.1367770614605842, -0.01449724555418588, 0.40903072092474135, 0.25618056479579704, -0.4284843208454578, -0.009638048850502134, -0.27119669066244767, 0.2641346121386046, 0.04098734769156311, 0.3441507383939198, -0.2253532493255135, 0.46925013399796567], [0.04830392007438022, -0.1931519207337141, 0.04212565555405244, 0.5141445611004409, -0.19016152233277744, 0.15437411569727108, 0.38290336727922814, 0.14590544229163463, -0.36201171435571766, 0.7205647770048987, 0.02904174839605481, -0.31796456674202866, 0.4051954595787713, -0.597243520454618], [0.1371652075864065, 0.007158105846147855, -0.30999434916733865, -0.46514410001990864, -0.1520822829743957, -0.04447201947579448, 0.13007686591127393, 0.10167078014807925, 0.18043828028194248, 0.45654685164502967, 0.6635535442421057, 0.14948540212313333, -0.01421969276160885, -0.02894935596568236], [-0.33624568264075605, 0.5010472235493165, 0.10912865106714424, 0.34962540866038244, -0.8101458461381664, 0.26510481749889975, -0.3119629706174859, -0.7668586393536176, 0.1300939355655748, -0.24503150415718855, -0.05895560858360837, -0.15241373466573993, -0.07006703932933571, 0.08365275007081122], [-0.2875230751309594, 0.4303417644152675, -0.23250509966230193, -0.3431094849554515, 0.3248157077402606, 0.22091619506234192, -0.036128263224656385, -0.25234336864304147, -0.2781541657959055, -0.4974860548717216, 0.19415419238395643, -0.1575172848810748, 0.9408543859558569, 0.15922245777557043], [-0.7056094123743946, -0.8493214917908187, 0.14983644021458137, 0.47114756035528677, 0.19396971093793258, -0.20654319855921974, -0.18684980372231436, 0.5240662208370135, 0.5679086241748376, -0.1086143238641276, 0.13525851400158592, -0.4696674278927776, -0.3154213614522094, 0.36911821531103695], [0.24639715440104865, 0.3210324374834682, 0.25225101526787475, 0.15045724880482966, -0.021701253269136963, 0.920389021387896, -0.05041662606581971, -0.3235015735030206, -0.6841533332920039, -0.6409785933355091, 0.23401488214422808, -0.4013681819703512, -0.9845988664204313, 0.7105069565830855], [0.385723739329303, -0.216634619963333, -0.22310256299619263, 0.20124846032515428, 0.7137622894522603, 0.6487949624672177, 0.0345970917473628, 0.14489958074339027, -0.04633541245005851, 0.052998941476643635, 0.10055574453698603, 0.5249350223268997, -0.059732425406035246, 0.3947192164211868], [-0.014291824911762592, -0.20131987036120932, -0.02986292489418028, 0.17727686799923054, -0.19286929475980766, -0.014972455236283325, 0.2704260942446122, 0.6781914185560104, 0.09292773808750159, 0.15657790803128863, -0.055220497875475685, 0.5858705638680324, 0.39353096560279843, -0.6152770566462763], [0.17966263189388937, 0.24060178416468916, 0.8081182548194384, -0.17026999086246655, 0.24962851585323334, -0.07592269027461178, 0.3854809402928001, -0.034905229125102126, 0.10348133002668483, 0.18399229798057615, -0.04032172329985222, 0.679817430303713, 0.21074245605027744, 0.21138998935219605], [0.2207462910838871, 0.23151687573161042, 0.08827734339024446, -0.16755950047091533, -0.6667741333016413, 0.10683359513803777, -0.07970265635658097, 0.025923890509249592, -0.5069803404650244, 0.26179731615769025, -0.16501534526646366, -0.6482587754957283, -0.1647656677080531, 0.017875037685744468], [-0.420276473216178, 0.4631420740825887, 0.3435806724745815, -0.23966098288549437, 0.15722505205855242, -0.42015846482044855, -0.4250707468900802, -0.6553712325450242, 0.20400041342193712, 0.03634990577339072, -0.27550435935287626, 0.16332361390669412, 0.3559214253705646, 0.16002765276964173], [0.0659217196621134, -0.005605324597040169, -0.716370755069125, -0.23861539060081038, 0.36358728389187733, -0.15437264178874047, -0.8141678272869747, -0.9474979907006125, -0.1527319943581152, -0.17354490724089724, 0.48724000133115913, -0.33902678038194656, 0.3894579493406922, -1.0810290704298573], [-0.4394609186195313, -0.47466366508664426, 0.37820245244186423, 0.31176811667721527, -0.8506957196036405, 0.08944484087084624, 0.0677262102261014, -0.13686208998936233, 0.02698019664472969, 0.17308451887975143, -0.19995583174871936, 0.3164682997611669, -0.03415542218880672, -0.2532536642359699], [0.22358699427500886, 0.7521893734576763, 0.537694900835318, -0.10747621927826152, -0.1544124410560737, 0.3809402117861786, 0.041515413309547236, 0.05137445663371638, -0.01857774764206939, -0.06168390673814474, 0.1795031666906389, -0.20477048605703574, 0.2172800765450993, 0.3216861052716619], [0.4705032834365525, -0.09324730384305571, 0.2068774679956452, -0.010328670875513047, 0.14078133070022672, -0.20289302919291355, -0.26821797455195856, -0.22851985422453508, 0.3654741455428256, 0.12738941184681954, -0.11335043324302049, -0.19659695645030045, 0.35276178308845774, 0.2550483285324965], [-0.1278023224212706, 1.0245963440176642, -0.3679048792114431, 0.1330445456815376, -0.5810844666528845, 0.5161939957754751, -0.05890407431763099, 0.33251306406391345, 0.22870999711926615, -0.3045910167316638, -0.7642019952248607, 0.5411592334924723, -0.40438758262182123, 0.06672715062759796], [-0.2553585804571434, 0.12110993485090485, -0.05383587295369108, 0.6924680653219628, -0.37645197771040295, -0.25675426467995166, 0.48307239320467893, -0.8789134607482403, -0.08900362872288863, -0.0507958060383392, 0.015692919244556548, 0.14420945761150902, 0.3116986639195489, -0.11445641861922869], [-0.9896150195607578, -0.08986988266449877, 0.9765759897186376, -0.5151606438632678, 0.10105779664717307, 0.47646113386333355, 0.4911989237259113, -0.23606559046471812, -0.05858525497974688, -1.002372953049181, 0.13987152116759866, 0.4485270633865261, 0.35438818029742347, 0.062068469134651846], [0.18177755153366362, 0.23354538574633957, -0.3248502846555873, -0.01300433306956866, -0.2075289253950912, 0.1448586641598838, 0.1274743413694676, -0.14192095157516246, -0.32430234086957055, -0.1253475492211657, -0.2449568456390946, 0.5666418061115936, -0.5114894716812273, -0.2628879083218079], [0.5979754675686582, -0.04583957247007087, 0.6077778806283012, -0.051514418488136454, 0.6197595285439645, 0.09264172841804237, 0.2129535115809302, -0.490234780473818, 0.47378530408746256, -0.3937108864521929, 0.04676957203080064, -0.20440423385958095, 0.5601235801188766, -0.21259227059893346], [-0.12096091828877813, -0.4532468889876919, -0.6784362557057729, -0.004256578555566399, 0.7565609656485014, 0.3889435389988771, -0.14663159354439698, -0.6886191199922488, 0.4777928561045156, 0.012292667708841581, -0.42455245859320173, 0.06705328344638668, 0.2216822003721341, 0.09321349068311344], [0.3376004750264139, 0.35140940253339387, -0.48473375528777596, 0.2917176305505104, -0.6828936268640051, 0.20347889343372547, 0.7380488399264523, -0.017911603554952474, -0.14649973841405525, -0.0799596818741468, -0.33587911123087677, 0.09519040543944608, -0.09748467362071452, -0.06232080359178706], [-0.3339202791877701, 0.6327186536568881, 0.08615247189977235, 0.11700637289514317, -0.6027566658431998, 0.286710490709976, 0.08265951777171818, -0.3100432902513568, -0.2533172248723577, 0.21896727174548558, 0.33941907124703974, -0.4433378011992421, -0.1788998221882421, -0.4371502463394708], [0.6568417256554606, 0.19173413872238707, 0.17105398090745694, -0.10538180461032022, -0.3058236575622742, -0.9327011174394556, 0.30535755227872746, -0.09485866180017835, -0.4264765093292485, 0.12887440256055516, 0.28226540970713543, -0.21605657953164442, 0.4305918985884233, 0.23290683256276243], [0.34030203112838087, 0.0712862411883909, 0.60692703866562, 0.2635852925389056, -0.16278481638740835, -0.29601672348532065, -0.6490247675136718, 0.1334000579180481, -0.20501581340505798, -0.24306547901930267, 0.2004402849907095, 0.570535979325422, 0.3142760534513199, 0.4255210051424878], [-1.454875932262892, 0.3001873054249623, 0.35477101540460887, 0.07378633779681917, 0.11265742234512617, -0.05119741763803356, 0.08764246344699221, -0.0501450967011195, 0.17463238186049362, 0.9043937187020694, 0.3482832420171005, 0.14677249541874843, 0.4038904863418387, 0.7649627974109494], [1.3735130471762298, -0.00402159364933806, 0.13523294801583433, 0.08220163132942475, -0.2780104134130124, -0.19337469842372965, 0.0746267797691755, -0.07152983406879389, -0.014245897922022565, 0.353083165964377, -0.22745189169740315, 0.7176385151525569, -0.2940894471130356, -0.9970205714149089], [0.47095295646600965, -0.34293468977312186, 0.30844694040517, -0.2650223522466666, -0.46488150769566255, 0.06188388971672405, -0.15556336315779068, -0.3777070561628036, 1.1125767959869028, -0.057114834370393705, 0.7625100841464286, -0.3263591601641963, -0.003746776049194937, 0.1873632330368976], [-0.37339225149761796, -0.03993261259780009, 0.17248403214657848, -0.8294997220382438, 0.009012029677417542, 0.06787765658324461, -0.06599771270878599, -0.11434015121740826, -0.008542554551516935, -0.22103272382572275, 0.14345416115114998, -0.2712495958257555, 0.17683189026580468, -0.6759024158984137], [-0.14213537154241196, -0.08475436537038487, 0.2102373869779048, -0.09526701747662081, 0.5440308428012505, -0.05259107620192954, 0.15499519332296222, 0.13984297489874575, -0.25177441831602343, 0.2169901465063518, 0.33498807674192327, 0.43500588746600927, 0.25789623522217126, -0.45541407190510524], [-0.1191211723914217, -0.059798503503011045, 0.2954903573504155, 0.13027813717859, -0.43731212736068503, -0.07684432814509737, 0.03225383648915158, -0.25755488942567295, 0.06446083342630211, 0.3911401671991587, -0.07799885081330281, 0.18673274002911974, 0.08293845065829311, 1.1384435882010713], [-0.1027046486014314, -0.13894955322185173, 0.30129439653871143, 0.7366225978729214, -0.24082301494612826, -0.06385332655556265, 0.531309320141995, 0.12618413796198008, -0.6000029713633934, -0.7745388466428322, -0.37328968733485923, 0.33388383354519313, 0.298421013102461, 0.18603699958674752], [0.7279712324494478, -0.9978441587938618, 0.14436080386219502, 0.8123182468460123, -0.35075134385221735, 0.4816004555349803, 0.554251552455496, -0.7636424906575489, -0.22468182202294257, 0.00038035378260408055, 0.31873714877751996, 0.3670754516841041, 0.21966483200518375, -0.4446615300360136], [-0.3683381445919395, -0.44569246382743016, 0.8045804999812813, 0.46881032108838144, -0.33100242335379537, -0.14251654915401862, 0.023824304136541536, -0.08068610536727983, 0.07377872307182995, -0.09144049630978744, 0.12746198509301462, -0.15375825417948094, -0.6756825629440316, 0.7393975760167698], [-0.18565475615196672, -0.49378909709681407, -0.11717689933714295, 0.4553484335088606, -0.3413142445088727, -0.029353994533383738, -0.7806052976019174, 0.14091678846868802, 0.1253482375733001, 0.46279827593087103, 0.025189774490791763, 0.22025839243003217, 0.444558914163104, 0.23681384155948967], [-0.1666334737156487, -0.22156332131247508, 0.13488090307641754, -0.40148884508286126, 0.5456504972364271, -0.1527231468636988, -0.16077323502722307, -0.29943587834658186, 0.2345081044675591, 0.2797181815820279, -0.3878760332178085, -0.11057170123468318, 0.052165238425516645, -0.26768970671620507], [0.909731247438056, 0.559226058223497, -0.2306927575154487, 0.04244675912557696, 0.4106288723090242, -0.0087079078630553, 0.11415001779899692, -0.009609243442301707, -0.05440448949564942, 0.32732775826160515, -0.007282894947016647, -0.42389392151629146, 0.22947831592638973, 0.6474495155397392], [0.0939718826972153, -0.36451220842251725, -0.18117380683390036, 0.005537578382086343, -0.32402087514297206, -0.30032675330526365, -0.05938536003004594, 0.031036353011119764, -0.5005363442691142, -0.6086457531010455, 0.3966998395765634, -0.41010520124403815, 0.3969512505261943, 0.060861053791478756], [0.6407966015251282, 0.04173035539746598, 0.4305174120278863, -0.41142525968670923, 0.6103343131598048, 0.10718881275085347, 0.6204137312655149, 0.14609441868136988, 0.22906798746550833, 0.4553113165284449, -0.2378348689164161, -0.3269414376427219, 0.17877798833463476, -0.6669199903985589], [0.8559198624555947, -0.5999634355418875, -0.1643285617215304, 0.027728288835260587, -0.04073804736260108, 0.7575373969124749, -0.1074649874749582, 0.021298042959814762, -0.5084216134402162, 0.20533458491037668, 0.1290001221018701, 0.25068967327871816, 0.10720554798252231, 0.1487614226790152], [-0.2291771954181657, -0.04982890907654928, -0.006155974855953927, 0.15510254188694386, 0.1320820812306109, -0.7947787931250796, 0.531001258480779, -0.045971081521068415, -0.3884334790575978, -0.0936363406878768, 0.13787010076224418, 0.953327538497339, -0.5562033860764926, -0.12555518680851757], [-0.5756556705548999, -0.15727430791771352, -0.008377988622487214, 0.6438506780918288, -0.09756903883739441, -0.05833237153442085, -0.36337079937046063, -0.4888525836075475, 0.10348442868851856, -0.3735796672515306, -0.46864894736645946, -0.31995509036928754, -0.6626329305298388, 0.20956343601054153], [-0.4001304661288079, -0.06728503780045339, -0.5026618330484982, -0.11338503186365637, -0.041436533264016445, -0.4047066058851074, 0.6246016746651818, -0.06474670760416526, 0.25907364164165747, 0.0754998529658796, 0.33643491082833427, 0.1959695908381824, 0.6393163919523219, -0.41208678503812557], [-0.14917782331979954, -0.42347360442732324, 0.10403327039668081, 0.027354613548786162, -0.5472569356615126, -0.5460258497553098, -0.2740692166191675, -0.04597858631913601, 0.32918617519413373, 0.36208262105016426, -0.1296058146234244, 0.14701906625282452, 0.9719391005820289, 0.37304892254249283], [-0.5525358725273213, -0.16960489393665437, 0.2568725556498861, -0.014803782931163214, -0.4501933593799088, -0.11548922386160786, 0.2760676324008725, -0.458313123380674, 0.10896009365527186, 0.5089617595386523, -0.7322259840258074, 0.2973814499029851, -0.024437484038720373, 0.25857074178575634], [-0.8834261983393107, 0.2783976628817339, 0.9853671409591671, -0.2096587921065092, -0.054486226511789096, -0.19719666619676735, 0.18725602227525462, -0.20190847892789437, 0.3027979558575127, -0.18068275227287067, 0.16182361347386345, 0.13944388687643824, 0.017316827156663956, -0.5818160072115774], [0.3107735399912855, -0.08681490505969781, 0.5333958157427161, 0.18417961044134715, -0.190499797491745, -0.23324774961701142, -0.4419159247470677, -0.14734699192022863, 0.2180551653429341, -0.32653841582942184, 0.34164946860187484, -0.053403731041065855, -0.24866817149829698, -0.03828212392644304], [-0.5882317397101597, -0.07488192434922133, 0.18665759670030135, -0.2773962271830511, -0.683676840849184, 0.009152660014439352, -0.20088281253799056, -0.7388661400431621, 0.061501424564594905, 0.0836512937599054, -0.5688453818293413, -0.14709284727506938, -0.34394196371246455, 0.03337991949496646], [0.8056827659517996, -0.001712078880855497, -0.4147776680583141, 0.14291809767949165, 0.5558713254035001, -0.6600794609878975, -0.2302473433931498, -0.10375788240917962, 0.15349919741365495, -0.39986204405565234, -0.5518247728518575, 0.8541619871657428, 0.31565217222159925, 0.007215707464268739], [-0.3373228279928079, -0.015826738247039212, -0.1695382128898184, -0.06691047427773578, 0.40560109484592094, -0.45363977361803814, -0.17780136950158287, -0.0164677380261081, 1.0167886577992293, -0.3911104407057342, -0.4240916117083946, 0.41560034574978594, -0.2766726019835872, 0.07526379567946707], [0.10521345734314178, -0.0663599180588283, 0.5012602056178569, 0.06073818043329728, -0.020401308201753628, 0.33741355897593106, -0.3879642030602394, 0.623230766378977, 0.33301641939636156, 0.17699049656223617, 0.19760662207691043, 0.601572376856009, -0.038605042165288435, 0.4387920235052942], [0.4414513093497348, 0.08219463341115794, -0.28709320719725734, -0.13443178237079426, -0.44865609228354625, -0.24635418825410674, 0.24529488284493178, -0.01177732564206731, -0.3849403678543438, 0.20694145943851222, -0.6260019664737011, 0.5205173466273807, -0.41479157289086127, -0.04058587693370664], [-0.5416721693654118, 0.5199972423686934, -0.08739030082691075, 0.05310792866731378, 0.0022459594646017504, 0.9462521719212974, -0.2214461814454877, 0.4704449617035239, -0.04435319627429169, 0.41907067085628436, 0.01763647589726349, -0.2609030718428288, -0.6416048742155028, 0.2164008245745206], [1.0381535338600478, 0.1527456605655282, 0.007596939169568678, -0.17926245890171702, -0.31290146557195864, 0.45470651941383455, -0.11127887972369034, 0.669146054653592, 0.1618984355647696, -0.19422658634771447, 0.10304799239963851, -0.04932708085715899, 0.650862587726449, -0.4361400251272993], [-0.018131068842319246, -0.14932600536239055, -0.6172879037969888, 0.23540548367123013, -0.3231444439536974, 0.540743961130416, -0.07357588719326863, 0.3635105559765439, 0.8956298178295309, -0.29888721550227015, 0.5466491828984956, 0.36417817259936347, 0.3693045533556924, -0.08708646487382794], [0.08333503608165538, -0.05497221302397708, -0.17530733319146896, 0.14466397880047238, 0.5208675882189654, 1.1994064211223496, -0.6745811340210581, 0.11921006792628193, 0.15261203990345154, -0.4483552874013987, 0.30336801481252484, 0.17347008335025907, 0.445811502720546, 0.49135484277730407], [-0.314238782595337, -0.10781411842886442, -0.5179564692126234, 0.33913699172394973, -0.5417906815163231, -0.16871073543847837, -0.18271717704424975, 0.24952602157484224, 0.09491020349649945, -0.546724103225457, -0.12542689550445119, 0.23692212137462054, 0.2799930944032138, -1.0527743009149848], [-0.10618012165863207, -0.6330107207052655, 0.007257701791879046, -0.3317113344758213, 0.309921511511882, -0.0163137694213535, -0.4131695245534199, -0.12958172340595858, -0.13972223674351172, -0.2192623352050708, -0.13109941416340198, 0.8107013640329548, -0.44473370381784055, -0.7861611134258492], [0.91727847378202, 0.2737843744657515, -0.06020977702986301, 0.130100201749191, -0.4617044580632282, 0.3621047658949563, -0.25968674671781844, -0.242165027400407, 0.38269096288802357, -0.3982467227111791, 0.14816889276566458, -0.7174674832612299, 0.530562313310639, -0.09832640123463471], [0.08870953845486533, -0.058435638786953126, -0.3414047858796336, -0.1683643627155749, 0.11442339043457697, 0.079566986064392, 0.6494375151135898, -0.06322247442940837, -0.5348510420896823, -0.504724796014353, 0.11017929968723132, -0.645375438768625, -0.03430733360782359, 0.003640760567790645], [-0.12151756295479976, 0.17579179977308382, -0.057226121255013786, -0.7335882334682783, 0.14077753373320687, -0.46754048499825496, -0.3568120009809471, -0.13138975888898702, 0.014332814875900782, 0.09780940741824237, 0.5179742110335551, 0.13437941978430165, -0.23275439332315714, 0.3233145106951696], [0.2748074047198389, -0.1270506236267111, 0.12219612762394604, 0.6474150660554918, -0.5955292224090439, -0.18438480274500685, 0.8734480110595677, -0.1972553016806478, -0.06702507599915004, 0.04255959541435514, -0.2172971540363856, 0.4026650765649722, -0.2687079007638186, -0.638487421055042], [0.14935444851142457, 0.42826180395970775, 0.2154959174138321, 0.44006879711121094, 0.01862464269919177, 0.6720480227858658, -0.5534044806230901, -0.843100698430438, -0.016220562865526224, -0.08946484780352, 0.2646965351868625, -0.18455831077775148, -0.006315925392375536, -0.3821288161948135], [-0.644613806640338, 0.8198855510260618, -0.21800048698311777, 0.7295675349682456, -0.55169080898172, -0.4393638107362483, 0.31094385270566566, 0.02272955934517087, -0.0487026660997692, 0.4846554645123913, -0.25479905158550026, -0.2979495195252898, -0.2892294075017347, 0.38688366318537465], [0.2032452995804962, -0.0037790746036391494, 0.31631860301307335, 0.16264347399160334, -0.10014861301060109, 0.15383091245884564, 0.0007627137340979911, 0.31691659341272593, 1.0075202675446127, 0.3041563489626037, 0.10775762031818188, 0.20528184281468032, -0.07213197250654585, 0.0933026150309875], [0.13803921164523944, -0.8790554980217414, 0.2178298794546321, 0.03434189671965345, 0.20864244195001677, 0.05486886878622374, 0.4682397812585352, -0.38274565970401114, 0.589367765315849, 0.07582266685624786, -0.6212921550262044, -0.7284497272991575, 0.7522977982687372, -0.5258524452518619], [0.8366537409657694, 0.2287998285296457, 0.2649288083263119, 0.8494213762963964, -0.20874493116907328, 0.05605751524264397, 0.34988991192000835, 0.12828288340747598, -0.3830384674204378, -0.4634970268866083, 0.5318723030296093, -0.006965736243115502, -0.8251337326595622, -0.11379825838714337], [-0.43323005765155675, 0.7017994142236964, 0.5522346589079825, 0.18726020241516497, 0.10652291435847361, -0.061153702992536176, 0.16109731508132655, -0.05736372618311404, 0.0006220315346675007, 0.024169935630160313, -0.012604783028667918, 0.4465069480751678, 0.5960138857681984, -0.20379271567142998], [0.008700099463937017, -0.6030318351000304, 0.5917039929421234, -0.34590498174309425, 0.14336941907266917, 0.061253390612626614, 0.1977222205963433, -0.45131238068499524, -0.010238004674444044, 0.2890232820922854, 0.18731503959859383, 0.2778090552273946, 0.4608207808921656, -0.7961965493247197], [-0.4951164922168824, 0.2641819029401508, -0.6032552225999336, 0.5565756276888731, -0.4404829310054381, -0.06457358693842027, -0.4195297902695132, -0.0964940933108202, 0.33497782376419044, 0.19832361819779298, -0.37570623581106644, -0.3245150232034274, -0.5900752695957951, 0.3222535060665311], [0.44897588481888195, -0.45464568765338204, -0.15960882635207807, 0.21399541589851892, 0.28933185538892703, -0.6758450985350266, -0.16927209449028635, -0.008886312892340128, 0.020038227936048397, -0.13489967738837572, 0.39830920828527017, -0.1973489069145406, -0.011925689630807491, 0.2645726342820549], [-0.3938561481125802, 0.5743758369141795, -0.20630561793739013, 0.03861825968148078, 0.31437818305576015, 0.3388925236646554, -0.41184831970866687, -0.3728154526041203, -0.08981969980358301, 0.13655328697906247, -0.09618790253890623, -0.6941386454208833, -0.5322644721823289, 0.12055050781402205], [-0.250745778878559, -0.9195851211807362, -0.11671930275613075, 0.36659202721535994, -0.25533368185771876, -0.273667821640517, 0.18230883273702103, 0.019137534933873487, 0.23871141685959876, 0.293967004615103, -0.0331059106729857, -0.3741861702998176, -0.0831709068256028, 0.4721671194887261], [0.29866453658576675, -0.08086544149146394, 0.33087021078287454, -0.15242870426902586, -0.18471253998253162, -0.13004848609862013, -0.031455944147536864, 0.1612985380440895, -0.3271574559437029, 0.5105749893932402, -0.21039775059017196, 0.39843327199841855, 0.10511194113846586, 0.4261460950756386], [0.09087474848592882, 0.28569450224892295, 0.35794420244207653, -0.022523199990552863, 0.19662534071229681, 0.705259475417828, 0.6740543390258539, 0.4633294121429995, 0.04552830397104959, -0.8156819170133762, -0.5070406708391165, -0.708450213840682, 0.11568428012205116, -0.1299679500810207], [0.24046324366325106, 0.3320367286271351, -0.30488594530540064, 0.42723164616211023, 0.045727234673008585, -0.0008989369194964049, -0.32770028222139874, 0.28759274443796573, 0.4116160372977303, 0.03601800351999458, 0.5316704062649917, -0.7301180604304655, -0.23918605320050354, 0.6190087688037562], [-0.28949107732671403, 0.15113890374074507, 0.3852959003522109, 0.6388885210247663, -0.36585588058143287, -0.4754572721300672, 0.46949714684848715, -0.16054535240103054, -0.33620371217282535, -0.0683354645551501, -0.651849908514974, -0.26636150248169643, 0.11865106534841345, 0.27266310998778936], [0.3311420722095023, 0.46415586997513514, -0.287248535058281, 0.7517181542830637, -0.2316958171846422, -0.4919671962182243, -0.03955168835425241, -0.022654017964807645, 0.5530044770956987, 0.21831655819603804, 0.2505904500959548, 0.4985508741725223, 0.029072257835245745, 0.11950774079307101], [-0.3750842079686106, 0.05070357444175064, 0.3434699375662388, 0.26282526048674426, 0.13954001441678743, -0.05974375840297721, -0.2129476681670379, 0.16585912499874547, -0.8457686309179959, -0.43617741704260077, 0.18062952731217535, 0.6079191459203634, -0.34355382672589435, -0.537272632369395], [-0.18338510402484534, 0.2531979125799813, 0.47451254233024714, 0.4182968726471041, -0.06589002612733076, 0.16589545192996413, 0.5060858367781695, 0.1051433152858931, -0.22111302815543246, 0.13922274731576467, -0.3856546760907987, -0.0647352310343721, -0.11342051304367116, -0.11715958812095756], [-0.08826521165631153, -0.14505195690379213, -0.09901378345756384, 0.2965170694985793, 0.5627238042410831, -0.4971329201461959, -0.3770854287623874, -0.47127867079651964, 0.5507816081849128, 0.551270972434106, -0.07363572856005478, 0.3887418513781903, -0.3276177742089407, -0.4348953383647711], [-0.1357958976958083, -0.25073533278004023, 0.32631120524281093, 0.032863438871986825, -0.17132920607417287, -0.19856685484779676, -0.5883385233362491, 0.5742370674310142, 0.6807305750068714, -0.19959357366629746, 0.6249730961978107, 0.040915057094584074, -0.11534603608541909, -0.2100847036395369], [-0.7761657340314777, -0.6466460397694438, -0.35170610005659514, -0.16615628148259984, -0.3676131856454551, 0.3849893621726955, -0.08366197160828781, 0.9157279797104728, 0.06339151729634611, 0.5931516239509628, -0.07594472782920293, -0.5237780467941399, -0.03329682183908935, -0.025490628424263223], [-0.10030541287035305, -0.8583264356945104, -0.23105463236774618, -0.5294891949265599, -0.536811901640202, 0.34383919291540077, -0.6543028192123574, 0.32306136703485366, -0.09419200222728932, -0.47001531563499305, 0.41414731394060744, 0.336749610814571, -0.30220338939524394, 0.1440457327732527], [0.47288685411298703, -0.22924247521798014, 0.5691200206512643, 0.20094601001393958, 0.1622031156137937, 0.18241159992517011, -0.20023760954975967, -0.5077460723444961, 0.05265753670882355, -0.24769685028003302, 0.2739712353884145, 0.6110228201786811, -0.8311336455348367, 0.3690205891196057], [0.3642530859080211, -0.13074527621463394, 0.4873380258421413, 0.4149015211303437, 0.6323029991826642, -0.8464381643923995, 0.5223594832826634, -0.13700686954637725, 0.24007655170262338, 0.6059835916666246, 0.032334287230622316, -0.5277176343537805, 0.3272656646746563, -0.16300423219226454], [0.657732561582084, 0.06419749068295263, 0.1706372008675507, -1.0102337659410956, -0.1755822152058599, 0.4106803676248591, -0.3159258569185518, -0.26172291140744347, -0.5259350489595999, 0.39467871464704557, -0.6482810909258792, -0.24959373526701104, 0.6515707530805432, 0.13574840563962], [0.4656072205257422, 0.650990001368958, -0.03016609256130358, 0.5945560396283652, -0.009131377639253684, -0.3051109470147674, 0.3775267736557209, -0.15166818536724322, -0.041262519089249224, -0.2433359895931907, -0.28736692123735863, -0.4045874011062902, -0.1272975691763214, -0.5816110597952733], [-0.02900351902025667, -0.18882535852991006, 0.3053629026310161, -0.12964441923293285, -1.216442341956462, -0.09495964169632257, -0.37119285333358115, 0.4482495085724442, -0.1920535491071459, 0.14253906853710827, -0.178679655696303, -0.22948125592543517, 0.451674770977666, 0.15481475752385562], [-0.2583396385047781, 0.24326290764740793, -0.2446554542916106, 0.16256382427383761, -0.2588831061739386, 0.2535449180654181, -0.11997229041398433, 0.22323828559976772, -0.08077281928994667, 0.6909146014353436, -0.08232513411751446, 0.136646128566196, 0.14479320766041007, 0.2706022820679523], [0.10897555459005977, 0.14927006938668735, -0.04755568785101853, 0.23509956404123783, -0.45976240469686125, 0.10900573465289731, 0.013496142256307263, -0.22516206480011766, 0.20231395107839203, -0.16518817387895138, -0.6172783372233158, 0.09554896099122015, 0.20278010234552357, -0.48497097844367776], [-0.406995889225875, -0.0858302966116893, -0.21516679320367932, -0.000738459494999546, 0.6159445956364095, 0.08461470801766155, 0.1916807938759441, -0.3320320165801076, 0.09494899460810428, 0.6222159603105524, 0.47531117234449327, -0.3166973808411882, -0.10110122044596086, 0.017043941129297042], [-0.014610847910403584, 0.2831798304381295, -0.34631618428493377, -0.49650266774377133, -0.2618869323375358, 0.40646025418851967, -0.7491996939312009, 0.0034557641307751143, -0.17952339301386847, -0.006175793537655625, -0.38728006266307763, 0.3108268946851759, -0.06233038210482272, 0.05237184577601148], [0.8083974605403486, -0.1716759493313328, 0.6910447614865503, 0.3151014020597639, -0.022498024420402517, -0.43910071007520984, -0.1510453915351344, -0.05705848296606151, -0.44435079196205807, -0.20528193019014546, 0.14573118191471465, -0.04351770016041961, 0.42539398968504005, -0.9490360026615373], [-0.18590035111767475, -0.26427905289771697, -0.21873836137690547, 0.14466858078101988, 0.406911521092953, -0.8430214567470292, -0.3622593294607539, 0.06872033260715014, 0.2605286087891285, -0.42998739656967494, 0.12417389345142667, 0.15602517240245997, -0.6774847576906163, -0.5884560594375119], [-0.39078368538626074, -0.4384590424240735, -0.19759444934925113, -0.08892768663012293, 0.5277977864469533, -0.7741439243793147, 0.23606646192690098, -0.09247820651037043, -0.34641601372568553, -0.010894158455865693, -0.24118581881265408, -0.014923708800588405, -0.28951799365471975, 0.08884588179691408], [-0.15302409450933774, 0.2102377203452463, -0.4410052550879767, 0.20127759356947594, 0.23124292956624512, 0.36364249205495996, 0.31821256186099134, 0.4353415305900519, 0.25469737860960723, 1.1095411393567343, 0.14537590910220685, -0.31327190250679277, -0.2850656810977256, -1.587150651625159], [0.6948097334033764, 0.44602491445489606, -0.24903286561475366, -0.4471294947567403, 0.3038953609698553, 0.15686127048170675, 0.2960419358754524, -0.2738269022086846, -0.4043430473542329, -0.1537610881744585, 0.22843156081907098, -0.2871915737317084, 0.1706984511029748, -0.1764746311391716], [-0.31765076773054846, -0.3449345643259274, 0.2632469398452916, 0.45443892739157304, 0.15402610435563263, -0.0006942968657128434, 0.8852604427394426, 0.31303556908440444, 0.5975861765631618, -0.11937486087020815, -0.18806210739838058, -0.15122949463576751, -0.4045397749793161, 0.49699891224364484], [0.30489150930218717, -0.9193318063258201, -0.3686027573182676, -0.07347847973937024, -0.5382525984343953, -0.6380577226808336, -0.39257297046926826, -0.3845212330245265, 0.11287324655834613, 0.3648117332809607, -0.103158135102522, 0.1769796610641346, -0.052597997190459024, -0.4285702239103014], [0.10024346747965183, -0.31724911439654035, 0.006935948078984628, 0.22280593675996463, -0.0009736684992501571, 0.5821063165083182, 0.8219281286313606, -0.912408762080876, -0.2331483169910602, 0.21673895383101646, -0.03412677484417161, 0.03718919631866626, -0.1610668983073474, -0.40162590771971307], [0.25842603118437263, 0.42584573941038073, -0.7352786626105743, 0.11639153737130428, -0.0386981259818784, 0.5000335337165962, 0.0481462857255439, -0.7298912524958397, 0.22808224053621423, 0.24690675046752408, -0.11891493714591185, -0.09546190703122236, 0.5348782328231338, -0.2517895508496901], [0.549567880319017, -0.12209758164798468, 0.5394083206525675, 0.21305717072988484, -0.4306368473053312, -0.28629395393876594, 0.7151405777888005, -0.5077366227484487, 0.14420399088800168, 0.024502564665105076, 0.7154245453583828, 0.811183633673979, -0.38532713851603767, -0.005532010259146133], [0.7010210137503965, 0.25740295807797436, -0.2535354781740267, 0.7036527882719221, -0.12942477926381107, -0.581532287773738, 0.4856023220674688, -0.19112794869190747, -0.4815365928022305, 0.29066868642544147, -0.2077259466465725, -0.32516153742417025, -0.2488306258832125, 0.08940506279209731], [0.06130630487370711, -0.41366974308913057, 0.7119705278798878, 0.616961928221071, 0.20039762526271918, 0.31703406454329686, -0.15851855032476783, 0.023817332275744646, -0.9314864062329334, 0.02944467868975341, 0.10344525368698469, 0.04884658467270045, -0.4237444750430815, 0.33890340962938464], [-0.07712281961659188, -0.8610133206335212, -0.19365762124602315, 0.1357663602104621, -0.09670458846113983, -0.28717816246166644, -0.12289167114197547, 0.16582812532543767, 0.379064571790705, -0.046961394547980505, -0.16334856700102904, -0.2524482465996382, -0.010076927633706786, -0.021345152642510135], [0.13991923493867225, -0.05333618557230217, -0.25223714109200257, -0.5796097430504138, 0.2058920620247251, 0.4283595703766215, -0.09005321719064215, -0.3553495078207882, -0.36962532865712977, 0.3781922731472568, -0.1664156502478333, 0.5253357676739813, -0.27676624437171304, -0.13392725556115945], [-0.0640516873806631, 0.14548110126140634, 0.04975609922905303, -0.14069442982759098, -0.005006232055531742, 0.42703868132609, -0.04283700669800532, 0.05959014516245526, 0.07673120865003621, -0.26979223797341434, 0.6170569253202791, 0.1333860552178701, -0.055939085062028694, -0.015121790734994846], [0.038702705287325556, -0.49612786728570574, 0.7244084213543632, 0.06969892879230577, 0.07383333037665286, -0.30472368568822095, 0.17074693113441752, -0.2445164052242597, 0.7996142242453853, 0.008532448774828382, -0.34380302900416204, -0.2878523067579162, 0.09470991263928275, 0.3679864865348845], [-0.1318004584337204, 0.030942847955307138, 0.10371262458400135, 0.4704396786244449, 0.06344854330353723, 0.5102484716770876, 0.24016709689418744, -0.7195244557349545, 0.5484173493609472, 0.549490198592865, -0.03793355371306645, -0.2939727508938621, -0.42123639504503774, -0.1564336761121945], [-0.20584163298482672, 0.43737863474236266, -0.29739903852360394, 0.17513766747541942, 0.400269550949172, -0.10104109500400235, -0.2796090642114006, -1.0365634692995132, 0.39021205539970477, -0.6386989304676349, -0.0936666189779715, -0.001794752030622507, -0.012345419799024766, -0.12695957382157194], [-0.29986594498157404, -0.12736850103090883, 0.07003607461562864, 0.2166629312845874, -0.38045507912130105, -0.09691899175120387, 0.29120000718000016, -1.2136375350771909, -0.44221588157552955, -0.10542133846659352, -0.19845531780354186, 0.18120365301857577, -0.005720971158654813, 0.46487106556625346], [-0.6766555603203182, 0.5726828745678945, -0.20411292814885074, 0.4049032786171291, -0.46730341065303943, 0.22800576431304517, 0.009988510572143366, 0.1338650203322415, -0.33015262799490064, -0.14889928931967655, 0.05667847185392772, -0.041597879592330494, -0.7333009418185459, -0.010280106436675663], [0.48617843118957715, 0.041425115532949974, 0.1404020459449475, 0.2043582083950045, -0.10645814429700126, 0.1309729808103486, 0.16144345813354036, -0.16370280256566355, 0.5757260711328512, 0.3856214913178526, -0.3338391740384156, -0.20434052075234366, -0.7080875647943283, -0.41803874048204465], [-0.23245282606544335, -0.3470150838329682, -0.044466227771302234, -0.3284988362172846, -0.4423787909017793, -0.17676931668436927, 0.49930251822639876, 0.0620364036356442, -0.49953597970401536, 0.20028239956736577, 0.7930323411168674, -0.4886538406521471, 0.08610912065382932, 0.40053666395879706], [0.1479588040404437, -0.3937731304590562, -0.007118501268666817, 0.28068536746128675, -0.2100794254699505, -0.46286679401201936, -0.3493520084536198, 0.09449277386676845, -0.09917483546042603, 0.3949856951293186, -0.3294535632769962, 0.022473891526395243, 0.05041326870855884, 0.7506549942919443], [0.2830057845216964, -0.45300684194745916, -0.744214166322742, -0.12806703670358188, 0.006069780712049601, 0.6443190863151106, 0.5726993109009085, 0.44945696831275633, 0.09935712051510344, -0.29089779001923377, 0.2581587317327738, 0.1292139805941553, -0.03602008857322622, -0.19923028667830023], [0.6162243276964867, -0.4240001862561003, -0.0663426002150679, -0.4567091569900824, 0.5792881429610325, -0.12844833519758833, -0.28617352415295133, 0.024486008146275613, 0.026742141627493183, 0.9880498174508735, 0.6679486713197712, 0.5855800389660064, -0.4389400154063321, -0.08695680993378206], [-0.43972941269464255, 0.563706145641914, -0.39450752633999997, -0.04645769647830492, 0.4167951855098888, 0.49218695909678545, -0.21650382004799254, 0.28002501744330516, -0.32362330189199323, 0.3517482884341653, 0.10274144468857253, 0.20710860911114376, -0.46079395964052616, 0.7997425018873013], [-0.27366540138787687, -0.13915590849400003, 0.10799393679126376, 0.5980858320173027, 0.10933543795041879, 0.3680999899282671, 0.46466951079833935, 0.8819453440076159, 0.4293390796342071, 0.15737666122057714, 0.034591126504914894, -0.2164011486156899, -0.35276720231572023, -0.12665182155158716], [-0.4613644008495875, -0.35395069326979256, -0.1005082867378655, 0.1853794736003962, -0.12886063887254956, -0.1378461517172281, -0.31234432754036884, -0.36942882339745686, -0.7239826058247144, 0.5101063119872973, -0.08467790797981047, -0.3935740614822821, 0.2272079619409093, 0.6922847977803793], [-0.12305398224377341, -0.13617866727302258, 0.39741424663143154, 0.01044049291126438, -0.08105975355554705, -0.09532848702174875, -0.4814154775027311, 0.28935535528949047, -0.08799564457442625, -0.21448120723461359, -0.35326034537388334, 0.6348042882049897, 0.7082944181095776, 0.44431806309624733], [0.30358867672282536, -0.26828697380798266, 0.5111502773867234, 0.29371298757509073, 0.5089448039939733, 0.7935501072046428, -0.41457443860183424, 0.2217444458810975, -0.07852822512509539, 0.21919380263255034, 0.3192898218917582, -0.02390716341787564, 0.5674421979010241, 0.6717755017861574], [0.27476252624446634, -0.8396045471988279, 0.9051439911597519, -0.48736473480711523, 0.3587748000877504, -0.17097292460948174, 0.2609817835437545, -0.4367105000226505, -0.17106363494113352, -0.49208768877461123, 0.1521329050366852, -0.24271724257670524, -0.19534781626972395, 0.27715525743634034], [-0.6653500302836073, -0.21673508168781444, 0.37755553983235113, 0.08277076335065041, 0.2769998520743422, -0.15854132441439406, -0.12604629143455626, 0.4540615169000244, -0.19823958938218864, 0.09107483880082093, 0.46435725920760695, 0.24898843121939943, -0.26066455337329136, 0.25282665589712294], [-0.548514950337485, -0.46749997127897824, 0.41222852065959714, 0.9679035836022126, -0.3642749778942, 0.3669017939722504, 0.017960683544681864, 0.08880528165713228, 0.39597442434131375, 0.02791942785233076, -0.10846501199134953, 0.42922466594904024, 0.659607399336287, 0.1801087318693598], [-0.5731769787094998, -0.0014927435579507862, 0.20954472518202114, -0.8362563831558414, -0.08932305645789881, 0.035793456090323285, -0.8578993376823, 0.2554734140575504, -0.7493788090806017, 0.36510092113254056, -0.07831613452096955, 0.014377669039296584, 0.6289196782398981, -0.25740946227897604], [-0.8792268830461301, 0.4318576348161935, -0.5194927743936331, -0.1372756964243426, -0.032241950042346965, -0.15656025716044397, -0.19102106897259827, -0.5106738196842782, 0.5956794420331347, 0.1337441936771528, 0.37797499241032473, -0.15519783552212635, 0.13242420092977794, 0.15014767239623997], [0.22507958294635946, 0.2189325872773573, -0.058424005555324, 0.6690412699235542, -0.5837841507438901, 0.40087933148629257, -0.3261526587253467, 0.5452492361559343, -0.8165979322402918, -0.14048060995256703, 0.05467715606320092, -0.17451394441524237, 0.25583432195551153, -0.10520686658033833], [-0.07365236837874048, 0.13624039180249858, 0.1970739514500045, 0.8600448521024444, -0.313916800943239, -0.03189420018567636, 0.45577869198361254, -0.20430546576075692, -0.5446754421041577, 0.5540607731928345, -0.41354726084553645, -0.03034723607224889, 0.2248740270623206, 0.412091891762938], [-0.22046649743254268, 0.44447153317745725, 0.08354105085302273, 0.552323790586811, -1.0965476425591252, -0.14025885190658524, 0.2305730018725335, 0.18780375858623868, -0.43109657578371313, -0.13335187905271198, 0.20767354285801362, 0.18135821392434703, 0.07271793514689028, -0.07774868252828311], [-0.5103045584079992, 0.3207941147501306, 0.1511000914241132, 0.48766247899947957, 0.419859638499816, -0.15764501791104263, 0.1525513218381466, -0.4951215861703817, 0.27588834722887035, 0.1758939528271492, -0.18958248812652648, -0.4836483547041799, 0.0657802813147919, -0.06104785211993984], [-0.10882948982147016, -0.35134714605190925, 0.0014000020374467276, -0.21604321357303793, 0.3156132203049236, -0.11024921509335582, 0.14297617395231282, 0.7060099421146269, -0.16795385614107802, -0.033635046539555284, -0.16430698219655493, -0.10585088131438444, -0.15989690418169591, 0.2350592656714745], [-0.06855177983667159, -0.38987865870423966, 0.5168181769280745, 0.16927762145941816, -0.6211217492175084, -0.21952267997200822, 0.5323514301586126, 0.0503245492236154, 0.5282772797121772, -0.5012147607551222, -0.10526032948512114, -0.4912265971968252, 0.5784295295253626, -0.08095773895680497], [-0.1887125560365872, 0.44665821718180093, 0.2697714045761626, 0.5121997773332118, -0.04292036347253867, -0.4828208879095111, 0.22159868615176484, 0.5365613822245285, 0.2368327891752246, 0.1494123058646648, -0.014086920572882416, 0.0847794704558281, -0.37500080500922517, -0.27851097716872186], [-0.36226306919938334, -0.026960633442543673, -0.19530775019941593, -0.35859380535285473, 0.5503583235219948, -0.4010193640651608, -0.4514346980258569, -0.2273292468798162, 0.18553995576957782, -0.13110837438811615, 0.30808540118993516, -0.22317166695014237, 0.39426939969339353, -0.06681650071964253], [0.11003941884938476, 0.7234579967820146, 0.3551186214504717, -0.01190284908021008, -0.38721193752682664, -0.5502151575578242, -0.17048005711842532, -0.45998713973693833, 0.17298293811292534, -0.05536546383129959, -0.09848899978512038, 0.3223562423905675, 0.36124425736143945, 0.05146906913681118], [0.14460528323321586, -0.3402278960270214, 0.055163789325961145, -0.2078862784768965, 0.2529471432498114, -0.19046605898044405, 0.22536876870123546, 0.2385776991903547, 0.27339085039082356, 0.22084720856767454, -0.05950340486140861, 0.1613821492923023, -0.5646625883904737, 0.257210113155301], [-0.5640259158864898, -0.13982279639816808, -0.6879481732143308, -0.6825568849400191, -0.08433111614579955, 0.14410595961232292, -0.26899729234645015, 0.07037810777881315, -0.14082575167471434, -0.008813912881450111, 0.9162806485624801, -0.2700521448585763, 0.0027704369899169854, -0.21532437315373892], [0.054378678973109384, 0.07339845423427793, 0.051460024035180504, 0.07221524829315618, -0.6083641732994008, -0.5940419241299738, 0.623487346888219, -0.4443455110487452, 0.12895094744332078, -0.0697639204482685, 0.027081751898292705, 0.0707830333475553, -0.09705406401512545, -0.2616721009225947], [-0.14008686299700884, -0.14601835913297928, 0.02007449913488737, 0.05046202348615802, 0.34508926570374193, 0.6476138249127247, -0.11519891651935696, -0.4006285105150689, 0.06840142912906019, 0.3911709924951829, 0.5254168248266695, -0.19880202582225642, -0.18826623066888096, 0.32065851731503836], [-0.005370936381128793, 0.056287387667411884, -0.3571393407939627, -0.4331566403402584, 0.08558909985177035, -0.41953464576593263, 0.3330267193397609, 0.08030249482840555, -0.8578326060852869, 0.8356583845888315, 0.9225911542762076, 0.01942483133493463, -0.27584171580741834, -0.315784115235887], [-0.6381282685866528, 0.6313129543985813, 0.20749675140972557, -0.26767091894348916, 0.40002900420695325, 0.12871986434649746, 0.257408485068276, 0.7344171321992073, 0.1372178765408055, -0.5141646108964049, -0.4960927192814145, -0.22084320748152161, -0.5907915076742651, 0.19197270714402237], [-0.4533617328840983, -0.19118535342260873, 0.09739466592562623, 0.08216674617423746, -0.32493021969444813, 0.3124807963026787, -0.698739513448734, 0.1299455445633275, -0.1882558684480549, -0.5740937335355208, 0.23615762188074463, 0.15334214466389764, -0.6498380158835403, 0.2528262813727819], [-0.40571584498264, -0.08873443871504474, 0.34226937362438997, 0.486799715875121, 0.1438639521464801, 0.07948563330596782, 0.1752252654004581, 0.10924937971303443, -0.008459146247292253, 0.17382519525724413, -0.4307748052289386, -0.07134203917161243, -0.08214881487831927, 0.30320009155180344], [-0.3928176268925719, -0.017852427075278437, 0.16795547734623728, -0.35217567378924813, 0.33644307882102764, -0.7945944628466705, -0.08514366966238497, -0.8625833705330956, 0.356311845516929, 0.4363956753581505, -0.6848586050442662, 0.5230621449731715, 0.603408249118939, -0.31692555665658223], [-0.32771872287739334, 0.3561505889047035, 0.3703442570671106, -0.02394223506347367, 0.053805882791247366, -0.578751224934795, -0.40915679595984417, -0.1273227906119215, 0.01236331755848829, -0.38802237615696766, 0.48243676822334297, 0.5199138446773911, -0.06761542013026275, 0.317894643968345], [0.12660769884482193, 0.14099954161994352, 0.43016990547704287, 0.15311358464980102, 0.4136256809405286, -0.8868160137124259, 0.14841286151408448, -0.4702014401786759, -0.3766380013567579, -0.7136751826048843, 0.7389444065102361, -0.213243488497157, 0.23250129515982282, -0.21021645251861004], [0.4582042129319541, 0.37317964008101373, 0.42409379475941644, -0.3603659330930489, -0.2633560379263743, -0.14109233987348097, 0.7851308931816734, 0.11366138841712077, 0.38397382005304204, -0.57423088449323, -0.14058702765308984, 0.09438964919883996, -0.12070566880239472, -0.0748496283718416], [0.5888070743660422, 0.38836563435736, -0.007960086021037142, 0.12331029628118853, -0.21245046618144234, -0.3962366716619283, -0.28867571274513876, -0.2502960620792613, -0.2907586741604215, 0.25162721946792455, 0.2644280243175903, -0.263067213013221, -0.47748022159553666, 0.06481010492032778], [0.3201367379068031, -0.1973983088799878, 0.5734807342675463, -0.4300700710630905, -0.3367727712579132, 0.3281768125147169, 0.48405005698976966, 0.45575825805669107, 0.1994711573644516, 0.031676537501529385, -0.06071587215813006, -0.005613943226506859, 0.42142698862746186, -0.48147396817179494], [0.3937986817182957, -0.140572729936733, -0.001508182566859241, -0.16434873149930893, 0.038175278156913045, -0.6123845269412872, 0.3510766396009228, 0.04784201321574612, -0.10262154302121669, 0.4029072313377914, -0.8094688042793353, -0.5558322293874695, -0.19432875944037242, -0.07017552698423425], [0.30598713461342597, 0.47985741174064583, 0.25864749234733003, 0.5173917441032029, 0.38647401128204445, 0.4764085864644658, 0.37112802049995225, 0.5580700738784631, 0.4120395492191993, 0.12369267345908613, 0.6874814244768696, -0.5372667831947419, 0.10631858162210396, -0.9058799352716294], [-0.21636609275192298, 0.4275829635427127, 0.4813860611501886, -0.051711345838433585, 0.1722289021768778, 0.435840033947947, 0.27619085214329553, -0.34118605105266553, -0.5881530450378873, 0.05871135369442397, 0.3508903783530662, -0.6187489560709682, -0.4567568771857883, 0.3731560109690894]], [[0.004290250293115059, -0.01664276975335512, 0.16924546684306038, -0.03574695333495565, -0.008509161976533461, -0.03931531965079189, 0.069564947948278, -0.02594227104828773, 0.001147057804378474, -0.17685514057281743, -0.11737534513061738, 0.02221206356242306, 0.2546415441077148, 0.10333300608917315, -0.056957972881078935, -0.09695843557872455, 0.13332575541325892, 0.0313089351769159, -0.013082836573796816, 0.11023065173585263, 0.12186833042659403, -0.2873745949993023, 0.08987652340627272, -0.013975536798450256, -0.07123685123593171, 0.0846619751922574, 0.05048549275575228, -0.09532030386271739, 0.20808833531165982, -0.013855722507821211, 0.15294043710352584, 0.013953641031390957, -0.04386253473298347, -0.16883803396157648, -0.08675145420059471, 0.006958397435036897, -0.001204089261654973, 0.1341307302268847, -0.05258557026223511, 0.066085849934301, -0.12616177001728082, -0.0405805954330255, -0.13569387237631314, 0.025334519868311787, 0.041888300681472125, 0.14568053794821115, -0.0013847678326128349, -0.07135384509993095, 0.05343434033195401, 0.14547720294753508, 0.007707163382408936, 0.08694924111172488, 0.12095897012232598, 0.025704656767414243, -0.03606736218845077, -0.10015984258856436, -0.06513723570497663, 0.049333599229930074, 0.04074910107879046, -0.10975861280072774, -0.0977981822116725, -0.016592072465994263, 0.1269325786474751, -0.1347968742180297, 0.07861532657106957, -0.03692882918835922, 0.0975875670492335, -0.0007834231173239, -0.014166315612122574, 0.05485013937047883, -0.12921360849561322, -0.18174113951179813, 0.066026008122559, -0.01258287536007087, 0.10050871865781971, -0.07398599875360268, -0.04551881236185369, -0.0013259345784450384, 0.02312731122768092, -0.07768546365041404, -0.06910316019882659, -0.15800645154118798, 0.026762677607663356, -0.0035893521472034067, 0.05503171873498454, -4.609241841249701e-05, 0.061730992847804, -0.011206717322276297, 0.10705801276900512, -0.005166826926778318, -0.04817190812299282, -0.11408509249800076, -0.026066445318147044, -0.008003809852218475, 0.00989858171361521, -0.1693507853165932, -0.08491893476317167, 0.07380067894834397, 0.0011745703757225503, 0.011026389373470153, 0.1256707878009101, 0.033834997358184314, 0.08667663220057707, -0.05331561028905593, 0.14395229512557836, 0.0971298870955299, 0.022909114893648726, -0.038734303774231114, -0.028136030731058023, -0.18411336529176675, 0.012128201671277924, -0.12018786401394001, 0.05361379966945127, 0.09124736890881135, -0.0029685269093602676, 0.14055633272339363, 0.0006501166219813586, -0.0050169354333466755, -0.021976123938136992, -0.07310977927897079, -0.11856737244974762, -0.10388724122533985, -0.051458039396350914, 0.08600275905984243, 0.009024235298202902, 0.0406718938093438, -0.11315645178082562, -0.032780749383860955, 0.07066527465412972, 0.03913846477161561, -0.014062061800160036, -0.01631244074400477, -0.06777848014622392, -0.11532684739163468, -0.011034349510491542, 0.07376960945775779, -0.09709512351501816, 0.040551997040671174, -0.018796147067059985, -0.12074033255883915, -0.046335785408574026, 0.011598604359698521, 0.0009053665327450622, -0.018630672042684197, 0.0493391778301121, -0.1947387439493408, 0.03176249364694509, -0.06508075338868755, 0.0009476858514872865, 0.1280772483887098, -0.0027981096426072903, 0.07154530186352516, -0.017629058490585905, -0.05831741686796931, 0.09478810965078088, 0.19460702996403553, -0.1272590979159281, 0.021141730536232927, 0.023772152127653864, -0.06724774119424423, -0.026932119532974988, 0.05050328412943036, 0.006901014997096166, -0.034079615721481084, 0.00985688758956382, -0.05872295513852074, -0.017113385841033158, -0.005740977437972759, -0.037396294486314936, -0.05456945734610698, 0.07310554739015025, -0.06905856668263521, 0.10237350149899449, -0.07184944637157728, 0.017881189056443036, 0.013363205293413838, -0.016767159523508223, -0.11116365937213861, -0.005030035322192426, -0.06405891918823274, -0.03869351207964543, -0.13586333147127735, -0.003733413245349187, -0.055507919328150974, -0.10211516034715581, -0.007209517980635807, 0.06124892660237232, 0.06912174815973296, 0.040954690849233095, 0.07512979134427997, 0.12600482547972658, 0.07789454381758978, 0.016713540704890374, -0.0013730418102938242, -0.007258048762724703, 0.07565366601653241, -0.014706861936155466, 0.11406334105553989, -0.14118887068312053, 0.09423062078928733, 0.0917118228060186, 0.01771030003721951, 0.08559872480562938, 0.11886001346802998, -0.1346061208019435, -0.1627430117917979, 0.030955445518440563, 0.009383109228280864, -0.08569811458391392, -0.019085760192023526, 0.15461680651278617, 0.005279869772452076, -0.03155907402803605, -0.03074049636307388, -0.11556052859540421, -0.01662344712123981, 0.022303845960110362, -0.05866851719649406, -0.10284540949232304, 0.03215600940273525, -0.040971866052456854, 0.032139460874919, 0.07294753195262609, -0.07027206843825275, -0.0699115845767762, -0.023830267198875283, 0.11222845158033702, 0.13513624750956996, -0.17528635000715972, 0.007070570781730952, -0.1476744101413303, 0.03380746745127752, 0.034437097431632056, 0.1370687482419882, -0.005491534361595204, 0.16099296409555203, -0.1318155840108317, 0.020862155964663467, 0.07743656296143496, -0.06007388226034367, -0.06396917971859863, 0.043134496107097485, 0.16029887557900907, -0.033545309289137175, 0.04918137042259543, 0.06292356186621627, 0.029905875864658454, 0.08542915223894985, 0.01865493349019033, 0.016251926749697894, -0.005686141207619194, -0.09761038666120563, 0.06731369274739249, 0.01623924471135703, -0.20769359144904914, -0.14796335571649213], [-0.03436458856904928, 0.000906298794399062, -0.014461075420812089, 0.02621109952985181, -0.017930908079034583, 0.006410106088117578, -0.010820534484719995, 0.1191372280535637, 0.01539644389147711, -0.0968354949322086, 0.013123205697106562, 0.03906789140578132, -0.06009798031415568, -0.04220747503054217, -0.02053859436907499, -0.06043830308687404, 0.1353545503248096, -0.07311770151961813, 0.10776735638991143, 0.08854000922429096, -0.04425835504339582, -0.06940763455543568, -0.009266996762308605, -0.10440303474705237, -0.05164696173437048, 0.11571624206964688, -0.03462866800205347, -0.08991988174986547, 0.011699787452067408, 0.0730361346620339, 0.03125321777322985, 0.03741355466200199, 0.17333262292791732, 0.03770292326338554, -0.13568934845071945, -0.06845605185292447, 0.017910680430799377, -0.0062575897197284175, -0.02634512454874878, -0.17227298219080714, 0.034509561104359335, -0.0019915514217161913, 0.1740825521311164, 0.08399988381731228, -0.02451331664291956, -0.15104157280879552, -0.08699420407831739, -0.1878018111206833, -0.04886923352004722, 0.007396990544182517, -0.09276042145215695, -0.1389792949632835, -0.01935066827737801, -0.11579564583655833, -0.04212155907376234, -0.08361361264689321, -0.12937231235965355, 0.006080061739140603, 0.11293218831205327, 0.036801900361025215, -0.04598985358580383, 0.10225055105347326, -0.08827271253735933, -0.22006913605298548, -0.11191856866409741, -0.11557249712849509, 0.0958713572709258, -0.03546645325898467, 0.09659052484105489, 0.034882676253563775, -0.04046715921261287, -0.08288068193843312, 0.044438938867361784, 0.08821123791789252, -0.021472575753380636, -0.08590679377291344, -0.027094571944607473, -0.1194009119404272, 0.2033062228206748, 0.12700225212862315, -0.10032917950463802, 0.14524922759349895, -0.08062944262382171, 0.18415316749978897, -0.16148288864306962, 0.11321029798632291, 0.17054511372318207, -0.09443416146943094, 0.1321162332581484, 0.12278741968987338, 0.13298600893898269, -0.08350819934499257, 0.026810924642672856, 0.07240359628839632, -0.060013404223367366, 0.08444058161759901, 0.11161342552321037, 0.003950709265827859, -0.13649638401398909, -0.10071941575049655, 0.06072300990699069, -0.05579326510930825, -0.004076707809261504, 0.07775143722264072, -0.14620186492125753, 0.027773585513301093, 0.03522941518272486, 0.20528468089102636, 0.02067766053976217, -0.015533688527897655, -0.06064417524832307, 0.020222872730491063, -0.08829084806752688, 0.009049529709704655, 0.0916780803891076, 0.09989690477604841, -0.03794388552584949, -0.028101209366158557, -0.05667656623095752, 0.08960733445024667, 0.05498824012615415, -0.08685195282540213, -0.2272956141793933, -0.04135756778805102, -0.0678683221259674, 0.20410640567838076, 0.02330215184876081, -0.08278549809189734, 0.05365329815159189, 0.059930155204088266, -0.02602782340117726, -0.08005869430769241, 0.12925061535304572, -0.03556339008247557, 0.0998458816804667, 0.07752166951281449, 0.056281399487524725, -0.12132955623119553, 0.10603741601967498, -0.10657113367388672, 0.06559993320585208, 0.1789800279574903, -0.0725032831383629, 0.05188808975206046, 0.06767625865745157, -0.07848266011781266, -0.11802786301078301, -0.10804358600722942, -0.03197584788968369, -0.08917466447579384, 0.08668314268489515, 0.06422174584211401, -0.00447740316552616, 0.030544576077323207, -0.20536196916465474, 0.0708330705860293, -0.03851006673756665, 0.21142921313117521, 0.10133208020519732, 0.15987346969352792, 0.11946819493648082, -0.11889149474485586, 0.04635694116127554, 0.0549444151647408, 0.08756087374674233, 0.0712744603410278, 0.059408952266373966, 0.0454186995537317, 0.043809711606084586, -0.07461608683296725, -0.021876637936914824, 0.08839331144760351, -0.051867098710202356, 0.018426744729116522, 0.08970180940494647, 0.14036229006450415, 0.05037844344667449, 0.15166131862013457, 0.2318029175433125, 0.09658846530061956, -0.08721918738315804, -0.030559551807521217, 0.04554468898093625, -0.14556914333921425, 0.005885982391830118, -0.04289609789286268, 0.005389565632701837, 0.061753206209483345, 0.05124396157267194, 0.04276408500783986, -0.09444557083017886, -0.25455206137476005, -0.0756091070556541, 0.13395181721489421, -0.01587880350738265, 0.05617147286658909, 0.022931782453730443, -0.04393685560429191, -0.07084796343892907, 0.08353618812897724, -0.06717327352580567, -0.0021891702320023954, -0.09492391611435774, 0.07952229853594768, 0.07830288330668711, -0.14036807492806483, -0.09620311828664838, -0.10023730101480714, -0.1114250969808013, -0.09215250744652978, 0.23860756933732036, 0.2296294410724053, -0.09074897839673296, 0.014707834404559205, -0.14044763853371212, 0.08453578084374129, -0.1365496539562175, -0.07321552995184573, -0.1319250385642562, -0.04553001896641123, 0.024883394688835315, 0.008181794755961872, -0.032959612653381806, 0.04772198219830871, -0.1125538895609933, 0.06068547486423712, 0.061124132936485186, 0.03303966061759023, 0.07463618202404913, 0.062419670830576146, 0.11519593673277136, -0.08732496921582451, -0.0803452764863505, 0.020546531079687035, -0.11961417247416865, -0.014755570099508742, -0.04651925909744516, -0.024524117807184952, 0.14442764394236446, 0.05118053373272158, -0.07224932832732023, 0.07416480287200045, 0.029702605754637994, -0.12908260646738054, -0.158730082617739, -0.2424825145297537, 0.07399045477971665, -0.06282190998409447, 0.12982248036358437, -0.08896960403272744, 0.09972566371410058, 0.12341720499843203, -0.026583758878625303, 0.017400614089347673, 0.0412101005524132, 0.12202946928386091], [0.1201511296045818, 0.08809401555945993, -0.009275717283806075, 0.13059282976506006, -0.05392245256644748, -0.01199746042434721, 0.12760831948676457, 0.1043089830663776, 0.03883678352793979, -0.12468307042965594, 0.007286774839452785, -0.07398143054824309, 0.021140102048753016, 0.020479104515966164, 0.029635021960481105, -0.050514961219111684, 0.06929922989544496, 0.08278388921611617, -0.011764304981129231, 0.02500966537897509, 0.11087131037315559, 0.05501337303204927, 0.1116972435581289, -0.1477565261883768, -0.009987764123785468, -0.04552512211759745, -0.053878638028992995, 0.05016621817177429, -0.01876590887480648, 0.08631145285637241, -0.01189051112932669, -0.051390486462770064, -0.012527625913798619, 0.18098387907447125, 0.08793369627092798, -0.01569023538391426, 0.10889391454671923, 0.013112697514725984, -0.07751691654698445, -0.01660938171077925, 0.04580665645010493, 0.006142128617790253, 0.057117146297743726, 0.08669374310076211, 0.05457600264877119, 0.08215395011131287, -0.05892128812163418, -0.05780281357675886, -0.06798304979138485, 0.03742603393797789, -0.005310598270090062, 0.0020788213438404242, -0.03645242688681055, 0.003874249799115597, 0.02904665432581406, -0.04495468943794488, 0.02036356585374157, -0.05447809426663328, -0.017141590054167766, 0.01720876695178686, 0.03812549460572864, -0.054357521837825065, -0.010174857135526792, 0.05170619638284393, 0.05331807927875181, -0.0039181761788774005, 0.0982095555163435, -0.13182668358980767, 0.009726358467128392, 0.14174384085155928, 0.09130429213957203, 0.18757377274749062, 0.22701927063703384, 0.10368848944984049, 0.03200062781927813, -0.02279676706105702, -0.04549758317816394, -0.05888114349298021, -0.016357506172424603, 0.04047221078360346, 0.008454363232941338, -0.09135428226881262, 0.0015099480756751884, 0.10974433907792752, -0.13369174006901546, 0.07557577878374651, 0.04862618935641205, 0.05690811516295627, 0.07625648693982703, 0.030970609855197, 0.08555992080927835, 0.13435850889571907, -0.053309602973570284, -0.08883908136087099, -0.1050276879248749, 0.08779066785714316, 0.10155147469875468, 0.04840673997613491, 0.04230451957176328, 0.036263542716249986, 0.044898387527581136, -0.018855443790622983, 0.07575625523077435, 0.0836280166245648, 0.06468996803795021, 0.02139676355229136, 0.049135379092548226, 0.03829548185092784, 0.043060401933409764, -0.12096178645379262, 0.07539993678547181, -0.0843481407711384, 0.05986468440207932, 0.08065116923928485, -0.12685580654874182, 0.05263168124334631, -0.09100807253355613, -0.005196664003509139, -0.060949452501111105, -0.0337198990139424, -0.19292304108031244, 0.048119619389743705, -0.020104617978999404, 0.008784208881226423, -0.0936946227497814, 0.007686920628097005, 0.10921218917450595, 0.06941206031097903, 0.033385591623143744, 0.05339396086174139, -0.17398578564082398, -0.043850100697388567, 0.10720306356764807, 0.08003381405975804, -0.049102779330069686, 0.18656275424225802, 0.031418554587315156, 0.10854887199304458, 0.07900549574727432, -0.01758525987712478, -0.03859388568374542, -0.13294109702966045, -0.06258297914029004, -0.10507239375934538, -0.16184565988852362, 0.04961345723730715, -0.11516982900669161, -0.02801932561263639, -0.040652407478781266, -0.12814827455137384, -0.07320791893028918, -0.015880776492402167, 0.22686208661439097, 0.0668096132853774, 0.07793678003356085, 0.020726211376912555, -0.10718718785388884, -0.038339656241816254, -0.10540342091573786, 0.018035006236819917, 0.022482089668550625, 0.004587229315213843, 0.152506700835457, -0.01795694128485826, -0.0004535517113382203, 0.0828834186097814, 0.17293117104499747, 0.11424378864971338, -0.03899352727809819, -0.010605116856219933, -0.04313870519985874, -0.012946126537001517, -0.03137571283940259, 0.15663285479132127, -0.012685790726094437, 0.20453130607725137, -0.029351059173158528, -0.08976319161714115, -0.05909869502999739, 0.08764197336395635, 0.05913815967348104, -0.05319312721947339, 0.16802533341785403, 0.016904287886153523, 0.0031112098927954276, 0.0632690570131837, -0.055054155332601516, -0.03629929519937758, -0.09417369531823395, 0.08928554276312392, 0.018710592956220656, -0.06253694826106126, -0.17000813857206556, -0.09432971701045215, 0.08276402015838902, -0.06590652591222021, 0.05150945317161204, -0.006703840771655725, -0.09247938711714432, 0.006977961028721196, -0.026421766635285712, 0.021796983525079215, -0.1472297274474031, -0.03202019028523494, 0.04843480037855288, 0.049650088820158006, -0.07298874384258926, -0.06922467259095313, 0.025295434817322854, 0.055063947784484674, -0.010619967646867755, 0.1827657804164646, -0.07784518989235635, 0.04948466118847974, 0.027575499429359416, 0.00269143172304473, 0.008408820078099885, 0.010012385540875383, -0.1389484762535527, 0.10275713507337829, -0.03803582443717291, 0.0927299802928206, 0.11856993896582409, 0.1311058330482254, 0.14742995778490048, -0.024148872249178558, 0.045426121017706725, 0.09601041454838886, 0.11032156248112628, 0.030382302556607028, 0.07127713146233153, -0.09907841883946496, 0.056824518253758394, -0.10032448244965546, -0.01004879777154567, -0.06738857906816116, -0.036548565113652044, -0.04364849385476863, -0.09301112125960455, 0.0102506562290508, 0.06603194650800256, -0.054721610119217876, -0.1277133396897791, -0.0008668757769742754, 0.053228809381625684, 0.02897776796801925, 0.07734322676917997, -0.0910818509162693, -0.032776860118588415, 0.10978796122705411, -0.05112594224400351, -0.03026438939825902, -0.13093643527655063, 0.004349573823336249, 0.0198283737025354, 0.10854519360824776], [-0.08195521296132098, 0.04189701537192999, 0.041725584708088466, 0.1479044236250589, -0.1319352738383339, -0.031275063057894126, 0.002191776209693451, 0.025116613263453633, 0.10786164957547059, 0.04515811599398555, 0.030991994737114337, -0.01585100799829479, -0.04179079122482585, 0.04410745887327096, 0.10667474127855996, 0.04295484850810825, 0.11530305057728106, 0.06694010274281896, -0.0831064130967317, -0.09155683934036991, -0.1302107578585077, 0.013395290742908747, 0.16941932179296673, 0.11392099285014477, 0.038805972241960134, -0.0739903242382927, 0.16091884036743512, -0.06701087804684824, 0.10688642196266307, -0.049254411200642605, 0.08883849740835768, -0.11635253640161544, -0.08097436113765658, 0.08460775049514371, -0.07035798229728782, 0.06412338349984698, 0.03323748104469604, 0.05475211637577647, 0.037361445415524025, 0.10136731845430311, 0.08519131449896164, 0.08240711782720511, 0.16652079720869956, 0.2437055524925967, 0.032290717592549895, 0.14227017865651082, 0.11055926410673708, -0.07999957423598332, -0.071292276896508, -0.06703008209897088, 0.05771487283816359, -0.0312733380225873, 0.054856663510783624, 0.1860893967954084, 0.12741462863846198, -0.039457719105645085, -0.14774406077760727, -0.1979906069094811, 0.06100425085321532, -0.0800047436895293, 0.030955010292765966, 0.10131759821744622, 0.06073409345027446, 0.018905411051746215, -0.005364013593087479, 0.08643288839172751, 0.11424917984276904, 0.07807704293076341, 0.1420453832008984, -0.07131692403729396, -0.01478329684689939, -0.11903294645621026, 0.013842791031270826, -0.09045128666819194, 0.016564296774328333, -0.003552897223769517, 0.046761070544254206, 0.12804366478575718, 0.02077919329219613, 0.09203688885411553, 0.19362453619771824, -0.0367933477839907, -0.13540574466582914, -0.1630070413934822, 0.00528604281170988, -0.08140648852441969, 0.15985257755710033, 0.28884524295257463, 0.021569695564621322, 0.019809283324378726, -0.13454875735586397, 0.16170403384054644, 0.1001568123428397, 0.03760596279258128, 0.11584741646655776, 0.014128789256601219, 0.06935135047921967, 0.1505672202904599, 0.15441525515775958, 0.0084109203729479, -0.11334068381019398, -0.011156840842395706, -0.04297131312890867, -0.03261106864188726, -0.044047053569810785, -0.17632175875346132, -0.07998793689231133, 0.07233170344943088, -0.05424696934900662, -0.05067810550048098, 0.18537820561760096, 0.039941343054450094, 0.046779858075293654, -0.16790732258287808, -0.0735763507727684, 0.00019595960961136215, 0.12597612337025552, -0.17678720286435087, -0.07184318991237498, 0.04038775681511178, 0.05381171303084152, 0.09156747944065707, -0.029752924958127345, -0.017836828931830417, -0.13456256166707967, 0.1845672717934088, -0.019358621372614567, -0.1545406902379426, -0.1084242094476534, 0.0647044444788793, -0.08686400192397471, -0.0348752986614737, -0.036142573921490485, -0.029616113501452924, -0.1443053406787997, 0.07344241710321465, -0.08018998565727352, -0.01748063481658882, -0.08926431708632118, -0.048903264742598464, 0.024444172369726028, 0.0028811399652784084, 0.05520115381817023, 0.03142438766310113, -0.08697195686605447, 0.07333361756719521, 0.15097579165498468, -0.23336936295013594, 0.10106797743376554, 0.0044069072231322625, -0.06410232804772614, -0.09208248935364136, 0.07504576628450833, -0.1687027633429627, 0.024546007533392623, 0.03736985250549361, -0.0032372662537606955, 0.08377709348894298, 0.03613591987640966, 0.06861150657454657, 0.0075966520622570465, 0.027701237762069498, -0.008211361850786863, -0.09400865588135406, 0.11108589896947793, -0.019753582157491865, -0.004216974082923303, -0.09872664740392469, -0.0783811307232996, -0.1357308863386394, 0.05821105748302576, 0.09464207938581651, -0.04844332967560856, -0.14440620609267812, 0.18688844645619318, 0.05379718530374941, 0.003004092531172615, -0.15923744528813985, 0.05016096729634672, -0.050922443439735864, 0.00935495384434147, 0.02171156467572998, 0.01776193280523699, -0.08154496854310044, 0.1520938395406997, -0.04302275376676401, 0.17494474211273126, -0.029693196094683554, -0.02421373608657167, -0.21061754263351642, -0.08286152096915243, 0.002944876978635312, 0.0901442666076307, -0.14451043893810336, 0.04131513268823732, -0.130630618093766, 0.1566127630702063, -0.04724574973099505, -0.0004575016266214276, -0.17506398632284909, 0.05306806672338888, 0.02296443312481667, 0.09582433939168862, 0.10481543664148239, 0.005838233469728187, -0.09212135753520898, 0.055563430128076775, -0.04350354378061936, -0.10541196061534688, 0.1549684402754582, -0.05786021936552433, -0.14736599101009323, 0.16607771093766152, -0.04189725176325798, -0.04708390729149799, -0.15676001526161734, -0.14222336383007836, -0.09526198457657453, -0.0759362957755786, -0.1131901926287888, -0.013535021438030351, 0.12145815663362378, 0.06503734220837602, 0.044519233772751035, 0.09838954371500828, 0.06698502239613782, -0.1328614240559135, -0.08207580779089459, -0.04356527207253534, -0.07757029128067099, -0.18386296620890358, 0.008156865321981335, 0.05491522485989916, -0.008029728951702602, 0.02770234538711816, -0.033434232734506304, -0.036734369739112066, 0.09212236928950773, 0.032056557158831746, 0.038686199656916824, -0.14899011107346902, -0.1869334746579919, 0.05959908121133722, 0.006291539375458194, 0.05980666522688479, 0.034957853197804714, 0.10811219369671721, 0.028784001053282403, -0.18218610457235243, -0.10921727867118931, 0.038397581420173264, -0.20027565371766018, 0.22740904222904948, 0.15533889366211306, -0.18520037741971865, -0.1440805363541177], [0.11204981029716025, 0.0671933670006641, 0.15407331962125295, -0.11406427318491136, 0.14069694546261924, -0.048064026147414805, 0.03271570380137233, -0.007482309351125737, 0.153939547635693, -0.07996139302506042, 0.031211467603695763, 0.00876653752381205, 0.07319739632406805, -0.043531952066765994, -0.13118647523855687, 0.18583904043346158, -0.11754448906465416, -0.08873571466409534, -0.096373833877821, 0.052483490544463926, 0.057696089037979875, 0.02616303119711033, 0.0764615820346637, -0.06942024710409331, 0.05165444072215725, 0.10518926427189237, -0.07874338382764616, -0.02628338278649734, -0.20379893976241917, 0.000410708979428376, -0.00512389606890846, 0.07915417510047441, -0.20960274361554163, -0.19328874944504618, -0.03567009300164679, 0.08491801637545951, 0.05999127065813434, 0.03551003277042965, -0.030717037383105123, -0.1481097789734589, -0.1332345000821128, 0.030139038266591315, -0.025541136463199682, -0.0012742922096844573, -0.09259221972892988, 0.04604102683082888, 0.10502838012406968, -0.24905610688880034, -0.08961957700182008, 0.09722908798549097, -0.022552569670303155, -0.0135832548236369, 0.028773498107105375, -0.04464887636205158, 0.28495418303111386, 0.012301099270722772, 0.08492200845981425, -0.048972938830791686, -0.07001980533784553, 0.07238364999974861, -0.07057806550864035, 0.0050159354875807605, -0.014975091564713086, -0.09734580201822875, -0.15973312889067456, 0.0872359125282334, 0.006663376111619057, -0.003784209280609006, 0.09531802987406691, 0.09740993501747386, -0.13195450294528707, -0.017008566086298922, -0.044590855477990736, 0.056319801976060756, 0.2130377046952333, 0.03612661204162038, -0.005035411070843635, -0.017529243330536327, 